tree
version=v3
num_class=1
num_tree_per_iteration=1
label_index=0
max_feature_idx=22
objective=lambdarank
feature_names=candidates candidate_scores aid_count aid_session_nunique aid_type_mean aid_hour_mean aid_hour_std aid_day_of_week_mean aid_day_of_week_std aid_ts_ratio aid_click_count aid_cart_count aid_order_count click_last_week_occurrence_ratio cart_last_week_occurrence_ratio order_last_week_occurrence_ratio session_count session_type_mean session_hour_mean session_day_of_week_mean session_click_aid_nunique session_cart_aid_nunique session_order_aid_nunique
feature_infos=[3:1855594] [0:165.07084655761719] [1:99786] [1:56024] [0:2] [0:23] [0:16.263456344604492] [0:6] [0:4.242640495300293] [1:1.0014579296112061] [1:94324] [1:11486] [1:3895] [0:1] [0:1] [0:1] [1:355] [0:2] [0:23] [0:6] [1:299] [1:62] [1:28]
tree_sizes=7254 7248 7247 7282 7209 7252 7276 7246 7236 7259 7237 7244 7255 7225 7245 7228 7249 7261 7251 7242 7238 7302 7247 7226 7259 7276 7242 7324 7246 7275 7265 7257 7285 7275 7234 7250 7259 7240 7261 7262 7250 7260 7268 7256 7232 7254 7278 7267 7328 7237 7321 7246 7246 7259 7234 7238 7234 7231 7245 7224 7248 7251 7251 7242 7248 7286 7232 7331 7282 7212 7213 7236 7230 7191 7255 7211 7248 7253 7254 7222 7257 7225 7227 7236 7211 7239 7216 7213 7210 7256 7176 7195 7193 7188 7171 7277 7244 7179 7282 7202 7221 7230 7154 7236 7212 7214 7152 7125 7232 7203 7278 7229 7281 7175 7182 7180 7130 7194 7213 7244 7300 7149 7235 7258 7275 7189 7179 7174 7099 7201 7146 7134 7206 7167 7313 7227 7161 7220 7195 7120 7207 7128 7114 7163 7120 7203 7239 7132 7121 7160 7161 7126 7190 7156 7237 7125 7275 7141 7240 7247 7199 7124 7156 7150 7188 7175 7190 7168 7174 7222 7191 7223 7077 7190 7082 7194 7133 7073 7179 7108 7100 7141 7211 7207 7108 7190 7172 7108 7104 7181 7215 7224 7178 7107 7257 7241 7162 7188 7214 7231 7201 7107 7038 7086 7148 7057 7066 7013 7215 7207 7079 7196 7107 7227 7126 7039 7182 7097 7133 7098 7159 7211 7137 7104 7163 7229 7175 7180 7166 7199 7025 7172 7111 7056 7151 7078 7168 7021 7207 7082 7130 7054 7124 7043 7038 7173 7212 7062 7130 7191 7201 7030 7080 7184 7234 7233 7180 7207 7191 7171 7078 7171 7094 7128 7094 7046 7185 7185 7028 7048 7149 7204 7081 7175 7046 7120 7165 7128 7010 7115 7191 7116 7073 7200 7018 7194 7088 7040 7208 7119 7225 7083 7098 7145 7090 7155 7111 7191 7157 7038 7097 7090 7175 7070 7042 7145 7040 7105 7103 7161 7113 7124 7151 7132 7185 7031 7107 7069 7172 7212 7127 7128 7087 7081 7068 7154 7179 7157 7112 7152 7098 7146 7084 7040 7056 7152 7049 7061 7177 7147 7111 7188 7178 7157 7057 7193 7027 7123 7193 7050 7148 7145 7067 7164 7090 7156 7076 7024 7145 7050 7167 7128 7161 7171 7137 7207 7155 7052 7137 7015 7013 7172 7146 7177 7127 7124 7165 7159 7164 7179 7211 7218 7121 7150 7149 7082 7137 7101 7179 7154 7095 7072 7014 7138 7109 7156 7143 7124 7135 7120

Tree=0
num_leaves=64
num_cat=0
split_feature=14 1 1 20 1 1 21 1 21 21 16 20 14 21 1 21 4 1 1 4 20 4 10 1 3 21 10 21 16 16 1 16 21 21 13 16 10 4 3 20 20 1 17 16 14 16 20 16 16 1 16 16 1 1 1 10 4 21 1 1 1 13 1
split_gain=23915.8 99395 34815.3 4267.12 3784.07 2923.66 1821.38 1465.73 1092.71 674.764 440.285 345.155 234.561 281.569 230.538 315.985 227.129 769.377 364.44 180.88 172.18 170.267 156.66 138.788 128.099 123.383 112.182 111.872 106.847 99.1339 96.5771 95.8944 89.176 74.5491 73.8581 72.2712 67.583 67.4668 62.6581 58.9432 56.844 54.682 54.2243 53.5344 48.1692 48.1002 46.8945 45.8205 45.7775 45.0491 43.1935 42.1215 40.5953 40.5831 40.3589 38.8236 38.35 52.2701 37.5115 37.281 36.8294 35.6514 34.6823
threshold=0.027795336209237579 1.0000000180025095e-35 1.0000000180025095e-35 19.500000000000004 3.1282963752746586 1.9971756935119631 14.500000000000002 2.0121523141860966 16.500000000000004 11.500000000000002 9.5000000000000018 19.500000000000004 0.0032953311456367378 1.0000000180025095e-35 1.0008746981620791 1.0000000180025095e-35 0.14837116748094561 1.1471398472785952 1.9971756935119631 0.31079311668872839 6.5000000000000009 0.17516496032476428 107.50000000000001 1.0608283877372744 421.50000000000006 1.5000000000000002 413.50000000000006 1.5000000000000002 1.5000000000000002 7.5000000000000009 6.0167899131774911 3.5000000000000004 1.5000000000000002 2.5000000000000004 0.017284470610320572 5.5000000000000009 289.50000000000006 0.16621618717908862 196.50000000000003 11.500000000000002 17.500000000000004 0.98606500029563915 0.2356245890259743 4.5000000000000009 0.14741390198469165 11.500000000000002 2.5000000000000004 4.5000000000000009 10.500000000000002 2.9459991455078129 1.5000000000000002 9.5000000000000018 3.1282963752746586 5.9736335277557382 4.0127115249633798 532.50000000000011 0.17516496032476428 26.500000000000004 2.9459991455078129 5.7098040580749521 4.0127115249633798 0.083350788801908507 2.9459991455078129
decision_type=2 2 2 10 2 2 8 2 8 8 2 10 2 10 2 10 2 2 2 2 10 2 10 2 2 10 10 10 2 2 2 2 10 10 2 2 10 2 2 10 8 2 2 2 2 2 10 2 2 2 2 2 2 2 2 10 2 8 2 2 2 2 2
left_child=2 20 10 4 8 25 19 14 23 11 46 29 13 -12 56 22 18 -18 61 30 -2 31 43 -3 51 -5 35 -21 44 38 33 -8 37 -6 -26 58 -32 -25 -9 -15 -29 -27 54 -16 62 -38 -1 -23 -28 -39 -36 -11 -52 -40 -7 -30 -4 -58 -19 -33 -13 -10 -20
right_child=1 3 7 5 6 42 21 9 16 24 12 60 -14 39 15 -17 17 26 28 27 -22 47 -24 32 34 41 48 40 55 -31 36 59 -34 -35 50 -37 45 49 53 -41 -42 -43 -44 -45 -46 -47 -48 -49 -50 -51 52 -53 -54 -55 -56 -57 57 -59 -60 -61 -62 -63 -64
leaf_value=0.096203408919912275 0.096521022048943333 -0.091528891225095513 -0.093885115392748172 -0.015613387821149117 -0.05385825210456148 0.03024689278207178 0.016732136794043666 -0.033451167751012062 -0.085781371419642205 0.0073195430107056789 0.077439567431561621 -0.013748575425058699 0.07846842337648352 0.021904835238163101 -0.0049692199176508672 -0.086756569882253748 -0.069727663007499455 0.00053648533269924842 -0.045638402472713037 0.002312716815625589 0.086600492766074788 0.042949069643650875 -0.066218686933605164 -0.080256237296737934 -0.064757145004925507 -0.084530098175559176 -0.024231683415120546 -0.043826950876649444 -0.034773073010518234 -0.07825424732382584 0.01581281715862172 -0.030080718269984132 -0.084837914169794457 -0.076721432065986001 0.0032626596081662615 -0.030557266523525802 -0.028104101614621648 -0.070996845120663662 -0.072042791228791148 -0.019422248379425244 0.020433805617813272 -0.045715655410222891 0.054616565528632643 -0.049041406819300137 0.028698379904735227 -0.054828022534006531 0.083485871976517356 0.014449037316942196 -0.071281211626880711 -0.048498802130618621 -0.060695029644030944 -0.03039932544588525 -0.020525666672540219 -0.035027892608640414 0.081061987129267807 -0.061308045109805115 -0.092051565476796354 -0.076968518014375667 0.033089068488283302 -0.0015970045080048786 0.076118123426454257 -0.066676813456007455 -0.0092466625862348568
leaf_weight=1919.7616946207127 16588.030970620923 4798.6600515856408 7106.6615094575682 100.93883208907209 1029.1922288618225 41.597732235793956 587.82133527912083 227.58499685238348 1318.2986062832642 416.75009587081149 219.57859505567467 15.440476958407087 543.56897816451965 219.50933459756197 193.26759758568369 1856.6048708182061 1501.5666881034849 200.98081131005893 132.52151940891054 231.67106703686295 5939.8942851497559 506.22643048799364 508.88705892881262 939.62512915040134 145.77061231131665 410.68915101361927 548.34371229907265 492.93470012233593 183.9309805148805 1308.0444501274615 50.622455265605822 197.71578814723762 3013.6167480545118 545.52568603266263 111.38938982202671 115.77914839971345 282.81355421972694 506.83103384095011 400.02077664382523 142.1520189535222 36.996731015737168 116.47412424860522 389.35372274805559 107.08014973968966 44.330918714753352 416.12952774972655 1164.5868466493557 195.49096160015324 57.080543576972559 396.62508444883861 92.514447180205025 90.000564340210985 196.46232762146974 90.873637319891714 644.19747008907143 550.18016282765893 1616.8973837073718 890.88778343686135 158.12546189990826 274.1845317837433 43.576986235333607 299.71715307986597 129.39560044917744
leaf_count=56863 203946 417346 3604431 15671 84616 1468 231959 13374 1333157 163077 20309 539 11310 8839 113327 156321 963512 69482 154347 10627 97747 80563 441566 109509 101568 14696 248340 19803 107751 102087 1916 96093 197593 32744 77082 38429 17598 45536 32538 7927 1143 3902 8829 55732 30582 27762 53938 39968 25774 32607 70585 29174 81603 5578 10656 445385 125209 643553 31535 85496 830 267209 112993
internal_value=0 0.0205607 -0.0458155 -0.0564834 -0.0630342 0.0194493 -0.0246615 -0.0806085 -0.0755214 -0.0501141 0.081636 -0.066587 0.0548577 0.0327773 -0.0884019 -0.0753917 -0.057139 -0.0465765 -0.0673977 -0.0478175 0.0939053 0.0159056 -0.0493177 -0.0854981 -0.0174848 -0.0662572 -0.0143976 -0.0266701 -0.0443103 -0.0700583 -0.0547469 0.00325576 -0.0795394 -0.0617787 -0.0342844 0.00379492 -0.0399742 -0.0708759 -0.0551369 0.00566111 -0.0393406 -0.0759542 0.069519 -0.0206819 -0.0195016 -0.0440147 0.0914015 0.0350093 -0.0286676 -0.06112 -0.0231894 0.000620549 -0.0333857 -0.0651906 0.0779797 -0.0546597 -0.0920092 -0.0866933 0.0148704 -0.0135311 0.0526067 -0.0822425 -0.0276597
internal_weight=0 43974.1 19627.9 21446.2 19742.9 1703.25 4847.32 15418.7 14895.6 3138.43 4209.16 2085.54 1124.81 581.24 12280.3 2665.84 5240.25 2581.88 2658.37 3085.89 22527.9 1761.44 809.235 9655.36 1052.89 628.102 1080.31 761.602 1040.36 2026.52 2324.28 1059.72 4856.7 1574.72 546.137 474.885 749.566 1843.08 718.479 361.661 529.931 527.163 1075.15 300.348 306.248 698.943 3084.35 701.717 605.424 903.456 400.366 506.751 288.977 490.894 685.795 734.111 9614.45 2507.79 359.106 471.9 59.0175 1618.02 261.917
internal_count=11695650 5718290 5977360 5416597 5361375 55222 730288 5818174 4631087 678035 159186 154946 48385 37075 5140139 766946 3828496 1377072 2451424 196209 301693 534079 610625 802591 523089 34269 413560 31573 851058 153577 164636 413548 385245 117360 330838 139446 47276 187652 51490 16766 20946 18598 20953 169059 297922 45360 110801 120531 274114 78143 229270 192251 152188 38116 12124 553136 4373193 768762 101017 181589 1369 1600366 267340
is_linear=0
shrinkage=0.05


Tree=1
num_leaves=64
num_cat=0
split_feature=1 1 20 1 20 21 21 4 20 20 14 21 14 12 3 10 21 12 4 11 4 4 4 14 20 21 4 4 20 15 22 20 14 12 3 20 1 14 3 12 11 20 4 21 12 20 4 4 12 14 4 21 21 13 12 13 20 12 20 20 3 1 4
split_gain=313393 29837.1 11046.2 5373.76 4796.1 4141.91 2409.96 1955.46 1841.01 872.571 711.925 1634.2 628.664 775.255 643.496 619.078 613.383 500.076 458.201 454.786 427.638 401.223 383.069 337.623 329.311 327.922 312.016 308.882 283.333 271.845 278.307 262.725 242.873 386.93 284.25 236.874 337.319 236.193 234.758 1013.16 249.689 220.295 219.241 209.563 206.446 201.726 188.511 187.849 183.139 175.162 174.212 169.374 163.555 161.268 160.666 159.23 156.012 153.9 147.69 145.625 136.913 134.934 134.005
threshold=1.0000000180025095e-35 3.1282963752746586 4.5000000000000009 1.0008746981620791 18.500000000000004 30.500000000000004 10.500000000000002 0.099032267928123488 1.5000000000000002 9.5000000000000018 0.008424059487879278 1.0000000180025095e-35 0.16622103750705722 1.0000000180025095e-35 268.50000000000006 562.50000000000011 17.500000000000004 1.0000000180025095e-35 0.17013210058212283 10.500000000000002 0.13895753026008609 0.20732035487890246 0.23180313408374789 0.056086162105202682 10.500000000000002 1.5000000000000002 0.21211993694305423 0.24990241974592212 2.5000000000000004 0.074227120727300658 1.0000000180025095e-35 18.500000000000004 0.072939019650220885 1.0000000180025095e-35 56.500000000000007 19.500000000000004 0.99562260508537304 0.040451802313327796 319.50000000000006 1.0000000180025095e-35 17.500000000000004 5.5000000000000009 0.033341886475682266 1.0000000180025095e-35 1.0000000180025095e-35 21.500000000000004 0.10300089046359064 0.023151497356593612 4.5000000000000009 0.067916993051767363 0.22389476001262668 10.500000000000002 3.5000000000000004 0.076160758733749404 1277.0000000000002 0.083350788801908507 19.500000000000004 1440.5000000000002 20.500000000000004 19.500000000000004 95.500000000000014 2.0121523141860966 0.37511140108108526
decision_type=2 2 10 2 10 8 8 2 10 10 2 10 2 10 2 10 8 10 2 10 2 2 2 2 10 10 2 2 10 2 10 8 2 10 2 10 2 2 2 10 10 10 2 10 10 10 2 2 10 2 2 8 8 2 8 2 10 8 10 10 2 2 2
left_child=2 3 8 16 6 25 22 12 -1 27 11 -10 13 14 43 28 35 19 47 52 53 23 54 44 42 26 56 32 50 51 -31 49 33 34 -9 -2 -37 -17 -12 40 -40 -24 -15 -4 -11 -27 -41 -18 -39 -20 -7 59 -6 57 -3 -49 -5 -8 -30 -19 -56 -28 -22
right_child=1 4 7 5 17 15 20 9 10 21 38 -13 -14 24 -16 37 18 29 31 -21 62 -23 41 -25 -26 45 61 -29 58 30 -32 -33 -34 -35 -36 36 -38 48 39 46 -42 -43 -44 -45 -46 -47 -48 55 -50 -51 -52 -53 -54 -55 60 -57 -58 -59 -60 -61 -62 -63 -64
leaf_value=0.089941515261123317 -0.085761251480708456 -0.042201893324978611 0.023945852371790487 -0.068525665267689467 0.071189407356995013 -0.018526907789534017 -0.015650259610607141 0.026136477685859302 0.070373450515005834 -0.054624851353871955 0.078295157157631495 -0.0017832474397049152 0.047901209504282158 -0.0052232479876222083 -0.085229633295241913 -0.054280308492921828 -0.088327642309506058 0.0090497264804484893 -0.069775512579783525 -0.086926942327029535 0.0040944513393043223 0.048253588695555093 -0.013681809577041482 0.039771974415825369 0.0079420596651764413 -0.075233496636404884 -0.056879823804736107 0.06480682225872765 -0.035145297751299182 0.049749191163449231 -0.01964854756208562 -0.0081251249160781414 0.059311837240942855 0.047119508180265737 -0.098215358686966903 -0.072780862287150444 0.022669835116643274 -0.081963572009169372 0.054293795698245287 0.063290018171872603 -0.086379351336930532 -0.03756872814911686 0.036429493935154628 -0.019507454885011127 0.018437977840900895 -0.040907188899104718 0.074196078490318312 -0.077887385141439253 -0.030940818556754564 -0.051254189236268656 0.0048054866450315701 0.027707870185902841 0.00059788381778726391 0.0077468437836495574 -0.021420110016451006 -0.060190447578569062 0.0046311757721372122 -0.06286685367572499 0.03809567366267759 0.052349378408795028 -0.084089033878326697 -0.034992251621128082 0.026392628586036415
leaf_weight=20303.445002641529 31799.869318736251 6245.6047811233439 517.09508413635194 5854.6102630414534 98.774340391159058 2195.7335637090728 3485.2629693634808 110.62614036351442 3021.9263125583529 101.26857730001211 15524.369104503654 1059.8880798742175 2214.8860767986625 343.99667122401297 271.28652080893517 2389.1319774163421 3879.1428412669338 209.9145167877432 4944.0432724109851 143.07472096942365 4074.6096626140643 6803.7001743260771 2085.4058461086825 3672.0065315412357 1896.8240404403768 10978.806805217406 1652.5168477278203 7479.14304909762 2177.6589891240001 231.55592532322044 384.12610219884664 209.47984351334162 5575.9778206166811 5866.5591213786975 78.61120495852083 1971.1857189123984 97.12018215842545 186.10493689309806 41.897093579173088 5509.4924531243742 127.65396528877318 1796.897967961384 3870.3073081318289 598.74228574475273 2135.4627230027691 445.36670728889294 14108.848289517686 9563.9319889952894 3198.153239951469 1720.8722801916301 1258.5807580593973 1381.0604608529538 484.72948072222061 729.92056275159121 110.23757216287777 1465.8832034245133 73.794946169480681 181.56998458364978 71.077592329122126 2590.7257767774863 416.17483886587434 1226.9775352156721 807.27727418299764
leaf_count=92945 901741 175203 15733 224552 329 360472 407002 1230 38276 1505 34666 4736 9933 7437 6735 632475 1628362 3671 1124812 1054 222587 21489 31587 12886 19691 312403 48962 18744 370832 1525 1093 5521 15339 25177 718 30232 878 105587 922 38700 4280 39070 30492 7707 12926 5735 38657 2954129 611013 340526 86515 10639 2137 68667 2639 395452 1049 43398 2023 9159 17260 31511 21429
internal_value=0 -0.0572439 0.0639339 -0.0711244 -0.00961009 -0.0546957 -0.0210349 0.0441334 0.0777108 0.050127 0.0714072 0.0516372 0.0244965 0.017583 -0.0161624 -0.0307019 -0.080485 0.031616 -0.0739397 -0.0070406 -0.00240509 0.0399756 -0.0372593 0.0304439 0.0252427 -0.068306 -0.0610564 0.0568796 -0.0190177 0.0374706 0.00645171 -0.0632604 0.0517824 0.0448496 -0.0255206 -0.0846948 -0.0682988 -0.0422438 0.0736925 0.0700815 -0.0516182 -0.0247377 0.0330295 0.000629433 0.01513 -0.0738953 0.0711333 -0.0788638 -0.0337466 -0.0649933 -0.0100257 0.0420376 0.0125475 -0.0137159 -0.0444378 -0.0755354 -0.067615 -0.0179883 -0.0328303 0.049104 -0.0709654 -0.0475533 0.00778172
internal_weight=0 112817 101234 87360 25456.9 31708.5 19933 41536.5 59697.5 31823.4 39394.1 4081.81 9713.14 7498.25 1387.12 11476.4 55651.5 5523.96 21783.4 726.579 9278.64 12712.4 10654.3 5908.74 6111.13 20232.1 8807.9 19110.9 5703.05 4797.38 615.682 6874.4 11631.8 6055.8 189.237 33868.2 2068.31 5773.39 35312.3 19787.9 169.551 3882.3 4214.3 1115.84 2236.73 11424.2 19618.3 14909 3384.26 6664.92 3454.31 4181.7 583.504 4396.75 6772.02 11029.8 5928.41 3666.83 2248.74 2800.64 526.412 2879.49 4881.89
internal_count=11694155 11233231 460924 10174782 1058449 2793129 1028842 207742 253182 110014 160237 43012 97728 87795 30175 2168917 7381653 29607 6448802 3520 763083 48806 265759 27317 57620 624212 306074 61208 819842 26087 2618 1470859 42464 27125 1948 932851 31110 1349075 117225 82559 5202 70657 37929 23440 14431 318138 77357 4977943 716600 1465338 446987 23469 2466 519067 195102 3349581 225601 450400 372855 12830 19899 80473 244016
is_linear=0
shrinkage=0.05


Tree=2
num_leaves=64
num_cat=0
split_feature=1 1 20 20 21 1 21 20 20 14 1 16 14 21 17 14 21 10 4 10 4 4 4 21 10 20 3 12 11 3 12 11 13 16 4 14 16 21 4 15 20 16 10 4 20 20 4 15 16 17 15 10 4 16 12 10 13 1 16 14 10 1 16
split_gain=242446 21802.6 7169.34 5514.67 4254.94 1504.73 1575.23 1258.88 942.094 846.553 740.694 657.304 516.713 587.534 461.745 440.737 365.579 330.852 330.553 320.965 297.596 290.417 276.459 249.737 249.072 230.541 225.144 513.837 236.785 204.185 305.223 310.154 196.046 190.641 177.932 175.196 174.977 174.079 173.333 167.955 165.654 159.636 158.386 150.401 149.164 139.938 136.679 135.933 128.351 125.452 125.323 124.097 122.89 121.552 119.622 114.477 113.592 113.505 106.771 106.019 105.514 105.025 100.102
threshold=1.0000000180025095e-35 2.0121523141860966 3.5000000000000004 19.500000000000004 10.500000000000002 1.0008746981620791 30.500000000000004 7.5000000000000009 1.5000000000000002 0.019320926629006866 5.0091147422790536 7.5000000000000009 0.011640224605798723 10.500000000000002 0.082903780043125166 0.052652267739176757 14.500000000000002 397.50000000000006 0.25684642791748052 397.50000000000006 0.24591056257486346 0.078329522162675871 0.12750947475433352 6.5000000000000009 1168.5000000000002 19.500000000000004 59.500000000000007 1.0000000180025095e-35 26.500000000000004 65.500000000000014 1.0000000180025095e-35 16.500000000000004 0.01198117481544614 4.5000000000000009 0.046541715040802963 0.12522401660680774 11.500000000000002 4.5000000000000009 0.052641475573182113 0.12115293741226198 20.500000000000004 8.5000000000000018 3174.5000000000005 0.12502106279134753 19.500000000000004 2.5000000000000004 0.14695065468549731 0.066207021474838271 5.5000000000000009 1.1520737409591677 0.0088574029505252855 23.500000000000004 0.15558098256587985 4.5000000000000009 1.0000000180025095e-35 595.50000000000011 0.052499298006296165 5.9736335277557382 2.5000000000000004 0.083424910902977004 251.50000000000003 3.1282963752746586 1.5000000000000002
decision_type=2 2 10 10 8 2 8 10 10 2 2 2 2 8 2 2 8 10 2 10 2 2 2 10 10 10 2 10 10 2 10 10 2 2 2 2 2 8 2 2 8 2 10 2 8 10 2 2 2 2 2 10 2 2 10 10 2 2 2 2 8 2 2
left_child=2 5 8 4 10 14 40 12 -1 16 11 19 13 -4 21 18 -9 33 32 -3 26 -2 62 -5 -12 35 37 28 -28 39 31 -31 -6 56 -10 -23 42 -11 -29 -14 41 60 57 -16 48 -36 -21 59 -19 -45 -26 -49 -32 -24 -25 -13 -8 -34 -48 -22 -7 -44 -17
right_child=1 3 7 23 15 6 17 9 34 20 24 55 29 -15 43 22 -18 44 -20 46 47 25 53 54 50 -27 27 38 -30 30 52 -33 36 -35 45 -37 -38 -39 -40 -41 -42 -43 61 49 -46 -47 58 51 -50 -51 -52 -53 -54 -55 -56 -57 -58 -59 -60 -61 -62 -63 -64
leaf_value=0.083372755774664686 -0.076575761731912426 -0.019692773995428015 -0.0022881808229421432 0.044585454715266176 -0.051066172364493928 -0.053252484407356193 -0.027004906915402416 -0.012270850185533798 0.053257863805096041 0.061267791836250134 -0.012891617803966166 -0.053401821788760295 0.069276985205020791 0.051352438417528047 -0.08233184147895832 0.0051938394769822918 0.032661683787449707 -0.044400903955262479 0.0062781558470889126 -0.055789023364232131 0.045094815867533958 -0.06740831686531025 0.017336795062498394 -0.018323352577389269 -0.053582503894524992 -0.032513762175576881 -0.0019366790612883435 0.0097302430985789484 -0.095577488996882398 0.041100730006214531 0.049721485769325141 -0.073070080355009212 -0.012465629089623967 -0.044758636191432416 0.07255622825274527 -0.045686328006282098 -0.048642166415810859 0.027815757488503502 0.036119820217744132 0.036890314460435204 -0.0375290274437549 -0.07557458324049933 -0.048597682772768505 -0.07558205958824056 0.017234448737669297 0.064893758234382509 -0.013119224719436294 -0.021916154964885595 -0.068999399068142897 -0.025893579842997519 -0.030124806158426339 0.036122636500773402 0.058235396856725311 -0.0037729892350792968 0.023343683432187803 -0.066174830513295951 -0.0032054641052682389 0.014258097767636632 -0.042458472939536869 0.057726057004500189 -0.068585177814197582 -0.020287030070688022 -0.01752329475861477
leaf_weight=17354.98177812621 7345.1514634341002 1633.240533970762 837.41724496800452 1773.9101149812341 492.84842689521611 1709.1091828742065 1113.6337778037414 1158.8982002683915 1807.1576971299946 1288.2918376661837 1752.9788852110505 2921.2561347493902 3844.457287106663 1307.5964896399528 14394.204416342429 698.76973769813776 742.86859174259007 2409.2926059653983 1388.365773097612 1886.0043711476028 4178.2649477329105 10473.146486141253 2588.3540268009529 184.46147017169278 806.41974386526272 555.88320664456114 224.78783810138702 669.87585714552552 96.486737124389037 163.96482040733099 7487.2241546423174 93.352158379741013 2495.9168944442645 828.64688183087856 14973.382225044072 1018.5223551602103 429.69176683761179 557.06771389953792 8749.5137089453638 446.84228895045817 411.38195241661742 5701.0853744931519 428.12073093373328 14652.641060364898 85.23743930272758 9896.8615119028836 375.01111153420061 104.87221845984459 679.96368363825604 128.14113438338973 1937.0044549836311 756.30032226443291 9767.5608205469325 925.84201702219434 2602.5125174132991 4390.7099811394 911.92014734167606 472.56943883560598 1791.4180364231579 2757.631503966637 3266.6430284585804 1395.115771247074 1584.5730909355916
leaf_count=92668 3215150 33588 7458 8324 101924 51160 204549 16226 30767 3151 32986 88690 8568 25227 487500 116781 22472 675195 83131 62819 10823 2972778 152150 1803 26940 17244 2516 10863 2783 1833 46093 3603 368249 158977 51698 254246 78222 3007 46632 1044 6756 209709 129780 432237 2170 37877 7533 248 201591 2572 49843 1804 27059 71636 13229 166155 130999 33432 43354 6189 112323 172110 254070
internal_value=0 -0.0532495 0.0599433 -0.0213476 -0.0290408 -0.0702265 -0.0574789 0.0459628 0.0743052 0.037115 -0.0451055 -0.0511567 0.0538265 0.030411 -0.0747192 -0.00725521 0.00528071 -0.0369083 -0.015605 -0.0384057 0.0402384 -0.0687395 0.00297418 0.0299203 -0.0276133 -0.0639618 0.035156 0.0321222 -0.0300593 0.0561301 0.0537349 -0.000319357 -0.0209218 -0.0245553 0.0684063 -0.0654831 -0.0180765 0.0511695 0.0342431 0.0659046 -0.0686633 -0.0698629 -0.0153355 -0.078694 -0.0480148 0.069507 -0.0459475 0.0477906 -0.0498152 -0.0751513 -0.0370201 0.0290548 0.054541 0.0117753 0.0205859 -0.0610718 -0.0162902 -0.00821133 -0.0373798 0.0501168 -0.0633186 -0.0269348 -0.0105712
internal_weight=0 100640 89265.7 34955.1 30394.2 65684.6 17116.9 45233.3 44032.4 21284.9 17494 12997.6 23948.4 2145.01 48567.7 12900.2 1901.77 6028.69 7102.63 5685.67 19383.1 19392.7 5797.54 4560.88 4496.4 12047.6 11586 9740.66 321.275 21803.4 17512.1 257.317 5714.26 2854.2 26677.4 11491.7 5221.41 1845.36 9419.39 4291.3 11088.2 10676.8 4791.72 29175 3174.49 24870.2 4052.43 7797.07 3089.26 14780.8 2743.42 861.173 17254.8 3514.2 2786.97 7311.97 2025.55 2968.49 2166.43 6935.9 4975.75 1823.24 2283.34
internal_count=11692514 11231905 460609 2096749 2073393 9135156 1753429 247599 213010 126714 511908 402139 120885 32685 7381727 1561485 38698 1373481 966848 147294 88016 6459418 594637 23356 109769 3244268 68952 62794 5299 88200 78588 5436 883717 494525 120342 3227024 781793 6158 57495 9612 379948 373192 703571 922309 878956 89575 113706 19064 876786 434809 76783 2052 73152 223786 15032 254845 335548 401681 50887 17012 163483 301890 370851
is_linear=0
shrinkage=0.05


Tree=3
num_leaves=64
num_cat=0
split_feature=1 1 20 20 1 16 21 20 14 3 20 4 20 16 4 21 14 14 16 16 21 16 21 21 4 12 1 10 21 4 21 21 10 3 15 1 21 3 4 15 14 4 10 20 20 20 1 12 1 1 13 4 4 4 14 22 10 14 4 0 21 4 13
split_gain=197848 17987.2 5084.02 2982.25 2958.4 2151.36 1903.57 1367.67 820.938 536.166 482.236 443.155 425.761 398.07 356.114 333.619 320.136 314.5 311.575 297.282 276.893 274.4 269.195 246.166 226.158 226.071 223.469 198.734 196.045 192.17 183.071 172.33 169.832 156.387 156.33 155.09 148.503 147.651 129.083 126.634 124.721 115.093 114.048 112.203 111.952 111.424 109.797 108.688 107.169 106.069 101.608 101.129 99.8937 99.1884 92.5501 90.6458 86.6385 85.5049 85.4337 82.8329 73.9666 72.3179 69.8218
threshold=1.0000000180025095e-35 3.1282963752746586 2.5000000000000004 19.500000000000004 1.0008746981620791 4.5000000000000009 10.500000000000002 6.5000000000000009 1.0000000180025095e-35 180.50000000000003 1.5000000000000002 0.37511140108108526 19.500000000000004 11.500000000000002 0.17013210058212283 1.5000000000000002 0.090810917317867293 0.052599407732486732 11.500000000000002 3.5000000000000004 1.0000000180025095e-35 1.5000000000000002 1.0000000180025095e-35 4.5000000000000009 0.13644825667142871 1.0000000180025095e-35 6.0167899131774911 642.50000000000011 1.0000000180025095e-35 0.072291810065507903 3.5000000000000004 1.0000000180025095e-35 331.50000000000006 89.500000000000014 0.0043010951485484847 2.9459991455078129 4.5000000000000009 1755.5000000000002 0.14288088679313662 0.066207021474838271 0.018484351225197319 0.028578853234648708 1585.5000000000002 13.500000000000002 18.500000000000004 19.500000000000004 8.0173201560974139 248.50000000000003 2.9459991455078129 6.0167899131774911 0.083350788801908507 0.35797215998172766 0.11852277815341951 0.23743592202663424 0.065961956977844252 1.0000000180025095e-35 317.50000000000006 0.048429599031805999 0.30070273578166967 372275.50000000006 1.5000000000000002 0.16621618717908862 0.064750149846076979
decision_type=2 2 10 10 2 2 8 10 2 2 10 2 8 2 2 10 2 2 2 2 10 2 10 10 2 10 2 10 10 2 10 10 10 2 2 2 8 2 2 2 2 2 10 10 8 10 2 8 2 2 2 2 2 2 2 10 10 2 2 2 10 2 2
left_child=2 4 10 6 14 9 13 17 15 22 -1 16 18 24 36 -9 25 29 28 27 44 48 35 -5 -3 -10 -15 -8 53 -4 -14 40 -28 39 47 59 -2 49 -27 -19 -23 -38 -42 -18 57 -22 -39 -29 -11 56 -43 -26 -35 -7 -12 -41 -21 -16 -30 -6 -53 -33 -61
right_child=1 3 7 23 5 12 19 8 11 21 54 -13 30 26 20 -17 43 33 -20 37 45 31 -24 -25 51 38 32 34 58 -31 -32 61 -34 52 -36 -37 41 46 -40 55 42 50 -44 -45 -46 -47 -48 -49 -50 -51 -52 60 -54 -55 -56 -57 -58 -59 -60 62 -62 -63 -64
leaf_value=0.078312927856308043 -0.077001053833146926 -0.039708537958941519 0.031235121521969545 0.050980677179426927 -0.037860773724481919 -0.048442690891366928 0.023517314571400751 0.019395297801104799 -0.055289129093951318 -0.036102355914206206 0.06161084139546838 0.056917343394311017 0.0030384149720141152 -0.056000957610273627 -0.061676003164863658 -0.027941322033949528 0.047911797200744455 0.06697979899918724 -0.070060779017823913 0.0052112365388892632 -0.070776615675790799 -0.060073890620373771 -0.037040701910921396 0.021009246292835335 -0.023454709694246081 0.02475381597025408 0.0034794644199649706 -0.01316532298216808 -0.063091673781345753 0.049826779975044894 -0.050883219889131553 -0.062786300821223523 -0.039503095918136777 0.048306704068678145 0.0059724519268640128 0.010318822370404936 -0.077549472414813539 -0.038192215746780153 0.036321679679108543 0.059433577869571458 -0.0204267777745256 -0.068934181769954014 -0.044297441237605775 0.034317011597891987 -0.0125682093969136 -0.049297567721768354 -0.0049685577625864846 -0.076122905954041642 -0.013601729244771495 0.0113163393167603 -0.053663560059134863 0.0081304362124855842 0.057690903891873514 -0.022197573586317201 0.069517362944943636 0.021679534796007996 -0.022551583461583136 -0.048669001650133846 -0.049310084004167198 -0.019327744741140712 -0.020329584369293212 -0.045442499303701978 0.0059885609473026482
leaf_weight=15691.134112402797 16164.93796747271 1927.0896471631713 1677.3811046201736 858.96235628053546 337.78063371870667 1436.7133791167289 1242.8959087096155 1174.802900868468 74.618039155146107 1031.4441975159571 7088.9209812590852 3382.783427644521 356.26480715442449 2466.2822493247222 3193.1394292237237 544.84151604957879 6247.2503157006577 5279.1871073693037 7236.028689610539 417.13024989748374 9246.2250520950183 466.21560364589095 1011.2383672324941 3384.6887737649959 2623.5585776655935 3821.2954429020174 278.93930413527414 730.22322017420083 5094.3202924767975 8110.2847173493356 282.0142605236033 1419.00392824132 1304.8869017916732 4234.3201943547465 2743.7341278474778 886.59407823160291 3441.633192517329 790.81461076647975 6537.017881385982 380.20587133057415 1090.7964844796807 7872.6309320466826 924.45450675301254 2004.8166529899463 148.90363922994584 645.97714795405045 362.74617897346616 75.655323371291161 1086.7990503627807 649.92103981156833 1264.2441175761633 524.5413410961628 8586.4822934176773 480.36801930423826 7745.0212083188817 273.24810602143407 861.14506704709493 2090.8333639465272 1443.0755325034261 717.32175594288856 404.23976240726188 1042.6592800761573 439.05013615079224
leaf_count=92773 601357 63734 35225 3932 68288 399979 71840 30465 3477 344535 43712 8465 7134 87517 932804 10089 25547 11989 437471 31948 304284 148156 28961 17638 60761 34852 3909 106132 202282 43026 4664 51434 40289 31575 224527 84821 1773695 125845 26697 1216 191240 2839151 259691 9721 4557 9769 34438 27600 238319 40024 383810 6789 25100 66298 25868 545 103915 532248 39411 132642 6512 30052 58419
internal_value=0 -0.0503963 0.0559859 -0.0105072 -0.0625839 -0.0494779 -0.0196712 0.0465262 0.037672 -0.0317665 0.0722025 0.0402649 -0.0608164 -0.0347027 -0.0705488 0.00439746 0.0372501 0.0539058 -0.0624448 -0.00147992 -0.0643933 -0.0396148 -0.0154281 0.0270758 -0.0259169 0.0314295 -0.046589 0.00631061 -0.0559264 0.0466406 -0.0207861 -0.0460669 -0.0319331 0.0576976 0.000285691 -0.00624802 -0.0738308 -0.0135952 0.0320542 0.0644097 -0.0367685 -0.0697566 -0.0313769 0.044609 -0.0553243 -0.069374 -0.0277448 -0.0190757 -0.024558 -0.00513002 -0.0668212 -0.0184352 0.0545916 -0.0418664 0.065739 0.0436464 -0.0134919 -0.0565292 -0.0600495 -0.0160784 -0.00425641 -0.0554402 -0.00971567
internal_weight=0 92498.1 82853.6 21647.5 70850.7 26782.1 17403.8 52328.5 23787.4 10453.4 30525.1 22067.8 16328.8 9529.54 44068.5 1719.64 18685 28541.1 15690.5 7874.27 15325.1 7061.37 3391.98 4243.65 5479.43 10432.9 4050.11 4792.51 8454.48 9787.67 638.279 4943.13 1583.83 18753.4 3549.61 2380.75 28743.4 3081.76 10358.3 5932.64 2481.47 12578.5 2015.25 8252.07 5432.88 9892.2 1153.56 805.879 2118.24 1928.2 9136.88 3552.34 12820.8 1917.08 14833.9 653.454 1278.28 5283.97 6537.4 1494.15 928.781 2461.66 1156.37
internal_count=11693164 11232822 460342 1057350 10175472 2793797 1035780 297989 149313 1636558 162353 108759 1157239 269511 7381675 40554 100294 148676 1145441 766269 1783662 1263427 373131 21570 137796 65026 131715 430099 707970 78251 11798 680573 44198 70425 358259 344170 5598013 336170 61549 13750 599087 4996656 450931 35268 1469609 314053 160283 133732 582854 175887 3222961 74062 56675 466277 69580 1761 135863 1465052 241693 259349 13301 81486 191061
is_linear=0
shrinkage=0.05


Tree=4
num_leaves=64
num_cat=0
split_feature=1 1 21 1 21 16 21 14 16 1 17 16 14 3 16 4 4 10 16 16 4 16 14 13 16 21 14 14 1 14 10 3 14 15 10 16 1 1 4 15 22 1 1 1 1 16 4 16 13 22 1 13 12 12 12 1 11 15 22 3 1 6 4
split_gain=165792 15078 1658.24 2989.11 1624.82 1560.56 1490.99 1190.37 713.018 568.416 444.301 1308.14 439.383 374.951 318.888 314.708 268.371 253.746 227.887 217.964 210.978 193.853 190.981 189.939 167.883 166.412 157.726 152.997 199.932 150.134 149.767 133.965 132.476 132.132 141.209 130.913 274.681 128.872 122.404 120.147 246.353 214.814 133.549 304.323 118.735 158.267 118.443 115.557 137.937 112.274 103.668 91.1707 87.8562 86.8069 84.233 84.0028 83.5643 81.9658 109.698 81.2721 79.6001 78.8679 78.6991
threshold=1.0000000180025095e-35 3.1282963752746586 30.500000000000004 1.0008746981620791 1.5000000000000002 31.500000000000004 13.500000000000002 1.0000000180025095e-35 11.500000000000002 1.0008746981620791 0.32392686605453497 4.5000000000000009 0.014888341072946789 313.50000000000006 1.5000000000000002 0.24591056257486346 0.17189214378595355 1168.5000000000002 10.500000000000002 8.5000000000000018 0.075172834098339095 1.5000000000000002 1.0000000180025095e-35 0.015348073095083238 1.5000000000000002 1.0000000180025095e-35 0.12522401660680774 0.012174909003078939 4.0127115249633798 0.015344150364398958 269.50000000000006 65.500000000000014 0.069577649235725417 0.048994340002536781 283.50000000000006 6.5000000000000009 6.0167899131774911 1.9971756935119631 0.17189214378595355 0.0097205489873886126 1.5000000000000002 8.0173201560974139 10.172941207885744 16.003562927246097 8.0173201560974139 7.5000000000000009 0.17683403939008716 7.5000000000000009 0.012511729728430511 1.0000000180025095e-35 2.9459991455078129 0.086884558200836196 2177.0000000000005 1.0000000180025095e-35 1.5000000000000002 14.936446189880373 15.500000000000002 0.0099688819609582442 2.5000000000000004 62.500000000000007 2.9459991455078129 5.8701982498168954 0.072996348142623915
decision_type=2 2 8 2 10 2 8 2 2 2 2 2 2 2 2 2 2 10 2 2 2 2 2 2 2 10 2 2 2 2 10 2 2 2 8 2 2 2 2 2 10 2 2 2 2 2 2 2 2 10 2 2 8 10 10 2 10 2 10 2 2 10 2
left_child=4 2 9 20 10 6 17 -6 33 38 11 14 25 21 -1 26 47 35 31 30 -4 -5 -12 -15 -25 -13 53 -7 -29 -19 50 -14 -22 34 -9 -3 -37 -21 -2 41 -41 54 -42 -44 45 -31 -23 48 -8 -35 -11 -50 -26 56 -30 -49 -10 -17 -59 -20 -32 -56 -55
right_child=1 5 3 13 7 27 16 8 15 19 22 12 18 23 -16 57 -18 29 59 37 32 46 -24 24 52 -27 -28 28 39 44 60 -33 -34 49 -36 36 -38 -39 -40 40 42 -43 43 -45 -46 -47 -48 55 51 -51 -52 -53 -54 62 61 -57 -58 58 -60 -61 -62 -63 -64
leaf_value=0.076646969983784952 -0.072951743979054115 -0.0097267821957533109 -0.069868137275763145 0.00054053412068369563 -0.019106470089864852 -0.046407159727068298 -0.05652472623352002 0.06278438694529935 0.029413819073241965 -0.048484555536086285 0.03079561950282509 0.036038369894011942 0.066537230808567049 -0.072689972014028978 0.061567319210695054 0.051691768140689376 0.010672068136933263 -0.068358905944597328 0.057169989073261498 -0.035014981997586112 -0.061104846443835362 -0.032401222774330163 0.06824824114895886 -0.019613826710852121 -0.038102275176091924 0.0086706661087688468 0.041469028100267952 -0.044529973569995107 -0.017295098512721572 -0.029530813648532536 -0.062261312357668623 0.051557697899258459 -0.047774204308853409 0.050481030536886684 0.051231792412264943 -0.039302040073629793 -0.0051553399218857475 -0.064710206701541761 -0.065656065955398274 0.025274694592609073 0.011892545400203515 0.04058728237342827 -0.058249526344337325 0.024869880918262661 -0.019635278897886715 -0.050536638395230593 -0.011776466884469837 -0.031804609424837059 -0.0063578950637742208 0.024816449283360822 -0.025699374811167876 0.017616711977983996 -0.082406222056690015 0.012401512680636495 0.025440027249690467 0.023666872038557288 -0.07106690131934866 0.045038489314244465 0.021522370748920661 0.0387299498006346 -0.049369557061587563 -0.0112162414321382 0.030670078514722299
leaf_weight=4909.6682047098875 15735.401700824616 1380.0621734433807 5754.7676734307315 1336.0879696812481 732.93736712867394 97.371463354909793 125.94750500563532 4940.018113293685 39.820310031995177 1559.9359748181887 350.91355493757874 1929.5170722231269 1782.5676421839744 321.8554687439464 12261.446240078658 3730.5260927695781 2937.1783995204605 403.74006686313078 690.69619208574295 381.71044344548136 7733.5972169134766 1467.5013775355183 11340.188394873403 1558.2593022794463 2923.9584435163997 779.99368124362081 3355.6608641739003 128.33594297803938 222.90204884222476 1720.9784174994566 2767.557350428775 9174.529734171927 2455.4211788412649 1387.2371600270271 5693.8486581221223 1881.2501293325331 857.33376977080479 8531.0030059888959 9059.0436169657041 1098.6186934843136 370.91363116400316 1248.4960534998681 303.76757887937129 172.74308369948994 843.96204181085341 1872.2248108186759 1324.2452583441045 697.49172824551351 3085.1680716141127 615.0818168502301 734.14484036015347 455.03097607661039 116.35207068454474 660.33308232855052 657.08301948662847 75.651020552497357 43.074038418475538 2933.2034972496331 596.81668438762426 4429.6878611580469 2110.4518677867018 188.92974112846423 5497.5639799586497
leaf_count=71962 625339 25979 3122169 237435 12513 3152 33066 9966 254 53529 1674 44401 4928 128362 109229 9410 164823 17093 2801 6522 2599298 334453 20399 461295 777885 10040 10073 3825 1984 47474 110497 58258 725259 3429 14926 57386 15985 356413 309721 9912 2109 7297 1076 655 23210 72474 154721 121165 395403 976 19560 42120 73112 4467 4913 5613 1329 7859 1271 39491 77378 1652 20978
internal_value=0 -0.0476101 -0.0593345 -0.0491884 0.0529044 -0.0105254 -0.0177004 0.0438365 0.0454007 -0.0655374 0.0586567 0.0559036 0.0467863 -0.0262347 0.065879 0.0386697 -0.00105273 -0.0314066 0.0499253 -0.0582172 -0.0622149 -0.0151221 0.0671241 -0.0355572 -0.0329583 0.02816 0.0327273 0.0155846 0.016959 -0.039168 -0.0517288 0.0539947 -0.0578923 0.05438 0.0565986 -0.0222841 -0.0286122 -0.0634384 -0.0702862 0.0188099 0.00965042 0.0265016 -0.0106052 -0.0281174 -0.0365119 -0.0404758 -0.022618 -0.00881024 -0.00510568 0.0425973 -0.0411929 -0.00327638 -0.0397978 0.0280269 0.0100495 -0.0263768 -0.0227986 0.046524 0.0410626 0.0412174 -0.0566837 0.017254 0.0287111
internal_weight=0 86696.5 65871.3 24992 77875.3 20825.2 16336 30226.1 29493.2 40879.2 47649.2 35958.1 18787 9048.26 17171.1 16857 7376.47 8959.55 16077.5 16084.8 15943.8 4127.83 11691.1 4920.43 4598.57 2709.51 9596.45 4489.16 4391.79 4840.91 7172.09 10957.1 10189 12636.2 10633.9 4118.65 2738.58 8912.71 24794.4 4263.45 1946.04 2317.41 847.424 476.511 4437.17 3593.2 2791.75 4439.29 3666.15 2002.32 2294.08 3540.2 3040.31 6240.79 1068.91 773.143 82.8943 7260.55 3530.02 5120.38 4878.01 846.013 6157.9
internal_count=11691948 11231314 10172948 8613989 460634 1058366 1021791 97451 84938 1558959 363183 341110 159919 2167263 181191 55641 762190 259601 105478 623899 6446726 726609 22073 1440654 1312292 54441 37101 36575 33423 160251 260964 63186 3324557 29297 24892 99350 73371 362935 935060 29598 13752 15846 3840 1731 143158 119948 489174 597367 470589 4405 73089 437523 850997 27028 8549 126778 1583 18540 9130 42292 187875 6565 25445
is_linear=0
shrinkage=0.05


Tree=5
num_leaves=64
num_cat=0
split_feature=1 1 16 20 1 21 21 20 4 20 4 4 16 4 4 4 17 13 1 4 16 21 4 20 16 3 20 20 1 4 3 12 15 22 13 13 1 20 20 16 17 1 20 1 20 10 4 21 20 13 21 4 10 3 20 13 10 3 13 16 13 11 20
split_gain=140120 12908.6 3370.25 2232.03 2201.88 2018.04 1502.03 1068.43 581.181 386.787 307.314 287.832 270.875 250.528 240.989 195.873 189.264 177.459 177.195 173.704 168.571 165.207 151.799 153.307 142.068 140.201 137.909 136.717 127.695 125.819 125.067 122.097 124.752 124.133 120.933 112.662 112.468 112.037 109.123 103.647 103.526 99.0283 97.5309 97.3171 93.5456 90.9257 87.8464 85.5854 83.9365 81.3673 72.8261 72.032 66.5731 63.739 62.7992 62.0644 60.5905 59.2665 58.5014 57.4642 56.8198 56.7485 55.8182
threshold=1.0000000180025095e-35 3.1282963752746586 7.5000000000000009 19.500000000000004 1.0008746981620791 30.500000000000004 13.500000000000002 1.5000000000000002 0.088621977716684355 8.5000000000000018 0.14837116748094561 0.17189214378595355 11.500000000000002 0.14837116748094561 0.12183324620127679 0.24591056257486346 0.082903780043125166 0.091394558548927321 6.0167899131774911 0.23180313408374789 6.5000000000000009 3.5000000000000004 0.027679306454956535 5.5000000000000009 1.5000000000000002 1251.5000000000002 19.500000000000004 19.500000000000004 2.0121523141860966 0.22389476001262668 313.50000000000006 1.0000000180025095e-35 0.010826418176293375 1.0000000180025095e-35 0.012511729728430511 0.048785572871565826 7.7547760009765634 5.5000000000000009 2.5000000000000004 1.5000000000000002 0.066228073090314879 5.9736335277557382 10.500000000000002 8.8011555671691912 19.500000000000004 119.50000000000001 0.35797215998172766 42.500000000000007 2.5000000000000004 0.028377611190080646 1.5000000000000002 0.25011938810348516 1126.5000000000002 124.50000000000001 14.500000000000002 0.10022700950503351 631.50000000000011 325.50000000000006 0.086884558200836196 6.5000000000000009 0.030866704881191257 28.500000000000004 12.500000000000002
decision_type=2 2 2 10 2 8 8 10 2 10 2 2 2 2 2 2 2 2 2 2 2 10 2 10 2 2 10 10 2 2 2 10 2 10 2 2 2 10 10 2 2 2 10 2 8 8 2 8 10 2 10 2 10 2 10 2 10 2 2 2 2 10 10
left_child=2 4 7 6 11 20 12 -1 22 37 17 35 19 34 38 62 26 24 -14 43 29 -5 42 -24 -7 28 49 51 55 -6 54 45 36 -34 -8 -2 -33 57 -9 -36 -37 52 -4 58 59 -23 53 -18 -16 -13 -21 -22 -41 -39 -20 -12 -15 -10 -3 -26 -35 -30 -11
right_child=1 3 8 21 5 10 13 14 9 15 25 16 18 56 48 -17 47 -19 30 50 27 31 23 -25 44 -27 -28 -29 61 -31 -32 32 33 60 39 40 -38 46 -40 41 -42 -43 -44 -45 -46 -47 -48 -49 -50 -51 -52 -53 -54 -55 -56 -57 -58 -59 -60 -61 -62 -63 -64
leaf_value=0.071395065831815416 -0.069705175968894736 -0.036649764181443049 0.016679169234150065 0.053143789012023726 -0.053610776384425386 -0.024496228191442954 -0.055542101882298217 0.053116806175495593 0.055897550559370117 0.032982894691559426 -0.023226887222088252 -0.06130816351318194 -0.050826909567581763 0.01725813649462337 0.061122477769556031 0.04156833868109891 -0.063098268023088197 -0.0076470397482938136 -0.025135412316950542 -0.0034056513511911872 -0.063151996082508363 0.0021354035650237905 0.041356757972945551 0.022027948015219359 -0.041424027402387181 -0.03478746096138189 -0.013758518626648054 -0.031267344724533248 0.015382234752642387 -0.036979119964711989 -0.036488978166120761 0.01617065424890286 0.027455977833829345 -0.045382246188837079 0.0059486487734634122 -0.056532266538881472 0.042913314084618237 0.047231560294314322 0.042409860201842946 -0.0082487177273893077 -0.067175940479578131 -0.0029963042793899474 -0.019407224724909182 -0.0056539418310935464 0.014289057968876662 -0.076231794284434509 0.052895949719069781 -0.023755810669695336 0.054199689232580221 -0.047244448331991859 -0.023379489161214653 -0.053780047131553058 -0.031131815239335017 0.036928859128105757 0.017335877874706456 0.0017511975894785687 0.0036445262898104919 0.046638061945131884 -0.013216173253168038 -0.05821293255451792 0.0013067340450990492 -0.0061508314215510361 0.02384707735442243
leaf_weight=12993.817836602684 15341.999025742756 2547.0845981626771 542.42421591002494 474.72633118182421 3362.0283596171066 1344.1741790217347 140.05961340572685 4582.2551651480608 3421.9153040307574 3744.8443149887025 1584.6813237140886 1556.8398018945009 2229.8257384824101 1305.9018343369244 8203.6357610421255 5564.4051749240607 8346.443284724257 558.10575424600393 163.26872369949706 1063.755921084201 6833.4383160048164 205.5551842583227 1407.78831661609 3781.4658982276451 1894.38111136714 741.69421852938831 248.28974119480699 421.85265065357089 443.05442368378863 1718.3299947860651 1195.7979717317503 620.20960016376921 622.34882345134974 75.036191366845742 950.02433133684099 3907.2133959222119 1073.8971119645867 2196.1962214997038 4950.8141568955034 505.62467779987492 5501.1219247055706 1214.981379749137 285.94247680902481 333.5905933030881 66.111379535868764 45.141798514407128 1691.7042958661914 140.56265962775797 9390.5729027586058 3030.3446358279325 799.22968482878059 2929.0524578820914 855.81318890070543 4743.9722253540531 186.41029178863391 294.98748541343957 2184.643733573379 3491.2826221510768 297.43639937974513 697.27175819128752 495.32328134588897 988.91876882547513 3020.478742569685
leaf_count=92283 3555310 84017 12628 2731 138797 499159 38792 41702 8281 22652 269368 539951 88348 61272 26737 18855 303884 137465 3676 21521 327352 1832 5972 45575 634388 169287 6480 7520 36677 51831 39745 4224 4676 394 139527 1828565 4786 8339 71525 69613 236929 140064 10177 7949 2407 520 4301 4245 41724 906337 15532 98674 160725 19583 1863 36383 154972 9307 8984 269114 2410 115873 21035
internal_value=0 -0.0452227 0.0497993 -0.00984033 -0.0564088 -0.0445059 -0.0178671 0.0596057 0.0381906 0.0412328 -0.0251554 -0.0638739 -0.0316814 -0.000849882 0.0539586 0.0346195 -0.0579483 -0.0340597 -0.0418088 -0.024097 -0.0554248 0.0256543 0.0240988 0.0272716 -0.0377431 -0.0151381 -0.050053 -0.0591359 -0.0107373 -0.0479854 -0.0287974 0.0214949 0.0244016 0.012014 -0.00997737 -0.0670635 0.0331229 0.0464782 0.0475564 -0.00816768 -0.0627557 -0.0133729 0.00422257 -0.0312032 -0.0444428 -0.0119758 0.0426794 -0.0624467 0.0574276 -0.0520175 -0.0119745 -0.0603401 -0.0226333 0.0401891 -0.0024944 -0.0193069 0.00873772 0.0512214 -0.0341994 -0.045941 -0.00483564 0.000511528 0.0289041
internal_weight=0 81536.6 74013.5 19585.7 61950.9 23878.1 15973.4 40121.1 33892.4 27874.8 8613.38 38072.8 8816.4 7157.05 27127.3 12329.7 13322.5 4560.04 3775.3 5041.1 15264.7 3612.24 6017.62 5189.25 4001.94 4053.34 4835.47 10184.3 3311.64 5080.36 1545.48 3137.51 2886.82 1192.71 3666.5 24750.3 1694.11 15545.1 9533.07 3526.44 9408.34 2576.42 828.367 3178.11 2657.76 250.697 8631.87 8487.01 17594.2 4587.18 1862.99 9762.49 1361.44 6940.17 349.679 1879.67 3490.55 6913.2 2844.52 2591.65 570.359 1431.97 6765.32
internal_count=11694845 11234169 460676 1058173 10175996 2794295 1036600 273971 186705 112353 2170121 7381701 271635 764965 181688 62542 1760897 1542533 133632 138003 624174 21573 74352 51547 1405068 627588 1452768 433546 458301 190628 45284 18842 16490 7480 548721 5620804 9010 49811 113227 509929 2065494 370402 22805 100950 905909 2352 32223 308129 68461 1446288 37053 426026 230338 27922 5539 305751 216244 17588 93001 903502 2804 152550 43687
is_linear=0
shrinkage=0.05


Tree=6
num_leaves=64
num_cat=0
split_feature=1 1 20 20 21 20 1 17 4 16 20 1 4 4 4 20 10 21 1 16 16 1 10 4 16 21 3 13 4 1 20 4 17 12 20 20 20 4 20 15 1 22 20 1 13 4 13 4 1 13 13 15 16 0 10 13 16 20 15 17 22 10 4
split_gain=121550 10921 3503.41 2737.12 2269.28 681.543 636.378 686.221 563.732 406.175 392.289 327.929 319.714 254.065 221.111 206.286 186.595 165.373 162.801 138.223 130.949 159.512 148.944 126.573 123.615 116.583 114.988 114.411 112.963 110.571 107.998 104.768 102.459 91.5132 88.4769 84.5944 84.0235 83.726 79.7389 78.019 112.017 81.3573 77.927 77.2846 71.7965 71.5363 71.5058 69.3473 64.1661 62.8096 61.9776 61.3487 59.7087 59.6429 57.5384 68.5492 57.5198 57.3433 57.1794 67.5809 56.8995 56.2136 55.6562
threshold=1.0000000180025095e-35 2.0121523141860966 3.5000000000000004 19.500000000000004 12.500000000000002 1.5000000000000002 1.0008746981620791 0.040161289274692542 0.15558098256587985 6.5000000000000009 8.5000000000000018 6.0167899131774911 0.12502106279134753 0.18374025821685794 0.40839472413063055 8.5000000000000018 107.50000000000001 30.500000000000004 3.1282963752746586 6.5000000000000009 1.5000000000000002 6.0167899131774911 806.50000000000011 0.024912263266742233 15.500000000000002 4.5000000000000009 980.50000000000011 0.061454892158508308 0.13644825667142871 6.9998447895050058 20.500000000000004 0.33321768045425421 0.10063291341066362 1.0000000180025095e-35 6.5000000000000009 18.500000000000004 4.5000000000000009 0.048043632879853256 16.500000000000004 0.020853099413216118 9.0009942054748553 1.0000000180025095e-35 4.5000000000000009 3.1282963752746586 0.048785572871565826 0.24591056257486346 0.033134458586573608 0.11067828163504602 0.93231323361396801 0.03415972366929055 0.044259330257773406 0.0099688819609582442 9.5000000000000018 575619.00000000012 257.50000000000006 0.021744628436863426 5.5000000000000009 2.5000000000000004 0.0099688819609582442 0.47722567617893225 1.5000000000000002 251.50000000000003 0.036325037479400642
decision_type=2 2 10 10 8 10 2 2 2 2 10 2 2 2 2 10 10 8 2 2 2 2 8 2 2 8 2 2 2 2 8 2 2 10 10 8 10 2 8 2 2 10 10 2 2 2 2 2 2 2 2 2 2 2 10 2 2 10 2 2 10 8 2
left_child=2 6 5 4 9 -1 13 16 10 18 36 24 19 32 15 58 42 38 45 43 46 22 52 -12 26 -5 -11 47 62 -13 34 -20 37 -27 61 53 -4 -2 -15 40 -35 -41 -8 -6 -39 -3 -14 -18 -40 -24 -31 -17 -22 -19 -45 -56 -29 -30 -10 -60 -53 -9 -7
right_child=1 3 8 25 12 28 7 30 14 11 23 29 20 17 -16 51 27 35 31 -21 21 -23 49 -25 -26 33 -28 56 57 50 -32 -33 -34 39 -36 -37 -38 44 48 41 -42 -43 -44 54 -46 -47 -48 -49 -50 -51 -52 60 -54 -55 55 -57 -58 -59 59 -61 -62 -63 -64
leaf_value=0.068475303331478277 -0.066498340472366316 -0.043532774591222824 0.042525370105234578 0.041530354716499095 -0.022720925960383526 0.037729725719718846 -0.0080636399728824335 -0.046636935412506811 0.047356216868844413 -0.036200582769054655 -0.011977310185891543 0.056058195717330866 -0.0061345285818009175 -0.061062153155369503 0.052391519431127347 0.037028965545462256 -0.054109968282425716 -0.055707219151205106 -0.023153206214105534 -0.034910465079472812 0.0038433229087793718 0.014935651226890272 -0.038762599903580428 0.020849916634827291 -0.056441001934424084 -0.012837714519502944 -0.053197139341211168 -0.01858341027618007 0.059480340148865954 -0.037550325897226823 -0.028353128710017873 0.00021778981509449344 -0.067001565546996419 0.016337424842798248 -0.064260840161077734 -0.0060924762723719586 0.03247992500069407 -0.061353698848507082 -0.050306201408373177 0.024248884953778763 0.042299132091974223 -0.0084363369620699801 -0.040023031262052783 0.021394009693152048 -0.050892540476279884 -0.022866897141318846 0.01575172051670673 -0.037109050938781189 -0.0094570331851960548 -0.015244039615626351 -0.019964778239246899 0.030766290101459082 -0.024277988154297617 -0.043295916908392164 -0.041568738753409072 -0.0067041155410171999 -0.046629307858196273 0.05262428625602103 0.04246662956720202 0.025887688984049684 0.012987628064307033 -0.057518232991229712 0.050650874149267014
leaf_weight=12125.454017417505 3686.9245648100041 1322.3821136059705 2982.3945326451212 715.54985047644004 1224.7959000235423 932.58222800679505 873.32942314911634 1823.8213905598968 5677.5347928917035 2444.7720407005399 310.44058305490762 40.117846484296024 485.5489596594125 6914.4467325550504 4105.1125886896625 3955.3134044045582 1056.6822629570961 1633.5539296478964 2288.8101900331676 879.38048128224909 1519.3447049227543 826.39216356072575 377.74620460998267 5425.5243207407184 3014.2197556128958 210.50087144642021 1678.1879021662753 825.64756616996601 7431.5155096324161 900.53957252623513 324.77442903630435 606.62404530448839 13594.363082393305 967.762577550282 3215.3745044057723 122.02145610237494 6892.1369803207926 4078.2889594701119 463.61264928872697 388.24941147502977 728.0686564653879 373.57532933971379 244.03197559295222 164.67851839540526 2743.492940796772 612.81014552991837 1612.8400986585766 1387.3605946223252 121.28392526740208 1142.5218194066547 1129.3736662914744 2557.6400616019964 215.53610498487251 2375.732946950011 152.54419168969616 1860.5174313718453 234.81044720578939 5172.5991068510339 3966.9898698385805 727.39047960285097 546.13654746115208 3398.8127158971038 7835.8706465181895
leaf_count=92600 2353844 54905 27335 4092 408091 24110 156636 67719 22455 87390 13323 279 55544 274408 11199 19459 524451 581436 65105 220494 113918 44576 64659 55624 139476 2579 79850 223217 24010 29264 6080 8798 620446 7718 158403 4144 67551 1743070 7965 3318 3679 2118 61681 16416 1059101 16211 130542 337832 2441 140166 32462 12250 29762 735689 42990 292918 68873 17661 15084 1818 1523 148457 54438
internal_value=0 -0.0435362 0.0472813 -0.0185442 -0.0243661 0.0590067 -0.0577236 -0.0484245 0.0367077 -0.0375028 0.0294729 -0.0436633 -0.00673902 -0.0612067 0.0419518 0.0394931 -0.0328357 -0.0551374 -0.0257609 -0.0172397 0.000536669 -0.00468201 -0.00966239 0.0190732 -0.0487451 0.0236088 -0.0431188 -0.0385085 0.0536348 -0.0261418 -0.0566466 -0.0182567 -0.0641354 0.0188025 -0.0577356 -0.0471046 0.0355139 -0.0604276 -0.0595626 0.0215125 0.0274835 0.00822106 -0.0150436 -0.0126728 -0.0571466 -0.0369886 0.0106874 -0.0444594 -0.0418357 -0.0210878 -0.0277663 0.0328999 0.00034962 -0.0483528 -0.00702153 -0.00934606 -0.0247934 0.0566667 0.0439805 0.0398977 0.027638 -0.0537183 0.0492766
internal_weight=0 77001.8 70644.6 27883.4 24499.7 33498 49118.4 13384.6 37146.6 14037.8 15610.5 9207.21 10461.8 35733.7 21536.1 17431 4621.86 11630.7 4830.63 4281.92 6179.93 4081.54 3255.15 5735.96 7137.18 3383.71 4122.96 3504.5 21372.6 2070.03 8762.78 2895.43 24103.1 2668.16 8438.01 4131.31 9874.53 10508.7 7499.34 2457.66 1695.83 761.825 1117.36 3402.54 6821.78 1935.19 2098.39 2444.04 584.897 1520.27 2029.91 7059.09 1734.88 4009.29 2177.74 2013.06 1060.46 12604.1 10371.9 4694.38 3103.78 5222.63 8768.45
internal_count=11693653 11233213 460440 2097320 2073816 212819 9135893 1753349 247621 513740 163833 368721 1560076 7382544 83788 72589 1372690 1606083 145019 980909 579167 393081 348505 68947 306716 23504 167240 1154373 120219 62005 380659 73903 5776461 19412 374579 1321269 94886 5156015 284814 16833 11397 5436 218317 760415 2802171 71116 186086 862283 10406 204825 61726 33232 143680 1317125 352324 335908 292090 41671 39357 16902 13773 216176 78548
is_linear=0
shrinkage=0.05


Tree=7
num_leaves=64
num_cat=0
split_feature=1 1 20 20 21 14 1 21 20 4 1 17 14 4 20 14 14 4 3 10 16 3 16 10 16 21 1 16 1 16 13 16 13 15 22 12 21 15 4 20 17 15 22 1 14 2 4 14 1 20 16 4 1 1 13 3 21 14 17 12 12 14 10
split_gain=104996 9830.74 3184.86 2319.53 2061.31 883.563 701.182 706.271 657.542 431.144 335.781 313.342 308.729 276.524 269.63 235.298 210.067 209.504 188.121 147.837 142.042 140.371 137.41 132.747 128.433 124.454 118.937 114.596 112.04 107.119 104.332 102.693 96.1557 93.7101 102.596 92.6268 88.0111 87.8332 86.1054 84.9544 81.6372 106.978 79.4935 79.4587 79.0843 75.7665 72.3755 72.0418 71.8236 71.111 89.1469 71.1049 69.5128 135.327 68.5185 67.2384 66.7795 66.6694 66.2346 65.5488 64.9552 64.7988 63.5126
threshold=1.0000000180025095e-35 2.0121523141860966 3.5000000000000004 19.500000000000004 12.500000000000002 0.025682249106466774 1.0008746981620791 23.500000000000004 1.5000000000000002 0.25684642791748052 3.1282963752746586 1.0000000180025095e-35 0.0074211757164448508 0.14837116748094561 6.5000000000000009 0.034135276451706893 0.044879788532853133 0.33321768045425421 268.50000000000006 735.50000000000011 13.500000000000002 128.50000000000003 10.500000000000002 60.500000000000007 3.5000000000000004 18.500000000000004 5.9736335277557382 14.500000000000002 7.7547760009765634 4.5000000000000009 0.070566251873970046 2.5000000000000004 0.10456703230738641 0.010657227132469417 12.500000000000002 1.0000000180025095e-35 2.5000000000000004 0.24404761940240863 0.052641475573182113 20.500000000000004 0.13900966197252276 0.0078288121148943918 1.0000000180025095e-35 5.9736335277557382 0.08205657079815866 838.50000000000011 0.13538061082363131 0.058860385790467269 5.3776509761810312 21.500000000000004 7.5000000000000009 0.057730039581656463 10.172941207885744 16.003562927246097 0.091394558548927321 284.50000000000006 7.5000000000000009 0.036242829635739333 0.090230666100978865 4.5000000000000009 1.0000000180025095e-35 0.052182989194989211 1385.5000000000002
decision_type=2 2 10 10 8 2 2 8 10 2 2 2 2 2 10 2 2 2 2 10 2 2 2 10 2 8 2 2 2 2 2 2 2 2 8 10 10 2 2 8 2 2 10 2 2 2 2 2 2 10 2 2 2 2 2 2 10 2 2 10 10 2 10
left_child=2 6 8 4 10 11 15 32 -1 14 19 -4 36 24 21 58 -10 20 31 27 43 -7 -11 37 30 -17 -26 -3 46 61 -6 -9 49 -24 -35 45 -13 -16 -37 54 -30 59 -43 -12 -22 -25 -5 -40 -31 50 -8 -20 -44 -54 -27 -18 -48 -53 -2 -42 -23 -15 -45
right_child=1 3 5 28 13 9 7 18 16 22 17 12 -14 29 23 25 55 -19 51 -21 44 60 33 35 26 39 -28 -29 40 48 -32 -33 -34 34 -36 38 -38 -39 47 -41 41 42 52 62 -46 -47 56 -49 -50 -51 -52 57 53 -55 -56 -57 -58 -59 -60 -61 -62 -63 -64
leaf_value=0.066054555987150529 -0.059445576675080374 -0.029596594924676523 0.029416416302005977 -0.009029938585097019 -0.012633010894009356 0.050264543566184275 -0.050147155043431452 -0.0081356546187269421 0.043207844940947281 0.054228825730727896 -0.033251085289280273 -0.0063932682455343868 0.019396518727317298 0.0001442749440755954 0.044349379985787508 -0.058200043119880619 0.057838226362086 -0.013109030743720336 -0.059127911439026626 -0.053107833658406746 -0.047826896489669889 -0.010996859857273111 0.047411067603403884 0.0067854550739846649 -0.034103958565286883 -0.052398860062885869 -0.0091878968546479124 -0.052554642602839999 0.045992623504561958 -0.018428638135181717 0.0091980348984811774 -0.030025584424105994 -0.037650806915271458 0.023389295398577068 0.04214892305655632 0.0086764503516132043 -0.035404954076969197 -0.0082353752331699118 0.022535014757984802 -0.014740082255132576 0.018831503910681252 0.030898747155659045 0.026664026249645187 -0.0059949827494350481 -0.024812421343335868 -0.080860455961182048 0.032850951106349453 0.031766821505053382 0.0057877269410524096 -0.028382118677050955 -0.061450856276870795 -0.048630248314744842 -0.050243222979244752 0.01927902745706845 -0.037631244328468275 0.051001653247614569 0.0046214696168078353 -0.029073278305610507 -0.065408234428870518 0.047492805243148598 0.036738078454792558 0.013426965858863771 -0.026550206863829293
leaf_weight=11344.944646194112 7878.058045887854 1783.7878382186173 1942.7206228971481 345.33274520107079 2462.517156614922 2402.4738989034668 2926.4420900281984 1087.006763280835 6030.4040707433596 3409.4297402407974 2559.8998387393076 902.52302058786154 1374.128854169976 1813.4155230978504 1546.3006829181686 8689.7362269351725 6996.1052539404482 1609.9505782218184 382.79737283103168 2871.6245400623884 1850.4869421544718 72.012509792111814 3704.7044286513701 271.35847995243967 1181.0027410887415 4330.1278335747775 805.72113788453862 781.76396108441986 552.29705542838201 849.40227395476541 703.66625124542043 1056.5652361402754 787.2020039241761 1103.6269730208442 2146.0711548631079 594.78398382477462 368.00932777440175 83.7096001598984 3374.0073878006078 179.46357505361084 344.89574126416119 239.97273510263767 118.52607319492381 588.36888276110403 467.596227467875 27.122336479835212 402.67438467172906 5655.4388161594979 478.77588794264011 225.65138102904893 4317.6821953714825 652.6465323343873 155.51013736915775 127.29211663384922 959.51815613731742 7401.3059237198904 436.6911740853393 1311.4195800228044 11392.577247604611 473.15919918310829 6872.6548524261452 1859.9512161859311 1040.1693913016934
leaf_count=92747 4107548 62191 53475 4270 550786 8453 130146 239759 56747 10605 90512 14413 7144 172731 5564 395808 21403 32690 308974 144885 82570 3333 10298 3844 333879 1964407 110453 36196 2911 114704 118177 247411 32387 2637 7746 12432 7118 379 23528 11156 2216 1960 685 14084 16576 2668 2844 31495 31872 4460 212960 224850 909 602 372002 42560 4636 353746 529861 2542 42737 125877 35193
internal_value=0 -0.0415725 0.0448763 -0.0175477 -0.0229382 0.0346613 -0.0555703 -0.0455927 0.0564026 0.037668 -0.0356995 0.0141697 0.00296972 -0.00590515 0.0335333 -0.059375 0.0510423 -0.0292582 -0.0296335 -0.0453149 -0.0332541 0.039847 0.0460062 0.0284249 -0.0140341 -0.0544811 -0.0239992 -0.0365923 0.0224356 0.0024698 -0.00778119 -0.0189252 -0.0542718 0.0419751 0.035778 0.0262526 -0.0147965 0.0416489 0.0271034 -0.0485722 0.0296195 0.023423 0.00813343 -0.0277582 -0.0431845 -0.00117875 0.0102373 0.0283172 -0.00969923 -0.0560234 -0.0568844 -0.0394142 -0.00547901 -0.0189506 -0.0497201 0.0543237 0.0181642 -0.0355719 -0.0629706 0.0354091 0.0362431 0.00686976 -0.0191239
internal_weight=0 73081.3 67623.8 26904.5 23708.1 35851.1 46176.9 12747.4 31772.8 31263.7 13553.6 4587.38 2644.66 10154.5 20899.9 33429.5 20427.8 8116.47 4490.44 5437.18 6506.52 9347.14 10363.8 11552.7 5152.91 14158.8 1986.72 2565.55 3196.35 5001.54 3166.18 2143.57 8256.98 6954.4 3249.7 9922.71 1270.53 1630.01 9624.23 5469.11 2011.65 1459.36 641.301 4188.44 2318.08 298.481 1184.7 9029.45 1328.18 7469.78 7244.12 2346.86 401.328 282.802 5289.65 14397.4 839.366 1964.07 19270.6 818.055 6944.67 3673.37 1628.54
internal_count=11693752 11232426 461326 2096951 2073376 247869 9135475 1754693 213457 165719 514897 82150 28675 1558479 134433 7380782 120710 271625 1374740 243272 238935 54523 31286 79910 1113295 2743373 444332 98387 23575 445184 668963 487170 379953 20681 10383 73967 21531 5943 67455 2347565 11825 8914 4156 139789 99146 6512 11750 55023 146576 347566 343106 887570 2196 1511 2336409 63963 7480 578596 4637409 4758 46070 298608 49277
is_linear=0
shrinkage=0.05


Tree=8
num_leaves=64
num_cat=0
split_feature=1 20 1 20 21 1 21 1 20 4 14 1 14 21 16 20 4 3 14 1 14 4 21 20 16 4 10 4 12 21 13 4 13 16 14 21 1 1 3 12 20 21 3 4 14 13 15 17 12 12 12 1 3 21 4 4 11 3 1 4 13 3 3
split_gain=92936 3256.17 5955.5 2631.74 1843.6 1655.39 586.499 717.669 580.167 530.925 415.444 332.642 259.299 243.365 236.154 205.447 196.993 196.21 192.276 181.911 170.987 165.678 159.763 158.345 136.754 128.543 123.757 112.496 111.632 145.672 108.598 106.248 105.278 102.527 102.111 96.8566 96.8075 93.1073 89.558 89.3481 85.4907 84.0908 83.9656 78.2336 75.8838 73.7708 73.6464 72.0327 70.2788 70.1461 67.4193 66.445 64.8298 60.7873 59.3601 55.9472 53.8479 53.4013 52.1503 52.1282 52.0517 51.9412 50.1428
threshold=1.0000000180025095e-35 19.500000000000004 2.0121523141860966 3.5000000000000004 13.500000000000002 1.7592167854309084 14.500000000000002 1.9971756935119631 1.5000000000000002 0.098043665289878859 0.044879788532853133 3.1282963752746586 0.020419134758412841 1.0000000180025095e-35 1.5000000000000002 8.5000000000000018 0.33347062766551977 867.50000000000011 0.065489187836647048 5.0091147422790536 0.07133433967828752 0.16621618717908862 1.5000000000000002 5.5000000000000009 11.500000000000002 0.17013210058212283 631.50000000000011 0.32399743795394903 2931.5000000000005 1.0000000180025095e-35 0.05406658165156842 0.42397411167621618 0.074117690324783339 2.5000000000000004 0.036801755428314216 1.5000000000000002 8.0173201560974139 7.7547760009765634 35.500000000000007 544.50000000000011 11.500000000000002 1.5000000000000002 65.500000000000014 0.10861811786890031 0.065489187836647048 0.047625396400690086 0.016412682831287388 0.030536131002008918 2.5000000000000004 3.5000000000000004 3496.0000000000005 6.9998447895050058 136.50000000000003 8.5000000000000018 0.19357553869485858 0.12621163576841357 20.500000000000004 1306.5000000000002 0.79537957906723034 0.37511140108108526 0.015874897129833702 144.50000000000003 548.50000000000011
decision_type=2 10 2 10 8 2 8 2 10 2 2 2 2 10 2 10 2 2 2 2 2 2 10 10 2 2 10 2 8 10 2 2 2 2 2 10 2 2 2 8 10 10 2 2 2 2 2 2 10 10 8 2 2 10 2 2 10 2 2 2 2 2 2
left_child=3 2 6 8 11 22 25 18 -1 12 23 26 13 -5 32 46 24 43 39 34 28 45 58 -11 51 -2 35 42 55 56 31 49 50 -23 -19 -4 -26 53 -14 52 -40 -18 -17 -16 -27 -9 59 -32 -44 -25 57 -13 -8 -7 -20 -10 -30 -6 -3 -12 -54 -47 -38
right_child=1 5 4 9 14 37 7 21 20 10 15 16 38 -15 17 27 41 19 54 -21 -22 33 -24 30 36 44 -28 -29 29 -31 47 -33 -34 -35 -36 -37 62 -39 40 -41 -42 -43 48 -45 -46 61 -48 -49 -50 -51 -52 -53 60 -55 -56 -57 -58 -59 -60 -61 -62 -63 -64
leaf_value=0.063643656849459621 -0.062001843409219527 -0.030535486924036272 -0.024378069254913138 0.020988178296205473 0.0082898168944939201 0.020088520804885556 -0.044848614881911941 -0.045900991174491937 0.040643054090048564 0.037681487884737054 0.046240254069433578 -0.029940173115404079 0.045794534268609077 -0.018453575810003349 -0.015676002776779278 0.04154797097827484 0.002308545038011272 -0.046584960146176628 -0.046914634787609183 -0.005790956984472565 0.053773177397870325 -0.0060971119769992971 -0.048451124660013889 -0.012955524791019716 -0.046357004247223367 -0.057450080849514452 -0.051640607964633316 0.043926457806296976 0.040677065087528747 -0.012251524736136348 0.026386803453323001 0.050456434997016658 0.023149547322233576 -0.030331822134198952 -0.022090722659633133 -0.045094480749722742 0.0011439178010834504 0.02924108737998531 0.028017258471253803 -0.063217931419831772 0.011990696555184668 -0.021526800038859567 -0.014426690652476568 0.0014084534133759813 -0.04789714129274808 -0.012923076703348982 0.040459802630670998 -0.0024749239807611654 0.028460756002169931 0.023939376042946721 -0.048579544663600545 -0.014256317799105836 -0.068710483104026748 -0.0037872905809862752 -0.031629354896827527 0.04885854342040237 -0.060474203391832154 -0.0068603292604108293 0.0033808246207640471 0.057576540827247273 -0.053853161573034103 -0.035589950182377726 -0.031788132682541055
leaf_weight=10413.746961360797 15129.319693681318 230.13134677801281 999.22387820342556 917.12571585271508 1374.8301698509604 705.94150627427734 1765.4223215207458 1266.4784507201985 3210.4064140301198 2173.7810174291953 5488.1687347637489 2720.4485740247183 566.06828852929175 681.87725873989984 912.06115159136243 1403.4833041820675 589.48879173584282 621.9406506321393 1784.7327854563482 1311.3674663046841 9565.2304339371622 937.00777020817623 1257.2003160316381 134.18295615073293 2022.688237463939 7356.7450886743609 2878.7980373734608 2308.4179219547659 578.18833627831191 186.99464027304202 317.134292088449 377.08036258816719 647.3209880720824 816.88343939138576 1347.0059220716357 1295.9816932117101 150.19860378000885 1863.722366170492 4230.7556516937912 3218.6804706507828 1035.8328712284565 993.99309950915631 97.672254136763513 2525.7254121600999 2897.5883883619681 367.44172564847395 5310.7672787215561 679.14745084987953 4339.107352680061 3228.2338523599319 68.087502156384289 898.281000145711 697.3996246533934 428.34045206828159 986.11479770368896 5845.5739486580715 13.463661551475523 1008.1663222862408 223.32676316518337 1243.9238100349903 3810.7509934575064 809.61049213400111 501.60737772029825
leaf_count=92950 823361 18139 40091 36234 173832 7731 735802 575681 34876 13832 20810 96590 2206 13989 207593 5355 10718 182352 940883 150234 41345 165691 33272 3078 94535 328647 152414 7195 14485 1652 5661 1249 82234 172219 297457 50402 3205 11695 49131 2133770 14858 21946 1184 222372 123733 92380 21039 5629 21913 21130 40670 25268 394511 5685 302990 25842 2170 202450 12568 3117 1916356 364774 19628
internal_value=0 -0.0401715 -0.0430926 0.043241 -0.0225739 -2.73058e-05 -0.0543057 -0.0469548 0.0541237 0.0338454 0.037092 -0.0348867 0.0220063 0.00416868 -0.00620438 0.0407134 -0.028417 -0.011471 -0.0530628 -0.0202186 0.0490134 -0.0291097 -0.0392743 0.0265094 -0.0323834 -0.0590726 -0.0447359 0.034582 0.0443841 0.0262171 0.0213813 0.0252894 0.00521503 -0.0173845 -0.0298278 -0.0360755 -0.0409569 0.022367 0.0268964 -0.0564455 0.0248652 -0.0126535 0.0308885 -0.00312413 -0.0547507 -0.0375257 0.0448621 0.00671228 0.0275166 0.022467 0.000478595 -0.026047 -0.0529708 0.0110723 -0.0414748 0.0459461 0.0383753 0.0018803 -0.0138318 0.0483349 -0.0561516 -0.028514 -0.0241995
internal_weight=0 69420.1 64711.4 64346.4 22867.2 4708.66 41844.2 16460.5 29813.6 34532.8 27101.1 13050.7 7431.66 1599 9816.51 20191.5 7876.71 6718.1 12263.1 3280.31 19399.9 4197.42 1710.66 6909.56 6293.22 25383.7 5174 8148.68 9834.63 778.647 4735.78 3739.5 3098.4 1753.89 1968.95 2295.21 2674.49 2998 5832.66 9492.25 5266.59 1583.48 5840.26 3437.79 10254.3 2443.53 12042.9 996.282 4436.78 3362.42 2451.08 3618.73 6273.57 1134.28 2770.85 9055.98 591.652 2383 453.458 6732.09 4508.15 1177.05 651.806
internal_count=11694809 11233879 11144789 460930 2073991 89090 9070798 7795057 213320 247610 131192 514797 116418 50223 1559194 80613 271890 1060008 6424312 630043 120370 1370745 63979 50579 239226 1275741 242907 35647 79025 18307 36747 25457 499186 337910 479809 90493 117368 25111 66195 5180439 63989 32664 28452 429965 452380 1032835 44966 11290 23097 24208 416952 121858 3046669 13416 1243873 60718 16655 376282 30707 23927 2310867 457154 22833
is_linear=0
shrinkage=0.05


Tree=9
num_leaves=64
num_cat=0
split_feature=14 1 1 1 1 20 16 20 21 21 1 21 20 1 20 21 12 21 20 4 4 20 14 16 1 16 10 16 3 10 16 16 13 4 3 12 11 20 20 3 20 1 4 4 4 4 17 21 12 14 14 3 14 14 12 20 15 12 15 11 4 22 1
split_gain=16116.3 44962.9 23660.1 4997.59 1910.22 1559.58 1097.72 890.295 775.145 705.987 675.98 431.363 371.909 284.01 271.769 253.726 239.807 267.392 229.892 199.106 196.001 177.716 155.736 153.461 146.312 136.635 135.022 134.802 134.361 133.277 130.129 122.488 106.866 104.086 103.862 103.379 115.298 95.4734 95.3665 84.8315 81.6949 80.7301 74.7669 74.1573 71.7328 68.9574 75.6182 68.8791 66.1497 60.943 59.5401 53.6195 52.7861 52.3206 79.2772 51.7268 53.6514 51.5324 51.0689 74.3966 50.5366 49.2224 48.9033
threshold=0.035136288031935699 1.0000000180025095e-35 1.0000000180025095e-35 3.1282963752746586 2.4376642704010014 2.5000000000000004 6.5000000000000009 19.500000000000004 10.500000000000002 1.0000000180025095e-35 1.0008746981620791 8.5000000000000018 8.5000000000000018 1.1110801100730898 1.5000000000000002 1.0000000180025095e-35 17.500000000000004 1.0000000180025095e-35 19.500000000000004 0.2168771177530289 0.2168771177530289 1.5000000000000002 0.14741390198469165 5.5000000000000009 1.0008746981620791 8.5000000000000018 405.50000000000006 6.5000000000000009 1198.5000000000002 107.50000000000001 10.500000000000002 1.5000000000000002 0.0064786071889102468 0.11951333284378053 59.500000000000007 1.0000000180025095e-35 27.500000000000004 17.500000000000004 19.500000000000004 369.50000000000006 11.500000000000002 3.1282963752746586 0.062668483704328551 0.17189214378595355 0.2532948106527329 0.05696257762610913 0.16585760563611987 3.5000000000000004 1.5000000000000002 0.12522401660680774 0.017256268300116066 104.50000000000001 0.018484351225197319 0.20042735338211062 406.50000000000006 4.5000000000000009 0.028537495993077758 1.0000000180025095e-35 0.010484945960342886 12.500000000000002 0.22389476001262668 3.5000000000000004 12.355117797851564
decision_type=2 2 2 2 2 10 2 10 8 10 2 8 10 2 10 10 10 10 10 2 2 10 2 2 2 2 10 2 2 10 2 2 2 2 2 10 10 10 8 2 10 2 2 2 2 2 2 8 10 2 2 2 2 2 8 10 2 10 2 10 2 10 2
left_child=2 5 6 9 13 21 14 8 30 10 49 18 19 43 -1 29 17 -8 25 22 34 -2 35 28 -11 39 -13 51 53 -15 44 -10 -28 -33 -14 36 -7 62 -25 -6 50 -34 -37 -4 -5 46 -16 -9 -49 -3 -19 -26 -41 54 -12 -44 -57 -43 -22 -60 -29 -61 -32
right_child=1 3 4 7 11 12 16 47 31 24 23 26 20 15 45 -17 -18 40 -20 -21 58 -23 -24 38 27 -27 32 60 -30 -31 37 33 41 -35 -36 42 -38 -39 -40 52 -42 57 55 -45 -46 -47 -48 48 -50 -51 -52 -53 -54 -55 -56 56 -58 -59 59 61 -62 -63 -64
leaf_value=0.061418117733594915 0.062173874388369167 -0.047987701564639169 -0.061065774971342912 -0.022680279781662052 -0.018173396609301836 0.017963720456438275 0.024422939998227925 0.045293773535650499 0.017340271376012111 -0.054990623939669761 -0.0071229408840717164 -0.00073729015046917709 0.03777438733507095 -0.014287278366827744 0.034946548212640163 -0.053904888342808467 0.027113818340012488 -0.0083768382881001056 0.018918025011695101 0.047158717228381025 0.042268271962385334 0.051600576484525817 0.045983914237170118 -0.040900940173090698 -0.015749554794998493 -0.048030179770365562 -0.0680593002300144 -0.054051102519924725 -0.02776390993279057 -0.041560231201191275 -0.038337047786584928 -0.012875257778417123 -0.034179367890829357 0.0061752326738643394 0.020804373575915188 0.021778439024201415 -0.087535503454286998 -0.0014422554750817647 0.019659722846841751 -0.051628661107384004 -0.027005337484297315 -0.077843070069509024 0.040078371435673762 -0.053813962790115716 -0.0059180981364151449 0.043054270005725481 -0.0010396091654344649 0.00045158479022639202 0.023896265049901798 -0.033964431885566172 0.016020218770810904 -0.038115078578339935 -0.030383130368054963 0.015407137309927158 -0.066884340375535423 0.036526481843573863 0.024786767371997167 -0.011423313671101949 -0.0073532745175908304 0.035979375307166904 -0.043478410100252836 0.0054182220472413153 -0.011417822557515587
leaf_weight=2191.8697422984987 7533.7346491664648 3864.1591729724314 12326.728024803335 1763.6748257868458 840.57053667679429 99.912921224720776 1163.8057681582868 306.50057393638417 1333.5810246150941 7534.6251146579161 1992.8959911903366 1210.8351143032778 1105.7875056238845 727.02917618816718 721.6840959014371 3418.4822983914055 2844.0363210262731 784.3185361311771 173.27475399046671 8745.8461408077274 2571.224602364935 8411.207722954452 3845.5685218034778 829.93308683810756 308.6484011800494 2352.1888010320254 116.55527888890356 2838.8559432085603 1045.8557570348494 1166.9741770627443 1914.6911228569224 1130.1606343317544 615.40437810774893 1961.3062395123998 4883.6547017092817 1001.4931543106213 34.9595453357324 221.38304634718224 70.530623158439994 484.59782519284636 392.77945656236261 29.785195696167648 4301.9120229072869 4937.3897415299434 1000.2355583617464 3731.4560982910916 182.99689600523561 361.56527112791082 1792.3010647423216 969.04835220472887 367.13897850643843 2033.8739136620425 737.01457581529394 250.79255203250796 57.083633628673851 2694.3760019084439 1523.4970366507769 1493.7591871392797 113.75066521391273 2125.79988859687 1877.916239149461 140.4593787509948 185.01791903795674
leaf_count=37001 55731 1865348 3792880 60494 25333 2017 34393 1877 137297 389279 387336 154955 4756 170153 29445 179322 18724 12346 1401 27838 8734 42136 19101 274151 10782 117067 48694 164895 390680 521068 79432 198755 220379 133917 42134 17602 2732 6393 2047 22735 8882 16446 22792 894234 20360 35781 1839 3373 13502 441640 2134 95084 27078 42755 33586 15482 9136 207626 460 8394 76368 433 5629
internal_value=0 0.0127298 -0.0248469 -0.0300212 -0.0484231 0.0437444 0.0334849 -0.00369204 -0.0106278 -0.043334 -0.0323877 -0.0275178 0.0375699 -0.0558809 0.0469106 -0.0457714 0.0169739 0.00632485 -0.0375761 0.0412816 0.0300221 0.0565963 0.0374746 -0.0178345 -0.0501447 -0.0397937 -0.0142057 -0.0449725 -0.0129044 -0.0310913 -0.023944 0.00467454 -0.021436 -0.000789136 0.0239374 0.0340858 -0.00938215 -0.0326723 -0.0361574 -0.0303988 -0.00731468 -0.0188954 0.0347016 -0.0589918 -0.0166142 0.0400517 0.0276673 0.0231165 0.0199607 -0.0451761 -0.000597906 -0.0351682 -0.038811 -0.0061498 -0.00878705 0.0362207 0.0322861 -0.0127218 0.0373828 0.0321047 -0.0498417 0.0340852 -0.035965
internal_weight=0 84777.8 43010.7 35644.6 30630.6 49133.2 12380.1 11970.4 9510.05 23674.2 9080.3 8053.99 33188.2 22576.6 6828.01 5312.49 5552.08 2708.04 4587.65 22247.6 10940.7 15944.9 13501.7 4247.09 14593.9 4414.37 3466.34 7059.29 3346.63 1894 5085 4425.05 2255.5 3091.47 5989.44 9656.15 134.872 2321.09 900.464 2062.18 1544.24 2138.95 9521.28 17264.1 2763.91 4636.14 904.681 2460.37 2153.87 4833.21 1151.46 2342.52 1221.61 2300.77 2049.98 8519.79 4217.87 1523.54 4951.23 2380.01 4716.77 2266.26 2099.71
internal_count=11694374 5114458 6579916 4834980 6399371 279478 180545 661029 642277 4173951 3437543 841714 181611 5557657 104066 870543 76479 57755 193614 116700 64911 97867 88862 1130555 736408 192213 648100 347129 854357 691221 172308 469969 493145 332672 46890 69761 4749 91454 276198 75146 23362 444451 65012 4687114 80854 67065 31284 18752 16875 2306988 14480 105866 49813 463677 420922 47410 24618 224072 18021 9287 241263 8827 85061
is_linear=0
shrinkage=0.05


Tree=10
num_leaves=64
num_cat=0
split_feature=1 1 20 20 21 21 1 14 4 20 17 16 20 20 1 4 14 4 4 20 15 4 14 22 3 1 3 16 14 1 12 14 4 11 14 1 14 13 16 20 2 3 4 1 21 4 4 15 17 1 11 3 2 12 11 1 12 2 4 14 1 12 3
split_gain=72268.7 6995.03 2179.37 1662.27 1484.7 501.998 595.04 476.378 351.927 287.951 264.848 237.061 285.8 223.098 197.377 187.283 176.808 162.799 137.43 127.975 122.21 117.933 117.505 114.593 114.134 110.292 99.2072 98.4198 96.5789 95.6257 90.4793 86.4593 86.4439 82.9516 80.2386 77.1614 73.9552 68.6426 65.577 82.5076 65.1887 64.8128 61.8925 61.8811 61.2272 60.6042 60.1374 59.2673 69.4641 59.1748 58.8763 57.9327 57.3005 56.4303 64.1637 56.1765 55.7289 54.7935 53.2312 53.1986 53.0395 51.4944 52.9947
threshold=1.0000000180025095e-35 2.0121523141860966 3.5000000000000004 19.500000000000004 13.500000000000002 42.500000000000007 1.0008746981620791 0.017711497843265537 0.20997209101915362 5.5000000000000009 0.017492860555648807 1.5000000000000002 1.5000000000000002 8.5000000000000018 6.0167899131774911 0.13895753026008609 0.059844108298420913 0.14263036102056506 0.21918711811304095 19.500000000000004 0.010484945960342886 0.11067828163504602 0.07133433967828752 1.5000000000000002 62.500000000000007 0.91031357645988475 92.500000000000014 7.5000000000000009 0.049514379352331168 3.1282963752746586 1.0000000180025095e-35 0.094380114227533354 0.17855554074048999 35.500000000000007 0.008424059487879278 7.7547760009765634 0.065489187836647048 0.038279118016362197 3.5000000000000004 18.500000000000004 468.50000000000006 1013.5000000000001 0.10501584783196451 3.1282963752746586 2.5000000000000004 0.21918711811304095 0.11429444700479509 0.0088574029505252855 0.21778655797243121 3.1282963752746586 5.5000000000000009 319.50000000000006 2667.5000000000005 1.0000000180025095e-35 33.500000000000007 3.1282963752746586 1.0000000180025095e-35 468.50000000000006 0.42397411167621618 0.13645491003990176 6.9998447895050058 998.50000000000011 9010.5000000000018
decision_type=2 2 10 8 8 8 2 2 2 10 2 2 10 10 2 2 2 2 2 10 2 2 2 10 2 2 2 2 2 2 10 2 2 10 2 2 2 2 2 8 2 2 2 2 10 2 2 2 2 2 10 2 2 10 10 2 10 2 2 2 2 8 2
left_child=2 5 11 4 9 19 16 10 13 17 -4 -1 -13 26 45 27 32 -3 38 21 37 -2 46 50 -15 -21 -9 31 40 -19 33 49 -7 -28 44 -5 -23 -10 41 -40 -17 -8 -18 -30 -12 -11 -14 56 -49 52 -22 60 -6 54 -26 -42 -37 -20 -52 61 -16 -39 -63
right_child=1 3 7 35 15 6 18 8 20 14 34 12 22 24 51 28 42 29 57 25 23 36 -24 -25 53 -27 30 -29 43 -31 -32 -33 -34 -35 -36 47 -38 59 39 -41 55 -43 -44 -45 -46 -47 -48 48 -50 -51 58 -53 -54 -55 -56 -57 -58 -59 -60 -61 -62 62 -64
leaf_value=0.063254173704585567 -0.060097150515681576 -0.035122608619552083 0.026749493044446779 0.0089039969985805958 -0.014729971756199379 -0.056074546289915039 -0.020119771109496684 0.043174918889173741 0.052335467027519969 -0.050292937993149725 -0.0014979975856098202 0.058409880807424035 0.035858777785789463 0.036021955340906874 0.066169928559340827 0.0057343510018426089 -0.04837616653919951 -0.028653537139346753 -0.0030784274601057295 -0.050023662520692604 -0.010621792834047171 -0.054978556232525282 0.049730072864265645 0.018333927508886762 0.0030198119219224163 -0.019793397839351794 0.0093537729293886613 -0.030317229307368389 -0.0034149709495998703 -0.012524259197670329 0.031157284718013975 0.0083542717812041516 -0.044712791012108649 -0.089357633322374938 0.017519414423444939 0.0076214274216957938 -0.046674433524590442 0.037855999911688698 -0.045759052008384607 0.010514305316570098 -0.027059646914195878 -0.041274502574012113 -0.033037381189851521 0.012944087227315893 -0.027019521272991572 -0.038505320070222344 0.044520586948226464 0.031800661676823515 0.0018736428289728262 -0.0082553799573317054 0.03490157067057869 -0.02932793224621837 -0.039323414318816148 0.018631855425966008 -0.084515777930581293 -0.0063404335309294379 0.039091899255809498 -0.025487119486179901 0.046983307271387359 0.047709465627296402 -0.010894051693104182 -0.057257660935537719 0.038272075028047324
leaf_weight=3208.7044828915969 9031.6309034086298 2412.7302834813017 1629.523387751542 1027.9694195685006 725.00263377465308 5837.0107921110466 1219.3324968854431 1897.7591443201527 1801.9513929923996 2626.428579678759 816.42029580287635 5767.0987529524136 3057.9991304976866 1030.2256772443652 24.239166699815542 747.27043236372992 1013.5477476944216 1475.4563330108067 695.85403638565913 893.88352378411219 63.60196010582149 9859.9399317412172 8627.6238294853829 958.66800113022327 102.08130648965016 455.4443306196481 105.63879258744419 718.96045453188708 869.73093459475785 2436.2948561625089 8002.2493084778544 541.79332356248051 2347.3506418627221 26.652502885088325 385.71579326037318 168.18210443042335 3682.5109370283317 3064.6661363588646 1006.0405781138688 69.646448381245136 453.11688665626571 514.98072446114384 1872.9109972112346 1723.816043383209 329.98670129012316 1864.4927022298798 5813.0869312575087 359.72819421766326 420.61464070877992 2023.4373933449388 3814.627025634516 1117.7936834547436 351.75226874859072 5051.8928567948751 26.335070860572159 1176.8058299320983 860.06945183034986 448.697181369178 1198.0139071904123 1829.3877133410424 283.07778526027687 29.144303813576698 28.926977904513478
leaf_count=72181 579709 111378 48378 12669 221574 4055188 443098 7919 6582 162556 14495 20526 48508 4722 179 66868 696230 55514 102846 28285 296 511386 41475 2601 2226 11418 2806 199801 110339 59632 61028 102236 989569 2539 2567 1573 183941 11049 426686 4904 98669 290099 705979 107866 7062 74965 30274 2154 2972 361817 16554 44312 176523 44761 2073 113149 5177 106001 3950 5693 6024 291 120
internal_value=0 -0.0371272 0.039887 -0.0161407 -0.0208721 -0.0502791 -0.0431165 0.0311479 0.0331551 -0.0323252 0.0127172 0.0505139 0.0487568 0.0282703 -0.0402544 -0.00584896 -0.0490634 -0.0249082 -0.0264681 -0.0547777 0.0393591 -0.0556718 0.0455754 0.0341884 0.0208226 -0.0398199 0.0328808 -0.0134114 0.000785716 -0.018608 0.0304793 -0.010074 -0.0528159 -0.0105334 -0.00220711 0.0198424 -0.0527205 0.0439793 -0.0324169 -0.0421156 -0.00649402 -0.0264014 -0.0384234 0.00745817 -0.00884422 -0.0453991 0.0415347 0.0260596 0.0156696 -0.0132945 0.0371825 -0.024042 -0.0227641 0.0177998 -0.0149316 -0.0121004 0.0339445 -0.0118633 0.0377891 0.0409387 -0.00481575 0.0369722 -0.00967155
internal_weight=0 63357.5 58668 24408.8 21572.2 38948.8 15025.4 32193.5 29031.8 12240.5 3161.65 26474.5 23265.8 16242.8 5916.03 9331.69 11070.8 6324.48 3954.55 23923.4 12789 22574.1 17498.7 6034.91 6210.53 1349.33 10032.3 4360.95 4970.74 3911.75 8134.54 3641.99 8184.36 132.291 1532.12 2836.56 13542.5 6754.08 2810 1075.69 2377.19 1734.31 2886.46 2593.55 1146.41 4490.92 8871.09 1808.59 780.343 3100.19 5076.24 1425.11 1076.75 5180.31 128.416 1629.92 1028.25 1144.55 5012.64 4952.13 307.317 3122.74 58.0713
internal_count=11693962 11233286 460676 2097947 2073402 9135339 7820600 247712 175210 514560 72502 212964 140783 128074 288036 1558842 6446966 226524 1373634 1314739 47136 1275036 120257 23401 53782 39703 74292 1061951 496891 115146 66373 862150 5044757 5345 24124 24545 695327 23735 1164787 431590 278686 733197 1402209 218205 21557 237521 78782 11876 5126 759914 20800 50515 398097 49060 4299 211818 6750 208847 20504 17153 6203 11460 411
is_linear=0
shrinkage=0.05


Tree=11
num_leaves=64
num_cat=0
split_feature=1 1 16 1 16 16 16 14 16 16 10 1 4 4 14 17 17 17 14 3 1 16 12 1 16 3 12 14 3 13 16 4 9 16 12 4 16 17 12 10 13 1 16 17 4 14 15 22 1 15 1 13 1 15 14 14 4 4 11 13 14 15 13
split_gain=64217.9 6360.45 1805.78 1317.48 1046.03 671.062 637.094 556.829 266.193 261.038 259.687 225.956 207.88 186.021 182.305 171.25 153.464 153.43 141.026 139.449 137.834 128.733 123.897 122.673 119.79 106.81 106.416 104.277 102.348 102.263 94.1254 90.9628 86.1192 83.1404 75.2707 73.4434 68.4494 68.2503 68.1049 67.293 66.1591 66.0268 65.0212 58.6889 60.9825 58.4931 57.1738 80.8435 64.3938 55.5574 55.0979 54.5141 54.1175 53.8436 52.4696 52.3019 51.4612 48.5838 48.1175 47.7969 46.5286 46.2878 46.0662
threshold=1.0000000180025095e-35 3.1282963752746586 6.5000000000000009 1.0608283877372744 4.5000000000000009 33.500000000000007 3.5000000000000004 0.01968367770314217 2.5000000000000004 11.500000000000002 631.50000000000011 6.0167899131774911 0.11740222945809366 0.21432754397392276 0.015768752433359626 0.017492860555648807 0.10063291341066362 0.16585760563611987 0.090991888195276274 1198.5000000000002 1.9971756935119631 9.5000000000000018 12.500000000000002 7.0031185150146493 1.5000000000000002 124.50000000000001 2931.5000000000005 0.067579276859760298 3104.0000000000005 0.023971891030669216 21.500000000000004 0.17189214378595355 1.0014362931251528 7.5000000000000009 1.0000000180025095e-35 0.23743592202663424 1.5000000000000002 0.95643937587738048 3.5000000000000004 382.50000000000006 0.096076831221580519 2.9459991455078129 2.5000000000000004 0.066228073090314879 0.023151497356593612 0.063611347228288664 0.0080972984433174151 3.5000000000000004 10.172941207885744 0.066207021474838271 2.9459991455078129 0.030311234295368198 14.936446189880373 0.083432778716087355 0.018900400027632717 0.0032953311456367378 0.091939799487590804 0.096402119845151915 19.500000000000004 0.067882686853408827 0.07133433967828752 0.005420094123110176 0.083350788801908507
decision_type=2 2 2 2 2 2 2 2 2 2 8 2 2 2 2 2 2 2 2 2 2 2 10 2 2 2 8 2 2 2 2 2 2 2 10 2 2 2 10 10 2 2 2 2 2 2 2 10 2 2 2 2 2 2 2 2 2 2 10 2 2 2 2
left_child=2 3 8 12 10 6 27 15 36 25 24 19 43 18 17 -4 30 -10 34 33 -6 39 -17 -7 -5 49 35 31 54 -12 45 -3 -16 -8 -11 -27 -1 59 -31 41 -23 -22 -40 44 -2 -14 -25 -48 -49 -9 -26 -15 -50 -36 -13 -19 -34 -20 -28 -18 -41 -30 -46
right_child=1 5 7 4 20 23 11 9 14 13 29 28 16 51 32 22 37 55 57 -21 21 40 -24 46 50 26 58 -29 61 38 -32 -33 56 -35 53 -37 -38 -39 42 60 -42 -43 -44 -45 62 -47 47 48 52 -51 -52 -53 -54 -55 -56 -57 -58 -59 -60 -61 -62 -63 -64
leaf_value=0.061948718241847223 -0.06099544607922186 -0.010796803759938328 0.023282581042187306 0.0013516953227634496 -0.012590037204199317 -0.0029848465159402378 -0.011838939812440693 0.048330488235090611 0.039674062904060781 -0.048615290404735723 -0.052918724224804481 -0.023754992302088669 -0.046845954006826902 0.045392090434401677 0.050690604451581613 -0.012966911354864386 -0.05545478825822623 0.00037537211173144285 0.023196532347503178 -0.037490942456839586 -0.038907528698938529 -0.052184713068163885 0.015780714197576415 0.028568847106964907 -0.023286481353872047 0.032525276258333097 0.01553072991053934 0.012978128599716039 -0.053962501271354428 -0.06188418132811313 -0.016112352997220702 0.0061522879537520316 0.036250791520161758 -0.027799410995513113 0.019637505401534569 0.043046261546567439 0.052336637469053704 -0.026019959464403108 -0.018955832483872226 -0.048022078706498258 -0.035390887998207499 -0.019174048271701886 -0.034408407332888843 -0.060198548582609125 -0.051863607744198507 -0.035063843386230191 0.022339084668922114 0.025951817403974967 -0.05278214409959802 0.028538929089151916 -0.0085693290836411154 0.032689667297424591 -0.0015769238591895199 -0.0071445312755583348 -0.0013918719050090124 0.034664047556896727 0.045445073828121081 0.034522530288315804 -0.064250332604502428 -0.046410263041825203 -0.032398588480192683 -0.020075981784727984 -0.0355914419231321
leaf_weight=2986.674810456112 1739.891347510973 1776.8103664307855 1187.4098395062611 1232.6657061809674 323.55860013095662 745.49766163509048 1413.7983190261293 2897.8391376538202 1381.2739686658606 42.036110308486968 441.54977004614193 305.11676322529092 3678.9048570015002 973.34314970672131 7345.8345784088597 968.93339031562209 6220.8895192546188 435.81717810453847 1467.6092205187306 2099.8242570087314 1218.1925132500473 5533.3956383608747 611.23205735906959 1076.129828694684 1616.9419120715465 5386.0808646322694 38.297626789659262 1433.5119762280956 114.25872023683041 134.32184244832024 334.76672634668648 1427.6671154997312 1984.6873009405099 1929.536193007254 4736.0884721158072 2396.9228633297607 4875.8034058976918 235.37565337843262 1623.3318627367262 2058.1412997173611 655.97138225939125 650.10328755760565 1172.4249682161026 7064.1208117201459 3176.5196659532376 1476.0659915881697 567.70361807188601 87.991743629332632 95.378927698824555 404.02349854260683 1048.2378338682465 6388.1770977559499 112.41789589903783 195.4097717218101 1868.7069074306637 149.316092280671 6526.6066871909425 2668.3813019874506 37.311948913149536 1908.9662957990076 620.13101141899824 853.94407487323042 503.94478151225485
leaf_count=72261 1630834 263037 34049 287773 8859 14609 84610 10168 31544 2420 164221 21019 1753749 3575 31440 19845 339688 3766 11142 196550 139721 521404 4421 9210 257145 36631 874 114594 14561 125556 15838 80128 27502 118928 35092 8244 53125 11592 495061 301262 51148 48164 206120 468007 2203124 576808 6010 598 668 1550 100231 23491 576 2102 76617 613 32619 11616 2217 98427 84799 56661 285568
internal_value=0 -0.0356842 0.038564 -0.045353 -0.0350592 -0.00853544 -0.013163 0.030317 0.0483243 0.0324586 -0.0203262 -0.0212297 -0.0525162 0.0284583 0.0449436 0.00893474 -0.0482997 0.0305838 0.0236816 -0.0273926 -0.0447432 -0.0457122 -0.00184689 0.0142536 -0.011537 0.0383625 0.0351919 0.00176884 -0.0105532 -0.0304872 -0.0418039 -0.0032456 0.0467243 -0.0210502 0.0180084 0.0357654 0.0559879 -0.0525626 -0.0271069 -0.0393241 -0.0504048 -0.0320409 -0.025436 -0.0571956 -0.053282 -0.0434723 0.0208792 0.0112959 -0.00989907 0.0459087 -0.0174981 0.0343692 -0.0250802 0.0185763 -0.00453075 0.00912526 0.0433011 0.0305036 -0.0238398 -0.053331 -0.0444046 -0.024075 -0.0496356
internal_weight=0 60576.7 56085.1 44668.4 18329 15908.3 13223.2 30399.1 25686 27631.5 7269.47 8585.19 26339.4 16471 17823.5 2767.58 13855 1966.41 9109.52 5443.16 11059.5 10735.9 1580.17 2685.12 3897.85 11160.5 7858.61 4637.99 3142.03 3371.63 5489.74 3204.48 15857.1 3343.33 4973.53 7783 7862.48 8365.23 2930.08 4546.57 6189.37 1868.3 2795.76 12484.5 5420.36 5154.97 1939.62 863.492 295.789 3301.86 2665.18 7361.52 207.797 4931.5 2173.82 585.133 8511.29 4135.99 75.6096 8129.86 2678.27 968.203 3680.46
internal_count=11693782 11233475 460307 10175099 2791464 1058376 1026705 207437 252870 149122 1636107 568946 7383635 89438 127484 58315 2796102 35923 62372 400088 1155357 1146498 24266 31671 645149 59684 47966 457759 168858 990958 2346395 343165 91561 203538 39614 44875 125386 449707 826737 573946 572552 187885 701181 4587533 4119526 2330557 17062 7852 1842 11718 357376 27066 1244 37194 97636 4379 60121 22758 3091 438115 386061 71222 2488692
is_linear=0
shrinkage=0.05


Tree=12
num_leaves=64
num_cat=0
split_feature=1 1 20 20 17 14 1 16 20 16 16 4 1 4 16 12 1 3 16 20 17 20 4 3 4 15 16 17 4 3 4 12 17 4 1 4 12 13 13 0 4 14 4 15 6 4 13 1 14 13 17 1 17 3 2 4 16 16 2 12 4 13 1
split_gain=57030.1 6029.38 1879.82 1258.46 1297.49 504.413 489.422 465.125 286.254 271.064 238.312 238.164 190.611 187.882 177.871 155.37 147.903 139.995 132.258 147.761 119.374 118.02 104.698 102.66 93.5926 91.9442 89.9821 89.4614 84.7905 78.9212 68.9986 67.6886 67.3801 69.0655 64.9509 62.4006 73.3871 61.3104 61.0289 60.7586 59.2365 58.1937 56.8028 54.8579 53.6961 52.4966 50.1022 49.3325 48.9967 48.2504 47.3208 47.1464 46.4333 46.4203 44.8148 44.3418 48.0026 43.5185 43.24 61.376 45.1225 43.1165 41.8009
threshold=1.0000000180025095e-35 2.0121523141860966 2.5000000000000004 19.500000000000004 0.02312215976417065 0.039226677268743522 1.0008746981620791 4.5000000000000009 5.5000000000000009 6.5000000000000009 9.5000000000000018 0.2532948106527329 6.0167899131774911 0.17013210058212283 3.5000000000000004 7.5000000000000009 5.9736335277557382 156.50000000000003 1.5000000000000002 1.5000000000000002 0.099382717162370696 19.500000000000004 0.20732035487890246 110.50000000000001 0.17189214378595355 0.19782608747482303 14.500000000000002 1.0000000180025095e-35 0.099032267928123488 944.50000000000011 0.42397411167621618 1.0000000180025095e-35 0.066228073090314879 0.03263500705361367 6.9998447895050058 0.044536558911204345 1.0000000180025095e-35 0.030580366961658004 0.024322390556335453 647835.00000000012 0.30584450066089636 0.044879788532853133 0.17189214378595355 0.016701534390449527 5.3784847259521493 0.083447363227605834 0.12505666166543963 6.9998447895050058 0.073561243712902083 0.05163251422345639 0.059173669666051872 9.9245924949646014 0.95643937587738048 1306.5000000000002 1489.5000000000002 0.10203811898827554 1.5000000000000002 1.5000000000000002 88.500000000000014 2372.5000000000005 0.34926457703113561 0.019412765279412273 5.9736335277557382
decision_type=2 2 10 10 2 2 2 2 10 2 2 2 2 2 2 10 2 2 2 8 2 10 2 2 2 2 2 2 2 2 2 10 2 2 2 2 10 2 2 2 2 2 2 2 10 2 2 2 2 2 2 2 2 2 2 2 2 2 2 8 2 2 2
left_child=2 6 18 4 14 10 13 17 23 22 42 28 26 32 24 27 29 57 -1 -20 39 40 62 25 49 -7 58 -12 -10 61 -17 -19 33 -2 -14 -25 45 -13 -33 -15 -9 -21 -4 -30 -45 -37 -35 -24 -41 54 -23 -18 -22 -36 -3 -40 -57 -8 -11 60 -60 -16 -6
right_child=1 3 5 -5 9 8 7 21 11 12 15 37 34 20 16 30 51 31 19 41 52 50 47 35 -26 -27 -28 -29 43 -31 -32 38 -34 46 53 36 -38 -39 55 48 -42 -43 -44 44 -46 -47 -48 -49 -50 -51 -52 -53 -54 -55 -56 56 -58 -59 59 -61 -62 -63 -64
leaf_value=0.060743583898197388 -0.059033749144933381 -0.00098570715802645645 0.024204475777171913 0.018200582940776554 -0.029514046660064953 0.048904349148595344 0.0011792333757991234 -0.050686472463219362 0.01793841019895296 -0.012216182306981144 0.012106317503186132 0.053294392151157992 0.040821673654797962 -0.045913595975683522 -0.039414889503889911 0.015729426338746279 -0.0067503290779336658 -0.070424729992211013 0.055789615634337666 0.039075242251347703 -0.050967001918979897 0.0040853041523154455 -0.013163141735014209 0.017144084631697282 0.008566547441824425 0.018639519634173523 -0.046345838057448435 -0.013599755274113605 0.031435027738262143 -0.035487330696866777 0.040710386109369993 -0.049719176812163333 -0.057467532064416571 -0.048975701054023039 -0.014217160709292534 0.028283533642921188 0.037818020195703211 0.035940462210114231 -0.037323373603838722 -0.037332977416700518 -0.037882430161077674 0.047649801478165499 0.036607264647103996 0.013245328858739511 0.027251475233458708 -0.089030991410177535 -0.027728259671428529 0.01224288012646458 -0.019510097877769618 0.0020245880311098251 -0.03407966085191623 0.014415094649626998 -0.025231573437729877 -0.0305095167583758 -0.017366455196498688 -0.0070726299702387283 -0.027677296202150831 -0.017920139610427606 -0.036952060292818084 -0.069247329904311969 -0.020637472061937168 -0.010912981014342701 -0.011945275327605892
leaf_weight=2730.2806146293879 1852.0073280963115 737.66851580003276 2446.4448501951993 2597.4934468018764 1843.6839840327157 3323.9108756845817 429.7842776812613 4857.2736757859821 3047.603741585277 214.56751840282232 615.72716557700187 565.18967821262777 41.537167947972193 1525.580688574817 152.06086026085541 2864.9454463212751 857.78011651290581 108.66615278087556 4884.4481516510714 2829.7984745688736 5462.0841489466256 142.65920235170051 1529.9883979264414 394.27303355373442 2404.6040203440934 271.44407896138728 2685.3453030569362 751.60541228065267 4388.8852602038532 721.85592931206338 305.93234421871603 338.545684442739 9010.5661810962483 4501.9456723602489 866.24278184314608 18.657474609091878 8304.3962445612997 5115.152164926054 669.14533360942733 1468.6012378963642 1109.6718307847623 6579.5720653152093 1482.5924400221556 1004.3034419473261 2147.6044793687761 19.505478109233081 295.6712290821597 218.34090742073022 522.91495438036509 1509.9859446384944 188.58875942567829 379.51842403784394 181.08043274166994 882.7111421393929 962.11278970120475 400.90956717915833 958.3918400616385 974.48757625697181 2279.1484108519508 128.58067382429726 520.6334285242483 1041.5632195044309 414.72357087908313
leaf_count=72032 1883927 161524 53786 23485 86682 12155 110802 636556 38285 7812 20202 1815 340 703513 36414 22534 111370 84502 20371 32724 300298 5144 43139 9745 206537 1236 154540 16579 23902 246218 1201 122675 619324 2947152 24434 835 45795 18905 305795 609357 75243 37364 11645 5607 12763 1070 148125 3888 162892 296730 4552 36310 7826 37798 270490 113797 149107 144496 120038 10349 16276 191055 13358
internal_value=0 -0.0344695 0.0369059 -0.0145771 -0.0187521 0.0305891 -0.0475367 -0.0383034 0.0337627 -0.0297045 0.0198695 0.0294076 -0.0352412 -0.051323 -0.00422893 0.0120645 -0.0137327 -0.0246853 0.0506599 0.0487338 -0.0456351 -0.0466927 -0.0191764 0.039508 0.00110799 0.0466194 -0.0396247 -0.00202399 0.0249765 -0.0224365 0.0181396 -0.0318384 -0.0546501 -0.0508322 -0.0209725 0.0365815 0.0375001 0.0376672 -0.0300669 -0.038405 -0.0483053 0.0450711 0.0288846 0.027821 0.0227886 -0.0316771 -0.0476662 -0.0099903 -0.0326532 -0.00447961 -0.0176431 -0.000258227 -0.0501412 -0.02244 -0.0102576 -0.026787 -0.0216002 -0.0120747 -0.033882 -0.0354695 -0.0339183 -0.014544 -0.0262878
internal_weight=0 57988.7 54092.3 22990.1 20392.7 37068.2 34998.6 10178.1 28600.9 11625.5 8467.25 16268.7 7618.77 24820.5 8767.15 4538.21 3152.78 3879.93 17024.1 14293.8 9160.26 6298.19 4006.74 12332.2 5614.37 3595.35 5828.28 1367.33 10588.4 1915.48 3170.88 2475.66 15660.2 6649.62 1790.49 8736.83 8342.56 5680.34 2366.99 3517.1 5966.95 9409.37 3929.04 7540.79 3151.91 38.163 4797.62 1748.33 1991.52 3209.77 331.248 1237.3 5643.16 1748.95 1699.78 2028.45 1359.3 1404.27 3142.93 2928.36 2799.78 1193.62 2258.41
internal_count=11694421 11233870 460551 2098787 2075302 298060 9135083 1752669 172113 518654 125947 101277 371587 7382414 1556648 60516 621367 1031174 162491 90459 1783886 721495 147067 70836 935281 13391 309015 36781 80557 473687 23735 775876 5598528 4979204 62572 57445 47700 20720 691374 1475762 711799 70088 65431 42272 18370 1905 3095277 47027 772249 728744 9696 147680 308124 62232 432014 568699 262904 255298 154475 146663 136314 227469 100040
is_linear=0
shrinkage=0.05


Tree=13
num_leaves=64
num_cat=0
split_feature=1 20 20 21 1 1 1 14 1 16 20 20 4 20 20 4 12 4 20 16 4 10 4 21 10 1 1 3 3 4 15 3 1 4 10 12 14 4 21 14 12 11 4 10 12 16 1 1 22 17 15 1 14 20 15 3 21 4 12 1 4 14 12
split_gain=50932 1838.46 1795.49 1588.65 2579.08 1347.05 851.242 468.904 409.216 267.147 255.076 253.752 212.486 181.963 180.532 149.196 147.212 124.472 118.46 107.887 99.1656 96.2705 89.9429 81.8949 79.9261 79.5517 78.7944 75.5603 73.9898 86.736 85.392 72.9481 72.4616 71.311 62.2168 80.4027 61.2937 60.0414 57.7315 96.775 57.5583 61.9485 56.5387 54.9086 54.4573 53.0008 52.7394 50.6593 50.3581 45.6261 73.9615 64.41 45.1341 42.8011 42.6748 41.7677 40.0846 39.4694 39.2899 39.1745 38.9245 38.4065 47.2364
threshold=1.0000000180025095e-35 19.500000000000004 2.5000000000000004 8.5000000000000018 1.8785130977630617 2.0121523141860966 1.7592167854309084 0.058860385790467269 3.1282963752746586 11.500000000000002 6.5000000000000009 1.5000000000000002 0.10002119466662408 1.5000000000000002 5.5000000000000009 0.13895753026008609 544.50000000000011 0.20254787802696231 3.5000000000000004 5.5000000000000009 0.42397411167621618 694.50000000000011 0.19838108867406848 1.5000000000000002 154.50000000000003 3.1282963752746586 6.0167899131774911 62.500000000000007 273.50000000000006 0.15244455635547641 0.16472868621349337 897.50000000000011 6.0167899131774911 0.083039347082376494 867.50000000000011 1.5000000000000002 0.01968367770314217 0.066311221569776549 1.0000000180025095e-35 0.008424059487879278 1.5000000000000002 17.500000000000004 0.22389476001262668 317.50000000000006 704.50000000000011 1.5000000000000002 1.242246747016907 0.88301613926887523 1.5000000000000002 0.14833150058984759 0.0068060297053307304 9.7386388778686541 0.06314717605710031 6.5000000000000009 0.19782608747482303 113.50000000000001 1.5000000000000002 0.23180313408374789 667.00000000000011 5.3776509761810312 0.17683403939008716 0.083424910902977004 100.50000000000001
decision_type=2 10 10 8 2 2 2 2 2 2 10 10 2 10 10 2 8 2 8 2 2 10 2 10 10 2 2 2 2 2 2 2 2 2 10 10 2 2 10 2 10 10 2 10 8 2 2 2 10 2 2 2 2 10 2 2 10 2 10 2 2 2 10
left_child=2 3 11 5 16 17 23 10 13 15 22 -1 -12 21 27 -7 24 46 34 31 -14 -6 38 -3 -5 -17 57 54 30 58 33 -15 43 -16 -10 -36 -37 -13 -4 -40 41 -8 -29 -20 -34 -26 -2 -25 -32 59 51 -51 -19 -48 -9 -28 -27 -11 -30 -42 -21 -38 -63
right_child=1 6 7 4 8 9 40 14 18 26 12 37 20 19 28 25 -18 52 32 60 -22 -23 -24 47 45 56 55 42 29 -31 48 -33 44 -35 35 36 61 -39 39 -41 49 -43 -44 -45 -46 -47 53 -49 -50 50 -52 -53 -54 -55 -56 -57 -58 -59 -60 -61 -62 62 -64
