tree
version=v3
num_class=1
num_tree_per_iteration=1
label_index=0
max_feature_idx=22
objective=lambdarank
feature_names=candidates candidate_scores aid_count aid_session_nunique aid_type_mean aid_hour_mean aid_hour_std aid_day_of_week_mean aid_day_of_week_std aid_ts_ratio aid_click_count aid_cart_count aid_order_count click_last_week_occurrence_ratio cart_last_week_occurrence_ratio order_last_week_occurrence_ratio session_count session_type_mean session_hour_mean session_day_of_week_mean session_click_aid_nunique session_cart_aid_nunique session_order_aid_nunique
feature_infos=[3:1855601] [0:46] [1:99786] [1:56024] [0:2] [0:23] [0:16.263456344604492] [0:6] [0:4.242640495300293] [1:1.0014579296112061] [1:94324] [1:11486] [1:3895] [0:1] [0:1] [0:1] [1:465] [0:2] [0:23] [0:6] [1:465] [1:86] [1:25]
tree_sizes=7244 7263 7216 7250 7224 7255 7248 7233 7254 7246 7235 7260 7254 7265 7256 7272 7242 7253 7235 7228 7260 7217 7258 7252 7252 7251 7264 7307 7237 7244 7264 7223 7280 7273 7243 7258 7245 7265 7275 7249 7334 7232 7223 7286 7243 7257 7250 7231 7274 7327 7280 7227 7233 7267 7255 7221 7243 7231 7272 7263 7276 7259 7253 7268 7248 7282 7268 7264 7298 7192 7246 7239 7211 7236 7273 7241 7269 7322 7228 7187 7252 7224 7271 7199 7193 7282 7196 7218 7216 7179 7210 7157 7184 7211 7173 7257 7279 7209 7159 7141 7187 7169 7222 7180 7294 7225 7186 7196 7171 7191 7136 7226 7185 7231 7224 7105 7272 7230 7186 7203 7180 7260 7204 7209 7242 7159 7195 7185 7155 7199 7278 7191 7188 7228 7196 7267 7216 7249 7120 7159 7254 7210 7148 7165 7090 7102 7152 7160 7212 7192 7171 7166 7192 7233 7202 7219 7093 7187 7125 7161 7157 7221 7140 7233 7086 7194 7199 7111 7162 7174 7218 7076 7085 7084 7189 7136 7118 7117 7213 7092 7184 7168 7231 7223 7194 7211 7213 7149 7045 7088 7172 7280 7154 7158 7210 7245 7052 7091 7126 7154 7190 7192 7216 7232 7175 7228 7201 7188 7043 7075 7055 7215 7181 7083 7228 7176 7185 7085 7150 7037 7167 7128 7111 7074 7132 7041 7231 7212 7178 7215 7260 7172 6975 7207 7139 7040 7121 7114 7032 7167 7061 7159 7119 7099 7230 7138 7208 7184 7185 7068 7065 7078 7067 7248 7032 7120 7044 7193 7084 7163 7201 7128 7177 7081 7083 7107 7048 7135 7030 7093 7191 7106 7129 7133 7060 7193 7076 7165 7080 7049 7159 7087 7191 7050 7077 7195 7017 7042 7208 7021 7195 7082 7219 7103 7177 7056 7034 7082 7134 7121 7067 7031 7174 7165 7197 7120 7195 7136 7169 7129 7200 7123 7166 7077 7238 7147 7056 7107 7180 7127 7016 7042 7226 7054 7117 7190 7062 7036 7162 7135 7108 7135 7226 7157 7140 7214 7166 7209 7135 7138 7177 7168 7122 7173 7082 7162 7191 7190 7192 7027 7140 7083 7092 7115 7039 7100 7151 7130 7227 7141 7145 7069 7158 7121 7148 7162 7141 7182 7226 7156 7183 7200 7104 7198 7162 7090 7080 7083 7172 7085 7144 7152 7200 7214 7048 7181 7088 7159 7126 7077 7105 7168 7191 7210 7050 7093 7110 7056 7193 7147

Tree=0
num_leaves=64
num_cat=0
split_feature=14 1 1 20 1 1 1 21 21 21 20 16 14 21 1 21 4 1 1 20 4 16 10 10 21 1 16 21 4 16 16 10 16 21 10 1 1 4 13 20 1 16 10 20 20 1 21 1 4 21 1 1 1 17 4 10 1 13 4 3 17 20 16
split_gain=23287.3 94995.9 38396 4232.1 3769.5 3014.34 1810.16 1683.43 1100.71 701.504 477.209 414.671 300.851 282.196 251.373 344.711 206.084 609.257 351.626 164.954 160.225 154.667 146.32 143.575 124.643 114.915 110.83 110.577 106.853 99.4489 95.1488 94.8872 84.6166 83.9982 82.3743 72.3843 71.1243 68.7802 65.1524 63.6447 57.1655 56.1405 53.5649 50.3985 49.8991 45.789 45.4113 44.0832 42.6342 59.7506 40.9897 40.7822 40.6812 39.856 39.6648 38.6938 37.9692 36.5497 34.3091 34.1372 33.7005 33.6229 33.3756
threshold=0.031236814334988598 1.0000000180025095e-35 1.0000000180025095e-35 19.500000000000004 3.0029894113540654 1.991152882575989 2.0115308761596684 12.500000000000002 19.500000000000004 11.500000000000002 19.500000000000004 8.5000000000000018 0.0050633235368877658 1.0000000180025095e-35 1.0001696944236758 17.500000000000004 0.14584141224622729 1.991152882575989 1.991152882575989 5.5000000000000009 0.33321768045425421 7.5000000000000009 697.50000000000011 107.50000000000001 1.5000000000000002 1.5349486470222475 5.5000000000000009 1.5000000000000002 0.17204572260379794 11.500000000000002 1.5000000000000002 485.50000000000006 11.500000000000002 1.5000000000000002 855.50000000000011 3.9972680807113652 7.0068192481994638 0.22333942353725436 0.010242764838039877 12.500000000000002 2.8086022138595585 7.5000000000000009 308.50000000000006 4.5000000000000009 16.500000000000004 2.8086022138595585 8.5000000000000018 3.9972680807113652 0.17204572260379794 26.500000000000004 6.0153117179870614 3.9972680807113652 0.99813616275787365 0.78759399056434642 0.15558236092329028 283.50000000000006 5.9895935058593759 0.069844648241996779 0.10240699350833894 637.50000000000011 0.070802006870508208 2.5000000000000004 5.5000000000000009
decision_type=2 2 2 10 2 2 2 8 8 8 10 2 2 10 2 8 2 2 2 10 2 2 10 10 10 2 2 10 2 2 2 10 2 10 10 2 2 2 2 10 2 2 10 8 8 2 8 2 2 8 2 2 2 2 2 10 2 2 2 2 2 8 2
left_child=2 19 11 4 8 24 14 20 25 10 29 61 13 -13 48 -16 18 53 -10 -2 32 28 41 43 -5 -3 34 -22 57 31 45 47 56 37 40 -24 -34 -27 -37 -15 -19 -11 -38 -17 -29 55 -7 -8 60 -50 -31 -33 -26 -18 -23 -20 -6 -9 -21 62 -4 -1 -32
right_child=1 3 6 5 7 46 9 21 16 22 -12 12 -14 39 15 23 17 26 30 58 27 54 35 -25 52 33 -28 44 -30 50 59 51 36 -35 -36 38 42 -39 -40 -41 -42 -43 -44 -45 -46 -47 -48 -49 49 -51 -52 -53 -54 -55 -56 -57 -58 -59 -60 -61 -62 -63 -64
leaf_value=0.096358850373842453 0.096829895266472552 -0.091382437732226651 -0.089683988197619274 -0.016002911199917615 -0.050174677191244625 0.079782597601308569 -0.053904676426438772 0.0046262666639960955 -0.081908457959232739 0.010643501549124995 0.05685530628505725 0.076521399106759716 0.081447874887919491 0.022896178549339521 -0.086380890877773273 -0.009722831230141657 -0.068547693394657064 -0.0099997127706713783 0.015268548815760586 0.080295143561736476 0.0072325473437808404 -0.030267769840296735 -0.056571067220134934 -0.063897073672514945 -0.086020254269468632 -0.078725816284393832 -0.045780907971004918 -0.044058343325204058 0.040215318602473585 -0.082795367068154976 -0.025631558063167737 -0.083387146545832513 -0.070474768396840276 -0.085551015559652693 -0.027291006334606877 -0.076152043028703778 0.020513573523220384 -0.057956988905085362 -0.013759013542693758 -0.02032614877451281 0.025404879769287122 -0.02777052443941045 -0.049259361789716821 -0.0549267674538561 0.011078429881784091 0.0011856563098511911 0.059159128536180022 -0.023829801486185253 -0.091833401647389706 -0.076334157109332404 -0.057123726525485308 -0.059182397600689156 -0.052098637593339207 -0.0084373726218642999 0.0047061728558287132 -0.050807994986470664 -0.031614382451560688 0.02814234662366193 0.089215233106347075 -0.062430812553124208 -0.096573811386055697 0.085714216063670565 -0.062340538289412641
leaf_weight=2106.7289744180744 14895.867739297071 4603.711126876995 3093.7866052430763 94.150300598586909 730.01997276378097 579.82479451550171 279.16814473975683 543.32455898082117 1502.6211462602078 437.6643083380186 79.853674470563419 263.95867465308402 798.10374661529204 293.16576700645965 1975.5642207390338 231.86720828752732 1412.2047689879837 255.98294344486203 27.146099602570757 1333.3353684061731 194.88892422575736 179.6887777117081 212.74787655856926 560.37301790661877 402.22320530674187 1181.1018221326522 253.52556846538209 384.13197630963987 572.57390328438487 907.15174461193965 164.7550318724825 297.67691194888903 794.0802876286034 2852.4655677891278 318.38881995924748 47.135668059927411 30.288538504042663 601.73167258119793 372.4609252436203 120.04503027989995 205.5747186334338 121.5208449800266 299.54875117004849 83.997612581588328 45.942346924741287 140.87951159512158 494.61271675524767 216.21054464834742 1736.0098901288002 968.84120083291782 187.65773709991481 418.93937675788766 113.27704677090514 28.125494133098982 147.71116157918004 120.52181835845113 442.62055400240934 237.44058755703736 5628.6818905131368 414.64896009786753 4163.187240528845 1145.0581197131542 99.20164581068093
leaf_count=59840 180758 397902 3294198 14940 53407 8954 19152 226989 1510968 167557 1669 23182 15939 11347 166082 122684 936480 99301 18298 43532 8143 78727 175951 475110 14319 131350 103216 15302 95407 69658 103691 27224 57370 188065 151878 30120 940 48832 158580 6639 49759 43547 20266 46358 1516 115665 12087 11553 136133 695400 12689 31444 3660 1531 28170 146362 28436 78068 68256 354458 382107 51224 63767
internal_value=0 0.0213737 -0.042908 -0.0560316 -0.062839 0.0198999 -0.0791122 -0.0235202 -0.0755979 -0.0476695 -0.0633122 0.0826358 0.0606496 0.0361369 -0.0878926 -0.0748037 -0.0565556 -0.0463552 -0.0667727 0.0938604 -0.0464567 0.0163489 -0.016337 -0.0487018 -0.0689044 -0.0857871 -0.0170618 -0.0240105 0.0238092 -0.067472 -0.0432569 -0.057605 -0.052565 -0.0802298 -0.00772656 -0.0328137 -0.0623683 -0.071716 -0.020768 0.0103393 0.00576926 0.00229545 -0.0428522 -0.0217439 -0.0381684 -0.0192064 0.0702887 -0.0407783 -0.0916396 -0.0862818 -0.0783951 -0.0692369 -0.0785663 -0.0673739 -0.0144888 -0.038661 -0.043169 0.0117778 0.0875069 -0.0534833 -0.0936365 0.0926105 -0.0394277
internal_weight=0 42326.8 21118.9 20468.9 18784.8 1684.09 16391.8 4602.26 14182.6 3578.19 2386.66 4727.06 1475.27 677.169 12813.6 2851.8 4943.58 2473.8 2469.77 21857.9 2921.52 1680.74 1191.53 876.238 609.651 9239.01 1033.47 624.963 1353.34 2306.8 967.153 1211.99 2296.56 4635.3 779.946 632.344 1123.92 1782.83 419.597 413.211 461.558 559.185 329.837 315.865 430.074 288.547 1074.44 495.379 9961.82 2704.85 1094.81 716.616 515.5 1440.33 327.4 147.668 1172.64 780.765 6962.02 678.606 7256.97 3251.79 263.957
internal_count=11696157 5460770 6235387 5168224 5114264 53960 6067216 692741 4421523 749144 173389 168171 57107 41168 5318072 810234 3655374 1342165 2313209 292546 185380 507361 575755 644152 32919 766149 404154 24961 400464 171720 802241 89373 160419 368247 300938 364651 78576 180182 188700 17986 149060 211104 21206 169042 16818 280325 21041 30705 4507838 831533 82347 58668 17979 938011 106897 164660 81843 305057 111788 521916 3676305 111064 167458
is_linear=0
shrinkage=0.05


Tree=1
num_leaves=64
num_cat=0
split_feature=1 1 20 20 1 21 21 20 20 14 4 10 14 12 21 14 21 4 4 4 3 21 12 4 11 21 1 13 14 12 11 15 21 4 20 20 20 20 1 14 4 21 21 3 12 4 14 1 20 4 4 4 13 14 14 1 2 3 12 11 14 14 13
split_gain=318898 30667.9 9635.74 5116.02 5047.01 4207.96 2942.5 1673.04 1259.68 1035.01 810.687 704.177 617.778 899.301 594.777 486.373 1240.95 394.181 389.871 377.378 376.733 361.137 393.503 359.859 335.624 325.703 298.103 287.052 285.798 1157.64 363.19 285.063 262.677 259.186 259.025 243.765 235.935 232.809 274.661 218.012 215.944 489.454 351.178 188.239 334.145 176.828 172.008 170.534 169.198 161.957 153.302 148.897 141.272 141.237 137.743 136.325 146.64 124.368 210.798 144.976 122.877 121.567 119.203
threshold=1.0000000180025095e-35 3.0029894113540654 3.5000000000000004 18.500000000000004 1.0001696944236758 1.0000000180025095e-35 10.500000000000002 8.5000000000000018 1.5000000000000002 0.01937101595103741 0.19860278069972995 405.50000000000006 0.097239539027214064 1.0000000180025095e-35 39.000000000000007 1.0000000180025095e-35 1.0000000180025095e-35 0.21692375093698504 0.13086595386266711 0.21692375093698504 127.50000000000001 5.5000000000000009 2372.5000000000005 0.26851160824298864 9.5000000000000018 1.5000000000000002 2.0115308761596684 0.012637127190828325 0.14003257453441623 1.0000000180025095e-35 28.500000000000004 0.071563344448804869 2.5000000000000004 0.17371094226837161 19.500000000000004 1.5000000000000002 19.500000000000004 19.500000000000004 0.99813616275787365 0.063181657344102873 0.067054860293865218 1.0000000180025095e-35 12.500000000000002 397.50000000000006 1.5000000000000002 0.11010002344846727 0.052599407732486732 4.0285086631774911 20.500000000000004 0.071445588022470488 0.059266652911901481 0.097180485725402846 0.018362444825470451 0.059450009837746627 0.050917508080601699 2.0115308761596684 412.50000000000006 59.500000000000007 1.0000000180025095e-35 17.500000000000004 0.086453121155500426 0.0083916252478957194 0.017455395311117176
decision_type=2 2 10 10 2 10 8 10 10 2 2 8 2 10 8 2 10 2 2 2 2 8 8 2 10 10 2 2 2 10 10 2 10 2 8 10 8 10 2 2 2 10 8 2 10 2 2 2 10 2 2 2 2 2 2 2 2 2 10 10 2 2 2
left_child=2 4 8 6 14 11 23 9 -1 40 12 35 13 20 37 16 -10 27 52 28 -9 47 31 39 -24 33 36 -8 29 30 -11 -23 -25 -7 53 -6 -13 -2 -39 62 41 -4 61 -29 -45 -37 -28 -5 -27 -31 -15 -17 -16 -20 -12 -35 -57 -14 59 -59 -46 -42 -3
right_child=1 3 7 21 5 25 17 10 15 19 54 26 57 50 18 51 -18 -19 34 -21 -22 22 24 32 -26 48 46 43 -30 49 -32 -33 -34 55 -36 45 -38 38 -40 -41 42 -43 -44 44 60 -47 -48 -49 -50 -51 -52 -53 -54 -55 -56 56 -58 58 -60 -61 -62 -63 -64
leaf_value=0.089740813210797091 -0.085931587226426728 -0.070055373474848262 0.039177998114990779 -0.020278625014749346 -0.0032890543024216169 -0.069398410083002557 -0.056694819945628444 -0.0090633251654682664 0.071916073563127972 0.014650308643048535 0.039312260792678001 -0.054488915239018068 0.057549390415769376 0.0039057630864890759 -0.087557327343122424 0.068773772912710016 -0.003279696643960512 0.015457567944195014 -0.071866986110044315 0.067023124651784463 -0.087436929401075017 0.036105953233963026 0.0085744801278326808 -0.013366674246829087 -0.08182174336579251 -0.076085637481990154 -0.041239476767567257 0.012610485986237742 0.065569337820085893 0.039187367050317758 -0.10021016829649443 -0.0056211486045086136 -0.043106214483520304 -0.060105197829396918 -0.011695370600307915 -0.044459277396527476 0.031290928649380663 -0.072704081587406405 0.014351077409732828 -0.032131299484930542 0.0064710958098569268 -0.028940381597901202 0.059815375724908061 -0.095267371966535008 -0.010744056495959562 -0.01790743364261246 -0.017512741782026307 0.056155875651617927 -0.047911771001122885 0.055767065198455729 0.028584055575477493 0.077793827914796665 -0.076296576333897373 -0.05824461266261563 0.052949079657418054 -0.021189768562609419 -0.052744692910132798 0.014035830565451785 0.04269714441541065 -0.083737519375158317 0.010930747528310763 0.040662489254859505 -0.0475565844033011
leaf_weight=20453.935055947863 31701.786591376178 672.98621519748122 656.18231824412942 76.61901252809912 1943.2108065867797 5120.2959767631255 281.15352884866297 493.23212553700432 2453.975375007838 122.84412981942296 2629.2038404368795 3309.1887500636512 1280.788014004007 710.61121137812734 4140.3475247672759 5842.8482609167695 706.65924507100135 2687.8678438486531 6294.4792713499628 10708.323284557089 222.50201186677441 3040.7679542150581 372.62692813086323 1939.9490588721819 141.73952212650329 11150.041614990332 1766.9291328666732 1216.5180459711701 4590.6449681306258 1730.3435307424515 156.50238897278905 472.96563857002184 1202.8855532910675 2229.8553525716998 210.91635230509564 907.82424691971391 82.150824306532741 2020.8065175070951 94.857276341645047 2355.5618827235885 687.24043245706707 440.89591790176928 1046.7207956910133 110.53353849425912 4205.0559521345422 2027.4184833420441 1345.5537900188938 1534.3087868769653 559.64231205359101 9901.6024820823222 5499.7791687902063 21087.525184061378 8509.8325689611956 2727.1459858519956 6262.3452129326761 590.4315443537198 978.09729149006307 147.78089857846498 2219.9365413747728 50.997199606150389 774.28501405380666 418.1431570276618 4701.6676487424411
leaf_count=92618 901352 22323 18584 1196 240214 199017 46657 11946 28954 1314 11255 872507 4087 12595 1431085 37672 2896 106142 1496786 23903 4927 17679 1789 31239 746 313832 375737 86970 15394 18277 2655 2025 22160 66087 7000 203526 2097 32336 820 60662 4741 4576 12385 38413 423058 233903 238664 6766 6084 36927 33338 50897 2938937 571446 16250 12568 30083 1416 10718 559 63597 1355 128931
internal_value=0 -0.0575185 0.0647737 -0.00958499 -0.0716112 -0.0557899 -0.0213668 0.0492055 0.0801669 0.0565285 0.0377769 -0.0313851 0.0284551 0.0196439 -0.0807036 0.0736591 0.0551037 -0.000678918 -0.0742806 0.0597134 -0.0334275 0.0325119 0.02451 -0.0390149 -0.0163352 -0.069256 -0.042156 -0.00726297 0.0549701 0.0508851 -0.0496997 0.0304893 -0.0247492 -0.062057 -0.0664685 -0.0170256 -0.052411 -0.0848599 -0.0688009 -0.0448149 0.0298562 0.0118025 0.0390594 -0.00505918 -0.00928237 -0.0261195 -0.0309822 0.0525205 -0.0747391 0.0533007 0.0257603 0.0758368 -0.0799822 -0.0677491 0.0489167 -0.0521607 -0.0408667 0.0449513 0.0382802 -0.0110483 -0.00737364 0.019405 -0.0503738
internal_weight=0 113498 100522 25787.5 87710.8 32010.6 20148.5 49976.6 50544.9 30459.4 19517.2 11382.3 10625.6 6926.12 55700.2 30091 3160.63 9275.41 21882.7 27210.3 715.734 5639.03 4028.1 10873.1 514.366 20628.4 6503.82 6587.55 16501.9 11911.3 279.347 3513.73 3142.83 8918.68 9232.54 4878.45 3391.34 33817.5 2115.66 7730.22 3249.18 1097.08 2152.1 6306.39 5089.87 2935.24 3112.48 1610.93 11709.7 11631.9 6210.39 26930.4 12650.2 9021.63 8891.55 3798.38 1568.53 3699.5 2418.71 198.778 4979.34 1105.38 5374.65
internal_count=11694673 11234434 460239 1060353 10174081 2794319 1030152 247202 213037 140111 107091 2166648 79586 62806 7379762 120419 31850 764837 6445254 98470 16873 30201 22239 265315 2535 627671 1489005 658695 74567 59173 3969 19704 53399 307755 2075232 677643 874604 934508 33156 211916 41641 23160 18481 612038 525068 437429 614401 7962 319916 55204 45933 88569 4370022 2068232 27505 108738 42651 16780 12693 1975 486655 6096 151254
is_linear=0
shrinkage=0.05


Tree=2
num_leaves=64
num_cat=0
split_feature=1 1 20 1 20 21 21 20 14 16 17 20 10 16 17 12 4 16 13 20 20 1 20 21 3 4 1 10 21 3 1 1 20 4 13 17 1 16 3 4 10 15 10 4 12 20 20 3 3 12 14 13 4 12 15 17 1 1 1 3 4 9 12
split_gain=245639 21977.5 6184.65 3964.87 3941.37 3167.99 2227.4 1426.64 974.076 547.265 455.777 382.676 360.92 353.378 342.155 419.804 332.735 323.832 312.84 295.588 293.579 291.673 285.328 261.82 238.027 236.518 234.769 217.496 214.555 191.381 180.294 171.464 209.02 170.688 167.507 165.086 160.621 154.777 136.219 132.718 130.469 128.867 127.251 126.187 143.604 123.648 122.46 120.049 118.483 171.549 118.152 116.496 114.393 114.299 138.796 113.94 110.924 193.566 109.826 102.982 100.01 106.809 96.8862
threshold=1.0000000180025095e-35 3.0029894113540654 4.5000000000000009 1.0001696944236758 19.500000000000004 39.000000000000007 10.500000000000002 1.5000000000000002 0.030331781134009365 3.5000000000000004 0.070802006870508208 7.5000000000000009 671.50000000000011 7.5000000000000009 0.025158228352665905 12.500000000000002 0.253180742263794 1.5000000000000002 0.027714967727661136 20.500000000000004 2.5000000000000004 6.0153117179870614 19.500000000000004 6.5000000000000009 580.50000000000011 0.17014407366514209 2.8086022138595585 179.50000000000003 1.5000000000000002 98.500000000000014 2.8086022138595585 6.0153117179870614 5.5000000000000009 0.096402119845151915 0.087941221892833724 1.1143791079521181 2.8086022138595585 4.5000000000000009 110.50000000000001 0.14695065468549731 1269.5000000000002 0.056635221466422088 215.50000000000003 0.04792395047843457 5.5000000000000009 8.5000000000000018 19.500000000000004 155.50000000000003 127.50000000000001 1.0000000180025095e-35 0.066746223717927947 0.071060173213481917 0.17697872221469882 3496.0000000000005 0.020853099413216118 0.38138528168201452 16.78634071350098 9.7497754096984881 6.0153117179870614 12.500000000000002 0.44456152617931372 1.0012915730476382 2372.5000000000005
decision_type=2 2 10 2 10 8 8 10 2 2 2 10 10 2 2 10 2 2 2 8 10 2 10 10 2 2 2 10 10 2 2 2 10 2 2 2 2 2 2 2 10 2 10 2 10 10 10 2 2 10 2 2 2 8 2 2 2 2 2 2 2 2 8
left_child=2 3 7 10 6 13 16 -1 14 12 18 48 30 26 -4 45 31 40 -2 39 50 27 -15 -6 41 -20 47 -19 -18 -28 34 32 38 -22 -7 52 -14 60 -3 -11 -8 -13 -33 -26 -45 -16 -27 -5 -10 -50 -9 -23 -12 54 -25 -56 57 -57 -30 -43 61 -29 -40
right_child=1 4 8 5 23 9 17 20 11 19 35 24 36 22 15 -17 28 21 25 -21 33 51 -24 53 43 46 29 37 58 -31 -32 42 -34 -35 -36 -37 -38 -39 62 -41 -42 59 -44 44 -46 -47 -48 -49 49 -51 -52 -53 -54 -55 55 56 -58 -59 -60 -61 -62 -63 -64
leaf_value=0.083227445096751229 -0.077441601254445921 0.00039048977309510214 0.041558628341864287 -0.050214291179770568 0.046029413018073541 -0.026507050841487474 0.027153187201221198 0.066272361247348005 0.061401009166723752 -0.056881770370056511 -0.081554869531338059 0.050036990033622469 -0.044965305899604721 -0.071062844170225209 0.0096717378401769485 0.030250892551950809 -0.0074715744929147801 0.015630642284124367 -0.069090534352474073 0.027466947437118285 0.052593887201236013 0.0010104270473597591 -0.032784414922813643 0.03204086523117361 0.0068825915468553244 -0.056566726345888343 -0.013932384247557937 -0.072486599483158318 -0.042066979845061241 -0.049658387142530243 0.0034202295236321679 0.01522759689820005 -0.060302687377474046 0.06401904646661831 0.0083261571680280973 -0.031920943989064574 -0.021881029512936537 -0.033445528068892123 -0.040384444667145303 -0.037147181549360302 0.003577749667203243 -0.02336806516554742 -0.034366977268577729 -0.054252559275529161 0.038102345879861291 -0.020149850398708133 -0.020326043670054496 -0.068050172201235215 -0.01792953723993607 0.051993048648153295 0.074820712472448966 0.030388151374320896 -0.074991798280441599 -0.013965444438808287 0.02097515196930496 0.017266899884341394 0.049245329463869107 -0.069526489509304956 -0.017527088601463289 0.038012432763438034 0.032473188615567326 -0.01257373664802823 -0.088452297565095248
leaf_weight=17401.804555347189 7024.717466193717 200.27618612907827 1948.0684377299622 1366.3282977594063 1690.7998977596872 1671.4600009359419 980.49955740198493 7901.4709642976522 4256.7381139975041 1846.3713754974306 18693.664165639435 9687.8959492696449 1499.1670083841309 10815.67353193881 671.52584211574867 1932.1763541642576 1249.7763572428375 487.7266155728139 8233.6442182338797 135.69216842297465 4213.8117535673082 1458.3006710845511 509.77358039817773 1819.5166084971279 356.16586877498776 3821.6942887604237 441.62191127962433 76.980592368170619 1350.5566273056902 2479.6774477763101 1488.1356089189649 138.57296020537615 2062.2589100957848 14580.191712527536 434.94164808653295 185.62936412310228 1515.110242517665 1345.2071015532129 2506.7408485743217 1581.8268793239258 1461.7271039951593 71.048765819519758 1941.2512056101114 42.377324405126274 6224.9069413766265 720.557312797755 248.24029943719506 3048.0500504821539 88.564541277475655 9188.0835310220718 8275.9839608334005 439.05004236055538 10296.139227473643 212.7608880760381 590.88277369400021 118.21563604363473 53.407022994477302 140.68969151074998 688.28907363582402 1788.7642660066485 118.73846716992557 2209.6923204837367 109.40710859419778
leaf_count=92641 2524280 3829 45953 40241 6881 328211 59003 44167 10863 551149 627544 34373 468828 392076 7391 9016 21977 27962 2989244 3916 44219 106246 7659 8942 7771 930323 9365 13912 27351 75413 159000 1906 78127 45514 60305 5171 344238 172237 64270 251625 160557 198 55334 1304 30825 12520 5345 102530 2645 38930 25751 22374 296545 1774 3181 574 217 471 11134 6391 2524 203560 5209
internal_value=0 -0.0533921 0.0604757 -0.0662492 -0.0109922 -0.0515658 -0.0211537 0.0715289 0.0448201 -0.0291186 -0.0749779 0.0481294 -0.0206023 -0.0638024 0.0249197 0.015169 -0.0368896 -0.00235572 -0.0690231 -0.0449111 0.0657077 -0.00848487 -0.0693399 0.0303565 0.0433888 -0.0642165 -0.0552531 -0.0157788 -0.0237836 -0.0442576 -0.00990234 -0.0430835 -0.0482081 0.0614574 -0.0193145 -0.0789229 -0.0333621 -0.0198633 -0.0393522 -0.0477759 0.0130428 0.0477227 -0.0310626 0.0358327 0.0374779 -0.00576424 -0.0543563 -0.0625297 0.0544946 0.0513255 0.0706455 0.00780848 -0.0792239 0.0213291 0.0240871 0.0080641 -0.0163631 -0.0298968 -0.0337826 0.0356676 -0.0122675 -0.0145907 -0.0423946
internal_weight=0 100789 89350.1 77337.6 23451.3 28833.8 18825.1 52373.3 36976.9 10172.7 48503.7 31704.5 6608.81 18661.1 5272.33 3324.26 10247.1 8577.92 19328.3 3563.89 34971.5 6135.7 11325.4 4626.27 18171.2 12303.6 7335.68 4238.35 3288.62 2921.3 3594.54 6958.51 4878.68 18794 2106.4 29175.4 3014.28 3750.62 2816.42 3428.2 2442.23 11547.7 2079.82 6623.45 6267.28 1392.08 4069.93 4414.38 13533.4 9276.65 16177.5 1897.35 28989.8 2935.47 2722.71 903.195 312.312 258.905 2038.85 1859.81 2405.41 2286.67 2616.15
internal_count=11693032 11232560 460472 10173008 1059552 2794556 1037512 252292 208180 2167272 7378452 133300 1360582 627284 74880 28927 269137 768375 6449192 806690 159651 548815 399735 22040 80862 3924912 227549 420195 60462 84778 547516 208675 151435 89733 388516 929260 813066 392233 73308 802774 219560 40962 57240 39900 32129 19911 935668 142771 52438 41575 69918 128620 924089 15159 13385 4443 1262 1045 38485 6589 219996 217472 69479
is_linear=0
shrinkage=0.05


Tree=3
num_leaves=64
num_cat=0
split_feature=1 1 20 20 21 1 21 20 20 14 1 4 4 4 3 21 4 16 3 13 14 16 14 12 11 3 12 1 3 1 14 21 16 21 14 1 13 21 4 14 21 20 11 16 1 4 20 15 4 3 16 13 20 16 16 1 2 4 12 15 1 12 16
split_gain=195257 17939.5 5387.19 4356.65 3740.07 1194.33 1158.29 966.594 864.727 661.144 564.695 489.767 306.822 304.548 302.919 247.688 245.375 240.864 235.648 220.507 209.28 202.334 192.759 223.285 482.339 187.131 191.109 174.883 170.79 169.355 167.725 163.113 156.832 152.583 163.972 145.578 136.439 191.118 133.871 125.244 166.98 124.696 117.237 116.855 181.071 112.209 111.398 109.374 106.356 105.908 105.85 104.887 118.829 155.681 100.536 97.3954 97.0145 93.2408 91.6431 89.1999 89.1285 89.0626 87.2162
threshold=1.0000000180025095e-35 2.0115308761596684 3.5000000000000004 19.500000000000004 12.500000000000002 1.0001696944236758 39.000000000000007 1.5000000000000002 7.5000000000000009 0.02505083475261927 3.0029894113540654 0.14161919802427295 0.28576420247554785 0.18803665041923526 531.50000000000011 1.0000000180025095e-35 0.14281447976827624 8.5000000000000018 123.50000000000001 0.023393767885863784 0.052652267739176757 6.5000000000000009 0.080040037631988539 3496.0000000000005 14.500000000000002 98.500000000000014 1.0000000180025095e-35 6.0153117179870614 183.50000000000003 8.0077457427978533 0.058519007638096816 5.5000000000000009 8.5000000000000018 1.5000000000000002 0.0099703432060778158 1.991152882575989 0.032660154625773437 17.500000000000004 0.33345660567283636 0.011131763923913242 1.0000000180025095e-35 19.500000000000004 26.500000000000004 3.5000000000000004 5.9895935058593759 0.034288361668586738 20.500000000000004 0.021015826612710956 0.18097276240587237 155.50000000000003 8.5000000000000018 0.013129677623510362 19.500000000000004 8.5000000000000018 4.5000000000000009 0.98898831009864818 486.50000000000006 0.034288361668586738 1437.0000000000002 0.054200939834117896 3.0029894113540654 2177.0000000000005 5.5000000000000009
decision_type=2 2 10 10 8 2 8 10 10 2 2 2 2 2 2 10 2 2 2 2 2 2 2 8 10 2 10 2 2 2 2 8 2 10 2 2 2 8 2 2 10 10 10 2 2 2 8 2 2 2 2 2 8 2 2 2 2 2 8 2 2 8 2
left_child=2 5 7 4 10 13 35 -1 16 33 17 19 25 36 27 46 39 28 62 -6 38 48 23 45 -25 -11 42 32 -3 -23 59 -5 -12 -10 -35 -7 -2 -38 56 40 -4 -17 -27 -21 -45 -9 -15 61 -16 50 -37 -20 53 58 -22 -43 -13 -28 -53 -18 -58 -33 -8
right_child=1 3 8 31 11 6 18 22 9 12 14 20 -14 15 21 41 30 -19 51 43 54 29 -24 24 -26 26 57 -29 -30 -31 -32 47 -34 34 -36 49 37 -39 -40 -41 -42 55 -44 44 -46 -47 -48 -49 -50 -51 -52 52 -54 -55 -56 -57 60 -59 -60 -61 -62 -63 -64
leaf_value=0.078298010531727247 -0.077088067807510902 -0.023212815972427026 0.041731106355055628 0.04107089844669938 -0.042012866051915135 -0.03511950538572331 -0.013506563481001294 0.02239885734252391 0.021574115138286085 0.044830133721165455 -0.016744040159516912 0.0050829422086361778 0.049332911158662479 -0.056366957149190669 -0.038701857204987075 -0.070868994841801078 0.04784083686881449 -0.062623141532472879 -0.074143047998826039 -0.0068906940895119952 0.018728587844535866 -0.054245344433433852 0.067477899073771039 0.047825624091864111 -0.064571814364008523 0.0036444508101409322 -0.0043762752519579968 -0.0031978847833378371 -0.050531223693038058 -0.030319482470148814 0.058143972742198818 0.028276393230708654 -0.041306388817463797 -0.024628121370624666 0.016064523354024727 -0.047862102767108061 -0.074698002528718666 -0.064026807429920202 0.014423486926502145 0.045784227624315409 0.0042523802501398429 -0.051872665042904664 -0.094254041430204438 -0.035114763039241922 -0.0044631983140141296 0.060959377748050582 -0.0084713496853542555 0.0030545479291738714 -0.016074156196160504 -0.06890831272742165 -0.065985031732749208 -0.035680313954344976 0.01519295316575104 -0.071100650169839547 -0.0027620103237349274 0.034941974477346836 -0.033920533918569667 0.032596135090222036 -0.074539070880572933 0.0083636900692708929 -0.0095224866927903426 -0.0054430752428271641 -0.04033124600543813
leaf_weight=15637.885910370853 13211.672850429313 766.18660777807236 885.53409203048795 1295.6786064747721 743.58857945539057 415.22609447990544 1272.8609944954515 191.43092619255185 1189.3260880559683 3311.5107091553509 1238.8036947634537 725.85953840101138 4887.8890059627593 4675.7953104437329 1266.4226526631974 8095.983142839279 4888.868207286112 3708.6391477531288 245.41599770542234 3148.730155043304 2180.5937532195821 3044.9890601567458 10891.023561507463 936.49119628034532 106.28371835500002 101.21742733940482 173.76962601114064 823.58991814381443 2258.8335650153458 976.8894526399672 8728.2536375122145 2135.5506068958202 1367.0371594708413 512.89423541352153 478.53287827968597 1449.1853592051193 10289.08937224769 7084.9969697572524 690.76901357481256 7512.7096038437448 447.30947701632977 531.89447706373176 43.820601365529001 1159.9906787495129 824.13608052919153 13034.706532482058 124.63810843834653 732.223432453844 880.26076132804155 6750.1259820824489 1814.5031174675096 2736.8725848211907 93.82106370292604 400.28662585699931 725.192142884247 34.395877776201814 524.83904092293233 9135.5249675740488 160.63182628154755 147.40563485585153 1305.2405894182157 215.59756529133301 397.6926241973415
leaf_count=92579 2611853 18787 21431 5660 175125 6640 220141 6754 29434 10459 24646 56188 13563 1272504 36141 266744 20433 147410 88410 540051 133679 110320 35371 15209 3315 1938 4721 14196 78315 27967 22237 10754 39818 9319 2842 46721 380239 2837355 38357 50684 5575 8242 2530 270309 92681 59717 3556 5227 17755 263428 64501 751962 2600 126224 62432 327 89195 51192 101055 636 102634 2376 81205
internal_value=0 -0.0499837 0.0555621 -0.0202324 -0.0273995 -0.0662762 -0.0544527 0.068536 0.0430915 0.0354718 -0.0429825 -0.00624253 0.0386802 -0.0705002 -0.035195 -0.0642337 0.0497758 -0.0540826 -0.0354377 -0.0165658 0.00361761 -0.0418181 0.0624685 0.058645 0.0363696 0.0346014 0.0310187 -0.0232819 -0.0436119 -0.0484339 0.0539514 0.0261845 -0.0296296 0.00949875 -0.00498697 -0.0641299 -0.0732585 -0.0703464 -0.00510645 0.0432782 0.029153 -0.0692824 -0.0259338 -0.0128794 -0.0223832 0.0604013 -0.0551234 0.0199291 -0.0294232 -0.0653328 -0.0579379 -0.0425779 -0.0402938 -0.0418724 0.0133652 -0.0465996 -0.0103846 0.031906 -0.0378346 0.0466854 -0.0165195 0.0251844 -0.0198925
internal_weight=0 92524.7 83242.4 32739.6 28360.6 59785.1 15736.6 40797.8 42444.6 19834.5 16331.7 12028.9 17653.7 44048.5 9597.99 13462.7 22610.1 6733.66 5307.58 5876.45 6152.49 6168.56 25159.9 14268.9 1042.77 12765.8 9454.33 3429.43 3025.02 4021.88 13764.5 4379.05 2605.84 2180.75 991.427 10429 30585.8 17374.1 3246.71 8845.55 1332.84 8662.27 145.038 5132.86 1984.13 13226.1 4800.43 3083.37 2146.68 10013.8 3263.69 3637.03 3391.61 3297.79 2905.79 566.29 2555.94 9309.29 2897.5 5036.27 1830.08 2351.15 1670.55
internal_count=11693669 11233730 459939 2100023 2076006 9133707 1752887 212945 246994 125998 515355 1560651 84403 7380820 270843 1551373 120996 244512 1371597 1078166 482485 192183 120366 84995 18524 70840 60381 78660 97102 138287 43306 24017 64464 41595 12161 381290 5829447 3217594 286374 77690 27006 275313 4468 903041 362990 66471 1276060 18357 53896 374650 111222 1070251 981841 979241 196111 8569 248017 55913 853017 21069 191829 13130 301346
is_linear=0
shrinkage=0.05


Tree=4
num_leaves=64
num_cat=0
split_feature=1 1 21 16 16 21 1 17 14 16 3 4 16 4 1 16 1 4 14 4 1 16 13 21 14 16 13 4 12 14 1 16 16 16 16 14 12 3 4 17 16 1 11 17 15 13 13 1 1 1 1 12 16 15 4 12 14 21 12 15 22 3 3
split_gain=164340 15099.6 1855.91 1844.72 1777.22 1586 2820 1475.78 1120.7 425.412 387.505 352.267 448.413 351.308 407.165 291.567 290.61 278.353 252.657 246.617 245.426 265.161 197.624 191.533 191.24 188.978 167.581 165.143 154.389 153.625 150.849 146.823 140.545 139.974 138.699 133.932 138.275 132.05 130.9 127.447 118.681 112.048 102.262 101.174 140.935 95.7708 95.3058 91.4498 90.6417 90.6007 89.0589 91.3321 88.0064 85.6825 85.4412 83.605 82.054 157.37 81.4757 80.5042 132.221 79.6238 76.8603
threshold=1.0000000180025095e-35 3.0029894113540654 1.5000000000000002 6.5000000000000009 31.500000000000004 39.000000000000007 1.0001696944236758 0.038648245856165893 1.0000000180025095e-35 3.5000000000000004 591.50000000000011 0.21692375093698504 14.500000000000002 0.1287946552038193 1.0001696944236758 1.5000000000000002 4.0285086631774911 0.23138681799173358 0.083424910902977004 0.075965978205204024 6.0153117179870614 9.5000000000000018 0.012637127190828325 4.5000000000000009 0.044461486861109741 5.5000000000000009 0.049113254994153983 0.16318304091691974 1.0000000180025095e-35 0.033028144389390952 1.0001696944236758 11.500000000000002 1.5000000000000002 5.5000000000000009 1.5000000000000002 0.15394657850265506 1.0000000180025095e-35 513.50000000000011 0.14695065468549731 0.10078125074505807 7.5000000000000009 1.991152882575989 17.500000000000004 0.21447270363569262 0.021015826612710956 0.064708858728408827 0.061947986483573921 2.0115308761596684 2.8086022138595585 10.389590263366701 9.1307969093322772 1.5000000000000002 24.500000000000004 0.11435678601264955 0.1287946552038193 3.5000000000000004 0.015515913255512716 1.0000000180025095e-35 33.500000000000007 0.090326342731714263 1.0000000180025095e-35 437.50000000000006 236.50000000000003
decision_type=2 2 10 2 2 8 2 2 2 2 2 2 2 2 2 2 2 2 2 2 2 2 2 10 2 2 2 2 10 2 2 2 2 2 2 2 10 2 2 2 2 2 10 2 2 2 2 2 2 2 2 10 2 2 2 10 2 10 8 2 10 2 2
left_child=2 5 3 9 7 13 19 17 -4 34 15 12 40 30 52 48 -6 22 28 -7 21 27 -3 31 -11 -16 -21 -9 42 -18 -2 59 -12 46 -1 36 -14 -22 45 -20 -10 -27 -5 50 -45 -17 62 -43 -8 -35 51 -31 -15 -25 -30 -39 57 -36 -49 -13 -61 -23 -24
right_child=1 4 8 18 16 6 10 20 11 24 32 23 35 14 25 38 29 -19 39 26 37 61 33 53 -26 41 -28 -29 54 43 -32 -33 -34 49 56 -37 -38 55 -40 -41 -42 47 -44 44 -46 -47 -48 58 -50 -51 -52 -53 -54 -55 -56 -57 -58 -59 -60 60 -62 -63 -64
leaf_value=0.076530704220423351 -0.073462456902991496 -0.055189527699467805 -0.017013030869457105 0.01926031935013189 -0.044807878520351146 -0.069958083266220536 -0.011976850406668911 -0.039717820063072687 0.054846137568455411 0.048558336813621476 -0.02516779083157324 0.059836651899103865 -0.035687433923292149 -0.068385498466165706 -0.042051520944669601 -0.044812909137884313 -0.0096309157380107535 0.015588919803945485 0.044501792370816723 -0.06230485707588862 -0.0010403453628806867 -0.03734230836824462 0.019012739055718948 0.041558944895909063 0.061729923577980066 -0.023519107608034238 -0.049193173438451636 -0.018116168964992595 0.033886100552227259 -0.007735127861447446 -0.063805316409391855 0.046657958244903548 -0.04617347131178199 -0.025110085651011822 0.063099431793090868 0.04000394696604874 0.025930819194102825 -0.086627274095304366 -0.017719686975100693 0.060170728419899358 0.042265698901074067 -0.063632224100004992 -0.07794506700679682 0.024547324459670943 -0.0062512090765900587 -0.018195922620972464 0.011082837190762326 -0.042032369806164468 0.010825731078653502 0.0082721472355223608 0.045198420828402815 0.030259195200489083 -0.052399655451262066 0.007316436598568299 0.04442398785791124 -0.02380868057397199 0.06847490688408113 0.02272807780091245 -0.058575843990178948 0.058446778047861393 0.0075681718722858324 -0.055170836663967909 -0.0084762680376324877
leaf_weight=5043.6648707035929 12499.323485575733 202.37664009397849 762.46516618761234 670.39799430919811 172.93321412219666 5876.9478611645754 952.17459105327725 1597.0939415483736 2948.3207239406183 3901.8823083778843 1176.3954098159447 5730.5242933714762 92.892274277983233 11299.609593984205 2618.6189382662997 1140.5795176106039 364.1155149579281 1882.5970930238254 2774.6202799072489 6131.3651678971946 766.54267031257041 996.77819627849385 284.97635754849762 3393.5510122450069 9381.8105834331363 233.11395885120146 4044.4724962064065 1983.6967332633212 3388.7264947933145 195.69552098680288 5977.6237349705771 5092.1928945798427 2464.6178009379655 1082.5211285920814 1971.0614277366549 2061.7482445202768 4583.5168005716987 54.517445509321988 1959.6663193148561 2438.0888543911278 5148.1267909547314 4133.4551434936002 28.194599345326424 1387.3245923343638 507.26759640386445 480.24953892780468 1284.5775129930116 1194.1160564494785 803.64215932879597 250.24011863092892 807.34640050493181 824.87397253001109 931.97094167984324 193.07805732637644 4448.7940035844222 1861.0481125616934 13525.884803121909 275.07531443424523 1975.4750105517451 348.6603535823524 201.48715659230947 1684.7534459538292 2361.2627612100914
leaf_count=72358 506720 47409 12592 19538 4968 3142958 233713 52694 6568 37169 405073 11920 1378 411126 81614 314252 5972 90914 22875 2078399 13053 29607 21218 10629 39172 2957 1221405 41191 43259 1345 281769 11809 743752 166658 27286 5926 19589 3537 253418 5304 15533 149130 3141 8519 4672 111097 123125 38747 105426 19483 4619 6784 17450 550 25406 51917 66442 1024 72505 698 268 67454 295380
internal_value=0 -0.0474936 0.0524705 0.058618 -0.0100765 -0.0591642 -0.0492527 -0.0175943 0.0428443 0.0648519 -0.0268106 0.0443761 0.0389165 -0.0652352 -0.0610234 -0.0182298 0.0186793 -0.000992487 0.0431568 -0.0618032 -0.031234 -0.0366543 -0.00670349 0.0497901 0.057861 -0.0536227 -0.0570935 -0.0277509 0.0378601 0.0213659 -0.0703382 0.0529673 -0.0393866 -0.00483928 0.0693133 0.0293875 0.0247068 -0.0185784 -0.0264142 0.0518305 0.0468469 -0.0576434 0.0153372 0.0243978 0.0163012 -0.0369263 -9.15208e-05 -0.0587327 -0.00154005 -0.0188422 0.0327898 0.0229737 -0.0671675 0.0397156 0.0398677 -0.0255965 0.0670053 0.0581553 -0.0523432 0.0580827 0.0398129 -0.0485436 -0.00551595
internal_weight=0 86446 78404.8 47848.2 20552.5 65893.4 25030.1 16293 30556.6 34099.4 8977.33 29794.1 14834.6 40863.3 22386.4 5336.31 4259.56 7348.55 13748.8 16052.8 8944.43 6262.32 5465.95 14959.5 13283.7 10154.8 10175.8 3580.79 8536.11 4086.62 18476.9 11372.9 3641.01 5263.58 20815.7 6738.16 4676.41 2682.11 3580.5 5212.71 8096.45 7536.16 698.593 3722.51 1894.59 1620.83 3930.82 7303.05 1755.82 1332.76 1827.92 1020.57 12231.6 3586.63 7837.52 1915.57 15772 2246.14 3169.59 6280.67 550.148 2681.53 2646.24
internal_count=11692464 11232030 460434 362974 1060519 10171511 8609493 1023640 97460 243451 2166731 84868 48994 1562018 773529 1017906 36879 764187 119523 6442762 259453 190946 673273 35874 76341 344953 3299804 93885 91344 31911 788489 24695 1148825 625864 167110 26893 20967 68507 678767 28179 22101 263339 22679 25939 13191 425349 439723 260382 339139 186141 12748 8129 428576 11179 68665 55454 94752 28310 111252 12886 966 97061 316598
is_linear=0
shrinkage=0.05


Tree=5
num_leaves=64
num_cat=0
split_feature=1 1 16 20 21 20 1 21 20 4 1 4 4 4 4 4 10 16 21 16 1 20 21 1 13 4 20 17 20 3 16 20 3 20 13 4 13 15 20 20 20 16 4 15 12 1 21 13 4 4 22 15 15 20 1 4 22 13 15 13 4 17 20
split_gain=139100 12626 3659.47 3348.14 2839.37 901.732 880.091 946.738 734.049 507.071 388.582 368.343 271.059 248.442 235.956 233.141 224.249 204.486 198.923 168.977 159.884 158.893 149.629 148.864 137.236 134.376 124.766 123.079 117.978 114.589 110.735 108.691 108.113 104.322 104.143 102.649 112.11 99.4364 99.3401 99.3286 98.3165 117.982 97.363 95.3512 87.9064 106.378 86.8538 83.5541 80.9416 80.5958 79.1913 86.0226 79.1428 77.3108 74.9895 86.028 73.2134 73.1852 71.0036 66.6384 64.3685 63.4593 63.1194
threshold=1.0000000180025095e-35 2.0115308761596684 6.5000000000000009 19.500000000000004 13.500000000000002 1.5000000000000002 1.0001696944236758 1.0000000180025095e-35 6.5000000000000009 0.24245106428861621 3.0029894113540654 0.080445185303688063 0.17014407366514209 0.086217992007732405 0.065735660493373885 0.349707841873169 184.50000000000003 3.5000000000000004 1.0000000180025095e-35 9.5000000000000018 5.2220633029937753 5.5000000000000009 8.5000000000000018 6.0153117179870614 0.058940077200531966 0.13409852236509326 19.500000000000004 0.070802006870508208 2.5000000000000004 531.50000000000011 2.5000000000000004 19.500000000000004 1009.5000000000001 12.500000000000002 0.046636464074254043 0.028464741073548797 0.04881620034575463 0.10461976006627084 3.5000000000000004 2.5000000000000004 20.500000000000004 6.5000000000000009 0.25641830265522009 0.007054695626720787 36.500000000000007 6.99912452697754 1.5000000000000002 0.049708813428878791 0.018096399493515495 0.14584141224622729 1.5000000000000002 0.011787864845246078 0.080322578549385085 17.500000000000004 8.7153353691101092 0.12075280398130418 2.5000000000000004 0.076047785580158248 0.0032842935761436824 0.01655239146202803 0.017140810377895836 0.038648245856165893 19.500000000000004
decision_type=2 2 2 10 8 10 2 10 8 2 2 2 2 2 2 2 8 2 10 2 2 10 10 2 2 2 8 2 10 2 2 8 2 8 2 2 2 2 10 10 10 2 2 2 8 2 10 2 2 2 10 2 2 10 2 2 10 2 2 2 2 2 10
left_child=2 6 5 4 10 -1 12 16 25 14 19 57 27 28 48 21 34 24 31 29 32 49 37 -23 42 38 30 35 -7 -3 -18 47 -19 -16 -8 -2 -37 54 -4 -15 41 -9 44 -27 -13 58 -17 -14 61 -12 59 -52 -24 -25 55 -5 -45 -6 -46 -11 -40 -10 -20
right_child=1 3 8 22 11 13 7 40 9 50 15 17 18 39 33 46 26 20 62 -21 -22 23 52 53 -26 43 -28 -29 -30 -31 -32 -33 -34 -35 -36 36 -38 -39 60 -41 -42 -43 -44 56 45 -47 -48 -49 -50 -51 51 -53 -54 -55 -56 -57 -58 -59 -60 -61 -62 -63 -64
leaf_value=0.071367358544431145 -0.070922219894143296 -0.030943766572427919 0.052453162154907473 0.0034107444526861098 -0.028745513120722217 0.052331259258610721 -0.029204267072485132 -0.051689828620858462 0.014865932050414541 0.066102879277275359 -0.037474767610804864 0.0043995601603825504 -0.056764685729235757 0.060966489155586237 0.032886314527605064 9.5023674915657502e-05 -0.031519950828220185 -0.012619669046969168 -0.06389322120766168 -0.058064666793927078 0.0023289354117677881 -0.053124742412950177 0.017447297559368535 -0.036275625126532228 0.014445276566702393 0.054949830151635098 0.020390531326713618 -0.070028103547567583 0.036554539414475229 -0.050578594077835382 -0.050416029434404236 -0.0042910050758668333 -0.03826111131332393 0.02263075509801139 -0.0038856000211847617 -0.064765103829422535 -0.052267929276583663 -0.0047846257082096617 0.0063858355473724307 0.053603488105611032 -0.031916959793377588 -0.063838942802486073 0.012046432978017481 0.046835130292397185 -0.038736773036453752 0.023499702830175037 -0.024510415222880427 -0.043127513053142601 0.016250307456256708 -0.022728192063707079 0.045468104556818406 0.019056928924919402 -0.023935641279267408 0.00020339891416345661 0.048536802838299781 0.037306953009073066 0.021383020488353346 -0.00469440158004443 -0.012328163235944945 0.043481825284208721 0.038026421481446616 -0.02743638799814237 -0.04683508465955441
leaf_weight=12922.43966040574 2865.2175453845412 1417.4462735105772 1324.6800672980025 257.08733550319448 1798.2040406847373 2442.2335081715137 790.13201889256015 3043.3798285804223 153.81950496509671 342.24855623394251 1763.0736476485617 1097.5091172959656 2787.8126309141517 9756.5524322260171 8124.6741576846689 566.96968233585358 1604.6020981096663 1212.0330361712258 8021.9796211053617 2988.0419227720704 1171.5657408158295 2065.7525526729878 1720.3310652687796 1214.7196645524818 2031.0005694138817 5097.4683264205232 86.033175507560372 14322.027803356817 2301.8210828569718 1561.8287423974834 1500.1817981447093 126.4527927134186 622.08082672720775 3568.9269299763255 835.75086711114272 4512.263921263162 2979.5813925121911 148.48117434536107 167.21221354044974 8633.6625279365107 331.1032251768047 5819.5528967657592 949.31353896576911 5168.0314010437578 328.18875553365797 170.29982454888523 976.08638649480417 1881.0942091867328 1898.7699968877714 1952.8272613498848 559.24182868469507 687.08161719981581 123.85131840806571 164.96734919503797 853.05872160964645 688.46787155023776 298.88222514558583 383.80491727543995 1133.9510954478756 6679.0477393232286 4152.8648131601512 209.27264559874311 581.61842952261213
leaf_count=92159 1762839 43156 3776 2841 552960 31289 173144 119257 10222 1041 59440 120523 926692 36342 49027 8890 555782 152134 303728 135606 85540 90990 11462 42062 165013 13913 2570 617351 46090 65650 501106 4546 129387 26290 139794 1996940 1220618 766 3653 46969 6156 256078 57646 12798 60020 9416 19723 537174 32089 46529 1174 1587 1086 3442 3798 4209 714 82446 146590 22793 23614 4671 10062
internal_value=0 -0.0451948 0.0493461 -0.0189741 -0.0254756 0.0607877 -0.0599747 -0.0492602 0.0386117 0.0327102 -0.0398355 -0.00614319 -0.063917 0.0548781 0.0268969 -0.0330981 -0.0313033 -0.00154386 -0.0581918 -0.0496632 -0.0120999 -0.0368965 0.0248746 -0.0446311 0.00401247 0.0467028 -0.0390044 -0.0670254 0.0446764 -0.041237 -0.0406502 -0.0500315 -0.0213165 0.0297563 -0.0161897 -0.0628732 -0.0597949 0.0345416 0.0404747 0.0575098 -0.0586678 -0.0596671 -0.00174658 0.0500305 -0.00654296 -0.0138998 -0.0154696 -0.0512703 0.0121142 -0.029725 0.0425228 0.030908 0.0146681 -0.0319139 0.0377881 0.0280909 0.0454436 -0.024515 -0.0182558 0.0445845 0.0368017 -0.00951553 -0.0627401
internal_weight=0 81449.7 74488.9 29360.9 25569.7 36056.7 52088.8 14010.7 38432.2 22223.1 14671.7 10898 38078 23134.3 13955.5 8704.4 4816.7 8715.94 13399 5967.32 3005.68 7161.34 3791.28 3445.44 5710.26 16209.1 3190.82 24679.1 4744.05 2979.28 3104.78 4795.36 1834.11 11693.6 1625.88 10357.1 7491.85 1947.1 5644.76 18390.2 9194.04 8862.93 3679.26 10564.4 2729.95 1632.44 1543.06 4668.91 2261.86 3715.9 8267.62 1246.32 1844.18 1379.69 1798.61 945.555 5466.91 2182.01 1462.14 7021.3 4320.08 363.092 8603.6
internal_count=11695373 11235162 460211 2101325 2077163 252849 9133837 1753887 207362 148894 515488 1561675 7379950 160690 122299 271076 1372396 926269 1782202 244412 367061 242463 24162 136494 559208 58468 1059458 5597748 77379 108806 1056888 1468412 281521 75317 312938 4980397 3217558 11614 31043 83311 381491 375335 394195 27425 336549 216026 28613 1463866 46982 105969 26595 2761 12548 45504 10848 7050 13512 635406 206610 23834 27267 14893 313790
is_linear=0
shrinkage=0.05


Tree=6
num_leaves=64
num_cat=0
split_feature=1 1 20 1 20 21 21 20 4 10 16 20 16 4 17 16 16 4 16 4 1 20 3 20 17 4 16 4 13 4 17 20 15 12 1 13 13 4 20 4 20 21 12 3 13 4 4 1 4 1 7 20 4 12 21 4 13 10 16 3 3 2 4
split_gain=119698 11199.8 3683.45 2024.59 1809.52 1761.52 1396.08 704.634 552.429 331.899 293.415 278.205 239.301 223.018 219.589 190.962 186.715 170.796 160.156 157.26 150.231 143.779 142.721 141.259 132.457 127.739 122.767 117.776 110.288 102.625 100.877 99.3226 98.0502 87.1801 82.8245 82.0108 81.2452 80.0658 78.5183 76.879 74.5093 74.0373 71.5007 70.6296 85.3711 70.0159 68.0379 66.7305 65.813 65.3648 64.799 63.674 65.4969 62.8324 61.4714 59.8338 57.9822 57.1859 56.1464 54.7987 54.4889 51.5802 57.7693
threshold=1.0000000180025095e-35 3.0029894113540654 3.5000000000000004 1.0001696944236758 19.500000000000004 39.000000000000007 14.500000000000002 1.5000000000000002 0.10526600107550622 545.50000000000011 12.500000000000002 10.500000000000002 11.500000000000002 0.076751910150051131 0.070802006870508208 2.5000000000000004 7.5000000000000009 0.17014407366514209 2.5000000000000004 0.32785089313983923 6.0153117179870614 19.500000000000004 317.50000000000006 19.500000000000004 0.17721834778785708 0.17858647555112842 3.5000000000000004 0.17014407366514209 0.053278310224413879 0.24531231820583346 1.1509740352630617 19.500000000000004 0.025018409825861457 2372.5000000000005 8.2935485839843768 0.006498785689473153 0.023759736679494384 0.39598657190799719 9.5000000000000018 0.015466765500605108 2.5000000000000004 1.5000000000000002 178.50000000000003 50.500000000000007 0.056254394352436073 0.043633803725242622 0.14695065468549731 5.9895935058593759 0.23481449484825137 7.7591474056243905 3.2928009033203129 5.5000000000000009 0.37511140108108526 2177.0000000000005 4.5000000000000009 0.50024202466011058 0.094614371657371535 34.500000000000007 10.500000000000002 104.50000000000001 1071.5000000000002 137.50000000000003 0.035635052248835571
decision_type=2 2 10 2 10 8 8 10 2 8 2 10 2 2 2 2 2 2 2 2 2 10 2 10 2 2 2 2 2 2 2 8 2 8 2 2 2 2 10 2 10 10 8 2 2 2 2 2 2 2 2 10 2 8 10 2 2 8 2 2 2 2 2
left_child=2 3 7 13 6 16 12 -1 11 15 51 45 25 -2 23 42 29 26 36 38 -14 48 -22 28 49 47 35 40 -15 56 -16 -20 33 -26 50 -8 -11 58 -12 -13 -9 -27 43 -7 -45 -4 -17 59 -18 -6 60 52 -10 -38 -23 -53 -5 -35 -19 -3 -28 -37 -63
right_child=1 4 8 5 24 9 17 27 10 18 19 39 20 14 30 46 21 37 31 -21 22 54 -24 -25 32 41 34 -29 -30 -31 -32 -33 -34 57 -36 61 53 -39 -40 -41 -42 -43 -44 44 -46 -47 -48 -49 -50 -51 -52 55 -54 -55 -56 -57 -58 -59 -60 -61 -62 62 -64
leaf_value=0.068398899409965602 -0.06695724135828228 -0.0029994879741322067 0.020714771080883189 -0.052016478276999616 0.021548890878315515 0.018362929074533324 -0.066925093766588603 0.053177708338323131 0.045587867358645472 -0.050667776367465792 0.036816114748069603 -0.026584594026672334 -0.048831892493464778 -0.057900487475631736 -0.062768808593449327 -0.036179165761033631 -0.061913402148993192 0.0075720497670292257 -0.046636062756002426 0.042942553458878034 5.9249524393269301e-05 -0.0089108600230717091 -0.036681221252150169 -0.022510544586307021 0.024784056750241198 -0.0081796875737379024 -0.015808154730280393 0.057330351720859221 -0.046081995982793639 -0.035239875078126724 -0.018855731483336691 0.02265713945366192 -0.005590949659998721 0.0084305837546646261 0.0022290337000401986 0.041476950633814874 -0.019628914956250385 0.026506043157983966 0.028098910341888685 0.01234374185578193 0.044933125597553414 -0.025744933837453056 -0.025772497124149488 -0.015407708614300472 0.0086694976538440466 0.033001963743259803 -0.017195130549767512 -0.020599209876535088 -0.052503687652108971 0.044244132126138383 0.0028642803021173644 0.039282145768967332 0.057944143125129702 -0.071395410469261913 -0.047955577989978009 0.059561246639197818 -0.031521373999200658 -0.053078808471012873 -0.021300439832866488 -0.040422430220620448 -0.038626248709516725 -0.045306570661333492 0.0018074408365377705
leaf_weight=12198.505368984304 11973.498232068669 105.06109609780833 1484.9958701925352 3613.085493663908 515.58803728665225 401.87194268405437 44.216707275249064 6808.357572005596 6822.7803805815056 266.98135669901967 4194.9074968565255 134.92797834286466 2116.0652911878424 5645.243649574928 14496.765856803919 834.04383567161858 5589.8419299565721 2044.9661045046523 1827.1356828864664 4090.4605416236445 346.06173864658922 203.84052207041532 1119.1036980033386 377.15677020326257 1488.3104357949924 1470.7145060948096 474.33917729882523 9821.9663227228448 3035.3778983554803 1651.2211831309833 131.97122341766953 53.220153855159879 440.07427318996633 105.59514224581653 416.93506991770118 79.182545267045498 1876.4292503111064 549.3725359456148 6723.4283535582945 2112.7297907802276 4586.4700580611825 1013.1799402163597 320.84322174452245 870.59584104642272 637.93431615596637 5287.7564292624593 1087.1899206200615 887.5895523224026 2783.5642485042335 824.76730118412524 196.61658511543646 5375.0933875124902 1272.4938553012908 60.507492918521166 199.43347537389491 390.13945464044809 381.53234168607742 58.845135503332131 183.48957431246527 1419.6056887498125 583.43665672186762 67.020125881768763 2228.4802145836875
leaf_count=92633 3489513 2654 37683 158880 3967 44776 15029 52263 28740 118534 13701 6930 88686 2209291 601848 239720 288928 132594 636777 11926 5698 3509 39733 16087 8529 32361 72124 30797 1060298 51440 3342 2058 3758 932 42239 4592 547163 17067 35477 29899 37203 21729 111277 164575 82964 49344 161197 28023 103109 4371 28011 29544 3369 57072 4061 1051 16722 557 18824 52994 124018 35052 276930
internal_value=0 -0.0431558 0.0467222 -0.0539696 -0.00957213 -0.0422827 -0.0169135 0.0588233 0.0360501 -0.0238354 0.0394249 0.0252494 -0.0304879 -0.0613958 -0.0585845 -0.0138814 -0.052818 -0.000158351 -0.0339557 0.0345808 -0.0403105 -0.0573809 -0.0280034 -0.0524664 0.0232421 -0.0233034 -0.00665622 0.0533179 -0.0537679 -0.0457249 -0.0623727 -0.0446748 0.0153824 0.020967 -0.0170774 0.00054423 -0.0248102 0.00940946 0.0314481 0.0100069 0.0498592 -0.0153445 -0.00393175 -0.000263699 -0.00522583 0.0303079 -0.0254365 -0.0314986 -0.0587853 0.0355141 -0.0234944 0.0446702 0.0475301 -0.021246 -0.0282199 0.0406545 -0.050059 -0.0135806 0.00519471 -0.0378437 -0.0283939 0.00180051 0.000431886
internal_weight=0 77097.9 71305 58319.3 18778.6 22659.3 15345.4 33415.3 37889.7 8236.75 28869.3 9020.41 8477.38 35660 23686.5 4152.48 14422.5 6868.06 4084.27 15008.8 3581.23 8776.68 1465.17 9057.78 3433.18 4896.15 4090.23 21216.8 8680.62 5645.84 14628.7 1880.36 2092.82 1652.75 1671.33 2418.9 2203.92 2777.83 10918.3 2247.66 11394.8 2483.89 2231.25 1910.4 1508.53 6772.75 1921.23 2412.26 8373.41 1340.36 1254.39 13860.5 8095.27 1936.94 403.274 5765.23 3994.62 164.44 2228.46 1524.67 1057.78 2374.68 2295.5
internal_count=11694173 11233613 460560 10173141 1060472 2792762 1038358 212896 247664 2166113 123808 123856 271878 7380379 3890866 804509 626649 766480 1361604 61104 134117 399607 45431 3285676 22114 137761 597995 120263 3269589 227042 605190 638835 13776 10018 266392 331603 722769 168485 49178 36829 89466 54090 403592 292315 247539 87027 400917 83671 392037 8338 224153 62704 32109 604235 7570 30595 175602 1489 151418 55648 196142 316574 311982
is_linear=0
shrinkage=0.05


Tree=7
num_leaves=64
num_cat=0
split_feature=1 1 20 20 21 20 14 1 17 16 4 4 1 14 4 4 21 12 21 3 13 16 20 12 21 14 21 14 12 13 16 4 14 12 4 13 4 10 13 13 1 1 10 20 1 4 20 1 10 21 20 20 1 17 3 12 4 15 3 14 2 14 4
split_gain=104003 9884.24 3168.83 2469.45 2047.58 874.304 677.493 647.594 642.146 351.259 289.737 276.593 245.668 228.801 226.223 209.002 201.653 189.131 448.501 171.835 155.922 152.604 151.201 148.727 146.826 131.816 130.015 120.406 120.252 110.291 107.176 99.9105 91.3884 130.194 82.8345 81.6555 81.3114 79.2297 79.1964 78.7654 78.408 77.6435 74.5175 74.5139 72.0228 71.3742 71.3473 69.4047 69.3549 67.6151 63.6244 61.6257 60.6755 58.3487 56.443 67.1377 77.6278 58.2054 56.4409 54.981 54.9201 54.3453 54.0956
threshold=1.0000000180025095e-35 2.0115308761596684 4.5000000000000009 19.500000000000004 12.500000000000002 1.5000000000000002 0.040033388882875449 1.0001696944236758 0.038648245856165893 8.5000000000000018 0.21692375093698504 0.14161919802427295 6.0153117179870614 0.066746223717927947 0.099885839968919768 0.19361489266157153 1.0000000180025095e-35 7.5000000000000009 1.0000000180025095e-35 53.500000000000007 0.094614371657371535 7.5000000000000009 19.500000000000004 2041.0000000000002 1.0000000180025095e-35 0.052652267739176757 7.5000000000000009 0.097239539027214064 1836.5000000000002 0.040005883201956756 6.5000000000000009 0.1582671254873276 0.13645491003990176 1.5000000000000002 0.063514508306980147 0.04746664687991143 0.087979685515165343 710.50000000000011 0.020412691868841652 0.061947986483573921 3.9972680807113652 5.008594512939454 524.50000000000011 2.5000000000000004 3.9972680807113652 0.27732916176319128 2.5000000000000004 5.9895935058593759 840.50000000000011 1.5000000000000002 20.500000000000004 9.5000000000000018 3.0029894113540654 1.1715686321258547 89.500000000000014 1.0000000180025095e-35 0.057952314615249641 0.099295776337385191 143.50000000000003 0.026829875074326996 5348.5000000000009 0.0099703432060778158 0.095466487109661116
decision_type=2 2 10 10 8 10 2 2 2 2 2 2 2 2 2 2 10 10 10 2 2 2 8 8 10 2 10 2 8 2 2 2 2 10 2 2 2 10 2 2 2 2 10 10 2 2 10 2 10 8 8 10 2 2 2 10 2 2 2 2 2 2 2
left_child=2 7 5 4 9 -1 17 14 20 15 19 21 37 23 -2 47 22 18 -4 49 31 29 27 43 -25 60 -5 -16 36 -6 45 -9 33 -12 -30 -35 -21 -11 61 -18 -31 -23 -14 -7 58 53 -15 48 -3 -8 -32 -38 -27 -10 57 56 -56 -48 -17 -20 -13 -19 -57
right_child=1 3 6 26 11 13 10 8 30 12 32 25 42 46 16 44 39 38 59 28 -22 41 -24 24 -26 52 -28 -29 34 40 50 -33 -34 35 -36 -37 51 -39 -40 -41 -42 -43 -44 -45 -46 -47 54 -49 -50 -51 -52 -53 -54 -55 55 62 -58 -59 -60 -61 -62 -63 -64
leaf_value=0.065638211719213385 -0.063960081673578237 -0.028129978502614811 0.028077585696801029 0.033944131939988888 -0.021797455052197632 0.05024963326101161 0.059237502952630562 -0.040960720727822732 -0.051395664938296282 -0.041485161017446842 -0.025559406437817553 -0.0023415474177904448 -0.0082446487515586142 0.057545539226584078 -0.052810049148949205 -0.009451771563988633 -0.062064950022960801 0.010548676263213076 -0.022172551831908239 0.022247283593436574 -0.0067863404511144714 -0.048473269982347349 -0.0034600510334259838 0.037985424172940499 -0.0030109961241591016 -0.0010038893922403385 0.014122694635026923 -0.033999322452597257 0.020464679073220055 -0.016722581840550501 -0.059285187073032965 -0.024417056298186468 0.049856891265205032 0.047722677013176923 -0.027197538968933555 0.036504332350764772 0.035875378237501504 -0.053419661202620185 0.021468794285978289 -0.053042103622454609 0.001501728474564536 -0.017627820947549704 -0.032550113781131082 0.042262218192864957 -0.010835512135023234 -0.031603300490585948 0.058477772677328392 -0.020807712200052637 -0.045120530741001946 0.038991344034573057 -0.033326041795529802 0.026729029821960171 0.015617535010424097 0.021421837320195442 0.03547106916001079 0.038019256580058107 -0.059326036275600902 0.035551999554990124 -0.034677294246534991 0.011336148417049535 -0.020615183627675809 0.048374538979690858 0.050765734381401285
leaf_weight=11318.408289150335 14089.482079827576 923.6229894713033 1114.7911034631543 1431.5830285765696 1447.8993116472848 5348.1074918461964 554.09404752589762 2213.8156349360943 2158.1021267091855 2453.4393907417543 76.051870513707399 2215.2889627313707 415.03805197239853 6123.5507285585627 6067.2686468735337 313.67670220509171 8770.0793593020062 118.16764026694 896.19516841531731 2686.702611957211 604.55897217290476 444.5723106013611 177.59199998201802 782.97814872022718 302.88246151618659 815.95488926116377 1959.9262015486893 989.43010725802742 223.40265581570566 889.44775074371137 5231.0153268617578 1552.6918069364037 3007.3887157514691 2418.4206849206239 153.99913995619863 4925.9712327755988 4762.841821202077 3210.3358845449984 3944.7836412354372 3339.8431612827117 1754.2258396800607 377.04013784183189 1312.889079644694 6430.9466356607154 1759.6196302326862 650.68462610803545 2522.3589530456811 638.3808856792748 1717.4951023466419 1612.3943015737459 247.19254391256254 3002.7018393790349 1678.5595574234612 27.865805223351344 72.434551741927862 1067.0237416699529 30.769246911630034 310.99164863489568 756.6056157280691 141.78270228533074 504.87799784797244 483.4199179681018 3785.169688009657
leaf_count=92597 4152974 33390 36681 9901 349350 33444 1300 920906 99896 97803 316 207240 7808 25743 2355486 7337 383917 1537 17816 31848 131951 145795 9539 21582 2736 99347 14002 339566 4675 272309 255589 318191 8260 7386 3074 15456 22322 163775 29648 138759 254099 57564 47267 43370 35897 20809 6858 19717 75338 6607 5116 16833 96776 618 1431 10025 828 964 26791 1213 79156 2935 12823
internal_value=0 -0.0414221 0.0444049 -0.0174084 -0.023135 0.0539875 0.0322863 -0.0554913 -0.0458727 -0.035883 0.0362963 -0.00614106 -0.0432151 0.0490628 -0.0591409 -0.027012 -0.0556308 0.0182648 0.00605591 0.0313151 -0.0303574 -0.0146537 -0.0490258 0.0442565 0.0265502 0.0018794 0.0224895 -0.0501726 0.0287436 -0.0107049 -0.054029 -0.0341408 0.0425043 0.0395245 0.00101607 0.0401984 0.0297448 -0.0482499 0.0240459 -0.0595765 -0.00462973 -0.0343182 -0.0267121 0.0458888 -0.0170565 -0.0461403 0.0535073 -0.0356027 -0.0391788 0.0441694 -0.0581138 0.0323388 0.0101807 -0.0504674 0.0503324 0.0471139 0.0072082 0.0559614 -0.0272842 -0.0175954 -0.00573324 0.0409445 0.0479627
internal_weight=0 73140.1 68218.7 27020.5 23629 38095.6 30123.1 46119.6 12685.9 13501.1 23424 10127.9 7391.7 26777.2 33433.7 6109.4 19344.2 6699.14 2152.77 12996.1 4371.07 4913.19 7234.29 12864.9 1085.86 5214.68 3391.51 7056.7 10829.6 4091.57 8314.86 3766.51 10427.8 7420.44 377.402 7344.39 10452.2 5663.78 4546.37 12109.9 2643.67 821.612 1727.93 11779.1 2829.9 2836.65 13912.3 3279.5 2641.12 2166.49 5478.21 7765.54 2494.51 2185.97 7788.75 4955.4 103.204 2833.35 1070.28 1037.98 2720.17 601.588 4852.19
internal_count=11694287 11233979 460308 2100662 2076759 252401 207907 9133317 1753076 515123 118077 1561636 316653 159804 7380241 198470 3227267 89830 55710 86659 1371048 1079117 2704591 101132 24318 482519 23903 2695052 78752 875758 382028 1239097 31418 23158 7749 22842 71003 261578 34120 522676 526408 203359 55075 76814 70025 121323 58672 128445 108728 7907 260705 39155 196123 100514 32929 25107 2259 7822 34128 19029 286396 4472 22848
is_linear=0
shrinkage=0.05


Tree=8
num_leaves=64
num_cat=0
split_feature=1 20 1 20 21 1 20 21 1 4 20 16 16 1 14 21 14 4 14 16 4 12 10 1 1 21 4 3 14 20 1 14 13 21 12 16 10 17 14 12 11 14 3 12 10 14 15 17 4 15 13 4 1 15 4 14 2 13 1 10 13 21 1
split_gain=91125.7 3527.87 6193.11 2730.4 1799.74 1659.75 637.062 590.567 656.439 495.674 418.203 342.274 286.964 243.717 207.008 233.351 205.145 201.756 196.222 175.121 166.779 150.981 149.591 139.512 138.874 133.097 129.188 127.326 125.286 118.979 118.842 115.846 110.87 108.663 101.22 100.849 89.303 83.8047 103.604 82.1817 90.4728 81.1041 78.6442 98.6708 77.1862 76.7654 75.3367 87.6471 69.5397 69.2563 67.3553 67.1128 65.3148 91.2938 71.1671 63.8316 62.5996 64.7532 62.5606 62.2462 60.6708 59.4954 59.0395
threshold=1.0000000180025095e-35 19.500000000000004 2.0115308761596684 3.5000000000000004 14.500000000000002 1.8571522235870364 1.5000000000000002 18.500000000000004 1.991152882575989 0.20750275999307635 9.5000000000000018 10.500000000000002 4.5000000000000009 6.0153117179870614 0.023271140642464164 1.0000000180025095e-35 0.040854260325431831 0.33345660567283636 0.069995205849409117 5.5000000000000009 0.22609756886959079 1836.5000000000002 514.50000000000011 1.5349486470222475 5.9895935058593759 2.5000000000000004 0.063514508306980147 65.500000000000014 0.04287326708436013 7.5000000000000009 5.5024585723876962 0.038393147289752967 0.053278310224413879 5.5000000000000009 1.0000000180025095e-35 6.5000000000000009 1977.5000000000002 0.05028089880943299 0.0064446905162185439 1882.5000000000002 17.500000000000004 0.016960215754806999 92.500000000000014 2372.5000000000005 315.50000000000006 0.13645491003990176 0.024660949595272545 0.53410854935646068 0.33345660567283636 0.063966177403926863 0.045781409367918975 0.18097276240587237 7.7591474056243905 0.044971911236643798 0.22168783843517306 0.0092236795462667959 395.50000000000006 0.0046217648778110751 0.91233402490615856 336.50000000000006 0.038833178579807288 12.500000000000002 3.9972680807113652
decision_type=2 10 2 10 8 2 10 8 2 2 10 2 2 2 2 10 2 2 2 2 2 8 8 2 2 10 2 2 2 10 2 2 2 10 10 2 10 2 2 8 10 2 2 8 10 2 2 2 2 2 2 2 2 2 2 2 2 2 2 8 2 10 2
left_child=3 2 7 6 11 25 -1 23 21 10 14 17 20 62 15 -5 37 24 29 22 31 32 60 51 42 -3 -8 -16 -28 -11 36 56 48 -7 -33 59 -14 -12 -39 -29 -41 -31 -4 -44 -15 -18 50 -48 -9 -43 -20 -2 54 61 -35 -17 -6 -58 -27 -25 -10 -54 -13
right_child=1 5 4 9 12 33 26 8 19 18 16 13 30 44 27 55 45 -19 46 -21 -22 -23 -24 35 -26 58 28 39 -30 41 -32 34 -34 52 -36 -37 -38 38 -40 40 -42 49 43 -45 -46 -47 47 -49 -50 -51 -52 -53 53 -55 -56 -57 57 -59 -60 -61 -62 -63 -64
leaf_value=0.063813327451057653 -0.063696984887224195 -0.02144162707246999 -0.014869349271517136 0.033205096480686952 0.00043958656870460251 0.035332657564064465 0.037220722574765414 -0.055473557373709029 -0.025260616433656957 0.040579766204616667 0.017687137629879557 -0.054196752441638102 -0.020096929285385284 -0.0004832226766930891 0.047239866711872303 -0.0097257577188398156 0.017839538747691876 -0.0099676714054744639 0.061496905010203023 -0.048654874294023785 0.011713883674018632 -0.061712810667492818 -0.035846187476160953 -0.036145971333626424 -0.01614520049839847 -0.058772302663923963 0.042692349099924629 0.033908803170406995 0.052464194080821418 0.0033114410736926562 -0.0067645425163516725 -0.059043602188759127 -0.041768365239061578 -0.0095456184406765964 0.00210696866601394 -0.057537947241492471 -0.045108151697841159 -0.030227183574471655 0.0039186618926351354 0.026919231536507767 -0.038055437265136507 0.030946381932356035 -0.035503313646277353 -0.072673877078774859 -0.030550363078907062 0.03131549965969261 0.042531514096378391 0.01763772881894168 -0.038878112675084613 -0.01825609096446373 0.04644638443123681 -0.057266901031331856 0.035174602271044436 -0.0074992599311968612 0.018057493306434098 0.017324873386779929 -0.069112301113135766 -0.017725668542015998 -0.032928074024255564 -0.051809594747336055 -0.0063242311997241596 0.013113566428457924 -0.042720419165095877
leaf_weight=10351.598122675903 11565.566849409603 620.92176489019766 435.60265007510316 1206.9812272461131 504.90729357302189 923.66858896892518 2263.3412162428722 5056.8958424143493 724.93594444589689 3360.5386141957715 558.93602092983201 2343.0184423471801 1148.0368765669409 259.20067922119051 1930.0013859113678 604.40503034926951 2931.5286636480596 1439.4412193496246 912.3941599521786 942.04016666603275 2013.1971883913502 3356.9851641946007 1477.1090872925706 1070.9002916023601 1243.1274111927487 732.41214083170053 4426.9246304994449 9622.395522210747 12661.796931995079 317.67602150700986 1111.9585171986837 69.217883822508156 3172.3656866664533 448.67430182150565 3028.4770633613225 4965.120409411611 517.88812825409696 316.02733823703602 747.81668577622622 151.51756769604981 82.883026205934584 3097.9524706173688 3826.9179031806998 187.2749268822372 1209.2868049043464 1652.4862764254212 2786.671011691913 404.97141472809017 721.27563089551404 73.209811808541417 4012.904220405966 6251.4387080585584 800.34967815526761 228.97272583248559 486.92427540841163 341.19233967829496 64.097346953116357 1407.5893029263243 344.20742555649485 1555.5909881666303 1015.5239951638505 494.39882875868352 2148.1055118932854
leaf_count=92411 620763 35515 13308 32916 76714 7436 40786 2576905 197485 14218 19652 124129 215758 4179 6684 9201 25699 29609 2308 329310 136621 2227985 622811 43375 36284 21197 29963 66020 49367 4038 125378 36399 1380154 4137 452620 255165 164896 8341 5378 2463 3881 12580 153492 13740 44240 9626 9047 956 237592 345 12018 282095 4378 1716 3884 1935 27637 324443 7944 76067 220557 3317 96267
internal_value=0 -0.039656 -0.0428002 0.0426439 -0.021929 0.000466566 0.0538014 -0.0542423 -0.0468666 0.0332052 0.0280848 -0.0340816 -0.0058018 -0.0429258 0.0328919 0.0186338 0.017289 -0.0266915 0.0400976 -0.0296947 -0.000463075 -0.0526702 -0.0241435 -0.0590224 -0.0309201 -0.0398772 0.048446 0.0354958 0.0499327 0.0338652 -0.019423 -0.00529422 -0.0492786 0.0207106 0.000740561 -0.0533465 -0.0278722 0.00201124 -0.00622476 0.0331962 0.00394447 0.0273976 -0.0350478 -0.0372374 -0.0252433 0.0226975 0.0453568 0.0393729 -0.053402 0.0298105 0.0492344 -0.0614409 0.0152188 0.0216038 0.00482018 3.47053e-05 -0.0147519 -0.0199637 -0.0505096 -0.0454231 -0.0142116 0.0267506 -0.0487076
internal_weight=0 69913.6 64833.1 64816.1 22957.3 5080.53 29703.7 41875.7 16467.1 35112.5 20146.2 13092 9865.37 5959.61 13939.4 2152.58 6206.79 7132.36 14966.3 4159.61 7087.49 12307.5 3217.57 25408.6 5692.92 1697.54 19352.1 11786.8 17088.7 6849.38 2777.88 5074.29 8950.54 3382.99 3097.69 7591.61 1665.93 1622.78 1063.84 9856.8 234.401 3488.84 4449.8 4014.19 1468.49 4584.01 8116.94 3191.64 5778.17 3171.16 4925.3 17817 2459.32 1523.72 935.599 945.597 1976.59 1471.69 1076.62 2626.49 1740.46 1294.75 4491.12
internal_count=11695335 11235502 11145978 459833 2075714 89524 212527 9070264 7792799 247306 191796 515248 1560466 268815 123100 44052 68696 246433 55510 1370163 1054434 6422636 1040853 1277465 216824 64656 120116 79048 79330 31181 506032 917813 4194651 24868 489019 374607 380654 33371 13719 72364 6344 16963 180540 167232 48419 35325 24329 10003 2814497 12925 14326 902858 17432 9411 8021 11136 428794 352080 29141 119442 418042 7695 220396
is_linear=0
shrinkage=0.05


Tree=9
num_leaves=64
num_cat=0
split_feature=14 1 1 1 1 20 16 20 21 21 1 20 21 20 3 1 21 20 4 16 1 4 16 20 4 21 21 14 3 3 12 11 16 10 4 2 15 21 12 20 16 3 13 10 21 14 10 20 21 11 12 13 1 12 15 3 14 10 4 21 12 11 3
split_gain=16352.9 46147.7 22260.5 5120.93 1677.3 1659.43 1046.72 951.911 816.141 676.808 666.357 433.48 419.059 320.741 238.498 228.044 195.127 177.405 153.403 150.514 143.953 135.055 128.062 125.484 120.093 118.75 108.611 282.551 106.951 106.192 178.9 137.881 98.7957 97.7149 96.6428 92.821 90.0317 89.8687 206.447 87.116 80.8541 80.418 79.3303 78.9289 78.7964 74.987 71.7072 71.2998 71.1436 67.8057 132.565 66.6307 66.1693 66.0307 69.8173 65.8845 64.5748 64.5386 64.0062 67.3684 63.3092 60.0086 60.0031
threshold=0.033309213817119605 1.0000000180025095e-35 1.0000000180025095e-35 3.0029894113540654 2.486248373985291 4.5000000000000009 3.5000000000000004 19.500000000000004 39.000000000000007 10.500000000000002 1.0764393806457522 1.5000000000000002 15.500000000000002 5.5000000000000009 602.50000000000011 1.0764393806457522 23.500000000000004 20.500000000000004 0.23937992751598361 1.5000000000000002 1.0001696944236758 0.16622424870729449 6.5000000000000009 19.500000000000004 0.062257347628474242 1.5000000000000002 1.0000000180025095e-35 1.0000000180025095e-35 208.50000000000003 107.50000000000001 1.0000000180025095e-35 31.500000000000004 13.500000000000002 647.50000000000011 0.16318304091691974 2387.5000000000005 0.31009615957736975 1.0000000180025095e-35 7.5000000000000009 1.5000000000000002 7.5000000000000009 277.50000000000006 0.042106501758098609 169.50000000000003 6.5000000000000009 0.31010198593139654 358.50000000000006 2.5000000000000004 1.5000000000000002 2326.5000000000005 2.5000000000000004 0.084627453237772002 8.0077457427978533 1.0000000180025095e-35 0.021015826612710956 26.500000000000004 0.011726464144885542 739.50000000000011 0.059266652911901481 9.5000000000000018 1.0000000180025095e-35 8.5000000000000018 204.50000000000003
decision_type=2 2 2 2 2 10 2 8 8 8 2 10 8 10 2 2 8 8 2 2 2 2 2 8 2 10 10 2 2 2 10 10 2 8 2 2 2 10 10 10 2 2 2 10 10 2 10 10 10 10 10 2 2 10 2 2 2 10 2 8 10 10 2
left_child=2 5 6 8 15 11 39 9 20 25 23 -2 17 37 21 58 -17 32 49 62 -3 55 46 51 -11 34 -15 -28 -18 36 31 -31 41 -21 -5 -14 -13 -8 -39 -1 57 -6 -23 -27 -9 60 -22 -32 -38 50 -16 -10 -45 -46 -55 -7 -37 -26 -4 -60 61 -44 -12
right_child=1 3 4 7 12 14 13 44 10 24 19 29 35 26 18 16 28 -19 -20 33 22 42 -24 -25 40 43 27 -29 -30 30 47 -33 -34 -35 -36 56 48 38 -40 -41 -42 -43 45 52 53 -47 -48 -49 -50 -51 -52 -53 -54 54 -56 -57 -58 -59 59 -61 -62 -63 -64
leaf_value=0.061302149037305236 0.061950259513777743 -0.055388700662872874 -0.062602887394944115 -0.026174459046207438 -0.023435707721872059 0.044554307904176797 0.041646041195229487 0.033015539551950704 -0.048705418095676488 -0.024466436636615435 0.011985777405165422 0.055492040383802822 -0.0087257831023560186 0.023472484171147778 -0.051838001407878156 -0.053895134756514584 -0.023289099129987459 0.007176269100796411 0.038362354621721627 -0.014036869719778466 -0.023565280927206604 0.049792058019929052 -0.050326716620429493 -2.7423098714640335e-05 0.019668161535819073 -0.0066691920616936146 -0.018437242802737074 0.017630675563919413 -0.047595535112711945 0.017774208067376694 0.050268056982927883 -0.094741966821000279 -0.05116523840627011 -0.032599013288704785 -0.0059203591325942325 -0.054906192475737962 0.046935800359449449 -0.00049368010690444041 0.034800288156263071 0.046402244196091798 -0.010565518971057029 -0.04141835030508987 0.025267323905365888 -0.037420229913780474 -0.01634473769904695 0.049616227900352083 -0.042020510824889966 0.043042736295628922 -0.0011898766312886766 0.042194816949012046 0.022541136202194622 -0.034228166139296724 -0.018095033721385694 0.024062154720164708 0.0002290583672015235 0.02868253145594047 -0.021174521258478247 0.0041728318940114448 -0.059486131651618757 -0.051320830428899566 0.037052695787091951 -0.055242084419990879 -0.010651627239235455
leaf_weight=2016.1451836870983 7636.7269611298107 7755.0352593470598 6361.7914652791806 1100.3412873568013 969.61215693689883 768.01577479019761 1572.8216221989132 975.22532052826136 3821.1701568146236 372.47936197533272 405.12114240601659 5062.8447673367336 2188.2235244172043 1319.6427013492212 60.515589674469084 3321.0052703323308 1063.0930786523968 203.78240932774497 2241.8519466323778 1307.1682192008011 759.01492245495319 2051.2367971269414 4874.4998866578098 155.26786863384768 915.28768200334162 313.00943260197528 812.03321703290567 1638.9073119047098 788.03627961943857 119.52639678306878 6057.8040638542734 35.260283786803484 1444.2538866787218 1549.3537648811471 1267.2550787278451 176.83449079003185 198.1762346252799 551.55301919579506 1665.3820609916002 1910.7044439688325 680.83061890548561 1732.7045575296506 66.804059766232967 2047.0901330024935 150.27754315780476 1298.0400452911854 1716.9561794048641 7824.6462635006756 125.37638220563531 436.81937035638839 5940.3870699652471 1003.488129399484 565.25195787474513 1262.0396807831712 406.1843633975659 4398.1768661942333 717.8223269606242 2527.9273103424348 6382.9068271867 4180.6405907885637 6074.8839770993218 35.415290828794241 1055.1049032881856
leaf_count=35494 57168 401960 2311445 49670 32261 2932 27959 6099 1925528 118323 58950 15228 369054 38941 4629 173054 284127 2134 8457 244034 26730 6652 251379 11119 53725 6164 17416 10007 382035 2948 34151 3007 74626 530489 32616 72178 907 5630 5741 33062 74227 77169 229 73694 1685 3936 83084 43524 309 2712 48036 442998 15811 7696 4229 30332 168939 242812 326034 1961202 21393 380 336447
internal_value=0 0.0123184 -0.0259485 -0.030103 -0.0489217 0.0434287 0.0331098 -0.00419416 -0.0434631 -0.0115407 -0.0318073 0.0518577 -0.028376 0.0222323 0.0336696 -0.0558329 -0.0466445 -0.0383699 0.0270981 -0.0174295 -0.0506367 0.0375517 -0.0456231 -0.0442704 0.00272301 -0.0236582 0.0119076 0.00568084 -0.0336365 0.0478897 0.0455996 -0.00785689 -0.0406082 -0.0241048 -0.0153335 -0.0142733 0.0538579 0.0325048 0.0260195 0.0540522 0.00517873 -0.034966 0.0410819 -0.0303958 0.0215489 0.0386917 -0.036363 0.0461956 0.0282871 0.0231755 0.0217911 -0.0456943 -0.0332387 0.0153996 0.0182592 0.0310421 -0.0278418 0.00829186 -0.0586408 -0.0562546 0.0363961 -0.00262626 -0.00437117
internal_weight=0 87417.9 41017.9 36985.4 29530.7 50432.5 11487.2 12583.2 24402.2 9789.47 9296.67 27060.4 7433.23 7560.34 23372.1 22097.5 5172.13 4350.35 8679.57 4316.75 15105.5 14692.6 7350.47 4979.93 4496.52 5292.95 3770.58 2450.94 1851.13 19423.6 14037.2 154.787 4146.57 2856.52 2367.6 3082.88 5386.4 3789.76 2216.94 3926.85 4124.05 2702.32 9526.38 2925.35 2793.73 7475.14 2475.97 13882.5 323.553 6437.72 6000.9 4824.66 2612.34 1818.5 1668.22 5166.19 894.657 3443.21 16925.3 10563.5 6177.1 102.219 1460.23
internal_count=11694907 5286399 6408508 4999469 6234258 286930 174250 686751 4312718 667042 3549565 157242 796361 105694 129688 5437897 839216 186190 63834 1169920 763153 65854 361193 2379645 489087 177955 66364 27423 666162 100074 83630 5955 184056 774523 82286 610171 16444 39330 11371 68556 370764 109430 32590 95669 19709 25938 109814 77675 1216 55377 52665 2368526 89505 13610 11925 33264 241117 296537 4598681 2287236 22002 609 395397
is_linear=0
shrinkage=0.05


Tree=10
num_leaves=64
num_cat=0
split_feature=1 1 20 20 21 14 20 21 1 4 16 16 1 12 17 4 20 4 14 4 1 4 14 20 4 10 16 14 10 1 20 15 16 13 12 11 4 4 1 0 22 14 12 20 11 13 14 4 10 16 12 17 1 1 1 15 4 4 15 1 16 13 12
split_gain=72039.3 7233.85 2328.88 1597.25 1495.26 510.361 493.111 479.865 577.793 286.924 274.047 223.006 178.349 175.39 235.564 165.822 154.207 151.492 149.336 149.133 148.012 147.538 124.911 113.889 109.72 108.523 99.9748 90.5526 90.4854 85.3226 81.8762 77.8261 77.7684 75.957 75.462 96.5916 71.4818 70.9164 67.0603 66.8843 63.9355 63.3991 63.1029 61.7228 61.6715 60.6934 56.9468 55.9318 55.8163 55.6452 54.0036 53.9297 69.1982 68.7679 143.445 137.434 50.8831 50.8496 50.3187 49.2016 59.9867 48.8363 48.7684
threshold=1.0000000180025095e-35 2.0115308761596684 3.5000000000000004 19.500000000000004 14.500000000000002 0.047646073624491699 1.5000000000000002 39.000000000000007 1.0001696944236758 0.16622424870729449 9.5000000000000018 3.5000000000000004 5.008594512939454 2.5000000000000004 1.0000000180025095e-35 0.1483963951468468 6.5000000000000009 0.24531231820583346 0.066746223717927947 0.17014407366514209 5.5024585723876962 0.1582671254873276 0.034454494714736945 5.5000000000000009 0.062257347628474242 413.50000000000006 10.500000000000002 0.077052142471075072 684.50000000000011 5.9895935058593759 17.500000000000004 0.012242976110428573 5.5000000000000009 0.041790166869759567 3496.0000000000005 19.500000000000004 0.36599493026733404 0.10627710074186326 1.991152882575989 976636.50000000012 1.5000000000000002 0.14003257453441623 24.500000000000004 19.500000000000004 34.500000000000007 0.067323956638574614 0.15003608167171481 0.33345660567283636 75.500000000000014 14.500000000000002 1.0000000180025095e-35 0.24037037044763568 8.8712754249572772 11.242851734161379 16.129733085632328 0.0056338475551456222 0.24531231820583346 0.063514508306980147 0.028537495993077758 6.99912452697754 1.5000000000000002 0.034824576228857047 1569.5000000000002
decision_type=2 2 10 10 8 2 10 8 2 2 2 2 2 10 2 2 10 2 2 2 2 2 2 10 2 8 2 2 10 2 10 2 2 2 8 10 2 2 2 2 10 2 8 10 10 2 2 2 10 2 10 2 2 2 2 2 2 2 2 2 2 2 8
left_child=2 7 6 4 10 13 -1 15 19 16 17 22 56 14 -4 -2 46 29 37 33 25 -10 28 -15 -24 -13 -11 43 -6 45 -14 61 42 -9 51 -36 58 -8 -34 -21 -33 50 -23 -17 49 -3 -7 -22 -18 -16 -26 52 -5 -53 55 -55 -12 -20 -25 60 -52 -28 -27
right_child=1 3 5 34 11 9 18 8 21 26 12 20 30 23 44 27 48 -19 57 39 47 32 24 36 41 62 31 -29 -30 -31 -32 40 38 -35 35 -37 -38 -39 -40 -41 -42 -43 -44 -45 -46 -47 -48 -49 -50 -51 59 53 -54 54 -56 -57 -58 -59 -60 -61 -62 -63 -64
leaf_value=0.06028936297102281 -0.058749751962488085 -0.037660555808342017 0.023329240748349321 0.017181707017793289 0.0011477643347156709 0.031365306613709697 0.034155356153511014 -0.058007142632986376 -0.035496951759699941 0.045821874089569448 -0.049387271193149708 -0.0082794033421285627 -0.030927197619217396 0.033059803214011939 0.00093473126224387067 -0.053768397541030105 0.033851902001752622 -0.013615618484583529 0.038913116345552147 -0.046512334479804462 -0.0059858762771262865 -1.8719207639515335e-05 -0.023181378901591162 0.019949821058895929 -0.062269324216916583 -0.030474147011327703 0.054125090367483621 -0.041956926179970377 -0.020926558480409727 -0.016136606942046158 0.00043048011740810652 0.034741385406511061 0.042952977780435296 -0.047883300478067187 0.0045031500509987747 -0.086995071951876751 0.035438994024809038 0.044096340896784894 -0.041457702439731688 -0.032805329406172153 0.019275655575405139 0.027322584949405135 -0.021720443656304579 -0.035271842697973031 -0.083499189735996501 -0.020874616419061093 0.043476399128091037 0.028998558999079299 0.020548272020516803 -0.026355980549824434 0.010816103303431253 0.020421202465993268 0.038447290670664713 0.037305657685358151 0.031697589288744568 -0.061882832196503229 -0.037660094556793207 0.051570490168722588 0.0035541259152012841 0.026943859808727263 -0.0031022646886935895 0.039012876691007975 -0.078040642709409136
leaf_weight=8907.7219256898388 12593.507594354567 2457.9489722853759 996.35184785351157 806.86535893683322 893.91446532355621 2884.9312566337176 2580.8172562993132 3988.4396666209213 2209.2379095186479 4408.874291183427 2719.0558051397093 709.01629108842462 1792.4044391338248 2574.0903592305258 451.09097885014489 8394.4129207853694 953.14798320364207 2105.9219045313075 879.91533763147891 2226.5682809237624 1200.0577263764571 705.44775580940768 312.00022045522928 4268.7784805116244 29.116143479011953 1282.4159010816365 617.54094465449452 2474.0431591854431 965.83104447601363 850.76465533068404 235.51855495152995 3252.651946364902 25.190616192296147 3460.0453645840753 236.47448148878175 32.850896757096052 683.25126635283232 5884.6975499987602 356.79429492214695 1482.5731384165119 841.0459667313844 370.15430620545521 637.8207219906617 476.63796912878752 29.947721010074019 689.5843002742622 1462.7240157909691 126.269334258046 4562.1430531977676 318.78081119176932 1671.1486498024315 853.42427677179512 727.41936634131707 47.239032002631575 137.56742749549448 133.94990329188295 1401.8495467690518 8078.4565296578221 525.57679873984307 261.63602351909503 1442.2328083701432 3980.2149090077728 56.249555348418653
leaf_count=92588 769835 113223 36768 7869 124865 23738 44364 2781059 1009232 17035 161703 104841 69545 20133 7249 421497 4327 53231 11408 935728 143413 113075 139181 40660 12766 342094 1833 113694 254828 27178 5325 12568 633 2196258 2687 470 3161 31879 92767 532982 2318 34403 156928 10719 1286 29531 8052 4845 41106 8300 195620 6837 4159 272 751 812 55812 32672 5386 13249 159538 13530 30632
internal_value=0 -0.0370225 0.0396442 -0.0157566 -0.0204934 0.0307559 0.0507198 -0.050398 -0.0434156 0.0348396 -0.0319739 -0.00540011 -0.0394243 0.0212336 0.00710589 -0.0548 0.0283983 -0.024469 0.0458275 -0.0492251 -0.0156675 -0.0269407 0.000426003 0.0243852 0.00531498 -0.0240958 0.0396891 -0.0504156 -0.0103162 -0.0301856 -0.0272854 0.0365782 -0.0159842 -0.0533043 0.018583 -0.00665732 0.0203087 0.0410657 -0.0358911 -0.0410335 0.031564 0.00767062 -0.0103233 -0.0527746 -0.0131039 -0.033983 0.03544 -0.00265528 0.0228474 -0.0103655 0.00553373 0.0210948 0.0272639 0.0130198 -0.00679629 -0.0360227 -0.0453979 0.0503272 0.0181525 0.00611867 0.0043686 0.0410427 -0.0324728
internal_weight=0 63579.6 59142.8 24548.9 21573.1 32811.1 26331.6 39030.7 15092.1 22963.3 12253 9320.04 6148.83 9847.87 1796.17 23938.6 9862.95 6104.22 17423.9 11157.6 3374.01 3934.49 5946.03 8051.7 4086.29 2047.68 13100.3 11345.1 1859.75 3998.3 2027.92 8691.45 1725.25 7448.49 2975.79 269.325 5477.61 8465.51 381.985 3709.14 4093.7 3774.29 1343.27 8871.05 799.82 3147.53 4347.66 1326.33 5515.29 769.872 3404.13 2706.47 1534.28 1172.18 318.756 181.189 4120.91 8958.37 4794.36 3375.02 3113.38 4597.76 1338.67
internal_count=11694448 11234087 460361 2099680 2075823 247450 212911 9134407 7818662 124507 515548 1560275 292385 122943 53603 1315745 77223 223163 120323 6446027 625825 1372635 934450 69340 554757 477567 47284 545910 379693 169932 74870 30249 363403 4977317 23857 3157 49207 76243 93400 1468710 14886 415576 270003 432216 16835 142754 31790 148258 45433 15549 381173 20700 12028 8672 1835 1084 217515 44080 46046 368407 355158 15363 372726
is_linear=0
shrinkage=0.05


Tree=11
num_leaves=64
num_cat=0
split_feature=1 1 16 1 20 17 16 20 14 4 14 10 17 20 4 16 17 3 1 12 4 17 16 14 13 10 11 15 16 20 4 4 12 20 12 22 16 4 17 20 16 20 16 17 17 10 13 20 14 13 17 1 17 20 4 4 13 14 17 14 13 12 4
split_gain=64411.2 6552.6 1887.36 1223.58 943.053 934.224 798.992 583.974 504.98 274.834 208.418 202.892 197.53 196.94 184.665 171.485 156.045 150.389 146.288 142.08 129.023 124.445 108.185 107.523 94.6194 92.2971 85.6855 85.6746 78.3086 78.1167 75.999 75.6613 83.3921 73.9997 73.4965 69.8253 68.6298 65.8348 65.0757 64.3168 77.7661 63.6187 61.7496 103.685 69.6751 61.4946 60.7035 59.161 58.5862 56.4423 56.2214 55.4717 54.9565 52.355 51.7948 51.7229 49.9404 49.3091 48.6906 53.8711 47.8673 46.8468 45.7082
threshold=1.0000000180025095e-35 3.0029894113540654 7.5000000000000009 1.0001696944236758 19.500000000000004 0.034785239025950439 5.5000000000000009 1.5000000000000002 0.016960215754806999 0.21692375093698504 0.016960215754806999 611.50000000000011 0.14119601994752887 6.5000000000000009 0.13086595386266711 8.5000000000000018 0.19462481886148456 107.50000000000001 8.0077457427978533 1.0000000180025095e-35 0.37511140108108526 0.1106403023004532 1.5000000000000002 0.15394657850265506 0.012637127190828325 315.50000000000006 20.500000000000004 0.007628737948834897 13.500000000000002 19.500000000000004 0.28576420247554785 0.087979685515165343 1.0000000180025095e-35 19.500000000000004 2177.0000000000005 1.5000000000000002 3.5000000000000004 0.22609756886959079 0.070802006870508208 19.500000000000004 2.5000000000000004 7.5000000000000009 16.500000000000004 0.062047101557254798 0.038648245856165893 3146.5000000000005 0.025472263805568222 3.5000000000000004 0.097239539027214064 0.04156161658465863 1.1715686321258547 2.0115308761596684 0.087167583405971541 2.5000000000000004 0.085334077477455153 0.44456152617931372 0.03321416303515435 0.10724374651908876 0.49683544039726263 0.016960215754806999 0.020002062432467941 2177.0000000000005 0.253180742263794
decision_type=2 2 2 2 10 2 2 10 2 2 2 8 2 8 2 2 2 2 2 10 2 2 2 2 2 10 10 2 2 8 2 2 10 10 8 10 2 2 2 10 2 10 2 2 2 10 2 10 2 2 2 2 2 10 2 2 2 2 2 2 2 8 2
left_child=2 3 7 14 6 11 16 58 42 13 12 22 53 57 38 25 24 -12 20 26 28 33 -5 31 -3 -7 -19 60 45 62 -18 -15 -33 36 39 55 46 47 49 40 56 -20 43 -4 -44 -8 -16 -21 54 -2 -23 -24 -6 -9 -26 -29 -13 -10 -1 -60 -11 -56 -17
right_child=1 4 8 5 52 15 18 10 9 27 17 34 -14 23 21 29 30 19 41 37 -22 50 51 -25 48 -27 -28 35 -30 -31 -32 32 -34 -35 -36 -37 -38 -39 -40 -41 -42 -43 44 -45 -46 -47 -48 -49 -50 -51 -52 -53 -54 -55 61 -57 -58 -59 59 -61 -62 -63 -64
leaf_value=0.061153603912912996 -0.057238962503372105 -0.034165680768767019 0.025622440800548315 -0.00081146106871238287 0.03649715080411664 -0.028863308380944138 -0.022471971936845997 0.046092258637097892 0.030324096921095015 0.056830583809697161 0.052815986235809381 -0.03887950284518496 0.00809323551858907 0.0098836048144112301 -0.050233246678814319 -0.053853204742829557 -0.019362533668291965 0.015981974535256138 -0.0010872818513057729 0.042799708888717203 -0.010715135852982456 -0.052680462970513625 -0.025048300698472633 0.031251632946927614 -0.0092589441318516163 -0.04271822023014811 -0.073086588916726106 0.032580695968422099 -0.041055434826150788 -0.023950978429007428 0.0017089435980107129 -0.04297241315301293 0.022570398752229062 -0.019216361345932662 -0.068784004476709779 0.021140552308505822 -0.053543256637514962 0.048184948496294205 -0.059588363267878523 0.021397686449396991 -0.038892759959467949 -0.021511452441822718 0.015404104878225395 -0.0007254448390631356 -0.016629778853887667 -0.038865101160518979 -0.035701775658230551 0.033826605199995981 0.019797853848824085 -0.047487789679787895 -0.011844807274103492 -0.0098529975167015536 0.015479303438848692 0.030624701865512579 0.0064850469364756032 0.045423189406698282 -0.017977653141582877 0.04012914307693094 0.012056179587312189 0.054194533606621936 0.040067856814947435 -0.054939264002331706 -0.044348820811219061
leaf_weight=5532.9573461571708 3141.8925994799938 157.24943953752518 727.6432033078745 1191.8291309787892 357.05985684739426 1892.5070581254549 1825.8437947314233 1036.4838885995559 3388.7277143090032 467.28563819639385 4370.9533364851959 368.62720926036127 742.4213194064796 1742.6322263791226 1022.4466831698082 4328.8514181398787 1388.9290259123081 94.843538209795952 691.78463422018103 6817.9984291503206 752.87806316080969 7533.078365644149 1532.6941691222601 2361.6091053187847 701.72503049718216 3294.717574792332 37.749540267512202 3622.3351665381342 1826.2535753954435 277.47156157100108 618.4549331557937 48.998902179300785 5076.5159079376608 329.9947765187826 120.28954428690486 1061.5546203088015 1289.5690387273207 3805.7068837238476 7728.6577844356652 62.169585984200239 1345.8417042072397 849.43256879900582 260.22021742910147 766.95986319659278 488.21652886806987 833.10405232699122 2418.9807394908275 2514.3401069426909 601.12513051601127 2812.3106485430617 85.241090119350702 987.62654451630078 2411.8667185632512 1158.6554527394474 2950.9106832388788 1000.5778610808775 1271.4501024123747 2062.7413048199378 78.087016420438886 2644.4583608694375 4806.5685216640122 31.371242319233716 1787.2664054527413
leaf_count=83563 2434792 37605 20564 281968 2877 81494 126896 18341 15510 1473 16752 174824 5859 27360 563337 277595 49161 2577 29991 54619 21339 404468 414027 13597 177609 183717 5091 14416 131807 6465 10440 1505 32889 11536 121584 2863 430819 15493 509498 2306 558554 45880 8228 10942 10360 83494 1083412 30491 56154 1940739 2291 158684 19199 32250 258472 3323 450720 7268 349 8353 16720 9045 80771
internal_value=0 -0.0358157 0.0382565 -0.0456203 -0.00834509 -0.0357486 -0.013899 0.0472256 0.0289811 0.0309714 0.0427188 -0.0211563 0.0303878 0.026499 -0.0525334 -0.0444183 -0.0013011 0.0447721 -0.0258845 0.0421227 -0.0298685 -0.0481862 -0.013224 0.0220484 0.00392684 -0.0376634 -0.00937604 0.0369632 -0.0330836 -0.0498986 -0.0128706 0.0188838 0.0219438 -0.0421087 -0.0304499 0.0327048 -0.0437055 0.0426424 -0.0565618 -0.0289371 -0.0299852 -0.0123439 0.00623134 0.0121019 -0.00549208 -0.0276083 -0.0400191 0.0403822 0.0053247 -0.0526333 -0.0522236 -0.0190938 0.0181896 0.0379281 0.00296309 0.0353603 -0.0226756 0.0340342 0.05846 0.0529859 0.0415531 0.00583891 -0.0510758
internal_weight=0 60821.5 56717.2 44823.5 15998 18461.3 13229.1 28834.7 27882.6 25639.5 20579.2 6880.53 2937.56 14681.2 26362.2 11580.8 6449.77 17641.6 6779.3 13270.6 5238.08 12679.3 3712.15 9229.76 4442.38 5187.22 132.593 10958.3 4485.2 6393.59 2007.38 6868.15 5125.51 5060.99 3168.38 5684.47 4731 13138 13682.9 3048.09 2985.92 1541.22 2243.04 1494.6 748.437 2658.95 3441.43 9332.34 4285.13 5954.2 7618.32 2520.32 2768.93 2195.14 3684.01 4622.91 1640.08 5451.47 8255.5 2722.55 5273.85 2982.28 6116.12
internal_count=11694326 11233570 460756 10173601 1059969 2792709 1037893 273738 187018 136924 181473 2162667 56450 98129 7380892 630042 598486 125023 439407 108271 363536 2495863 854679 75351 538885 265211 7668 38795 342197 364831 59601 61754 34394 2089104 1307988 20602 2077568 100603 4885029 1186404 1184098 75871 50094 31506 18588 210390 1646749 85110 501280 4375531 406759 572711 22076 50591 445126 17739 625544 22778 92265 8702 18193 267517 358366
is_linear=0
shrinkage=0.05


Tree=12
num_leaves=64
num_cat=0
split_feature=1 1 20 20 17 20 1 16 4 16 20 4 14 1 16 14 1 14 20 16 4 10 17 4 4 2 10 16 15 12 10 3 3 21 3 12 17 4 13 14 1 17 15 4 4 4 4 17 1 10 1 20 13 13 13 4 14 17 10 4 21 13 15
split_gain=57634.4 5890.7 1916.51 1364.98 1135.56 483.22 444.404 409.884 312.178 248.2 230.531 196.636 195.078 179.54 168.966 152.007 143.493 137.123 134.009 136.549 117.581 112.664 109.519 107.309 102.746 99.1045 91.398 84.547 82.0463 78.435 77.5727 77.5311 76.5139 76.5017 75.7888 75.4067 69.7913 67.0949 63.7888 62.1213 61.1661 86.5978 72.5911 61.0658 61.0601 60.4767 57.5765 54.7919 54.7314 53.9042 52.9823 52.9365 52.3832 52.0932 50.6017 49.7096 48.8871 47.6501 47.4316 46.613 46.5981 46.3422 45.3078
threshold=1.0000000180025095e-35 2.0115308761596684 2.5000000000000004 19.500000000000004 1.0000000180025095e-35 6.5000000000000009 1.0001696944236758 2.5000000000000004 0.15992730110883716 6.5000000000000009 1.5000000000000002 0.17014407366514209 0.044879788532853133 4.0285086631774911 1.5000000000000002 0.027795336209237579 6.99912452697754 0.12261107936501504 19.500000000000004 6.5000000000000009 0.35787604749202734 2478.5000000000005 0.099382717162370696 0.22609756886959079 0.28576420247554785 258.50000000000006 115.50000000000001 7.5000000000000009 0.0032842935761436824 1.0000000180025095e-35 457.50000000000006 39.500000000000007 226.50000000000003 5.5000000000000009 28.500000000000004 2177.0000000000005 0.045715779066085822 0.036374168470501907 0.10003238543868066 0.074735753238201155 7.7591474056243905 0.30495168268680578 0.0072046259883791217 0.060613408684730537 0.089557264000177397 0.46165607869625097 0.064227804541587843 0.10741758346557619 3.9972680807113652 405.50000000000006 9.2746729850769061 19.500000000000004 0.017455395311117176 0.035125100985169418 0.018362444825470451 0.050159141421318061 0.098845541477203383 0.10380747169256212 247.50000000000003 0.30988833308219915 1.5000000000000002 0.13831320405006411 0.97058823704719555
decision_type=2 2 10 10 2 10 2 2 2 2 8 2 2 2 2 2 2 2 8 2 2 8 2 2 2 2 10 2 2 10 10 2 2 8 2 8 2 2 2 2 2 2 2 2 2 2 2 2 2 8 2 10 2 2 2 2 2 2 10 2 10 2 2
left_child=2 6 10 4 14 12 11 25 15 24 60 33 43 32 54 36 21 20 19 30 29 27 51 34 39 -8 -15 45 -23 -10 -9 -17 -11 -2 -14 52 -7 -35 -22 -6 -5 -42 -43 57 -12 61 -36 -20 -30 -21 -44 56 -28 -27 58 -33 -13 -4 -3 -18 -1 -16 -19
right_child=1 3 5 40 9 8 7 18 17 13 44 22 23 26 16 31 59 62 47 49 38 28 -24 -25 -26 53 35 -29 48 -31 -32 55 -34 37 46 -37 -38 -39 -40 -41 41 42 50 -45 -46 -47 -48 -49 -50 -51 -52 -53 -54 -55 -56 -57 -58 -59 -60 -61 -62 -63 -64
leaf_value=0.058480842634651413 -0.057481849834929301 0.011307270073515521 0.024425773823635533 0.0084336192545051303 -0.028382192332896246 0.014008925319283091 -0.0053119948681827883 -0.028517513658684119 -0.043840113611036249 -0.030667110360963187 0.038392395399882262 -0.042491497827969349 0.050064989707732425 0.0027594796376480216 -0.0092262413390842134 0.03652735884912834 0.0012340402612600768 0.040889260886795273 0.005076479922354174 -0.044733672884613662 0.040187968202963255 -0.053038156717850608 -0.049488171609622204 0.045190731173873323 -0.0063759403617092 -0.042979794983098445 -0.051192367732289495 -0.025928245104433201 -0.036983912852218873 0.023611001651530017 -0.044777876700041665 0.0051864907478467179 -0.045424134321002695 -0.058024096046156194 0.024321981683851791 -0.067162600929953992 -0.0080486589985593101 -0.0472532825100003 0.013168461900023796 -0.010932857015056151 0.030744409059114221 0.026125172580887673 0.034617825566304085 0.030717178595934647 0.04814005567789495 0.02057238137753075 0.036348329838970371 -0.036350577239267927 -0.0136731324832472 -0.055331619872006937 -0.023359605749327307 -0.015690818691252158 -0.024881623781467899 -0.021256641169055044 0.0065931338389931139 0.020358689283402398 -0.025533703815401338 -0.00014288967684887959 -0.037112580524941589 0.032637924680703971 0.036401441755726613 0.02212180536260621 -0.0025776251563386391
leaf_weight=7260.9327397611924 8724.3876300508855 81.615735942497849 613.85684462497011 1043.9476583755459 2217.5157205945579 691.76432518428192 804.71365983912256 1480.7750158967683 43.456041286699474 1210.1853735242039 2064.6661335746758 2814.1825784980319 878.52462244778872 256.17049441370182 2336.9803952854127 683.19946598447859 1144.1904299922753 2781.2732866704464 189.13918994436972 2301.2756345904199 1861.5932909809053 237.02331626042724 5638.302557576797 5171.3920481577516 1095.1669587573269 386.76718337414786 203.52814070449676 622.80842537782155 362.98146623256616 5252.3953910362907 1453.4005640031537 608.34294767677784 3203.7029697988182 2054.9648136838805 1165.4165449710563 120.15756762470119 744.63174447068013 4878.1992457094893 247.47770062088966 662.43109846278094 1247.3994947680621 233.46498088818043 48.597258125140797 4680.6155145792291 7240.707878933521 205.76535182166845 6814.5741657237522 138.08809123188257 822.11075162584893 2506.8238901607692 208.32822711099288 241.65876563871279 2682.680823481176 963.45186615630519 2518.2659202138893 4795.8872379898094 500.61045905365609 290.86203942587599 132.99758262373507 131.77100315503776 247.09672458376735 124.15868256567046 61.271616496145725
leaf_count=91435 608046 11827 24925 11743 95096 26239 180037 196541 1129 54295 32889 1276961 3085 5222 371642 3062 122215 10286 6510 216718 7099 117787 307072 17528 24854 186217 10583 145805 134185 30810 296873 14156 189102 1995840 18508 8156 14639 2994931 1203 27211 8646 1501 479 40885 37398 10097 40016 3597 136482 308220 1522 7233 105591 359613 438309 40315 190245 3920 48082 5002 869 14151 320
internal_value=0 -0.0344277 0.037216 -0.0148539 -0.0193399 0.0309108 -0.0473482 -0.0385739 0.0249388 -0.0295526 0.0512362 -0.050958 0.0363214 -0.034804 -0.00569496 0.0172048 -0.0103968 0.0306171 -0.0437473 -0.0450719 0.0270336 -0.0144247 -0.0451543 0.0394675 -0.0194115 -0.0192013 -0.0259098 -0.00934129 -0.0261839 0.0230575 -0.0365718 0.0206571 -0.0413781 -0.0543662 0.0361265 -0.0283527 0.00257421 -0.0504457 0.0370175 -0.0243686 0.0179995 0.0237461 0.00594461 0.0284187 0.0459773 -0.00546771 0.034592 -0.0124055 -0.020813 -0.0502592 -0.0123932 -0.0382834 -0.026737 -0.0274792 0.00460695 0.0186508 -0.0399305 0.0165271 -0.0186989 0.00447718 0.0577542 -0.00764481 0.0399523
internal_weight=0 58230.7 54199.9 23153.9 20372.2 37386.5 35076.7 10224.4 17771.3 11651.5 16813.4 24852.3 19615.2 7676.43 8720.67 7523.83 5987.79 10247.5 8069.5 7742.28 7404.92 4711.83 9194.75 14029.9 3975.11 2154.93 3262.54 3289.71 1422.12 5295.85 2934.18 6087.43 4413.89 15657.6 8858.52 3006.37 1436.4 6933.16 2109.07 2879.95 2781.74 1737.79 490.39 5585.33 9305.37 2666.9 7979.99 327.227 1185.09 4808.1 256.925 3556.45 2886.21 1350.22 2732.88 5404.23 3314.79 904.719 214.613 1275.96 7508.03 2461.14 2842.54
internal_count=11694955 11234239 460716 2099585 2075694 298125 9134654 1754326 149258 520110 162591 7380328 148867 372949 1555584 98411 1057366 50847 1028459 1018352 40241 930149 1781511 79137 147161 725867 129552 541695 388454 31939 493414 57533 243397 5598817 61609 124330 40878 4990771 8302 122307 23891 12148 3502 69730 70287 395890 58524 10107 270667 524938 2001 1474439 116174 545830 498218 54471 1467206 28845 59909 127217 92304 385793 10606
is_linear=0
shrinkage=0.05


Tree=13
num_leaves=64
num_cat=0
split_feature=1 1 20 20 17 1 16 14 20 1 4 16 17 16 4 12 17 3 14 4 20 4 20 17 14 13 3 20 4 16 14 13 4 13 20 4 4 3 4 12 14 10 17 12 13 1 15 4 12 14 4 12 13 4 22 15 14 17 4 13 17 13 12
split_gain=51772.4 5533.91 1704.18 778.372 720.453 928.27 675.195 416.096 380.599 298.141 221.262 169.329 165.359 163.438 148.546 124.772 146.961 113.824 113.514 112.287 95.7986 89.7074 87.6618 85.5817 132.945 80.602 80.0308 94.7355 79.9813 75.134 71.1904 69.4166 68.9902 67.3366 62.1558 62.5819 61.4082 57.9779 57.6406 56.3151 60.2202 54.8351 54.7242 53.9842 52.6744 52.4339 51.7959 51.2121 50.5993 50.1679 54.2465 46.9092 46.6641 46.6597 46.1376 46.0935 49.587 45.9137 45.9018 45.7353 46.7642 43.3221 42.4273
threshold=1.0000000180025095e-35 3.0029894113540654 3.5000000000000004 19.500000000000004 0.041960094124078758 1.0001696944236758 6.5000000000000009 0.040033388882875449 1.5000000000000002 1.0348810553550722 0.16622424870729449 7.5000000000000009 0.16615542024374011 2.5000000000000004 0.075965978205204024 2.5000000000000004 1.0000000180025095e-35 342.50000000000006 0.080040037631988539 0.1524113938212395 20.500000000000004 0.13300941884517672 8.5000000000000018 1.0000000180025095e-35 1.0000000180025095e-35 0.049113254994153983 116.50000000000001 7.5000000000000009 0.48240210115909582 12.500000000000002 0.088025156408548369 0.006498785689473153 0.12075280398130418 0.019562560133636001 19.500000000000004 0.10715553164482118 0.22866866737604144 311.50000000000006 0.060613408684730537 1437.0000000000002 0.23603308200836184 545.50000000000011 0.099382717162370696 1.0000000180025095e-35 0.083350788801908507 8.0077457427978533 0.020373572595417503 0.20513644814491275 11.500000000000002 0.31010198593139654 0.29034796357154852 2041.0000000000002 0.04746664687991143 0.030020928010344509 1.0000000180025095e-35 0.099295776337385191 0.043962948024272926 0.49683544039726263 0.17371094226837161 0.069844648241996779 1.2613636255264284 0.070398356765508666 93.500000000000014
decision_type=2 2 10 10 2 2 2 2 10 2 2 2 2 2 2 10 2 2 2 2 10 2 10 2 2 2 2 10 2 2 2 2 2 2 8 2 2 2 2 8 2 10 2 10 2 2 2 2 10 2 2 8 2 2 10 2 2 2 2 2 2 2 8
left_child=2 4 8 6 5 14 12 15 57 34 26 21 28 17 -2 16 41 62 32 44 29 -11 46 -17 -25 -16 -9 53 31 36 -23 -3 -10 -26 35 -6 52 -21 -33 42 -41 -4 -5 -29 -8 -39 -12 -13 -19 50 -24 -40 -15 -28 -48 56 -44 -1 61 60 -37 -14 -7
right_child=1 3 7 39 9 13 19 10 18 11 22 47 58 20 25 23 -18 48 -20 37 -22 30 49 24 33 -27 27 43 -30 -31 -32 38 -34 -35 -36 59 -38 45 51 40 -42 -43 55 -45 -46 -47 54 -49 -50 -51 -52 -53 -54 -55 -56 -57 -58 -59 -60 -61 -62 -63 -64
