tree
version=v3
num_class=1
num_tree_per_iteration=1
label_index=0
max_feature_idx=22
objective=lambdarank
feature_names=candidates candidate_scores aid_count aid_session_nunique aid_type_mean aid_hour_mean aid_hour_std aid_day_of_week_mean aid_day_of_week_std aid_ts_ratio aid_click_count aid_cart_count aid_order_count click_last_week_occurrence_ratio cart_last_week_occurrence_ratio order_last_week_occurrence_ratio session_count session_type_mean session_hour_mean session_day_of_week_mean session_click_aid_nunique session_cart_aid_nunique session_order_aid_nunique
feature_infos=[3:1855597] [0:58.74298095703125] [1:99786] [1:56024] [0:2] [0:23] [0:16.263456344604492] [0:6] [0:4.242640495300293] [1:1.0014579296112061] [1:94324] [1:11486] [1:3895] [0:1] [0:1] [0:1] [1:465] [0:2] [0:23] [0:6] [1:465] [1:88] [1:19]
tree_sizes=7229 7259 7267 7279 7244 7253 7257 7236 7246 7245 7257 7242 7282 7251 7279 7278 7265 7270 7276 7248 7275 7284 7261 7298 7248 7271 7294 7258 7272 7276 7278 7304 7311 7264 7269 7242 7257 7264 7284 7295 7249 7288 7245 7268 7288 7256 7260 7263 7232 7284 7274 7296 7270 7265 7266 7293 7273 7264 7268 7216 7271 7232 7254 7239 7267 7287 7255 7290 7257 7232 7247 7241 7312 7222 7209 7204 7247 7283 7249 7212 7214 7213 7177 7266 7292 7159 7250 7264 7227 7211 7222 7200 7235 7205 7231 7204 7223 7271 7275 7240 7200 7171 7170 7164 7231 7260 7158 7148 7264 7243 7197 7235 7204 7178 7290 7296 7161 7244 7251 7146 7176 7170 7188 7171 7172 7198 7240 7269 7247 7195 7187 7257 7158 7122 7096 7107 7187 7163 7167 7212 7155 7192 7267 7130 7205 7218 7235 7202 7097 7133 7094 7103 7220 7167 7240 7196 7165 7162 7114 7181 7194 7225 7148 7258 7118 7078 7148 7125 7118 7091 7143 7101 7222 7221 7114 7134 7028 7125 7264 7061 7225 7175 7192 7144 7244 7057 7166 7160 7063 7120 7089 7161 7141 7203 7055 7170 7150 7091 7098 7215 7254 7183 7196 7192 7229 7214 7208 7114 7069 7239 7145 7194 7077 7209 7146 7109 7170 7203 7167 7144 7175 7148 7249 7164 7073 7125 7205 7116 7064 7135 7047 7206 7181 7058 7195 7227 7077 7145 7222 7073 7156 7032 7144 7148 7055 7056 7118 7065 7029 7156 7118 7145 7136 7014 7130 7092 7206 6998 7058 7057 7021 7087 7156 7042 7144 7093 7019 7063 7189 7073 7066 7157 7072 7058 7098 7020 7224 7097 7210 7046 7197 7030 7026 7035 7175 7181 7023 7102 7099 7187 7152 7144 7072 7094 7165 7056 7214 7167 7075 7038 7157 7028 7135 7049 7115 7148 7036 7022 7196 7212 7101 7122 7027 7102 7108 7201 7060 7175 7039 7032 7040 7205 7049 7080 7115 7106 7050 7096 7125 7102 7073 7132 7158 7107 7014 7163 7144 7188 6999 7133 7056 7066 7108 7117 7153 7023 7194 7138 7106 7124 7179 7181 7174 7096 7072 7041 7019 7257 7075 7133 7064 7046 7102 7057 7157 7097 7134 7073 7166 7240 7030 7219 7130 7191 7172 7106 7124 7045 7080 7157 7200 7110 7120 7079 7171 7106 7020 7055 7090 7163 7040 7075 7077 7148 7121 7185 7129 7051 7094 7132

Tree=0
num_leaves=64
num_cat=0
split_feature=13 1 1 1 4 1 1 1 1 20 10 1 10 16 20 1 1 10 13 1 10 1 20 16 20 1 16 9 3 16 16 14 13 16 20 3 16 20 1 14 20 5 5 11 1 2 20 4 10 0 4 2 14 20 20 10 16 10 20 1 10 3 10
split_gain=24263.9 141028 14091.4 3818.62 1932.13 17619.6 3126.18 2223.89 2192.31 893.409 834.148 595.579 588.827 506.524 485.895 529.49 485.039 474.131 458.482 495.536 397.634 348.977 307.56 264.447 224.606 596.977 210.416 190.448 181.648 174.053 153.932 146.019 137.75 135.564 120.889 120.875 119.422 118.304 114.243 113.539 104.223 90.9181 90.096 89.4893 78.8966 74.2373 72.9494 72.3303 71.0511 70.4472 77.3433 69.2104 68.5609 67.559 66.898 66.2835 62.0965 61.0392 59.146 57.2218 56.6927 56.0219 54.0249
threshold=0.021985130384564403 1.0000000180025095e-35 1.0000000180025095e-35 1.04513555765152 0.064808171242475524 2.001110434532166 1.0003706812858584 1.0003706812858584 3.0157150030136113 5.5000000000000009 621.50000000000011 1.9930925965309145 349.50000000000006 8.5000000000000018 17.500000000000004 0.99827539920806896 2.001110434532166 294.50000000000006 0.0064716250635683545 3.0157150030136113 1338.5000000000002 8.0291323661804217 4.5000000000000009 4.5000000000000009 19.500000000000004 3.7873022556304936 4.5000000000000009 1.0008007884025576 739.50000000000011 5.5000000000000009 9.5000000000000018 0.19941520690917972 0.074794497340917601 9.5000000000000018 10.500000000000002 344.50000000000006 8.5000000000000018 2.5000000000000004 6.708158254623414 0.01410440029576421 1.5000000000000002 13.926077842712404 12.751787662506105 215.50000000000003 2.7304111719131474 10.500000000000002 2.5000000000000004 0.27278748154640203 695.50000000000011 597982.00000000012 0.25009118020534521 2492.5000000000005 0.027049892581999305 19.500000000000004 19.500000000000004 169.50000000000003 7.5000000000000009 267.50000000000006 8.5000000000000018 2.7304111719131474 609.50000000000011 1348.5000000000002 105.50000000000001
decision_type=2 2 2 2 2 2 2 2 2 10 10 2 10 2 10 2 2 10 2 2 10 2 10 2 10 2 2 2 2 2 2 2 2 2 10 2 2 10 2 2 10 2 2 8 2 2 10 2 10 2 2 2 2 10 8 8 2 10 10 2 10 2 8
left_child=2 9 56 43 6 7 45 14 10 37 22 -9 16 20 32 -16 46 23 -14 -20 60 28 57 -13 25 29 61 -22 -15 35 31 48 49 47 -11 -8 42 -2 40 -21 41 -29 -27 55 -28 -3 62 -18 -19 -6 -51 -23 -43 58 -30 -4 -1 -7 -24 -37 -10 -12 -5
right_child=1 4 3 12 5 8 24 11 13 34 26 17 18 21 15 -17 33 30 19 39 27 51 53 -25 -26 36 44 38 54 -31 -32 -33 -34 -35 -36 59 -38 -39 -40 -41 -42 52 -44 -45 -46 -47 -48 -49 -50 50 -52 -53 -54 -55 -56 -57 -58 -59 -60 -61 -62 -63 -64
leaf_value=0.0932368431416008 0.097250040036737068 -0.093459447293928188 -0.079789892931756146 -0.010491704662984422 -0.080884942565084078 0.025018897948228636 -0.013584040727413061 0.028681323483086871 0.044055934877939212 0.080146688833358321 -0.013030023374451012 -0.0063979160316978883 -0.088227749104048681 0.0061182304867607182 -0.046916481308673597 0.087646218946405494 0.0078843560484995832 -0.035886345866075239 -0.060448683715260215 -0.033905550977048719 0.089956854672525774 0.036945786163328956 -0.0093658749627411591 -0.039044096319038699 0.0205865819348326 -0.086440312853091616 0.035117498942026613 -0.022461499057447262 -0.021139267362042941 -0.056733272798432911 -0.066252760232609301 0.016707147825141207 -0.06574378105236138 -0.01786596238356674 0.066946681533101834 -0.052093468309748259 -0.023226894007955683 0.09011465834786872 0.027942131393370442 0.0013192143636608254 -0.00062532347081411242 -0.013254924303195815 0.0070616840921146271 -0.09466000009918657 -0.04847585946409079 -0.079123242130712645 -0.047074619074534668 0.040614591892335995 -0.052276580547264209 -0.075905031807051646 -0.063711352260023668 0.013075447782926772 0.024877673520888002 0.04924536297354179 0.028120595557856072 -0.090099741527898236 0.071475882276001323 0.0044771001890781146 -0.033411109329251197 -0.02925940681761037 0.030001075186253112 -0.031212953368961363 -0.046064960286022354
leaf_weight=1116.1091497070156 17656.028445358184 1091.8679836926167 3221.1170180328772 317.53785127354786 4934.3001639800204 845.12825919108582 548.10533306858269 307.78532037849072 1802.3565714109573 4736.4680979406694 761.68739905132679 1098.4433212366712 637.8421505606093 1419.0709570079343 561.3557011380326 84.051129608997144 464.68423013103893 910.31150300317677 1282.6956894817704 382.38117573803174 82.17548217647709 613.82825157174375 509.98522873080219 1425.1142337666242 223.15869274525903 26.469420027569868 28.653484497335739 129.26739488099702 1441.0068307186593 1400.1708591639181 1309.389096783998 90.127296812133864 4170.7080372389173 355.87316416384419 2736.709184188192 636.1636783099384 632.93222834102926 8657.4430089142406 982.8735370968061 569.43774458582629 1579.8710398605908 129.86957667383831 965.93341577524552 3621.2949189114443 1893.5537464376248 5220.7752867311938 809.99386408540886 265.08954909245949 2416.339020823536 5859.1166478726664 1671.4273771026637 600.9666662219679 1276.3455609000521 34.97528091003187 72.385611970094033 3021.2103596937377 464.17182469856925 632.12890710192733 513.00361246557441 482.43891818280099 1192.0037634133187 954.41080527659506 160.76638211106183
leaf_count=14920 170374 308563 719898 48617 982314 63976 133298 9756 88253 89470 93053 149042 111997 69675 29869 962 47707 131862 209970 42143 702 18701 38708 132573 8400 1811 740 6462 98148 211085 129265 7174 724167 23701 66288 223715 64381 116005 50931 43754 134769 16369 158129 989967 182097 1533682 97461 12005 387708 1130803 239079 26984 105451 753 1604 722706 9817 60593 40063 148181 72769 140343 32618
internal_value=0 0.0105766 -0.0552178 -0.0700755 -0.0398824 -0.0349918 -0.0583221 -0.0620641 0.00344279 0.0905694 -0.0205264 -0.0394406 -0.0356101 0.0165124 -0.071958 -0.0293924 -0.0171845 -0.0423327 -0.0508385 -0.0401657 0.0245529 0.00260224 0.00149106 -0.024834 -0.0284234 -0.0307543 -0.0358684 0.0145908 -0.00673294 -0.0437375 -0.0516762 -0.0460902 -0.0736095 0.0074354 0.0753128 -0.03282 -0.00625592 0.0949024 0.0130796 -0.0128319 0.00839058 0.0176671 0.00456779 -0.0884071 -0.0472298 -0.0816029 -0.0379317 0.0197736 -0.0477915 -0.0762413 -0.0731986 0.025137 0.021356 -0.0190877 -0.0187832 -0.0847797 0.0868451 0.0162289 -0.021424 -0.0422454 0.0384609 -0.0231425 -0.0224485
internal_weight=0 87348.7 16690.2 15109.9 53562 42334 11228 24838.5 17495.5 33786.6 6173.53 7557.51 5246.3 11322 17281 645.407 2373.95 7249.72 2872.36 2234.51 7174.76 4147.26 2535.22 2523.56 4915.37 4692.21 3638.31 4180.4 2932.46 3066.88 4726.17 3416.78 16635.6 1085.65 7473.18 1666.71 1625.34 26313.5 4098.23 951.819 3115.35 1535.48 992.403 9863.62 1922.21 6312.64 1288.3 729.774 3326.65 12464.8 7530.54 1214.79 1406.22 1057.96 1513.39 6242.33 1580.28 1477.26 1022.99 1118.6 2994.36 1716.1 478.304
internal_count=11726381 8599100 3127281 3102544 8156963 5365718 2791245 4054574 1311144 442137 620326 947380 669973 690818 3107194 30831 262109 937624 407864 295867 475706 215112 204093 281615 949000 940600 416233 314684 169427 716279 656009 526744 3076363 83413 155758 505194 224321 286379 313982 85897 263051 128282 159940 2432571 182837 1842245 178696 59712 519570 2352196 1369882 45685 121820 79524 99752 1442604 24737 124569 78771 371896 161022 233396 81235
is_linear=0
shrinkage=0.05


Tree=1
num_leaves=64
num_cat=0
split_feature=1 1 20 4 1 20 20 20 1 3 14 1 4 14 1 10 13 2 14 10 9 4 20 10 1 20 20 20 3 20 20 4 1 3 20 13 20 1 20 1 14 10 13 1 13 1 20 1 21 20 13 5 11 14 3 13 13 20 13 1 7 2 0
split_gain=387836 68531.5 21399.9 3469.47 6591.12 2969.59 2948.02 2938.79 2049.79 1403.1 1279.51 1104.31 1079.39 813.685 4245.98 1215.68 758.747 690.327 626.387 600.98 564.094 524.288 487.723 478.478 452.261 416.259 480.822 406.048 396.285 386.763 364.309 338.911 332.557 325.572 276.282 267.65 260.173 333.215 255.817 254.888 245.933 243.22 233.64 225.754 223.223 219.598 216.664 215.685 203.437 202.974 200.13 198.27 195.524 233.046 183.346 182.314 180.5 174.041 154.941 152.282 204.279 150.999 147.295
threshold=1.0000000180025095e-35 1.0003706812858584 3.5000000000000004 0.20741226524114612 3.0157150030136113 7.5000000000000009 14.500000000000002 1.5000000000000002 0.99827539920806896 678.50000000000011 0.048208059743046767 2.001110434532166 0.051641989499330528 0.13900966197252276 3.0157150030136113 587.50000000000011 0.05937613174319268 9.5000000000000018 0.029001682065427307 3276.5000000000005 1.0014476180076601 0.063986182212829604 19.500000000000004 23268.500000000004 1.9930925965309145 1.5000000000000002 19.500000000000004 2.5000000000000004 147.50000000000003 1.5000000000000002 2.5000000000000004 0.36689841747283941 6.0311872959136972 72.500000000000014 1.5000000000000002 0.010872027836740019 19.500000000000004 2.001110434532166 18.500000000000004 2.2892824411392216 0.01457388047128916 146.50000000000003 0.026743881404399875 9.1379647254943865 0.10210549458861352 2.001110434532166 4.5000000000000009 6.3867497444152841 3.5000000000000004 4.5000000000000009 0.017860610969364647 13.257681846618654 788.50000000000011 0.0086660552769899386 128.50000000000003 0.098848264664411559 0.090937808156013503 2.5000000000000004 0.10210549458861352 3.0157150030136113 2.5582426786422734 8.5000000000000018 699664.00000000012
decision_type=2 2 10 2 2 10 10 10 2 2 2 2 2 2 2 8 2 2 2 10 2 2 8 8 2 8 10 10 2 8 10 2 2 2 10 2 10 2 10 2 2 10 2 2 2 2 10 2 10 10 2 2 10 2 2 2 2 10 2 2 2 2 2
left_child=2 6 7 4 9 21 10 -1 -8 11 17 24 -7 14 15 30 19 -2 50 32 -21 -4 39 59 -3 51 45 -9 42 54 41 52 49 61 -13 -30 37 -32 -10 -17 -14 -5 -19 56 62 -27 -23 57 -42 -6 -11 -20 -16 -54 -26 -31 -18 -22 -36 -15 -61 -12 -35
right_child=1 3 5 13 16 12 8 27 38 18 33 34 40 23 31 22 43 28 25 20 47 46 -24 -25 29 26 -28 -29 35 55 36 -33 -34 44 58 -37 -38 -39 -40 -41 48 -43 -44 -45 -46 -47 -48 -49 -50 -51 -52 -53 53 -55 -56 -57 -58 -59 -60 60 -62 -63 -64
leaf_value=0.090227171464458661 -0.087924515416276008 -0.0028952645809473972 0.038518004516055387 0.0092419065217033986 -0.0039062574371761293 0.0055887672471544069 -0.042195694947453843 0.07513246407579105 -0.024348683280389909 -0.074526353145906984 -0.079733075826346977 0.00013254991666483386 0.021929820521528465 0.0013136897409330786 0.010170745570425389 -0.052357629105595861 -0.003200208390713952 -0.074942151834077306 -0.088426185750149947 -0.053494286157991483 -0.015132432877380336 0.06003647462304873 0.021512383198716449 0.068314377326089248 -0.011703240847454582 -0.055321569381962345 -0.0072696739790631864 0.065385102092573519 -0.08950879543047513 -0.045163990765252571 -0.033627073071808199 0.021946138458392581 0.0097867489132903718 -0.073696220823633724 -0.021680742021231814 -0.076618135243497587 0.022356749096246794 -0.010016456290803949 0.081139542812850532 -0.032919805373392584 0.039027256111901144 -0.013705162464927334 -0.064175852814238363 0.02176802654779909 -0.056190126954962984 -0.04037553407391016 0.050619536107744216 -0.0054744769161660656 0.027449174295735734 -0.019079013953197398 -0.053169554324389724 -0.025007722295262505 -0.092417701851917625 -0.0029819191895331457 -0.03358745900969775 -0.025121772197983325 0.010681447911166 -0.032032078322349548 0.003366590210245417 -0.012024074695196289 0.029085075974030344 -0.048268152105117298 -0.065605077106792684
leaf_weight=38735.977726925164 13014.527765350882 1018.2336201039143 6814.1847541406751 2315.962441814132 6903.9659168818034 4344.970988993533 2579.8909978611628 28783.326338557526 66.014809134416282 1558.0359114496969 428.52502928953618 2809.8562248740345 4160.4237259640358 1934.0630901912227 8984.5496356252115 3259.7682130229659 7248.5037383788731 10063.001726444345 126.79185686632991 1138.6431366228499 4066.3083487786353 9660.1593438629061 313.31627611536533 405.68732457980514 1701.1459852978587 4945.1960918009281 786.66103793494403 16991.300068050623 4688.6784575255588 8784.3506852148566 3324.793434527237 5387.184582288377 3177.4845331357792 9908.7914413283579 5400.4579803841189 28524.347325615585 333.39973719324917 2714.2948390070815 444.15936400089413 3494.504274151288 12235.81116482988 2303.0359176220372 10093.542878798442 1538.3831504713744 3918.9774679732509 4885.662116951542 16611.653538892046 3121.4712445004843 5499.133089127019 3237.9859947774094 3706.4461471964605 4404.4994730846956 75.114807356148958 2403.0865790657699 2188.1584133785218 1302.9745221789926 3459.2896478490438 2436.2358499267139 697.12585533130914 374.55602168478072 1564.2221497735009 3459.4244423015043 13010.091505378019
leaf_count=104670 1186768 7763 40571 49796 171565 31950 50496 74194 2480 112741 32311 107510 20140 41451 112458 133417 168263 763808 2814 43923 104398 25645 1386 1068 84727 299027 5269 51189 385360 458974 112601 48532 49477 708142 196718 2181875 1360 58292 1432 108400 49964 58392 751188 17839 226325 238325 51170 58398 16513 93319 253973 258232 1445 34828 146638 56759 61864 80675 17812 3710 11971 204866 887834
internal_value=0 -0.0416491 0.0639327 -0.0161326 -0.0220632 0.0409144 -0.0721648 0.0800915 -0.0240865 -0.0350054 -0.0736947 -0.0267835 0.0283532 -0.00392783 -0.00645016 -0.023294 -0.0062755 -0.0775993 -0.0446326 -0.0114284 -0.0202153 0.0508767 -0.039472 0.0166522 -0.0350667 -0.0394694 -0.0448839 0.0715143 -0.0750815 -0.0374105 -0.0128915 0.0116024 -0.00432819 -0.0652586 -0.0128394 -0.0784379 -0.0206414 -0.0230152 0.0674897 -0.0423009 0.0328706 -0.00219952 -0.0695508 0.00385762 -0.0672176 -0.0478938 0.0540821 -0.016278 0.0354372 -0.00875041 -0.0594901 -0.0267823 0.00674112 -0.00569274 -0.0240155 -0.0425751 0.00128444 -0.021464 -0.0188171 0.0112405 0.0211431 -0.0517362 -0.0691032
internal_weight=0 220031 143837 119831 80643.9 59326.3 100200 84510.6 3090.07 44315.6 97109.9 23902.3 26240.3 39187.5 34909 18059.1 36328.3 66384.1 20413.3 24082.1 10762.7 33086 7067.59 4278.53 14994.9 15148.8 10617.5 45774.6 53369.6 13976.6 10991.5 16849.9 13319.4 30725.8 8907.44 33213 6372.49 6039.09 510.174 6754.27 21895.4 4619 20156.5 12246.2 26837.9 9830.86 26271.8 9624.02 17734.9 10142 5264.48 4531.29 11462.8 2478.2 3889.3 10087.3 10707.8 6502.54 6097.58 3872.84 1938.78 3887.95 22918.9
internal_count=11725001 11258995 466006 3876110 3097003 235953 7382885 230053 54408 2247282 7328477 1076901 118567 779107 720907 523644 849721 5268999 1170381 601755 287394 117386 243203 58200 754861 803667 542621 125383 4082231 747098 280441 197263 314361 2059478 322040 2567235 172253 170893 3912 241817 86617 108188 1514996 247966 1822301 537352 76815 243471 66477 264884 366714 261046 148731 36273 231365 515733 230127 185073 214530 57132 15681 237177 1595976
is_linear=0
shrinkage=0.05


Tree=2
num_leaves=64
num_cat=0
split_feature=1 1 20 1 20 10 20 20 1 1 20 10 14 1 14 20 16 8 10 14 13 16 1 3 16 1 16 20 16 16 13 13 9 3 13 20 4 13 13 4 3 20 3 3 10 5 18 4 1 0 4 4 5 14 10 11 16 4 10 14 20 6 0
split_gain=287150 51342.4 15811.5 9584.12 3192.59 2280.81 2205.98 1857.66 1699.53 1212.02 1210.99 1136.77 1095.5 996.219 941.042 628.919 538.718 497.245 485.131 455 454.87 439.744 401.095 377.426 359.676 754.715 353.696 340.726 309.493 293.769 284.624 238.219 234.612 222.544 219.405 213.489 208.358 201.994 196.492 190.744 188.521 184.149 177.029 174.761 160.661 150.557 372.148 149.895 146.245 146.125 143.726 143.337 136.496 151.849 134.034 132.447 130.93 128.588 124.5 123.201 120.105 119.842 119.22
threshold=1.0000000180025095e-35 1.0003706812858584 2.5000000000000004 3.0157150030136113 5.5000000000000009 380.50000000000006 15.500000000000002 1.5000000000000002 0.99827539920806896 2.001110434532166 19.500000000000004 1263.5000000000002 0.048208059743046767 2.2892824411392216 0.025132646784186367 9.5000000000000018 3.5000000000000004 1.0000000180025095e-35 9.5000000000000018 0.036441858857870109 0.0081326249055564421 5.5000000000000009 6.708158254623414 151.50000000000003 3.5000000000000004 6.0311872959136972 2.5000000000000004 19.500000000000004 6.5000000000000009 5.5000000000000009 0.10870276764035226 0.0088924835436046141 1.0002461075782778 1151.5000000000002 0.032686173915863044 4.5000000000000009 0.19878073781728747 0.018783611245453361 0.011472783982753755 0.1512480899691582 69.500000000000014 19.500000000000004 54.500000000000007 75.500000000000014 1920.5000000000002 13.829209804534914 9.2071428298950213 0.086872544139623656 9.0099940299987811 948649.50000000012 0.047251537442207343 0.092677924782037749 14.425778865814211 0.057218575850129134 137.50000000000003 653.00000000000011 12.500000000000002 0.18425417691469195 164.50000000000003 0.02634247858077288 20.500000000000004 5.3380839824676523 491485.50000000006
decision_type=2 2 10 2 10 10 10 10 2 2 10 8 2 2 2 10 2 8 8 2 2 2 2 2 2 2 2 10 2 2 2 2 2 2 2 10 2 2 2 2 2 8 2 2 10 2 2 2 2 2 2 2 2 2 10 10 2 2 10 2 8 10 2
left_child=2 6 7 5 35 9 12 -1 -8 26 13 21 18 19 20 -6 31 -16 -2 38 -13 39 58 34 45 41 42 43 32 54 40 -15 -21 -33 -20 50 -17 -25 -7 -5 -14 -26 -3 49 56 46 55 -12 -27 -28 -4 -9 -35 -54 -11 -19 -18 -47 -23 -60 -50 -48 -42
right_child=1 3 4 11 15 10 8 51 -10 29 47 14 30 16 17 36 44 24 23 28 -22 22 -24 37 25 48 27 -29 -30 -31 -32 33 -34 52 -36 -37 -38 -39 -40 -41 62 -43 -44 -45 -46 57 61 -49 60 -51 -52 -53 53 -55 -56 -57 -58 -59 59 -61 -62 -63 -64
leaf_value=0.084454071907200848 -0.081558474240345957 -0.0024301909977752544 0.044790856788949514 0.0072320928040509828 0.037163580436224315 -0.081193170228822872 -0.039829638864830146 0.061296551637282384 0.069233752884982819 0.013510006525599159 -0.015429935620225233 -0.073240109050529009 -0.047132925268446049 -0.0722457987028369 0.060341522506013628 0.020077913074845678 -0.027039753326356587 -0.060140840796696883 -0.069334667038308373 0.084451826331126703 -0.022181045992457838 0.0062679329309059707 0.014167807114001344 -0.081184335951250353 -0.021631756841097236 -0.0034612650929625299 -0.034997900430316593 -0.001468026622207394 -0.054153685912572219 -0.013596535712415784 -0.04864515408657194 -0.010605829157571335 -0.036526894047149691 -0.04851490890229912 -0.058011492405059928 0.045182790335707573 0.032155990479621741 -0.071327116960943932 -0.055375909324731479 0.021173265966887428 -0.069532166602924092 0.026465539956505319 -0.022729257895447066 -0.041188866291125725 -0.046641853929375879 0.0014544748830430613 -0.089654336083865471 0.017370389689237511 0.0077917688538671429 -0.016401723000540349 0.055693833890036175 0.069180494431955411 -0.032307800887735334 -0.0098470551228546609 -0.0026449552166858694 0.044579075474214302 -0.045835314491355861 0.014120749038359404 -0.021562337269334399 -0.0044012261725310245 0.037603785638044562 -0.021701475025255039 -0.061297712347373794
leaf_weight=32842.179625179619 11714.942080997396 1788.8572659306228 3464.3972420673817 3816.069525340572 19153.124061433598 853.80650383420289 2342.4394617164508 8586.8317049238831 421.46878529712558 2439.2897794535384 536.8019873034209 496.03109107306227 1826.4707703101449 221.44905490148813 311.11514547839761 11389.05443459563 3013.6858103862032 36.573947091586888 9712.747150816489 40.306283786892891 3616.0420381326694 1800.9467477290891 4312.9302090762649 6851.6402920372784 6699.7479061167687 3437.3707546743099 2530.7828302045818 858.15921002347022 3431.5240885072853 3609.3695203354582 4436.5067138727754 3557.748761666473 6981.5297830589116 667.38304406311363 7645.7419138750993 8399.3112336955965 5201.4967312002555 21523.393280627672 5386.9843423627317 6871.6322442144156 6429.7878832011484 205.09890208393335 2688.0012380559929 4642.1724536395632 4065.8397658010945 7167.8170731151477 162.0955155082047 991.98401370830834 2622.2226064968854 1813.2385509531014 23704.307911868207 17544.285094721243 1949.855919348076 1225.4107759520411 2710.7610434805974 173.09672795981169 1337.8777595749125 2781.2335820756853 1419.0526701314375 3976.447337210644 387.81249823048711 108.18998437933624 13894.057777094189
leaf_count=104592 1233656 83466 23739 104935 81264 72003 50307 36815 2735 58474 5029 27924 128306 20295 776 65887 119681 842 829420 136 121336 26977 43784 647618 185850 64004 110101 6521 185452 97201 293150 164849 454106 39283 661122 31390 18277 1897266 402706 80616 543853 1057 161091 213367 205077 206452 3875 5856 42087 68233 67294 37476 129069 66604 84323 1041 58852 39203 37379 71072 1336 2608 1094157
internal_value=0 -0.0385329 0.0573843 -0.0154781 0.0415442 -0.0294589 -0.0671509 0.0765384 -0.0231985 -0.0173094 -0.0376434 0.000428081 -0.0685965 -0.0396749 -0.00623344 0.0309908 -0.0307759 -0.00246027 -0.0724801 -0.0482248 -0.0283402 0.00889246 0.00211077 -0.0701546 -0.00328187 -0.00871628 -0.0262702 -0.0315692 -0.0418468 -0.00265885 -0.0602047 -0.021146 -0.0358325 -0.0196169 -0.0643472 0.0521497 0.0238647 -0.0737073 -0.058908 0.0161955 -0.06252 -0.0202031 -0.0146182 -0.0344437 -0.0394955 0.0036758 -0.0236762 0.00585323 0.00358552 -0.0272357 0.0543035 0.0665898 -0.0279599 -0.0236397 0.00500674 0.0263122 -0.0328184 0.0049953 -0.00511518 -0.00891471 0.0116327 -0.0624541 -0.0639028
internal_weight=0 194544 130285 107744 71311.7 57342.8 86799.2 58973.3 2763.91 23080.6 34262.2 50401.5 84035.3 32733.4 28204.4 35743.7 16039.3 24092.4 57448.5 16694.2 4112.07 22197.1 11509.4 45733.5 23781.3 13352.3 14321.2 9844.35 10453.4 8759.42 26586.8 7621.85 7021.84 7400.4 17358.5 35568 16590.6 28375 6240.79 10687.7 22150.3 6904.85 4476.86 8986.19 8417.4 10429 479.956 1528.79 6447.41 4344.02 27168.7 26131.1 3842.65 3175.27 5150.05 209.671 4351.56 9949.05 7196.45 5395.5 3010.04 270.285 20323.8
internal_count=11723253 11256519 466734 3874929 287851 2811775 7381590 178883 53042 882777 1928998 1063154 7328548 1918113 698391 165428 803710 549131 5269082 1114403 149260 364763 179212 4035426 548355 294334 642779 398222 639694 239998 2059466 420100 454242 399805 1490542 122423 84164 2544884 474709 185551 1766316 186907 244557 391701 383610 254021 8366 10885 107427 178334 91033 74291 234956 195673 142797 1883 178533 245655 135428 108451 43423 6483 1638010
is_linear=0
shrinkage=0.05


Tree=3
num_leaves=64
num_cat=0
split_feature=1 1 20 1 20 20 10 20 1 20 4 1 13 16 13 14 16 16 1 14 10 1 4 13 10 1 1 20 16 20 13 16 14 2 3 21 14 20 11 3 6 10 16 14 20 1 13 14 16 3 13 14 8 16 1 14 4 11 14 3 10 16 3
split_gain=227383 42003.3 14587.1 7789.23 2780.6 2062.97 1891.93 1627.17 1067.41 980.277 962.855 886.691 856.21 799.205 636.661 385.712 370.543 365.694 475.792 359.432 341.835 334.526 326.165 326.137 308.351 299.324 290.156 274.426 433.114 258.846 236.66 214.346 205.27 190.961 211.414 189.446 167.695 167.405 166.66 166.275 160.818 157.353 154.854 152.928 152.533 140.318 139.757 128.798 122.66 118.447 116.761 112.549 111.762 117.276 144.614 111.071 110.833 110.052 159.462 108.831 108.624 107.834 100.821
threshold=1.0000000180025095e-35 1.0174517631530764 2.5000000000000004 3.0157150030136113 5.5000000000000009 17.500000000000004 483.50000000000006 1.5000000000000002 0.99827539920806896 19.500000000000004 0.16843397915363315 2.001110434532166 0.021265946328639988 2.5000000000000004 0.013082753401249649 0.052652267739176757 5.5000000000000009 2.5000000000000004 1.9930925965309145 0.064494904130697264 695.50000000000011 2.001110434532166 0.10520773380994798 0.014600062742829325 3103.5000000000005 2.7304111719131474 1.0003706812858584 19.500000000000004 7.5000000000000009 4.5000000000000009 0.33385580778121954 9.5000000000000018 0.036441858857870109 8.5000000000000018 151.50000000000003 2.5000000000000004 0.0075853471644222745 21.500000000000004 60.500000000000007 96.500000000000014 4.6310689449310312 2624.5000000000005 6.5000000000000009 0.037049515172839172 9.5000000000000018 9.6730418205261248 0.098848264664411559 0.057987827807664878 10.500000000000002 124.50000000000001 0.12505666166543963 0.01504891784861684 1.3948273062705996 1.5000000000000002 5.9971590042114267 0.10211529955267908 0.04295784421265126 11.500000000000002 0.0086660552769899386 1410.5000000000002 274.50000000000006 10.500000000000002 10153.500000000002
decision_type=2 2 10 2 10 10 10 8 2 10 2 2 2 2 2 2 2 2 2 2 10 2 2 2 10 2 2 8 2 10 2 2 2 2 2 10 2 10 8 2 10 10 2 2 10 2 2 2 2 2 2 2 10 2 2 2 2 10 2 2 10 2 2
left_child=2 5 7 6 29 12 11 -1 -7 13 14 17 38 23 57 24 47 49 -19 33 -16 32 44 -8 48 40 -10 28 43 -4 42 46 -15 -14 -35 -24 -26 -18 -2 -21 -25 51 -17 -22 -6 -44 -20 -13 60 55 -41 -23 -45 -54 -55 -3 -9 -5 -59 -27 -12 -53 -38
right_child=1 3 4 10 22 8 9 56 26 -11 15 16 19 21 20 30 37 18 31 39 27 41 35 25 36 59 -28 -29 -30 -31 -32 -33 -34 34 -36 -37 62 -39 -40 50 -42 -43 45 52 -46 -47 -48 -49 -50 -51 -52 61 53 54 -56 -57 -58 58 -60 -61 -62 -63 -64
leaf_value=0.079828573443863529 -0.068940658891866347 -0.01219401612003141 0.049782129719113354 -0.01026976710527139 0.025968212902129657 -0.034952111124798971 -0.062800782053592089 0.052756018646531136 0.065046480624724332 0.0065015890142940749 0.021442408540855461 -0.0031484675453086436 -0.077301127865665745 -0.061563474510159311 0.0066171117216928038 0.018488407061224489 -0.019519225194181242 0.0052115300185558286 -0.031497107232299669 -0.045740959816859314 -0.011985413917329171 -0.05025256163672992 0.034846903292745542 0.05358992838258312 -0.081569235669685089 -0.0088199167892932008 -0.040080560369162667 0.021893467955346749 -0.020190791117357793 0.039663145111829778 0.048631345772402357 -0.044123426271446047 -0.04582119915987385 -0.057037791515531691 -0.065717956957580148 0.025372220306620005 -0.0062019925155984987 0.031633024700648077 -0.077583830060759279 -0.05971451548249114 -0.034927657932668159 -0.045448309899166761 0.0013618506277128062 -0.047336315273975776 0.015185533555473699 0.022871819815038098 -0.010554404387342172 0.012494604827949663 -0.0038713884514780892 -0.023424503284632543 -0.045767278729614558 -0.023062270949292543 0.0098152967286496175 -0.0093795811885609148 0.0055287233218263539 0.012034439634113891 0.063512666897644135 -0.065445080500891706 -0.021892879219080431 -0.023811087957627868 0.0059115873901630358 -0.040406625759783606 -0.031162753627901704
leaf_weight=29329.264144089073 11708.432153020054 2256.688206541352 26004.718557629734 211.73191257705912 7332.3058538306504 2271.4844186508562 601.46893200092018 2694.597868507728 394.82834350690246 1276.2818581559695 1568.0064237280749 3307.942689715419 2584.6660140347667 3248.6830289573409 5402.6813772870228 5863.069742533844 3617.7680771287996 855.24035288533196 4861.2268244822044 3528.432771045249 3950.2426165607758 702.07936695381068 13236.32125250902 51.894223803654313 86.894936475902796 2476.858044761233 78.723093952983618 759.22665016585961 5765.8726154995384 8348.8872557496652 492.80479073990136 3233.9905898214784 5711.12527217553 9873.3834980376996 24229.025311073987 8772.5700440555811 2119.3193559348583 167.34682375844568 10650.815228122054 11752.824682356557 4569.9586647916585 3702.8206327883527 3446.8614956738893 124.18684070464224 5934.2765964395367 971.98553536133841 952.74469193886034 2185.0062234443612 2108.5785486986861 1824.8133611981757 1720.216048946837 2808.5489677311853 2431.8318352270871 3811.203678146936 2837.8627517521381 598.4795386614278 21518.487113727257 601.67704853508621 323.00134836649522 2368.2194869313389 3992.3939679451287 1316.0757609624416 499.99732377822511
leaf_count=104295 1184770 126118 90651 6351 43896 50193 66391 17529 1644 9774 17904 114341 311162 236933 116623 71755 113807 6851 244511 264500 145337 44319 52441 1551 2528 132167 900 3334 176436 31517 2104 158523 343058 911538 2308980 25317 40430 1041 1194491 1034429 407291 207904 49029 2836 43974 7376 39015 56506 35072 129306 118973 118480 85842 112512 63317 24860 56673 39202 12168 165596 60224 63339 14034
internal_value=0 -0.0359938 0.0522867 -0.0144927 0.037198 -0.0632996 -0.027719 0.0719088 -0.020716 -0.0363375 0.000220738 -0.0173044 -0.0648367 -0.0383215 -0.00618167 0.00815779 -0.00522054 -0.0249924 -0.0304354 -0.061413 -0.00452327 -0.0447821 0.0273376 -0.0270992 0.00127678 -0.0248309 0.0475702 -0.00758154 -0.00876424 0.0473229 0.0147837 -0.0338048 -0.0515291 -0.064198 -0.0632049 0.0310704 -0.0132337 -0.0172577 -0.0730578 -0.0554033 -0.0339338 -0.0376947 0.0131614 -0.00375608 0.021145 0.00609326 -0.0280652 0.00307409 0.00639721 -0.0134746 -0.0579338 -0.0317465 -0.000224564 0.000419718 -0.00301662 -0.00711542 0.0623156 -0.0427862 -0.0502318 -0.0161474 0.0102912 -0.0285965 -0.0109667
internal_weight=0 178858 123171 100065 69629.1 78792.8 52695.3 53542.3 2745.04 28834 47369.4 23861.2 76047.8 27557.7 26219.5 21149.9 9278.06 14583.2 9903.2 53688.5 25083.1 17489.3 35275.5 10068.4 10375.2 9466.93 473.551 19680.4 18921.2 34353.6 10774.7 9047.96 8959.81 36687.1 34102.4 22008.9 2706.21 3785.11 22359.2 17001.5 4621.85 8529.52 10281.9 13155.3 13266.6 4418.85 5813.97 5492.95 7668.98 4679.98 13473 4826.7 9205.09 9080.9 6649.07 2855.17 24213.1 1136.41 924.678 4845.08 5560.4 4124.62 2619.32
internal_count=11723969 11257676 466293 3876096 287796 7381580 2811682 178497 52737 1796803 1064414 1014879 7328843 1787029 763958 300456 285695 729184 448900 4949582 706237 1014033 165628 772996 170192 706605 2544 589614 586280 122168 130264 442049 579991 3531680 3220518 77758 56992 114848 2379261 1417902 408842 434042 128160 409844 87870 56405 283526 170847 113200 280284 1153402 226138 264507 261671 175829 150978 74202 57721 51370 297763 78128 181819 54464
is_linear=0
shrinkage=0.05


Tree=4
num_leaves=64
num_cat=0
split_feature=1 1 1 21 16 10 16 16 4 13 17 16 16 1 13 1 16 13 16 1 14 4 13 1 13 4 3 16 1 1 16 14 10 7 16 1 10 10 4 7 3 14 16 16 1 16 1 11 16 16 3 4 14 8 1 4 1 21 1 1 21 13 4
split_gain=188257 34421.6 6322.38 5220.63 6273.41 1642.14 1503.43 960.478 871.141 773.666 765.194 636.663 587.699 539.71 531.476 454.35 440.659 424.274 359.216 517.981 352.492 313.788 313.393 312.338 311.761 253.59 240.931 228.394 207.902 197.864 286.853 196.441 189.197 174.662 173.49 167.266 166.499 163.265 159.019 154.6 149.173 143.801 129.135 127.111 125.081 124.784 136.296 124.538 116.879 116.55 115.618 115.218 112.518 112.136 124.942 111.882 238.704 226.118 133.963 126.751 177.785 110.044 106.012
threshold=1.0000000180025095e-35 1.0003706812858584 3.0157150030136113 1.5000000000000002 3.5000000000000004 621.50000000000011 22.500000000000004 1.5000000000000002 0.15263308584690097 0.021265946328639988 0.19526211917400363 1.5000000000000002 7.5000000000000009 2.001110434532166 0.017860610969364647 1.9930925965309145 10.500000000000002 0.0081326249055564421 1.5000000000000002 1.9930925965309145 0.067905344069004073 0.027002223767340187 0.069876238703727736 2.001110434532166 0.074794497340917601 0.032639604061841972 1032.5000000000002 5.5000000000000009 2.7304111719131474 6.0311872959136972 6.5000000000000009 0.0051003065891563901 142.50000000000003 1.0007861852645876 2.5000000000000004 2.7304111719131474 243.50000000000003 174.50000000000003 0.18807178735733035 1.0007861852645876 839.50000000000011 0.033373111858963973 7.5000000000000009 7.5000000000000009 7.5241987705230722 7.5000000000000009 9.0099940299987811 58.500000000000007 1.5000000000000002 10.500000000000002 111.50000000000001 0.30579775571823126 0.016960215754806999 1.0000000180025095e-35 2.7304111719131474 0.17858647555112842 0.91252881288528453 5.5000000000000009 0.97525978088378917 0.98792266845703136 5.5000000000000009 0.20018552988767627 0.19187128543853763
decision_type=2 2 2 10 2 10 2 2 2 2 2 2 2 2 2 2 2 2 2 2 2 2 2 2 2 2 2 2 2 2 2 2 10 2 2 2 10 8 2 2 2 2 2 2 2 2 2 8 2 2 2 2 2 10 2 2 2 10 2 2 10 2 2
left_child=3 6 5 4 7 11 9 -1 17 47 12 28 38 15 -7 -13 -5 50 53 -20 26 -11 29 42 36 61 43 37 -3 30 40 -28 51 -22 -9 -25 -23 52 -6 -18 -19 -27 -21 -10 -45 -33 -47 -2 -42 -37 -4 -15 -17 -16 -55 56 -8 -58 -59 -57 -61 -14 -29
right_child=1 2 8 16 10 14 55 34 20 21 -12 13 25 32 18 27 39 22 19 23 33 24 -24 35 -26 41 31 62 -30 -31 -32 45 -34 -35 -36 49 -38 -39 -40 -41 48 -43 -44 44 -46 46 -48 -49 -50 -51 -52 -53 -54 54 -56 59 57 58 -60 60 -62 -63 -64
leaf_value=0.076618647934603143 -0.065700321049333044 -0.010090500186475915 -0.011026957876942557 0.038311930324749256 0.041170364793932615 -0.060905265556408419 -0.04421695027391008 0.065084556229343601 0.012503992274327306 -0.068819640224612996 0.053006719830942101 0.005726389083854708 0.0053636326991858153 -0.0085759734282219984 0.079162896977577224 -0.023257615792122106 0.075042507795555741 0.0017284414140263432 0.00039165026582889867 -0.040953256150289802 0.056567415183084807 -0.052811307534831625 0.0041062758680947336 0.01544920481390466 -0.048994649371884115 0.025884834417789694 -0.070737855349307432 -0.043384733873856295 0.01097698397895918 -0.0013794773089487369 -0.025259344536973372 0.0011152931655037438 -0.017304712794062642 0.013730461362372043 0.057335881224953755 -0.02956723663603791 -0.060907655232326087 -0.03292652766865245 0.052326097678813813 0.024104241712688251 -0.0030748324749831821 0.036139011581797179 -0.053937104440991736 -0.0066377110860917458 0.015985271148675342 -0.020759524699571166 0.0059750376056842509 -0.073511468549211825 -0.018023278543243777 -0.043105521428506356 -0.064609473304745688 0.011639390633767116 -0.0038371902579704773 -0.030345018550644087 -0.013781193721376751 -0.020406140159523897 -0.029524431955667826 -0.033605485822386934 0.049943192067573416 -0.02173396589559827 0.066454037333780136 0.035580142129607154 -0.029697022039201416
leaf_weight=16989.637455195189 10706.762773609255 2725.2895038584247 133.91615287633613 8603.7011641971767 12951.075969041325 1920.5701231665444 1219.6324909811374 16431.395222710446 5106.1659151082858 5778.0811550491489 10101.84343855828 932.61510050296783 1288.0829773377627 2021.0466620125808 27.757554642856121 1967.0228071517777 150.2232093475759 2588.2127697784454 894.24589040316641 5470.4264260891359 245.85834508016706 8560.4593020216562 5349.6754071847536 182.14637473598123 10681.233459560666 5025.0506686717272 112.0997532652691 3323.7530418767128 2053.3719456782565 4931.9036305500194 3521.7332665070426 4260.2543607805856 4898.2652989374474 7405.34080873942 12890.955601735972 6307.2232077897061 24591.674747946905 2530.6580165110063 4240.3100403109565 17675.383951845579 2022.8743018088862 10697.581538176164 2946.5231475075707 2211.8759730888996 844.17608291143551 1691.7346175165148 663.79409597767517 9749.4433307347354 3698.2935410486534 2125.456469017081 405.57174760475755 1082.3193246757146 1201.366364791058 2165.954093480017 2399.9788953727111 681.62441782606766 434.88363441033289 63.555353550706059 195.75519375735894 113.63681701896712 114.97038930281997 393.32137444242835 2462.769008818781
leaf_count=84050 1174316 202386 4081 19455 69023 174263 31658 59325 71099 907842 20145 7988 18002 61054 146 105482 218 81760 7724 398389 784 765734 129059 1178 894619 31267 4165 201788 85384 109641 128570 82252 172126 92848 43646 340956 2372454 154868 12707 55986 93346 49121 200025 40391 8620 41081 8928 1199704 135210 118029 32046 19484 44009 235378 176746 11772 15662 1172 1935 3445 712 3266 104198
internal_value=0 -0.0339633 -0.0141046 0.0485815 0.0542625 -0.0264232 -0.0597994 0.067159 -0.000574429 -0.061241 0.0409001 -0.0174669 0.0373649 -0.0213116 -0.0356574 -0.0278366 0.0290189 -0.00749928 -0.0335041 -0.0367009 0.00638449 -0.0578673 -0.00643046 -0.0386484 -0.0564235 0.030888 0.0019025 -0.0305619 -0.00103789 -0.0097931 -0.0133004 -0.00510289 -0.011185 0.015107 0.061678 -0.0319556 -0.058817 -0.0234572 0.043922 0.0245335 -0.00823188 0.0328617 -0.0454985 0.00767684 -0.000388544 -0.00399076 -0.0132257 -0.0694231 -0.0127378 -0.0329796 -0.0513088 -0.00152573 -0.0158939 -0.0210295 -0.0216386 -0.0240314 -0.0308948 -0.00748906 0.0294659 -0.00960069 0.0226173 0.012432 -0.0375592
internal_weight=0 167724 94832.2 117439 91009.3 49638.8 72891.7 46312 45193.5 70067.7 44697.3 25198.5 34595.4 20419.8 24440.3 12418.2 26429.3 22652.2 22519.7 17926 22541.3 49611.4 22112.7 17031.8 43833.4 17404 14890.1 11485.6 4778.66 16763 11831.1 6727.88 8001.63 7651.2 29322.4 8614.83 33152.1 5699.05 17191.4 17825.6 8309.38 15722.6 8416.95 8162.22 3056.05 6615.78 2355.53 20456.2 5721.17 8432.68 539.488 3103.37 3168.39 4593.69 4565.93 2824.06 1913.83 694.194 259.311 910.232 228.607 1681.4 5786.52
internal_count=11722718 11256507 3875482 466211 390552 2811601 7381025 187021 1063881 7314669 203531 1158767 183386 870997 1652834 618333 75659 713713 1478571 1066301 350168 4940649 677586 1058577 4032807 101656 256536 610345 287770 548527 438886 136426 252664 93632 102971 460163 3138188 304359 81730 56204 310316 80388 598414 120110 49011 132261 50009 2374020 228556 458985 36127 80538 149491 412270 412124 66356 50427 18769 3107 15929 4157 21268 305986
is_linear=0
shrinkage=0.05


Tree=5
num_leaves=64
num_cat=0
split_feature=1 1 16 1 20 3 20 16 13 10 13 1 1 1 16 16 1 20 1 20 13 4 16 13 16 3 1 16 20 20 20 16 16 10 1 20 3 20 4 4 20 13 13 4 3 16 8 3 6 7 0 13 4 9 2 13 4 4 12 16 4 4 0
split_gain=159602 29537.8 9293.45 5461.65 3183.82 1500.15 1264.28 1066.55 758.4 653.859 611.495 580.794 714.034 505.089 379.799 376.762 537.404 354.508 316.823 868.57 310.185 279.699 252.183 251.289 250.543 246.845 245.794 238.577 238.538 236.018 216.086 185.945 179.314 169.03 166.555 153.326 148.248 143.438 151.32 140.893 136.578 132.84 129.471 125.998 122.551 121.893 117.017 114.69 122.938 114.026 112.476 109.086 103.091 101.46 98.8069 100.079 96.717 95.4543 94.8713 94.0506 90.6112 90.1718 85.7954
threshold=1.0000000180025095e-35 1.0003706812858584 5.5000000000000009 3.0157150030136113 1.5000000000000002 191.50000000000003 4.5000000000000009 23.500000000000004 0.026424177922308448 682.50000000000011 0.0081326249055564421 1.9930925965309145 2.001110434532166 2.001110434532166 2.5000000000000004 4.5000000000000009 6.0311872959136972 8.5000000000000018 0.96592044830322277 18.500000000000004 0.019585175439715389 0.025982464663684372 5.5000000000000009 0.05937613174319268 1.5000000000000002 183.50000000000003 9.9662795066833514 3.5000000000000004 19.500000000000004 19.500000000000004 2.5000000000000004 2.5000000000000004 3.5000000000000004 1069.5000000000002 0.99827539920806896 2.5000000000000004 766.50000000000011 19.500000000000004 0.10015842691063882 0.32913376390933996 2.5000000000000004 0.0047661641146987685 0.074794497340917601 0.15263308584690097 875.50000000000011 5.5000000000000009 1.2150390744209292 3089.0000000000005 4.5000698566436776 1.0007861852645876 372153.50000000006 0.076222024857997908 0.072185814380645766 1.0013739466667178 8.5000000000000018 0.16671647876501086 0.11649689078330995 0.18270087242126468 349.50000000000006 43.500000000000007 0.26473219692707067 0.030235757119953636 677498.50000000012
decision_type=2 2 2 2 10 2 10 2 2 8 2 2 2 2 2 2 2 10 2 10 2 2 2 2 2 2 2 2 10 10 8 2 2 10 2 10 2 10 2 2 10 2 2 2 2 2 10 2 10 2 2 2 2 2 2 2 2 2 10 2 2 2 2
left_child=2 7 4 5 -1 13 30 8 43 22 -11 -7 20 27 41 23 37 61 56 -20 -13 -10 60 39 46 50 -24 51 -29 33 -4 57 40 45 -21 -34 -26 38 -17 53 -6 -14 62 -2 -43 -16 -22 -18 -49 -25 -23 -3 -42 -12 -52 -56 -9 -15 -51 -50 -5 -8 -27
right_child=1 3 6 9 32 11 17 18 21 10 15 12 14 31 29 16 47 -19 19 34 24 25 26 49 36 42 -28 28 -30 -31 -32 -33 35 -35 -36 -37 -38 -39 -40 -41 52 44 -44 -45 -46 -47 -48 48 59 58 54 -53 -54 -55 55 -57 -58 -59 -60 -61 -62 -63 -64
leaf_value=0.072809748717314424 -0.068350232361448729 -0.015698924451787635 0.058335951276412418 0.010742292053845744 0.054589751299869343 0.0023842158258033591 0.018163824451964936 -0.048531790817946355 -0.065491800483025372 -0.062430866431913784 -0.030967666583316563 -0.061362482705048099 -0.071964391423017346 0.00021831167494982333 -0.013229451792416922 -0.030433709288299617 0.0057927431197986219 0.020705635501273068 -0.066333798771763305 -0.0040404434284500683 0.061418593694921225 -0.055179801242718984 -0.0016543479184192669 0.052697457833072649 -0.035189567727802136 -0.061291474178756911 0.024863382386167154 -0.029771434762088267 0.002509369098717303 0.014509787922189005 0.041102211623522407 -0.0077786695537633184 0.053891307001304602 -0.038234514048387423 0.065621401224345163 0.042634715566912285 -0.047003009228804279 0.017906817594780366 -0.015130839789812054 0.017285237086156546 0.0308832730011563 -0.0055308722620898386 -0.048516555808872458 -0.060344493130818314 -0.020633514312401145 -0.0317598522187559 -0.025944908664901841 0.04234879378997182 -0.011960248882059134 0.005991842854542657 -0.068190243578436435 0.0019155861188765195 0.049112553634387136 -0.0039637998279774224 -0.044963778384678008 -0.026066838470222904 -0.025332236285744797 0.021578344517431465 0.023959990496261199 0.023477463142205553 0.022888557289180413 0.031021176848452126 -0.054765839349149192
leaf_weight=24443.162233174779 15137.15139119653 3115.3052151310258 2238.8903046101332 3829.8162432136014 16409.820573206991 1207.6220145951957 1463.0009382339194 850.34725059312768 5039.9298256537877 454.04980417573825 363.18440163880587 1616.3746317101177 99.897069548722357 1062.15805325564 1467.9382455258165 2443.0131946088513 4021.2518960342277 18452.844611172099 276.12148407450877 117.24841430224478 38.879640210419893 3309.4056562818587 6306.3643794195959 154.03386053442955 4867.0590650476515 8738.6607354748994 1014.4179826355539 5189.2151219072985 643.216023969464 272.80411314498633 9696.1698583234102 3852.32172677177 4057.3672091569752 5511.754774811212 319.94431365840137 11890.455824782141 5844.917074434692 254.11328612733632 4768.8130371888401 765.17314963648096 1057.7613248247653 2459.9172962112352 4937.4976091114804 7277.6242706738412 2958.9720116667449 2244.2586581222713 2707.559224425815 119.76911125238985 2579.0274439809145 4321.343148779124 418.92100960109383 1224.4152767001651 2907.1156787555665 8234.4233222398907 8182.2124701465946 766.26384503161535 952.41225870908238 1030.4662930928171 885.09579578461125 201.88370439689606 2563.0184783325531 20083.698088919744 11890.188702417305
leaf_count=103669 2034099 192215 4393 89877 61851 10313 13909 26689 845576 33081 16277 159065 12636 47317 59747 113677 69400 99643 13110 2692 814 333778 111932 595 319692 929550 7565 273574 5654 1754 24575 114151 9068 332106 1365 51562 450083 1542 124607 8917 11094 130163 430209 711652 221129 104545 295294 676 62923 113994 47096 60553 12699 267377 738297 58145 19476 22177 14680 1217 24763 73874 1191484
internal_value=0 -0.0322059 0.0455843 -0.0135105 0.0588581 -0.025233 0.0300534 -0.0570623 -0.0582858 -0.000667582 -0.00485321 -0.0316152 -0.0329797 -0.0128395 -0.0252623 -0.00395516 -0.00970927 0.0257921 -0.0251147 0.00309159 -0.0406667 -0.0544199 0.0083562 0.00166787 -0.0381812 -0.0529608 0.00202013 -0.0196063 -0.0262114 -0.0313242 0.0443351 -0.00126129 0.0494694 -0.0326798 0.0469392 0.0454986 -0.0416355 -0.0190138 -0.0203147 -0.00327471 0.0525775 -0.0148309 -0.0557894 -0.0657509 -0.0137776 -0.0244323 -0.0247082 0.000326508 -0.00725141 0.0103007 -0.0472561 -0.0107291 0.0442493 -0.00510451 -0.0444567 -0.0433456 -0.0362753 0.0107366 0.00904643 -0.0093876 0.015612 0.0301482 -0.0575302
internal_weight=0 158908 112700 90693.8 60765.7 47415.1 51934.6 68213.9 65697.9 43278.8 29565.2 31298 30090.3 16117.1 15015.5 29111.1 14387.9 39999.5 2516.07 713.314 15074.8 43283.1 13713.6 14723.3 13458.4 38243.2 7320.78 10172.2 5832.43 9496.76 11935.1 5944.95 36322.5 9223.95 437.193 15947.8 10712 7465.94 7211.83 9362.78 20374.7 5518.79 25566.3 22414.8 5418.89 3712.2 2746.44 6921.93 2900.68 5360.47 12676.8 4339.72 3964.88 8597.61 9367.4 8948.48 1802.76 2092.62 5206.44 2780.91 6392.83 21546.7 20628.8
internal_count=11725637 11259300 466337 3876082 249943 2812982 216394 7383218 7319886 1063100 828963 2097341 2087028 715641 862080 795882 374042 187426 63332 17167 1224948 4574135 234137 421840 1065883 3728559 119497 531996 279228 498152 28968 183645 146274 496398 4057 60630 769775 239826 238284 292571 85644 363928 2551243 2745751 351292 164292 296108 134216 64816 129269 1177316 252768 23793 283654 843538 796442 46165 69494 128674 64140 114640 87783 2121034
is_linear=0
shrinkage=0.05


Tree=6
num_leaves=64
num_cat=0
split_feature=1 1 20 1 20 20 20 3 1 4 1 13 20 13 20 1 16 16 16 3 1 20 10 4 3 13 13 4 13 13 1 3 0 10 13 20 1 6 4 1 9 13 4 13 10 16 1 4 4 4 10 4 20 13 17 16 20 15 21 4 3 13 18
split_gain=136874 26452.1 10397.7 4745.86 1604.75 1459.01 1206.27 1201.86 952.316 662.014 651.334 593.589 419.579 404.634 385.063 375.72 413.2 342.496 309.803 250.774 226.718 278.373 221.501 216.961 201.319 196.016 165.602 158.61 141.377 140.769 138.822 138.706 132.106 129.699 119.302 118.62 117.972 119.747 113.566 109.972 109.011 104.532 101.706 99.9905 99.4496 99.3467 92.9329 92.9048 91.8906 90.283 89.8594 88.8626 88.2989 87.813 86.6913 85.9 112.797 85.8373 85.811 111.427 85.2707 82.198 76.4199
threshold=1.0000000180025095e-35 1.0003706812858584 2.5000000000000004 3.0157150030136113 4.5000000000000009 1.5000000000000002 17.500000000000004 678.50000000000011 0.99827539920806896 0.20741226524114612 2.001110434532166 0.017860610969364647 19.500000000000004 0.025135630741715435 8.5000000000000018 1.9930925965309145 5.5000000000000009 2.5000000000000004 4.5000000000000009 678.50000000000011 9.0099940299987811 2.5000000000000004 85.500000000000014 0.037934388965368278 223.50000000000003 0.33285985887050634 0.01604143995791674 0.33321768045425421 0.019585175439715389 0.020838629454374317 2.001110434532166 1294.5000000000002 641101.50000000012 267.50000000000006 0.01020714594051242 21.500000000000004 2.7304111719131474 3.8860411643981938 0.03704155050218106 1.8966262936592104 1.0014470219612124 0.067309632897377028 0.16843397915363315 0.069450143724679961 321.50000000000006 2.5000000000000004 1.2312059402465823 0.17545110732316974 0.37512886524200445 0.22646919637918475 154.50000000000003 0.15693221241235736 2.5000000000000004 0.0081326249055564421 0.15075758099555972 6.5000000000000009 19.500000000000004 0.022018423303961757 1.5000000000000002 0.12762515246868136 530.50000000000011 0.12505666166543963 9.011111259460451
decision_type=2 2 10 2 10 10 10 2 2 2 2 2 10 2 10 2 2 2 2 2 2 10 10 2 2 2 2 2 2 2 2 2 2 10 2 10 2 10 2 2 2 2 2 2 10 2 2 2 2 2 8 2 10 2 2 2 10 2 10 2 2 2 2
left_child=2 6 5 7 47 -1 11 10 -8 13 15 42 17 34 58 39 22 29 33 61 21 45 48 -13 32 27 -19 31 -24 -9 -28 -11 -25 51 44 50 37 -31 -16 46 62 -26 -2 -18 -5 57 54 -4 -17 -27 -20 -12 -29 -35 -3 -23 -57 -21 59 -6 -36 -15 -33
right_child=1 3 4 9 14 -7 8 12 -10 25 18 23 -14 19 38 16 43 26 35 20 -22 55 28 24 41 49 30 52 -30 36 -32 40 -34 53 60 -37 -38 -39 -40 -41 -42 -43 -44 -45 -46 -47 -48 -49 -50 -51 -52 -53 -54 -55 -56 56 -58 -59 -60 -61 -62 -63 -64
leaf_value=0.06992497325127571 -0.067222886919353061 -0.0019027951764077759 0.037922999714996991 -0.013658065307765943 0.026632421322208888 0.051772822830283997 -0.031967769544700181 -0.050100663045226659 0.063623103350921723 0.0072726393271140338 -0.0039104852187864169 -0.061821454752368846 -0.00071274974734292511 0.0028981022233424171 0.0051661301512062096 -0.01186957273848083 -0.040004784834481277 -0.064245342290190507 -0.009775740725613687 -0.0052583271184212937 0.0084807399572339633 -0.0089816141636089499 -0.043410498158704562 -0.05316441512697604 -0.056790725794959356 0.056544571008996916 -0.045578415397860714 0.020197788391239348 -0.021504424314724241 0.062870920753563597 -0.033858026781290851 -0.0010446674281353713 -0.043516650953040498 -0.057052370115603324 -0.0034147003955716949 0.018841679812568114 -0.017369727445330271 -0.032917977130038953 0.019712169790194092 0.053909220779612459 -0.001725759492773257 -0.048917421720573222 -0.058144914828888339 -0.025466380143381147 -0.051967020730011283 -0.011640473886708941 -0.018201605093024275 0.044474827557044759 0.011557190762644103 0.007079116383760394 -0.023947288290329345 0.013559817462034241 0.0078526558040464493 -0.0064506757179637608 0.038832850102813954 -0.022906753776901684 0.007284400990093743 0.0072977690449142181 0.024431303403597796 0.035666329629589467 -0.022958713120891164 0.02072840415821979 -0.040202678834779938
leaf_weight=23248.768472206779 11846.805094758281 371.37529368791729 15613.344795270823 254.52775420947 7471.8274121936411 21131.719148085453 1848.287352084415 578.21316570881754 303.3044501375407 5256.7522418824956 1201.8212900632061 6924.8421986408066 892.92474859394133 6485.8024003563914 1455.8644927060232 2333.1055982650723 4420.2859593373723 730.49170723813586 1732.5640353967901 2577.5554110636003 2188.6862360055093 2625.4536865756381 853.97059574257582 6118.7732508741319 18682.071192411007 295.06731843203306 4947.9117720669601 2492.8933663349599 5355.7093160122167 33.028183236718178 5162.5634045941988 192.64798240270466 8445.8581800626125 88.294786326121539 827.91973172267899 217.14477177616209 2996.5300336489454 2685.49788118992 17131.41397484811 100.96831176243722 2531.7466744098347 5444.278306200169 4171.9008087334223 1614.6967782948632 506.5989755813498 2005.2439566217363 436.46917831618339 8280.1122728744522 510.10727691184729 134.1983495131135 3156.4892321445514 1845.7417362318374 3457.1835376536474 2959.7213327675126 201.45598933193833 3882.6333437627181 336.15620447788388 2884.2786231879145 8774.5109620192088 6284.0680193584412 1712.4909561555833 717.92175093945116 352.72082057525404
leaf_count=105101 1729030 3627 70077 8690 51595 74050 50207 76989 1596 79937 56103 1209348 7834 158302 19420 134189 277948 66994 53046 106158 41008 106183 79241 632997 2005579 1079 388039 24260 393143 309 314506 2754 801242 8641 24239 1339 224317 290815 80577 510 49427 508342 443502 87195 39477 38661 4293 20639 14930 1035 142569 41096 45180 143738 894 148607 1756 93978 22492 23047 71960 10349 10123
internal_value=0 -0.0308273 0.0426248 -0.0129192 0.0298883 0.0612818 -0.0552937 -0.024101 -0.0184926 -0.000743345 -0.0175042 -0.0565784 -0.0341275 -0.00539244 0.0239 -0.023915 -0.0259807 -0.0358688 -0.00823409 -0.00310828 -0.00650641 -0.00879845 -0.0192248 -0.0536706 -0.0522118 0.00778981 -0.0412549 0.00678935 -0.024517 -0.0265907 -0.0395938 0.00233741 -0.0475698 -0.000623634 -0.0217918 -0.0173192 -0.0242121 -0.0317542 0.0185728 0.00415678 -0.00609362 -0.0550141 -0.0648586 -0.0361149 -0.0391562 -0.00212223 -0.000820351 0.0401935 -0.00766652 0.0410805 -0.0189252 0.00667032 0.0130249 -0.0079165 0.0124233 -0.0160822 -0.0205011 0.00137228 0.0282949 0.0307594 -0.0165893 0.00467507 -0.0263704
internal_weight=0 150932 109392 87145.6 65011.1 44380.5 63786.1 45427.1 2151.59 41718.5 27399.9 61634.5 18027.2 27005.3 41117.7 16198.1 15087.9 17134.2 11201.8 23703.7 16500 14311.3 9052.89 45615.8 38691 14713.2 10841 14283.9 6209.68 6293.27 10110.5 8333.87 14564.6 6095.58 3301.54 5106.2 5715.06 2718.53 18587.3 1110.27 3077.12 24126.3 16018.7 6034.98 761.127 7467.08 1009.3 23893.5 2843.21 429.266 4889.05 3047.56 5950.08 3048.02 572.831 6844.24 4218.79 5461.83 22530.4 13755.9 2540.41 7203.72 545.369
internal_count=11724309 11257311 466998 3875468 287847 179151 7381843 2812305 51803 1063163 1442502 7330040 1369803 849368 197131 995970 986646 1361969 446532 705002 536351 495343 621503 5157508 3948160 213795 769539 211681 472384 592430 702545 142241 1434239 249578 144366 196954 515441 291124 99997 9324 62304 2513921 2172532 365143 48167 238797 8814 90716 149119 2114 195615 97199 69440 152379 4521 256546 150363 200136 97134 74642 96199 168651 12877
is_linear=0
shrinkage=0.05


Tree=7
num_leaves=64
num_cat=0
split_feature=1 1 20 1 20 20 3 20 14 20 16 4 1 1 14 20 13 1 16 20 2 1 16 16 3 1 10 1 13 20 13 14 14 3 14 16 17 1 10 20 13 16 17 1 1 1 10 1 4 20 7 8 4 10 21 14 7 4 14 4 4 13 2
split_gain=118768 23032.5 9190.46 4129.29 1491.36 1456.38 1083.19 1047.25 628.59 607.802 538.462 533.851 406.739 384.75 344.66 308.119 296.815 260.241 255.718 350.916 236.367 228.372 219.134 215.416 214.413 199.376 192.699 184.931 178.556 155.756 142.38 141.617 139.907 153.509 163.726 135.23 123.797 123.12 121.54 121.513 119.004 118.788 114.355 135.293 127.91 113.646 112.693 108.879 102.807 94.6663 92.5395 91.8359 83.5455 89.0106 88.1887 87.2117 81.9262 80.7237 79.8381 79.4345 78.2902 77.7074 76.8955
threshold=1.0000000180025095e-35 1.04513555765152 2.5000000000000004 3.0157150030136113 6.5000000000000009 1.5000000000000002 213.50000000000003 17.500000000000004 0.039226677268743522 19.500000000000004 4.5000000000000009 0.20741226524114612 0.96592044830322277 2.001110434532166 0.029001682065427307 3.5000000000000004 0.013082753401249649 1.0515425801277163 2.5000000000000004 19.500000000000004 9.5000000000000018 6.708158254623414 11.500000000000002 4.5000000000000009 147.50000000000003 2.001110434532166 3027.5000000000005 2.7304111719131474 0.095668487250804915 18.500000000000004 0.014600062742829325 0.10211529955267908 0.39009661972522741 391.50000000000006 0.015515913255512716 5.5000000000000009 0.14337102323770526 1.0515425801277163 916.50000000000011 7.5000000000000009 0.018354238010942939 9.5000000000000018 0.16021390259265902 1.0003706812858584 1.0003706812858584 2.7304111719131474 1920.5000000000002 9.0099940299987811 0.26882418990135198 11.500000000000002 1.0007861852645876 1.6627831459045412 0.025982464663684372 15.500000000000002 1.5000000000000002 0.069995205849409117 3.0603535175323491 0.17374523729085925 0.01504891784861684 0.063986182212829604 0.092677924782037749 0.090185038745403304 370.50000000000006
decision_type=2 2 10 2 10 10 2 10 2 10 2 2 2 2 2 10 2 2 2 8 2 2 2 2 2 2 10 2 2 10 2 2 2 2 2 2 2 2 10 10 2 2 2 2 2 2 10 2 2 10 2 10 2 10 10 2 2 2 2 2 2 2 2
left_child=2 7 5 6 15 -1 13 8 20 10 14 16 -9 17 30 59 -5 -3 61 21 -2 26 32 31 -22 -12 41 51 48 -25 -8 -19 33 -13 -35 -15 -21 -11 -29 56 -26 62 43 -14 -44 -32 58 -24 -10 57 -17 -16 53 -52 55 -54 -23 -6 -27 -4 -7 -18 -20
right_child=1 3 4 11 49 60 9 12 28 37 25 22 42 35 27 50 18 23 19 36 24 39 47 29 40 46 -28 38 -30 -31 45 -33 -34 34 -36 -37 -38 -39 -40 -41 -42 -43 44 -45 -46 -47 -48 -49 -50 -51 52 -53 54 -55 -56 -57 -58 -59 -60 -61 -62 -63 -64
leaf_value=0.067649466931948052 -0.066398138917206737 0.073215897735516372 0.033089391930786714 -0.031276766805497999 0.01911353004777892 0.044529762749571961 -0.056112857241695638 -0.032322672393457895 -0.05166487907945664 0.064989550407396138 -0.045119190944677534 0.017408076119368936 0.021828954106381013 0.0033747104287943364 0.016816766521216685 0.072810870669547098 0.0017430066686665016 -0.016625318947573055 0.0075338678887674733 0.029621731591609177 -0.051272492416176055 -0.0044310471170418029 -0.0086921792158591062 -0.03018333871068667 -0.067201671289033635 -0.043370059689442325 -0.023259671776672198 -0.0022386702738626586 -0.038461228105354149 -0.0011962211588924633 -0.041645401902562815 0.0039363516278465736 0.045591002303156825 -0.030043094884532679 0.0066207843303333989 -0.011983192808650303 0.0018816028098041851 0.0013686471099245805 -0.018281243017247865 -0.011882293502038359 -0.057496079401893697 -0.018511665466599304 0.060350740865799057 -0.043172825208241006 -0.020119040678032996 -0.022596330651151467 -0.039897668916039464 0.010648393439928933 -0.042133947334073413 0.015696615410019345 0.036636202526256642 -0.027531379932538048 0.031287573384450464 0.0095853408509871969 0.027329170383686915 0.039285512436570219 0.010107337706810961 0.02627576683880602 -0.022339483765424554 0.042952834840929661 0.051151022808717576 0.017594655525324743 -0.007988598646240512
leaf_weight=21556.524812326767 7333.2847565342672 76.231978636234999 2518.9141085967422 1049.7348607848398 10468.093911321368 6619.7918161200359 783.1900374381803 1701.5280190201011 14991.799293777789 81.611146610230207 5960.376683941111 3861.1239882311784 203.21182765159756 3595.1021220399998 119.48271748423576 134.88321941718459 6628.4614573419094 3941.1340411163401 1061.0039069007616 751.53037304058671 12042.48190772254 1818.7510736978147 2761.2812991167884 4305.1480632724706 4310.3009513108991 542.46189533337019 3721.1212300815387 1696.6108823514078 4214.5890572061762 519.32215641438961 1592.1768810017966 1063.3533714937512 276.27347674127668 320.54548050975427 6080.9914261589292 2383.6951344413683 865.23392591648735 1114.9493211798836 3881.9705736157484 1986.5819345547352 11817.548585752258 2165.0873185133096 197.6290624551475 132.08030449273065 65.833312404341996 1540.5611853864975 2576.3339547879295 988.07540146494284 3487.5790489439387 10199.667629395146 469.7207253370434 5076.4030313254334 9341.78299409803 862.48174475785345 6826.3295875950716 5366.4905425654724 2074.0537863734644 6302.7660865383223 2684.8318812535144 10763.807384215295 13711.668808994815 875.21477244328707 3216.7819889620878
leaf_count=104701 1186478 284 18058 63085 61060 36589 98576 47514 1795485 396 464525 45529 3317 119993 5121 239 253313 259177 24327 3574 1487787 40545 52426 247435 624092 37503 151657 73866 390450 6374 201403 52414 1441 8884 95837 80933 4629 9849 259072 59188 1558343 76982 1123 1923 435 127039 172759 9421 289097 58505 2900 457324 44474 11117 16048 21310 43882 20645 134651 33432 37253 24247 104506
internal_value=0 -0.0294153 0.0404295 -0.0124801 0.0284 0.0585951 -0.0231705 -0.0529397 -0.0542476 -0.0291481 -0.0307247 -0.000989231 -0.0198505 -0.0127646 -0.0243412 0.0350191 -0.00522732 -0.0188104 -0.00414064 -0.00742615 -0.0584021 -0.00966358 0.00678604 -0.0195241 -0.0563206 -0.0386961 -0.0142007 -0.0197241 -0.0477481 -0.0270631 -0.0370448 -0.0122564 0.0104793 0.00953413 0.00478491 -0.00274835 0.0147762 0.0057079 -0.0134022 -0.00182008 -0.06009 -0.00896859 0.0155927 -0.00377694 0.0402432 -0.0322778 -0.0320996 -0.00359532 -0.0498661 0.0194951 0.0315178 -0.0265116 0.0312742 0.0191232 0.0320259 0.0342057 0.00331488 0.0218052 -0.0258744 0.0410823 0.0489952 0.00359191 -0.00413862
internal_weight=0 144535 105143 84036.8 63254.9 41888 43534.9 60497.9 58197.6 27651 26454.4 40501.8 2300.28 15884 14690.4 36284.4 26213.6 9905.19 25163.8 17660.1 35503.6 16043.4 14288.3 9828.96 28170.3 11764 10164 10774.5 22694 4824.47 3915.93 5004.49 10538.9 10262.7 6401.54 5978.8 1616.76 1196.56 5578.58 5879.39 16127.8 6442.87 598.755 335.292 263.462 3132.74 5803.63 3749.36 18479.4 26970.5 23001.7 5195.89 22866.8 1332.2 21534.6 14708.3 3892.8 16770.9 3227.29 13282.7 20331.5 7503.68 4277.79
internal_count=11724542 11258211 466331 3872167 287788 178543 2808694 7386044 7331732 2042084 2031839 1063473 54312 766610 1222401 147578 849935 565684 786850 509290 4856700 501087 213538 565400 3670222 809438 357472 795383 2475032 253809 427018 311591 151691 150250 104721 200926 8203 10245 332938 143615 2182435 205815 6798 5240 1558 328442 344913 61847 2084582 140210 96088 462445 95849 14017 81832 65784 84427 81705 172154 51490 73842 277560 128833
is_linear=0
shrinkage=0.05


Tree=8
num_leaves=64
num_cat=0
split_feature=1 20 14 1 1 1 20 20 1 10 20 10 10 1 1 13 16 1 1 3 11 1 10 10 20 20 16 20 20 1 13 16 3 13 9 10 4 14 20 1 10 1 3 2 21 4 13 16 4 3 3 16 3 5 20 7 16 20 20 1 17 4 15
split_gain=104732 8256.52 5418.74 11993.8 4909.77 1799.7 1470.34 1273.24 1001.59 675.822 634.229 512.589 468.137 462.223 454.379 425.657 377.171 382.026 356.197 264.997 264.455 252.439 230.027 222.12 202.687 185.271 184.468 167.934 154.002 146.952 128.63 125.257 121.453 114.472 109.732 112.514 101.358 100.296 98.9662 120.985 98.2057 98.0444 96.9308 96.761 87.8163 107.883 86.1833 85.4245 82.468 81.634 78.2268 77.968 76.4651 74.7973 73.1198 72.8403 72.6578 76.3436 72.3432 142.032 70.724 69.4318 68.8521
threshold=1.0000000180025095e-35 2.5000000000000004 0.018214995972812179 2.001110434532166 1.0174517631530764 1.0003706812858584 5.5000000000000009 1.5000000000000002 3.0157150030136113 356.50000000000006 18.500000000000004 483.50000000000006 199.50000000000003 2.001110434532166 1.9930925965309145 0.0056525703985244044 3.5000000000000004 8.8554830551147479 0.98792266845703136 714.50000000000011 50.500000000000007 3.0157150030136113 544.50000000000011 294.50000000000006 10.500000000000002 3.5000000000000004 2.5000000000000004 3.5000000000000004 19.500000000000004 1.0515425801277163 0.017860610969364647 2.5000000000000004 75.500000000000014 0.14297070354223254 1.0006510615348818 1087.5000000000002 0.2048507705330849 0.29198718070983892 18.500000000000004 0.99827539920806896 2567.5000000000005 3.0157150030136113 135.50000000000003 3294.5000000000005 1.5000000000000002 0.090186990797519698 0.10210549458861352 10.500000000000002 0.13091759383678439 66.500000000000014 1189.5000000000002 2.5000000000000004 1189.5000000000002 13.167840480804445 20.500000000000004 1.0007861852645876 7.5000000000000009 26.500000000000004 19.500000000000004 0.99827539920806896 0.23861283808946612 0.031826693564653404 0.0053050769492983827
decision_type=2 10 2 2 2 2 10 10 2 8 10 10 10 2 2 2 2 2 2 2 8 2 10 10 10 10 2 10 10 2 2 2 2 2 2 10 2 2 10 2 10 2 2 2 10 2 2 2 2 2 2 2 2 2 10 2 2 8 10 2 2 2 2
left_child=1 7 4 5 20 10 27 -1 11 13 23 31 -7 29 -14 -11 22 19 -12 47 30 40 -10 -4 44 34 53 -3 52 -6 -2 -5 -31 -25 -16 -36 -24 62 -22 -40 51 49 58 -23 45 -8 56 -18 -29 -15 -19 -17 -28 -13 -52 -9 -21 -58 -32 -60 -50 -26 -38
right_child=2 6 3 8 9 12 24 55 16 15 18 26 14 41 25 21 17 50 -20 46 38 43 36 33 61 -27 28 48 -30 32 42 -33 -34 -35 35 -37 37 -39 39 -41 -42 -43 -44 -45 -46 -47 -48 -49 60 -51 54 -53 -54 -55 -56 -57 57 -59 59 -61 -62 -63 -64
leaf_value=0.065542229758139933 -0.057265500472152557 0.039667162762833684 -0.041092382414011648 0.010089240363017005 0.042301733637115584 -0.0081181517809123995 0.019487655389481249 0.07054923577791615 0.0211940363667435 -0.06718217690910043 -0.022330590370768483 -0.059393910865411126 0.0023631275742176982 -0.0015718681831396047 0.052003234294123492 -0.023108032469002612 0.0052359679295806332 0.015316408941810751 0.057328211702778367 -0.0096015595205365626 -0.062551667947798789 -0.013177799648403338 0.0010911160881981366 -0.051726313463454382 0.00048235286648734435 -0.040903959656183209 -0.021718893934694859 0.02852716784172293 0.016521040814839665 -0.019940826275168685 -0.045779874787801697 -0.0073305721905526757 -0.035275729529871229 -0.031490399431473942 -0.021013125207839361 -0.033922531607330039 -0.0064884674037342981 0.044679206453570611 -0.046998400535884638 0.047429175767762712 -0.05484373076181303 0.0036178194781287354 -0.054757550499239319 -0.033334409450454086 0.019438974546417707 0.029933500833858658 0.0031773502550640578 -0.0062514612706227896 0.038873864019109333 -0.018419824590430491 0.00012439286543491955 -0.040560646788723786 -0.033302250903724455 -0.011484280146240228 0.026329365232284237 0.047140836850034763 -0.02077139226828242 0.0085650896533972683 -0.035705492095807971 0.051199655187436556 0.029274273946114451 0.015842315876663775 0.012877036521646623
leaf_weight=19779.653045038693 6497.129364986904 12745.306429417804 7658.2774134902284 1597.6214031949639 81.455257500521839 3002.8389091470744 3897.7134356638417 338.18328851461411 2439.1401755758561 860.9595363328699 1102.7390203855466 83.409828756004572 989.93012412660755 1422.6814231730532 42.774962514638901 985.86288077197969 3658.9825366013683 2253.1876667845063 160.79672627151012 3771.3885361889843 10749.607973148348 2098.4172948210035 7703.6926316400059 20389.883971350966 785.68272298946977 4457.6120686805807 2471.668081872398 8338.7193318028003 197.28192773973569 3668.805083042942 5735.5055286693387 2914.4589136200957 1992.3566171161365 723.66908349632286 2978.3787460152525 3895.3443383075064 563.49083550646901 214.27327321656048 168.05037156259641 42.499997577164322 746.10119497054256 2389.358934429707 3537.3348906477913 831.25064896047115 9177.1680355919525 6756.3513070037588 740.78769329353236 2901.8542583237868 5515.408090678975 1453.5704371256288 2556.3450590349967 1823.7479541045614 3363.6160320809577 3497.0058464575559 297.1419255239889 19197.785867989063 3998.9574330832111 234.78727278811857 335.76858437340707 54.669858461245894 2942.1934432499111 11571.83537148172 2474.8528767093085
leaf_count=104679 930865 51241 761213 53551 672 138836 37352 620 41286 99763 27485 3187 8928 49056 912 128411 64965 22461 1160 113086 1757375 84480 276365 2527112 11861 383696 132951 45773 1383 219458 695964 94940 159917 65842 213756 364367 11006 1219 6817 286 97263 56949 598250 47489 26289 31280 15826 56157 18168 68741 56293 149868 222806 249040 1196 73231 144692 1431 10182 429 6866 58366 40489
internal_value=0 0.0386907 -0.0282229 -0.0213273 -0.0423758 -0.0397438 0.0272845 0.0565999 -0.00388353 -0.0224052 -0.0468643 -0.0150654 -0.0258265 -0.0145674 -0.0301273 -0.0341497 0.000788147 -0.00348989 -0.0121933 -0.0074407 -0.0558914 -0.0297646 0.00730748 -0.0483869 0.0198919 -0.0329551 -0.0215909 0.0353395 -0.0269269 -0.0243783 -0.0518253 -0.00116263 -0.0253377 -0.0510327 -0.0278321 -0.0283289 0.004216 0.0116171 -0.0618867 -0.027938 -0.0387187 -0.00386783 -0.0481675 -0.0188969 0.0230239 0.026112 -0.0131387 0.000155085 0.0320556 -0.0100863 0.00835226 -0.0344367 -0.0283959 -0.0126004 0.00285319 0.0475461 -0.0146486 -0.0191445 -0.0443622 -0.0235369 0.0355344 0.0148657 0.00928551
internal_weight=0 101046 138811 93336.2 45475.1 45402.2 61730.4 39315.6 47933.9 18354.6 30035.4 14125.1 15366.9 11008.2 12364 7346.34 33808.9 20413.4 1263.54 15306.8 27120.6 6485.38 13395.4 28771.8 32188.8 11374.1 9612.98 29541.6 6032.57 5742.62 16160.4 4512.08 5661.16 21113.6 6916.5 6873.72 10956.3 3252.62 10960.2 210.55 3555.71 5265.61 9663.28 2929.67 19831.2 10654.1 8745.92 6560.84 16796.3 2876.25 5106.67 2809.61 5835.28 3580.42 2853.49 19536 8005.13 4233.74 6125.94 390.438 8457.6 12357.5 3038.34
internal_count=11725598 465726 11259872 6097637 5162235 4493307 287196 178530 1604330 1162067 3382812 757858 1110495 554793 971659 607274 846472 476107 28645 396157 4000168 507511 370365 3354167 165148 962731 609367 122048 357140 380047 2235690 148491 379375 2592954 579035 578123 329079 52714 1764478 7103 375542 174746 1304825 131969 94921 68632 275035 121122 70807 117797 79950 278279 355757 252227 57489 73851 259209 146123 706575 10611 25034 70227 51495
is_linear=0
shrinkage=0.05


Tree=9
num_leaves=64
num_cat=0
split_feature=13 1 1 20 1 1 1 20 20 10 20 10 4 1 1 1 20 1 14 14 20 16 3 16 1 14 4 20 20 16 20 16 1 13 4 1 1 14 1 14 2 3 3 13 4 1 7 16 3 4 4 20 9 1 21 12 13 10 20 16 1 16 20
split_gain=15059.8 78400.1 14351.7 7252.41 3122.33 2542.88 1472.95 1358.76 1220.31 816.759 601.411 477.804 458.78 399.741 341.245 324.63 303.368 254.677 249.641 222.152 213.557 202.536 195.568 190.407 179.927 178.317 156.986 156.212 156.195 257.444 136.465 128.012 125.49 121.079 113.476 112.932 108.569 104.941 100.553 98.6164 96.4522 137.764 95.3262 93.1564 90.2925 89.8655 84.8827 83.7135 81.9545 79.8116 79.6436 77.9469 77.0662 74.5897 74.0733 72.9312 71.7055 71.0338 68.6909 68.0364 67.4993 127.531 66.6544
threshold=0.012561865150928499 1.0000000180025095e-35 1.0306535959243777 2.5000000000000004 3.0157150030136113 0.4307201504707337 1.0003706812858584 5.5000000000000009 1.5000000000000002 621.50000000000011 14.500000000000002 249.50000000000003 0.2098990082740784 0.99827539920806896 2.001110434532166 1.9930925965309145 1.5000000000000002 1.101318955421448 0.048208059743046767 0.0086660552769899386 8.5000000000000018 2.5000000000000004 631.50000000000011 4.5000000000000009 1.0003706812858584 0.045224972069263465 0.2427095100283623 1.5000000000000002 19.500000000000004 10.500000000000002 3.5000000000000004 3.5000000000000004 9.6730418205261248 0.1044130139052868 0.1512480899691582 1.9930925965309145 12.121993064880373 0.068520769476890578 2.001110434532166 0.39009661972522741 9.5000000000000018 135.50000000000003 93.500000000000014 0.098848264664411559 0.080277815461158766 1.8966262936592104 1.0007861852645876 6.5000000000000009 1822.5000000000002 0.093669999390840544 0.25009118020534521 19.500000000000004 1.0014300942420962 9.9662795066833514 1.5000000000000002 630.50000000000011 0.086685921996831908 105.50000000000001 19.500000000000004 4.5000000000000009 6.708158254623414 1.5000000000000002 20.500000000000004
decision_type=2 2 2 10 2 2 2 10 10 10 10 8 2 2 2 2 10 2 2 2 10 2 2 2 2 2 2 8 8 2 10 2 2 2 2 2 2 2 2 2 2 2 2 2 2 2 2 2 2 2 2 10 2 2 10 10 2 10 10 2 2 2 10
left_child=5 3 10 8 9 31 34 30 54 14 18 26 22 -12 17 49 46 -4 40 -13 -9 57 47 39 51 -18 -8 -16 29 37 -5 -1 55 50 -7 45 -31 52 -27 48 -3 -42 -29 -37 56 -23 -17 -6 -14 -11 -20 -15 -24 -30 -2 -25 -22 -19 -40 -28 61 -54 -49
right_child=1 2 4 7 12 6 11 20 -10 15 13 19 23 24 27 16 25 21 33 -21 44 35 28 32 -26 38 59 42 53 36 -32 -33 -34 -35 -36 43 -38 -39 58 -41 41 -43 -44 -45 -46 -47 -48 62 -50 -51 -52 -53 60 -55 -56 -57 -58 -59 -60 -61 -62 -63 -64
leaf_value=0.049309278570033227 0.064006474100886723 -0.062591522724803589 0.033585350898056698 0.038189331392314563 0.0079086752634819329 -0.062385333391647514 -0.024357640885728053 0.023901035206296273 0.045495557902451578 -0.017881261369627071 -0.030736496317875825 -0.05666087444889345 0.016761418847452868 -0.0093049900278014599 0.0064220101195046125 0.067764759018796403 -0.04025350751257481 0.00011408466071385411 -0.047481538039458204 -0.023301450126188991 0.0051112624245505129 -0.011598495325960297 -0.027915109995461491 0.00039401720841933369 -0.02848459710912131 -0.03448939227673322 0.0096570341776771873 0.00027962839048906586 0.003050342688242036 -0.024346591540886434 0.031214135941144479 0.014710634570065998 0.016532652257398493 -0.034682601304134052 -0.051414011555171002 -0.029676858590678395 0.00049984005823390987 0.002376753772674013 -0.023771024496002796 0.049042406049713064 -0.044645207896520184 -0.053170093373980924 -0.014119280758092904 -0.014284251494166875 0.0176090945706429 0.045198509648523108 -0.020016291808585215 -0.006693084299567509 0.0031527875898132575 0.015705489688411355 -0.038157383856648713 0.061558498325234016 0.0010662350992258886 0.037288455145582815 0.030762268756582379 -0.021909456221774259 0.019224448120840787 -0.015294071770759914 0.01336178906168323 -0.013111165220847399 0.00096066995632947128 -0.013817445043967216 0.0095656325828673075
leaf_weight=396.29012942034751 18052.147133116145 1788.4027084761765 225.79974098876119 12412.160531532951 3739.5753168845549 7974.3366950151976 1919.4496519512031 13727.385497045703 18614.00501944311 274.58205698244274 1705.8199558022898 1471.2756719335448 4054.2039552899078 47.316948525607586 2159.265094240196 27.678774237632751 5637.7108579326887 1151.7412884850055 10874.14798190922 755.2396589780692 3027.6967411031947 399.17016286822036 448.05777205666527 5288.7425832760055 105.4752840725705 3351.2228496929165 645.24788968940265 1686.4949305211194 400.50688453391194 2815.3705392586999 16117.414564170409 821.63306744303554 1218.2132709207945 3172.0028713033535 3345.6038642080966 5171.3833132397849 521.02602384611964 3590.5689244396053 3433.4490842315136 197.01328724250197 6877.3814347956795 15242.71640935482 3609.7278182052542 1213.6197436607908 13647.675209068228 84.36257728934288 5476.4352937724907 2669.9209178343881 1521.5297060962766 497.07527845259756 2901.2160907716025 215.73012835159898 2095.7120285411365 263.88406927976757 169.12970393057913 393.82213414972648 1280.6918685650453 2133.8295013122261 129.23187662754208 667.58501685038209 2188.4455812682863 4594.6398961555678 825.20270227501169
leaf_count=2433 102801 332968 1666 50762 106387 1456899 119635 64607 73134 3619 49395 160891 57085 2290 85789 169 509342 71583 1446176 50763 29274 4943 23621 86497 1604 298909 20677 51551 2517 116388 69713 4160 12445 319482 431372 341360 12709 115456 228599 1062 898071 2183456 155462 64772 57174 441 497563 73845 28847 3715 259666 1240 101325 927 478 10523 11841 189562 824 22877 56669 180448 4752
internal_value=0 0.00383617 -0.0238297 0.0370242 -0.0104119 -0.0437916 -0.0488552 0.0263335 0.0544997 -0.0207411 -0.0467985 -0.027522 -0.000128659 -0.0205345 -0.0130735 -0.0280047 -0.0293619 -0.0189349 -0.048132 -0.0453453 0.0192062 -0.0201028 -0.00417122 0.00757556 0.0266885 -0.0336538 -0.0152446 -0.00491294 -0.00711338 -0.0080847 0.0342488 0.0259684 0.00197017 -0.0434898 -0.0591428 -0.0249868 -0.0204665 -0.00488665 -0.0282722 0.0142763 -0.0514226 -0.0505196 -0.00953419 -0.0267511 0.015617 -0.00168905 -0.0195749 0.00270898 0.0130478 0.00375418 -0.0455178 0.0488116 -0.00768285 0.0166491 0.0636979 -0.00115169 0.00930648 -0.00989282 -0.0224241 -0.00192076 -0.00666186 -0.00915522 -0.00285438
internal_weight=0 213468 116419 97048.3 73489.2 17996.7 16778.7 60213 36835.3 36662.8 42930.2 5458.8 36826.4 2074.34 17835.4 18827.4 18055.7 10379.9 40855.9 2226.52 31683.4 10154.1 24152.9 12673.5 368.522 12551.6 3232.28 7455.49 16918.2 16253.8 28529.6 1217.92 6900.78 16947.4 11319.9 6868.54 3336.4 12917.4 6913.9 5772.75 23908.5 22120.1 5296.22 6385 17956.1 483.533 5504.11 7234.7 5575.73 771.657 13775.4 263.047 9326.86 664.391 18221.3 5682.56 4308.39 3285.57 3562.68 1312.83 8878.8 6690.35 3495.12
internal_count=11725211 9455504 8995720 459784 3501372 2269707 2263114 283371 176413 2509869 5494348 374843 991503 54529 967129 1542740 1535406 674327 5439819 211654 162896 672661 795044 196459 5134 1037674 163189 292802 610060 606616 120475 6593 109465 2025324 1888271 411516 129097 477519 528332 86994 3414495 3081527 207013 406132 98289 5384 497732 184984 85932 7334 1705842 3530 362063 3444 103279 97020 41115 261145 229423 43554 338442 281773 78597
is_linear=0
shrinkage=0.05


Tree=10
num_leaves=64
num_cat=0
split_feature=1 1 20 1 20 20 16 2 1 20 14 4 20 20 16 20 4 2 14 13 14 16 21 3 16 13 1 3 14 4 21 16 0 4 3 3 13 9 1 3 4 20 1 1 1 14 14 3 11 20 21 15 2 7 1 4 4 6 19 20 14 1 16
split_gain=82314.4 16358.7 6784.69 2932.23 1195.65 717.682 713.312 692.703 538.702 534.508 443.45 430.792 419.203 316.101 334.373 307.007 292.657 235.553 204.393 204.24 184.919 178.501 174.561 171.885 141.171 132.858 129.576 118.13 120.838 117.616 136.84 114.397 100.955 96.4443 93.6221 92.4543 85.9397 84.4432 83.2156 81.5672 77.933 77.5325 74.6982 74.5999 71.5775 70.8961 69.154 72.2949 66.7553 65.8979 64.594 63.077 83.6051 60.2848 59.3508 58.8342 58.5531 56.8509 56.2783 56.0745 55.865 55.6823 65.8497
threshold=1.0000000180025095e-35 1.0003706812858584 2.5000000000000004 3.0157150030136113 5.5000000000000009 14.500000000000002 1.5000000000000002 1042.5000000000002 0.98792266845703136 1.5000000000000002 0.048208059743046767 0.1418636813759804 1.5000000000000002 19.500000000000004 1.5000000000000002 19.500000000000004 0.16139633953571322 9.5000000000000018 0.043508308008313186 0.012040681205689909 0.045433903113007552 4.5000000000000009 1.5000000000000002 69.500000000000014 6.5000000000000009 0.054603191092610366 2.7304111719131474 279.50000000000006 0.010186786297708752 0.09633223339915277 1.5000000000000002 9.5000000000000018 491485.50000000006 0.10320533066987993 159.50000000000003 228.50000000000003 0.013082753401249649 1.0012407898902895 2.2892824411392216 1635.5000000000002 0.079584438353776946 12.500000000000002 2.7304111719131474 2.7304111719131474 2.7304111719131474 0.053168270736932761 0.39009661972522741 391.50000000000006 6.5000000000000009 19.500000000000004 1.5000000000000002 0.05805527605116368 1230.5000000000002 1.0007861852645876 9.9662795066833514 0.074361201375722899 0.25681374967098242 1.1474379897117617 1.1775210499763491 4.5000000000000009 0.076371785253286376 6.0311872959136972 3.5000000000000004
decision_type=2 2 10 2 10 10 2 2 2 8 2 2 10 8 2 10 2 2 2 2 2 2 10 2 2 2 2 2 2 2 10 2 2 2 2 2 2 2 2 2 2 10 2 2 2 2 2 2 10 10 10 2 2 2 2 2 2 8 2 10 2 2 2
left_child=2 5 6 7 29 10 -1 12 -7 50 17 19 26 14 45 16 31 -2 27 58 36 46 33 48 44 39 34 -13 -29 -4 -31 43 -12 60 -3 -34 -16 -25 -22 54 -11 -24 -26 -14 -18 -9 47 -20 -19 -10 -8 52 -27 -42 59 -41 -28 -55 -5 -21 -6 62 -30
right_child=1 3 4 11 22 8 9 13 49 40 32 18 15 -15 20 -17 24 23 21 25 38 -23 41 37 42 51 56 28 61 30 -32 -33 35 -35 -36 -37 -38 -39 -40 55 53 -43 -44 -45 -46 -47 -48 -49 -50 -51 -52 -53 -54 57 -56 -57 -58 -59 -60 -61 -62 -63 -64
leaf_value=0.063333505172634655 -0.061653388466336501 -0.003699885138662581 0.027877102871288237 -0.015738993464277946 0.014547153268792324 -0.029422228586665551 0.06093695724223 -0.02335482351874188 -0.0077444504189107992 0.03800865435197142 -0.048282239725131508 0.0066818481148142542 -0.028627343704641983 0.0003557964979670031 -0.059327349659434453 0.0072038129300909378 -0.01389617089594572 -0.046548888586221387 0.021840223001709517 -0.0027307888649254933 -0.034612106721083225 0.0018303725280251937 0.017047125661599955 -0.061376210088083 -0.027856548645610626 0.0046421486097701801 -0.0006305767109400785 -0.032505547933599603 -0.0013270152544780955 0.037317053156618714 0.027752464916395304 -0.037170054336825263 -0.033684034516796635 0.025678244691757231 -0.020362675376925637 -0.043203462938747245 -0.038977802554547636 -0.051723168367254407 -0.023246637390436659 -0.022739918513392306 0.069255795991541538 0.0097421936542956781 -0.013847406623697118 -0.016546488652216005 -0.00068181958109996487 -0.0087290933642559746 0.043545414913088221 0.0092386400071081884 -0.034952171478480724 0.054743538001486028 0.02799062407680988 0.0068862290954579634 -0.0083892014868633819 0.012099705278132117 0.013612533964751292 -0.010940288003497948 0.016025989509928746 0.045278553846375573 -0.049157830991316515 -0.014632680524950004 0.024957408290029612 0.0033139471080900194 -0.015010342385858964
leaf_weight=10620.3229554235 5897.5142670813948 1947.5110159073956 9632.3203016752377 195.17108662123792 4510.1072551729158 1660.67648734455 6345.3301320029423 1790.8453198634088 51.023214305983856 4813.6183280479163 5220.1025601925794 2246.7560905604623 3424.5199200005736 870.17844083486125 577.53493674565107 1004.8926950218156 2380.757343277568 5365.4021094823256 1594.640204127878 2611.7588676034939 3084.3761195605621 6643.7919683970977 11671.356826338917 2604.1665838628542 2093.6063410697971 1868.3510190288071 2074.6877092407085 426.22462515369989 1748.2841019500047 13548.171910203993 5165.2712658410892 2424.2854660412995 3929.7234993502498 8506.7035082052462 1486.3787942738272 7267.9040785206016 5104.1432405775413 17424.281947554788 3370.4399916924303 1592.2017754695844 260.15784756094217 5273.6580599434674 1744.3370609435951 2038.541430056328 1799.2149122986011 1542.0009597302414 189.68915627803653 3975.785060594324 1614.328797789989 243.73060078173876 152.34266078658402 1782.5982361002825 3607.0362354265526 130.39519187062979 371.34365480905399 3139.3186094411649 707.55757654737681 13084.412941018119 355.35166742606089 1593.3884015915683 1804.2635837076232 1493.78495742206 1768.8184686950408
leaf_count=83875 1186840 130625 62574 13666 50856 49702 20291 245960 2669 32010 688443 39222 310814 8834 68335 10515 124790 813059 22146 100681 269517 112050 35237 457293 121188 50655 112516 17686 46858 47650 11850 178228 428812 42838 152351 942622 456486 2623439 215636 98561 543 20924 66533 119976 54557 147984 1235 76572 188786 1955 467 55507 139240 273 6521 112482 16237 41553 32473 63541 15465 26521 47833
internal_value=0 -0.0262129 0.0351284 -0.0115917 0.0249013 -0.0480738 0.0524916 -0.0210856 -0.0183659 0.0478461 -0.0492516 -0.00152078 -0.0155176 -0.0289663 -0.0306157 -0.019599 -0.0212924 -0.0526004 0.0034457 -0.0073494 -0.0344679 0.00741531 0.0182401 -0.0506236 -0.0145655 -0.00635374 -0.0044145 -0.00296237 -0.00694761 0.0323663 0.034677 -0.0281307 -0.0425397 0.0222033 -0.0109125 -0.0398627 -0.0410463 -0.0529783 -0.0286775 -0.0103077 0.0434696 0.0147737 -0.0214894 -0.0241194 -0.00820822 -0.016588 0.0138571 0.0128461 -0.0438667 0.0439266 0.0601645 -0.00128295 -0.00394255 0.0454204 -0.00554853 -0.014911 0.00360538 0.0449512 -0.0373102 -0.00724058 0.0175218 -0.00477365 -0.00820862
internal_weight=0 127949 95518.4 76670.1 60111.9 51278.9 35406.6 39465.8 1955.43 24786.3 49323.4 37204.3 23126.3 16339.5 15469.3 16910.2 15905.3 32905.7 20087.8 17116.5 12136.5 12403.9 31766.1 27008.2 8017.92 16566 6216.14 7683.87 5437.11 28345.8 18713.4 7887.35 16417.7 14821.1 3433.89 11197.6 5681.68 20028.4 6454.82 9308.01 18288.6 16945 3837.94 5463.06 4179.97 3332.85 5760.11 5570.43 6979.73 294.754 6497.67 7257.99 5475.39 13475 4576.49 4731.52 2782.25 13214.8 550.523 4205.15 6314.37 5010.89 3517.1
internal_count=11724558 11258152 466406 3874532 287394 7383620 179012 2811082 54326 95137 7329294 1063450 1398330 1412752 1403918 986601 976086 5269417 390123 673327 1009974 212003 165320 4082577 367068 627188 411729 178120 138898 122074 59500 609018 2059877 109159 282976 1371434 524821 3080732 485153 381786 74379 56161 187721 430790 179347 393944 99953 98718 1001845 4624 20758 245402 189895 42369 170743 211043 128753 41826 46139 164222 66321 121212 94691
is_linear=0
shrinkage=0.05


Tree=11
num_leaves=64
num_cat=0
split_feature=1 1 16 1 16 3 16 16 4 13 16 14 16 13 4 4 13 16 1 1 3 16 13 16 1 1 16 1 0 1 1 10 4 14 1 16 16 4 2 10 14 13 13 2 8 13 10 1 11 4 7 16 16 3 11 0 6 18 13 19 5 3 2
split_gain=72816 14523.8 5609.65 2703.41 1239.97 674.475 588.583 576.904 436.45 435.59 315.394 304.696 297.684 210.389 204.09 197.607 186.941 172.896 247.677 166.634 143.445 139.314 137.2 134.836 134.058 194.648 128.173 164.15 119.014 116.738 119.725 111.004 108.255 105.198 101.399 101.115 100.627 98.8449 95.6026 94.404 94.0242 92.7136 88.5246 87.4534 84.5015 81.1166 76.7361 76.6829 75.9467 75.1206 75.0139 71.1199 69.9906 69.0883 74.6068 76.1008 69.0472 103.63 66.8653 66.2539 81.9836 62.9543 62.8784
threshold=1.0000000180025095e-35 1.0003706812858584 5.5000000000000009 3.0157150030136113 1.5000000000000002 312.50000000000006 23.500000000000004 9.5000000000000018 0.18425417691469195 0.027674116194248203 1.5000000000000002 0.052652267739176757 2.5000000000000004 0.017392585985362533 0.14591954648494723 0.027002223767340187 0.013082753401249649 3.5000000000000004 8.0291323661804217 0.90561237931251537 1856.5000000000002 3.5000000000000004 0.10210549458861352 15.500000000000002 1.9930925965309145 2.001110434532166 2.5000000000000004 6.708158254623414 633816.00000000012 2.001110434532166 1.9930925965309145 1505.5000000000002 0.045697145164012916 0.1429991498589516 1.5118445158004763 30.500000000000004 1.5000000000000002 0.076619528234004988 8.5000000000000018 19926.000000000004 0.013063271064311268 0.069876238703727736 0.66927084326744091 821.50000000000011 0.55121138691902172 0.1336871534585953 194.50000000000003 0.99827539920806896 225.50000000000003 0.080277815461158766 1.0007861852645876 6.5000000000000009 11.500000000000002 105.50000000000001 3.5000000000000004 1113052.0000000002 2.1245530843734746 9.9852943420410174 0.14297070354223254 1.9420167803764345 14.629696846008303 2624.5000000000005 2802.5000000000005
decision_type=2 2 2 2 2 2 2 2 2 2 2 2 2 2 2 2 2 2 2 2 2 2 2 2 2 2 2 2 2 2 2 10 2 2 2 2 2 2 2 8 2 2 2 2 8 2 10 2 10 2 2 2 2 2 8 2 10 2 2 2 2 2 2
left_child=2 6 4 5 -1 10 9 44 13 37 -3 16 -6 40 45 -11 -7 41 20 48 -19 50 28 -9 -18 -26 56 31 -17 30 -16 -28 -14 -25 -23 -21 -27 -2 -24 -35 43 62 -34 -5 -4 -12 -30 -37 -8 -46 -13 -32 -31 54 -39 -56 57 -10 -58 60 -52 -38 -15
right_child=1 3 7 8 12 11 19 23 26 15 14 21 32 17 29 22 24 18 -20 35 -22 34 38 33 25 36 27 -29 46 52 51 -33 42 39 -36 47 61 53 -40 -41 -42 -43 -44 -45 49 -47 -48 -49 -50 -51 59 -53 -54 -55 55 -57 58 -59 -60 -61 -62 -63 -64
leaf_value=0.061952643702026217 -0.058785135029557727 0.00071110424583048872 0.05906820288951882 -0.017481099963809709 0.048446128141182744 -0.053324833363966075 -0.03668876615166354 0.020861492947591348 0.014458430910413145 -0.055310192267340366 -0.025470511661278922 0.064801625359411891 0.029260464105162694 0.0035540770392516012 0.015204720990095755 -0.048467956996712892 -0.0025622278245351704 -0.007749879286008312 0.0034154382682877482 -0.030824153968315317 -0.020651467755819802 0.0011593810963258858 -0.057994838635042338 0.012235089135048553 -0.038208789271465593 -0.010932935228118111 0.0015684369983152598 0.010387745134467229 -0.03450808510273283 4.7529028006448159e-05 -0.012900471226897574 -0.012476168208913868 0.039269675457597235 0.02107457509944171 -0.027437832912237808 -0.0083437428328854979 -0.023656102442743229 -0.053580039129766215 -0.031645360533936337 0.066325396871449172 -0.0071475710737179485 0.010221182836377062 0.058114682559290587 -0.049820823961178234 0.022812942550890513 -0.0063478071318168175 -0.043246132017846203 0.030758100950185264 -0.0074866371376062189 0.030324119862232164 -0.038688650067114187 -0.025864837173410621 -0.017004969265416579 -0.054724004549334515 -0.046114603697051712 -0.026298375467932435 0.01213582722657296 -0.069806120352704421 0.038469223479446583 -0.0098145054849983638 -0.013325140290124528 -0.036688468325474982 -0.006700349129462985
leaf_weight=9846.0270122378133 6847.90538590285 3281.4861747506075 227.14277728646994 376.31633359310217 11498.735563830938 942.0389298805967 1030.0278138179565 14167.573299339972 87.47351884515956 3468.8026816477068 5362.1710541471839 30.470471296459436 2728.9165372271091 2648.6348614357412 281.51381481252611 9383.4958277286496 424.61782817007042 5467.0567140296334 3168.4737313607475 193.40645440574735 3555.6912853805115 331.79225969640538 380.05088050174527 12853.680638353806 5076.8482992767822 1087.2495821211487 4898.8495924021117 3890.5135036825668 3288.8806181073887 2499.2483080844395 2472.2904305171687 1973.7089796605287 20003.496766135097 2573.7125244894996 4713.61879912531 244.26186952297576 2770.2145512782736 1787.4416482164524 3653.7166707292199 120.6633829921484 449.30664249369875 1980.9860877241008 643.21556228026748 470.30690230871551 4497.6693359301426 618.53284421458375 10643.872892796411 257.63264788663946 284.04759208462201 12808.289906674065 520.67207605973817 1849.0415279973531 792.55163639341481 5060.9607632990228 1543.9646654783282 706.0498138864059 3664.7352237193845 62.597344797104597 258.03422463685274 3018.5716853337362 820.93820634181611 1392.4383401667001 3431.9707911713049
leaf_count=83781 1512073 239659 579 18407 59206 129608 34169 66504 1154 852086 371315 223 26802 105582 2102 1339270 4925 178246 65183 10095 150611 3019 60025 62991 576224 116662 81192 49823 380550 70053 121331 50629 77753 9695 333878 6909 190361 297426 400889 219 18806 66274 1678 46190 32730 28864 1444105 5375 6329 44233 35796 107293 31079 736021 211700 85736 71364 2688 2744 257715 75540 116233 154825
internal_value=0 -0.0251802 0.0335907 -0.0113193 0.0462835 -0.0205937 -0.0464005 0.021577 -0.0015601 -0.0475391 -0.013229 -0.0265738 0.0418597 -0.00610395 -0.0165258 -0.044068 -0.0319674 -0.00485421 -0.00861091 -0.0199029 -0.0128341 -0.0198898 -0.0426421 0.0173332 -0.0300961 -0.0312282 0.00503972 0.00218087 -0.0441151 -0.0112478 -0.0163895 -0.00246499 0.0386197 0.0141181 -0.0255572 -0.000108381 -0.0244777 -0.0542476 -0.0341279 0.0231011 -0.0256348 0.000826893 0.0398568 -0.0354461 0.0287697 -0.0234928 -0.0411835 0.011728 -0.0303765 0.028372 -0.0133772 -0.0184478 -0.00405812 -0.0508324 -0.0459543 -0.0398963 0.0125947 -0.0206899 0.013868 -0.0139235 -0.0231686 -0.0280155 -0.00223365
internal_weight=0 123445 91969.1 74671 44720.4 38286.3 48774.5 47248.7 36384.7 46765.1 17156.8 21129.5 34874.4 21548.7 13875.3 30818.8 11693.4 20252.8 12191.2 2009.38 9022.75 9436.06 27350 29715.6 10751.4 10326.8 14835.9 10763.1 23316.2 7894.65 4602.85 6872.56 23375.6 15548.1 5045.41 695.301 5249.9 15946.3 4033.77 2694.38 1295.93 8061.59 20646.7 846.623 17533.1 5980.7 13932.8 501.895 1314.08 17306 4390.65 4321.33 3291.8 9098.42 4037.46 2250.01 4072.84 150.071 3922.77 4360.18 1341.61 4162.65 6080.61
internal_count=11724527 11258356 466171 3875598 249220 2811880 7382758 216951 1063718 7319881 971696 1840184 165439 804124 732037 4476925 1134013 720721 394040 62877 328857 706171 3624839 139409 1004405 999480 259594 181644 3163925 331858 230726 131821 106233 72905 336897 22379 423256 2842956 460914 9914 83403 326681 79431 64597 77542 400179 1824655 12284 40498 76963 369274 228624 101132 1330883 594862 297436 77950 3842 74108 369051 111336 306594 260407
is_linear=0
shrinkage=0.05


Tree=12
num_leaves=64
num_cat=0
split_feature=1 1 20 1 16 20 10 13 16 20 20 4 16 13 1 14 4 13 20 13 20 16 1 20 1 20 20 1 20 13 0 1 20 1 1 16 20 4 1 1 13 3 10 3 4 0 4 20 4 1 20 14 10 9 14 4 2 12 5 7 4 3 15
split_gain=64897.6 13584.7 5732.4 2378.61 1077.47 756.365 706.984 520.816 449.642 365.181 397.172 357.825 349.1 259.428 249.028 197.991 170.908 154.802 149.139 142.372 140.59 205.62 139.951 137.83 133.257 128.727 132.75 114.836 112.255 106.312 106.054 105.12 247.967 108.601 109.838 100.303 99.1794 96.989 95.7871 94.8796 88.7781 83.9862 83.5416 81.0367 78.3804 87.4806 74.7575 72.7375 70.9693 69.4426 67.1703 67.1909 66.9339 72.2718 66.4218 66.0709 63.5456 60.957 60.7128 60.6683 60.3876 59.3009 58.5768
threshold=1.0000000180025095e-35 1.0174517631530764 3.5000000000000004 3.0157150030136113 1.5000000000000002 1.5000000000000002 274.50000000000006 0.026126542128622535 10.500000000000002 19.500000000000004 1.5000000000000002 0.26473219692707067 21.500000000000004 0.05489055439829827 2.001110434532166 0.038393147289752967 0.027002223767340187 0.072179317474365248 1.5000000000000002 0.019585175439715389 20.500000000000004 6.5000000000000009 6.708158254623414 8.5000000000000018 2.2892824411392216 1.5000000000000002 18.500000000000004 5.0057406425476083 3.5000000000000004 0.0056525703985244044 633816.00000000012 0.88454166054725658 15.500000000000002 0.99827539920806896 1.0003706812858584 9.5000000000000018 2.5000000000000004 0.090927798300981535 2.7304111719131474 2.001110434532166 0.0064716250635683545 1714.5000000000002 6660.5000000000009 678.50000000000011 0.13794323056936267 1089350.0000000002 0.18109605461359027 4.5000000000000009 0.15263308584690097 6.708158254623414 17.500000000000004 0.056916823610663421 2624.5000000000005 1.0014479756355288 0.20042735338211062 0.24571555852890017 8.5000000000000018 3.5000000000000004 14.83195734024048 1.0007861852645876 0.028734698891639713 1379.5000000000002 0.023278391920030121
decision_type=2 2 10 2 2 8 10 2 2 10 10 2 2 2 2 2 2 2 10 2 8 2 2 10 2 8 10 2 10 2 2 2 10 2 2 2 8 2 2 2 2 2 10 2 2 2 2 10 2 2 10 2 10 2 2 2 2 10 2 2 2 2 2
left_child=2 7 4 6 -1 -6 14 37 47 10 19 13 16 20 25 29 -9 30 48 -8 21 40 43 59 61 -3 44 -23 -16 -12 -18 57 -33 -34 -35 58 60 -2 54 -31 -5 -26 -29 -20 -27 -46 -32 -4 -15 52 51 -39 -42 -54 -21 62 -19 -14 -13 -10 -7 -17 -25
right_child=1 3 8 11 5 36 9 12 23 -11 15 35 31 18 28 24 17 56 22 38 -22 27 -24 55 41 26 -28 42 -30 39 46 32 33 34 -36 -37 -38 50 -40 -41 49 -43 -44 -45 45 -47 -48 -49 -50 -51 -52 -53 53 -55 -56 -57 -58 -59 -60 -61 -62 -63 -64
leaf_value=0.060766799672845255 -0.057214322750994466 -0.0045289653958892539 0.029497482481073735 -0.031586760495110298 0.058204405719484813 0.029546636974661172 -0.039800021357962068 -0.053543270863821414 0.064904152028743264 0.0029004369240210864 -0.064194332086153702 0.0063494730320299859 -0.044569415734043639 0.0058427713774425695 0.0050621383895416167 -0.027238964066147286 -0.048503117716381404 -0.056172932409337656 0.00072608336129811001 -0.021749792926030867 0.014139381245764006 -0.024434768326664705 0.0065119880833556772 0.0094186341229248547 -0.014933692969184884 -0.028251095399979182 0.0050233585608426392 -0.005124705883999936 -0.010185069514829941 -0.041796225437183018 -0.043696889265895211 -0.057108475611328535 -0.0084503039947812063 0.052278358528696438 -0.037585750500855303 -0.00034376708917337575 0.03451649819103627 -0.050865509802340871 -0.0078456405412249113 -0.028998267426974506 -0.0013658340908046511 -0.028332930496086373 -0.022868726303800432 -0.011813235591067499 -0.022505042077658261 -0.0060574995008933399 -0.035046543469210656 0.023357824784632771 0.022930693608630044 0.0057307779798543394 -0.01079263532908383 -0.03140109481384884 -0.033286576840985391 -0.0085050255980336758 0.015923216766406543 0.018793687990614445 -0.034571927721337485 -0.020721286671765364 0.016590690526346222 0.020445128493533974 0.041350203546282494 -0.038554493423319056 0.017003041006221502
leaf_weight=9111.0412238058634 7002.3346798941493 2060.8454758925363 7835.0364024238661 295.70801825681701 5595.8242029915564 1163.9529824098572 566.88813191093504 3321.4399587757653 77.405228221789002 1160.4898343398236 344.67331028380431 2932.2076668329537 437.73573498497717 1614.1825561872683 2917.0513446775731 2966.0244948142208 7639.8802918276051 356.88686832366511 2236.6180694226641 2835.9885468836874 676.40239876927808 2578.7635927197989 3399.0469107590616 9574.1862856894732 3084.2061878060922 2312.4492312523071 529.91551387635991 2285.24004608416 2059.4077822591644 2997.110523139243 7694.0450177856255 175.85542939370498 306.26921161264181 195.4840879063122 41.163265545852482 2648.0030230872799 11524.491355050821 6859.7688493324677 3346.144863468362 2802.2755907567916 4060.9326452694368 1883.7421244054567 934.64673767844215 3039.4114656543825 2162.7414133750135 1291.0416338886134 3698.1011952089611 12552.758533897577 974.4143448388204 1595.1239443758968 113.18101826915517 474.00847049907316 323.88155461498536 3211.0328702995321 122.03586736880243 3982.0603796346113 7401.0051008376759 690.82420881697908 2857.4055655444972 8835.253307162784 15692.561601439491 1899.2670667627826 3467.9149173479527
leaf_count=83950 1601558 147213 37481 25787 20553 12275 85738 865920 161 11400 49933 43458 16943 64405 101935 256233 1172166 60050 57867 333393 4429 117091 68844 63689 182089 195043 7015 68960 84004 341194 1194075 13166 9147 1848 768 45387 51573 1064613 242521 231678 147889 150317 34942 119532 123496 62542 396483 74725 19004 40338 3027 59548 21601 145005 7093 13367 905358 18663 38866 29559 62024 199404 16838
internal_value=0 -0.0239604 0.0323711 -0.0105146 0.0454981 0.0414038 -0.0193344 -0.0451123 0.0201612 -0.0244614 -0.0258511 -0.00127939 -0.0415507 -0.00406756 -0.0101026 -0.0301742 -0.0428451 -0.0415187 0.00174264 -0.0157987 -0.00816763 -0.00915475 -0.00140019 0.0157938 -0.0257745 -0.0153756 -0.0189259 -0.0165723 -0.00124761 -0.0372156 -0.0439454 -0.0204527 -0.00550727 0.0112068 0.0366471 0.00771711 0.0380912 -0.0529898 -0.0136404 -0.0356122 -0.00462085 -0.0200144 -0.0102753 -0.00649756 -0.0211268 -0.0163569 -0.0408888 0.0257173 0.0122751 -0.00375326 -0.0490175 -0.0496075 -0.0057449 -0.0107756 -0.0201956 0.0131565 -0.0355656 -0.0299713 0.0114039 0.0208312 0.0405352 -0.0316562 0.0114353
internal_weight=0 119413 89412.5 73005.3 43087.9 33976.8 37342.3 46408 46324.6 24008.8 22848.4 35663 31958.7 27225.4 13333.5 15977.3 30111.4 26789.9 11263.7 6871.06 15961.7 15285.3 8675.08 25936.8 9833.24 8356.99 6296.15 5798.65 4976.46 6144.06 19032 1847.33 718.772 542.917 236.647 8437.62 28381 14449.3 6304.17 5799.39 9486.68 4967.95 3219.89 5276.03 5766.23 3453.78 11392.1 20387.8 2588.6 9190.97 7446.96 7333.78 7595.85 3534.91 2958.02 17024.2 7757.89 1128.56 5789.61 8912.66 16856.5 4865.29 13042.1
internal_count=11725174 11258979 466195 3875646 230375 146425 2812241 7383333 235820 2090993 2079593 1063405 4654587 935694 721248 1410848 4594052 3728132 329652 668745 606042 601613 246243 123614 788043 535309 388096 220993 185939 622805 2762724 60535 24929 11763 2616 127711 125872 2728746 583007 572872 380620 332406 103902 177399 381081 186038 1590558 112206 83409 354833 1127188 1124161 314495 166606 340486 93894 965408 35606 82324 29720 74299 455637 80527
is_linear=0
shrinkage=0.05


Tree=13
num_leaves=64
num_cat=0
split_feature=1 20 14 1 1 1 20 20 1 1 10 10 20 1 10 3 3 11 1 20 1 9 16 16 3 16 20 16 21 14 20 16 4 0 4 3 0 14 20 4 16 16 3 20 17 3 21 17 14 3 20 20 4 1 1 9 4 20 16 7 4 16 15
split_gain=58307.5 5429.43 3165.54 6464.48 3381.93 1116.43 1088.67 993.733 548.651 348.629 366.205 318.34 299.366 284.095 302.426 260.145 237.091 223.338 202.118 161.576 220.387 161.016 155.016 151.763 141.189 135.317 128.509 112.501 112.265 114.415 101.052 124.599 99.4428 95.4173 94.2166 89.1325 98.4025 86.2446 86.2396 79.514 78.0516 76.9117 75.2619 73.186 72.7471 71.8188 67.9211 67.8201 67.3084 62.4048 62.3961 105.331 60.3129 85.8882 82.3513 55.9566 55.7157 55.3518 60.6962 53.6289 53.4654 52.2782 49.7533
threshold=1.0000000180025095e-35 2.5000000000000004 0.020707521587610248 2.001110434532166 1.0174517631530764 1.0003706812858584 1.5000000000000002 5.5000000000000009 3.0157150030136113 2.001110434532166 682.50000000000011 695.50000000000011 17.500000000000004 1.9930925965309145 199.50000000000003 1189.5000000000002 128.50000000000003 45.500000000000007 0.98792266845703136 1.5000000000000002 6.0311872959136972 1.0013946890830996 4.5000000000000009 3.5000000000000004 263.50000000000006 5.5000000000000009 11.500000000000002 4.5000000000000009 1.5000000000000002 0.088025156408548369 19.500000000000004 4.5000000000000009 0.18979676812887195 641101.50000000012 0.061058619990944869 135.50000000000003 372153.50000000006 0.39009661972522741 19.500000000000004 0.24571555852890017 2.5000000000000004 3.5000000000000004 2184.0000000000005 20.500000000000004 0.19264507293701175 1379.5000000000002 1.5000000000000002 0.44281046092510229 0.14716711640357974 81.500000000000014 4.5000000000000009 19.500000000000004 0.13423904031515124 5.7029833793640146 9.9662795066833514 1.000994145870209 0.075006604194641127 20.500000000000004 8.5000000000000018 1.0007861852645876 0.28576420247554785 8.5000000000000018 0.015683379955589775
decision_type=2 10 2 2 2 2 10 10 2 2 10 10 10 2 10 2 2 8 2 10 2 2 2 2 2 2 10 2 10 2 10 2 2 2 2 2 2 2 8 2 2 2 2 10 2 2 10 2 2 2 10 10 2 2 2 2 2 10 2 2 2 2 2
left_child=1 6 4 5 17 12 47 28 11 16 39 27 24 44 25 22 41 35 -14 37 43 -12 60 48 33 -15 34 49 29 32 31 -13 -3 -4 -9 36 -2 62 -18 57 -26 -6 -23 61 56 -25 -36 -1 -16 -5 -22 -52 53 -24 -54 -38 -7 58 -11 -8 -10 -21 -17
right_child=2 7 3 8 9 13 59 26 15 10 21 30 18 14 23 19 38 -19 -20 20 50 42 52 45 40 -27 -28 -29 -30 -31 -32 -33 -34 -35 46 -37 55 -39 -40 -41 -42 -43 -44 -45 -46 -47 -48 -49 -50 -51 51 -53 54 -55 -56 -57 -58 -59 -60 -61 -62 -63 -64
