tree
version=v3
num_class=1
num_tree_per_iteration=1
label_index=0
max_feature_idx=22
objective=lambdarank
feature_names=candidates candidate_scores aid_count aid_session_nunique aid_type_mean aid_hour_mean aid_hour_std aid_day_of_week_mean aid_day_of_week_std aid_ts_ratio aid_click_count aid_cart_count aid_order_count click_last_week_occurrence_ratio cart_last_week_occurrence_ratio order_last_week_occurrence_ratio session_count session_type_mean session_hour_mean session_day_of_week_mean session_click_aid_nunique session_cart_aid_nunique session_order_aid_nunique
feature_infos=[3:1855594] [0:34] [1:99786] [1:56024] [0:2] [0:23] [0:16.263456344604492] [0:6] [0:4.242640495300293] [1:1.0014579296112061] [1:94324] [1:11486] [1:3895] [0:1] [0:1] [0:1] [1:465] [0:2] [0:23] [0:6] [1:465] [1:71] [1:28]
tree_sizes=7256 7256 7276 7275 7256 7262 7262 7280 7251 7273 7256 7262 7287 7262 7255 7276 7260 7264 7239 7251 7255 7306 7268 7298 7286 7244 7267 7284 7295 7269 7280 7281 7318 7289 7275 7270 7270 7232 7292 7328 7253 7264 7264 7281 7244 7266 7263 7271 7286 7293 7262 7294 7227 7266 7290 7292 7256 7266 7236 7247 7279 7235 7242 7236 7269 7277 7269 7277 7229 7237 7272 7251 7325 7263 7203 7325 7237 7258 7165 7231 7242 7232 7172 7257 7253 7249 7231 7195 7234 7238 7275 7205 7265 7194 7213 7207 7194 7166 7168 7320 7175 7157 7115 7198 7261 7195 7156 7256 7212 7252 7224 7200 7166 7239 7247 7217 7215 7130 7161 7236 7148 7165 7230 7190 7117 7170 7166 7172 7232 7180 7229 7094 7172 7210 7228 7146 7242 7124 7120 7174 7132 7077 7219 7142 7248 7220 7167 7209 7150 7134 7116 7148 7126 7189 7185 7082 7261 7089 7089 7271 7198 7190 7192 7219 7183 7244 7133 7195 7138 7075 7196 7116 7056 7188 7235 7081 7082 7067 7152 7200 7197 7108 7096 7212 7254 7190 7052 7191 7116 7204 7141 7014 7141 7252 7109 7177 7268 7017 7175 7122 7235 7144 7230 7085 7103 7102 7102 7116 7154 7056 7127 7101 7132 7128 7082 7179 7084 7157 7073 7130 7058 7114 7231 7074 7194 7118 7099 7215 7162 7131 7124 7097 7234 7018 7037 7187 7053 7079 7088 7221 7080 7024 7142 7066 7217 7227 7209 7014 7073 6990 7186 7208 7001 7183 7148 7183 7134 7080 7074 7089 7221 7166 7078 7206 7058 7220 7052 7162 7241 7125 7136 7092 7136 7194 7226 7078 7224 7181 7144 7180 7131 7072 7139 7035 7022 7080 7151 7085 7047 7083 7228 7172 7017 7057 7045 7084 7037 7024 7009 7039 7072 6990 7061 7108 7178 7101 7051 7031 7150 7149 7079 7164 7188 7136 7042 7089 7041 7191 7110 7043 7157 7114 7118 7106 7078 7125 7168 7182 7075 7054 7046 7053 7077 7154 7159 7078 7142 7143 7129 7010 7065 7148 7016 6971 7186 7041 7102 7058 7070 7160 7125 7039 7050 7013 7011 7279 7083 7149 7113 7090 7067 7016 7048 7098 7080 7029 7151 7171 7037 7039 7101 7054 7115 7128 7145 7131 7108 7137 7097 7095 7130 7129 7171 7000 7110 7084 7163 7054 7134 7155 7141 7094 7135 7066 7060 7103 7126 7079 7045 7108

Tree=0
num_leaves=64
num_cat=0
split_feature=13 1 1 1 4 1 1 1 1 10 20 10 1 20 1 1 10 3 1 16 13 16 16 8 16 1 1 20 14 20 10 1 14 16 20 4 20 3 1 10 20 0 4 14 11 20 1 16 20 20 3 20 5 20 20 1 2 10 16 10 10 16 20
split_gain=23842.2 145772 9435.89 2823.3 1994.69 18884.5 2807.26 2473.14 2250.89 956.783 900.108 637.964 613.984 564.593 539.768 539.326 517.393 486.645 384.701 379.99 337.195 326.176 292.055 274.222 267.903 296.606 263.609 180.648 179.768 168.545 162.919 155.118 150.391 141.713 139.794 128.18 122.603 112.135 204.077 101.7 98.2677 92.1055 90.0224 88.3484 86.9978 84.7983 83.0458 76.8043 67.8156 67.5102 65.8525 65.5295 82.4581 69.2112 65.3008 137.674 73.6712 61.1253 60.753 58.6618 57.854 56.7608 55.4084
threshold=0.017860610969364647 1.0000000180025095e-35 1.0000000180025095e-35 1.0005486607551577 0.059651875868439681 2.004245519638062 2.004245519638062 1.0005486607551577 3.0085846185684209 619.50000000000011 6.5000000000000009 322.50000000000006 1.9975603222846987 15.500000000000002 1.0005486607551577 0.99655669927597057 1281.5000000000002 264.50000000000006 2.5306770801544194 6.5000000000000009 0.0064963200129568585 8.5000000000000018 5.5000000000000009 1.0000000180025095e-35 7.5000000000000009 9.0022220611572283 3.0085846185684209 3.5000000000000004 0.22287581861019137 2.5000000000000004 151.50000000000003 6.9956457614898691 0.094380114227533354 8.5000000000000018 19.500000000000004 0.19409411400556567 2.5000000000000004 637.50000000000011 3.0085846185684209 1949.5000000000002 4.5000000000000009 644599.50000000012 0.35726341605186468 0.018738295882940296 213.50000000000003 10.500000000000002 6.9956457614898691 1.5000000000000002 19.500000000000004 19.500000000000004 98.500000000000014 5.5000000000000009 13.352012634277346 19.500000000000004 18.500000000000004 0.99655669927597057 10.500000000000002 493.50000000000006 1.5000000000000002 136.50000000000003 78.500000000000014 12.500000000000002 7.5000000000000009
decision_type=2 2 2 2 2 2 2 2 2 10 10 10 2 10 2 2 10 2 2 2 2 2 2 10 2 2 2 10 2 10 10 2 2 2 10 2 10 2 2 10 10 2 2 2 8 10 2 2 10 10 2 10 2 10 10 2 2 10 2 10 10 2 10
left_child=2 10 -1 44 6 7 14 13 9 19 29 18 -9 32 54 -15 21 22 36 50 -13 42 60 -18 35 -26 -22 39 33 -2 -16 -23 41 -19 61 46 -5 -8 -39 -11 -20 -6 -10 -28 59 -12 47 -25 -32 -21 -7 52 -40 -53 56 -56 -3 -43 -41 -4 -14 -29 -24
right_child=1 4 3 11 5 8 37 12 16 27 45 20 17 15 30 -17 23 28 40 49 26 31 62 24 25 -27 43 34 -30 -31 48 -33 -34 -35 -36 -37 -38 38 51 58 -42 57 -44 -45 -46 -47 -48 -49 -50 -51 -52 53 -54 -55 55 -57 -58 -59 -60 -61 -62 -63 -64
leaf_value=0.086594002253039551 0.097193781307593041 -0.095408133993667266 -0.080090161614122607 -0.016382166905516513 -0.081506695580920663 0.033924597727554524 0.00043356425575905277 0.026184849316931543 0.033145884452094522 -0.013257321886192986 0.07837646978945545 -0.087047129667132711 0.0022491020692037068 -0.047043813915917963 -0.022479239075369112 0.077000713268760762 0.090768177129853661 -0.048109982969042411 0.021769932154275938 -0.021693766352421373 -0.062215916718083498 0.0020081791634965441 -0.033914032256279002 0.015643131431092687 -0.018211677116839343 0.020437069290198395 -0.032477125404171463 -0.041891297754013866 0.017609513345297464 0.089154284169591758 -0.061189530166086505 0.029560277142899966 -0.064970821650242941 -0.066835113604912566 0.043059008911902674 0.026074320710537242 -0.050880272426666998 -0.044290301610695325 -0.087906587201333014 -0.019642966866535501 -0.012445451048911566 -0.0685582803851362 0.053723248449149753 0.008083796837101075 -0.095369911045976558 0.066573764611645644 0.022903026279417635 -0.0038853809973837701 -0.0063013545367986562 0.048608311430195131 0.01143482735161459 -0.029614824459668954 0.0039490952305381933 0.047833577607497728 -0.0681893127708873 0.06819991958830543 -0.080686435682983518 -0.077103362627390037 -0.043859447120427185 -0.090602207588478673 -0.01850176705444051 -0.059671918993156936 -0.053097832735384903
leaf_weight=998.62957735307282 17889.5301847019 1035.5105336557317 2787.1394531643891 418.90289225647575 6064.6212025101122 467.01572089450201 811.59303286109935 337.47565670483164 2421.3661370213667 845.94803877786035 3461.3308475655213 664.63644549678429 492.51947950373869 605.2514644114417 384.96822502088617 102.46060113795102 94.959271576080937 3162.7148597924097 492.37615910937893 1131.6675061526184 823.35876075338456 1353.6514712104108 814.08278308107401 754.53573392576072 1828.985394964955 681.35051905439468 390.73248927286477 961.1120420115185 89.091941701597534 10257.116694449505 1415.4920109796221 820.49110064833076 3296.5397636975104 1484.7699716131319 41.103895821492188 1285.7777383729117 668.59991062359768 650.71474038384622 25.370942497858778 384.01623852923512 365.71707034626161 3655.121788024524 680.99286245234543 204.52661398792407 3362.4899764497241 2715.9129830147722 648.45337343669962 1513.2354544893606 58.604466121294536 35.211124370922334 1074.1089970850153 409.68142303774948 660.25684551137965 31.031364482827485 216.66754596942337 20.230067881639116 4738.761149791826 4896.2173089632706 795.49986478200299 2533.5609509935603 1056.2293629249616 842.1128454048303 700.08893785564578
leaf_count=15213 173432 306045 620264 68025 1236906 35175 118311 10480 149286 99148 66716 116042 61402 31946 63480 1683 695 509003 39651 82566 137884 70752 73613 95138 121239 29067 42287 118961 6262 142973 380386 27415 572338 149124 945 63162 82792 162800 1779 68002 26150 669573 19475 15387 946309 67982 40093 130829 3180 802 102881 52994 110024 649 16502 475 1475987 892103 93430 611698 152395 73958 70959
internal_value=0 0.00937082 -0.0613978 -0.0730237 -0.0404464 -0.0359131 -0.0601327 -0.0628383 0.00269258 -0.0208435 0.0904709 -0.0384305 -0.0398433 -0.0728871 -0.074989 -0.029085 0.0155044 -0.0427002 -0.0178421 0.00195236 -0.0576585 0.0272559 -0.027169 0.00639554 0.00520192 -0.00772171 -0.0438896 -0.0367956 -0.0527436 0.0942641 -0.0514433 0.012406 -0.0746177 -0.0540923 -0.0481166 0.0129227 -0.0375917 -0.0149652 -0.0219979 -0.026487 0.00718743 -0.0767935 0.0376628 -0.0185407 -0.0890743 0.0731872 0.00712406 0.00261217 -0.0590074 -0.0195724 0.01825 -0.00911905 0.000550071 -0.0241615 -0.0822709 -0.0565422 -0.0833265 -0.0734509 -0.0359753 -0.0850957 -0.0119028 -0.0501949 -0.0427838
internal_weight=0 90201.6 13710.7 12712 55877.7 45418.8 10458.9 26757.2 18661.6 6577.8 34323.9 4028.85 8136.97 18620.2 7870.23 707.712 12083.8 7799.5 1945.6 2708 2083.25 5276.5 3062.92 6807.3 6712.34 2510.34 1418.62 3869.79 4736.58 28146.6 1859.06 2174.14 17912.5 4647.48 1844.33 4202 1087.5 2588.65 1777.06 2025.46 858.093 14616 3102.36 595.259 8683.19 6177.24 2916.22 2267.77 1474.1 1166.88 1541.12 1126.34 685.628 440.713 6011.17 236.898 5774.27 8551.34 1179.52 5320.7 1548.75 1803.22 1514.17
internal_count=11726223 9004521 2721702 2706489 8553418 5860806 2692612 4437787 1423019 675868 451103 528218 1033238 3404549 2246055 33629 747151 1022758 216618 221424 311600 266928 358369 480223 479528 150306 195558 454444 664389 316405 447046 98167 3370920 658127 193864 329222 150817 446557 328246 260580 65801 2798582 168761 57674 2178271 134698 266060 225967 383566 83368 138056 165446 111803 53643 1799009 16977 1782032 1561676 161432 1231962 213797 192919 144572
is_linear=0
shrinkage=0.05


Tree=1
num_leaves=64
num_cat=0
split_feature=1 1 20 4 1 20 20 20 1 14 3 4 13 13 1 10 14 1 2 4 20 20 13 20 10 13 10 20 3 20 1 1 1 13 1 20 20 10 13 1 1 0 4 14 20 14 1 20 13 10 1 13 21 4 9 18 20 11 10 3 5 20 1
split_gain=388577 67290.9 21603.3 3164.47 7115.99 2930.6 2692.06 2623.64 1994.91 1369.4 1358.37 1157.47 921.948 883.592 4101.64 1331.47 724.865 635.919 622.876 593.911 559.55 526.294 505.845 472.728 466.149 456.084 432.292 429.016 414.015 401.359 375.438 372.546 345.316 338.088 313.609 313.184 294.491 288.783 287.463 283.955 261.348 257.808 265.482 257.276 257.257 255.574 242.339 221.789 215.045 213.591 212.838 200.889 199.383 198.302 196.604 567.838 226.307 193.38 176.904 173.698 172.629 171.161 170.351
threshold=1.0000000180025095e-35 1.0005486607551577 3.5000000000000004 0.20513644814491275 3.0085846185684209 1.5000000000000002 17.500000000000004 7.5000000000000009 0.98545894026756298 0.038098663091659553 315.50000000000006 0.048914724960923202 0.054457129910588271 0.99945473670959484 3.0085846185684209 380.50000000000006 0.04071082919836045 2.004245519638062 9.5000000000000018 0.06552560999989511 19.500000000000004 2.5000000000000004 0.0081059178337454813 19.500000000000004 1231.5000000000002 0.10226110741496088 3398.0000000000005 19.500000000000004 104.50000000000001 1.5000000000000002 2.004245519638062 2.004245519638062 1.9975603222846987 0.0081059178337454813 2.5306770801544194 1.5000000000000002 1.5000000000000002 373.50000000000006 0.017860610969364647 6.0212299823760995 6.9956457614898691 593713.00000000012 0.2314935699105263 0.02750717289745808 5.5000000000000009 0.01950164791196585 1.9975603222846987 6.5000000000000009 0.0064963200129568585 669.50000000000011 2.004245519638062 0.50163400173187267 2.5000000000000004 0.064048908650875105 1.0013992190361025 9.0031447410583514 1.5000000000000002 201.50000000000003 170.50000000000003 89.500000000000014 13.167543888092043 4.5000000000000009 8.7421188354492205
decision_type=2 2 10 2 2 10 10 10 2 2 2 2 2 2 2 10 2 2 2 2 8 10 2 10 8 2 10 10 2 10 2 2 2 2 2 10 8 10 2 2 2 2 2 2 10 2 2 10 2 10 2 2 10 2 2 2 8 8 10 2 2 10 2
left_child=2 6 5 4 10 -1 9 19 -8 18 17 -9 22 14 15 31 27 32 -2 -4 34 -7 37 29 47 41 39 30 -20 60 -12 46 -3 -26 -17 -19 -34 -6 -30 -24 54 -11 -43 -28 -21 -13 -5 58 -32 -14 -31 62 -47 -23 55 -35 -56 -50 -16 -33 -18 -36 -51
right_child=1 3 7 13 12 21 8 11 -10 25 16 45 49 -15 24 20 23 35 28 44 -22 53 26 -25 33 -27 43 -29 38 50 48 59 36 40 61 -37 -38 -39 -40 -41 -42 42 -44 -45 -46 52 -48 -49 57 51 -52 -53 -54 -55 56 -57 -58 -59 -60 -61 -62 -63 -64
leaf_value=0.090266500503310393 -0.088067844760617228 0.0032233005915402128 0.037252561858568421 0.026543879940159144 -0.012250129363241408 0.075679272188366786 -0.045304556645569746 0.0041063597179085897 0.058021775112590282 -0.074203543151636214 -0.062532530185116411 0.022841727384172821 0.0143313658126712 0.061582370558287552 0.034967267496918544 -0.047457849257400403 -0.08714670565743976 0.004887444133166479 -0.069218789823674451 0.057256415532555296 0.022887333357802953 0.053499879436871491 -0.0089551818181246388 0.0021374207076378187 -0.07874160401213906 -0.053212141830108708 -0.033385560038475412 -0.0030133443969915553 -0.086923499984171523 -0.050236268444891846 -0.083124607062619066 0.011991322006775225 -0.020219184718992717 0.026008356164366586 -0.022098498382591803 -0.019484669183530517 -0.039552307387305821 -0.070560610745826549 -0.076043437555308624 0.0091196074298704483 0.016645060055971023 -0.068137689334458532 -0.05443343856316999 -0.014053308669170953 0.046998971919154475 0.040934604135911434 -0.019800676514833263 0.0065369182289058293 -0.033421641872436479 -0.0016546423198107207 -0.03566749494914806 -0.061944100609344223 0.030121252190957223 0.067216915005321592 0.013902981695335902 -0.076485735987511475 -0.0085590282668742187 -0.053432016717548103 0.017492784324734615 -0.0077231516845619064 -0.023855894092558175 -0.042244065677955918 0.015368356830016409
leaf_weight=38657.456292305142 12845.604392945534 654.81557418778539 7176.106488391757 296.56842017732561 337.67411868833005 28822.181569873355 2625.1750613448676 4010.9138884590939 568.25077392254025 12174.63238749723 5988.2514263377525 4589.7273881137371 3647.9078841111623 491.9464299492538 1902.8919008816592 4368.043694882188 110.39321607351303 1951.1273152511567 16331.168440874433 16612.1217652224 396.37465464510024 3263.4545974396169 8664.7050743394066 787.75645614322275 130.00580038665794 5777.3841576324776 2318.926718515344 429.12663975916803 8457.9236168260686 5208.1344663568307 333.85669398889877 2091.8081303518265 2711.0255268039182 239.52900028787553 3135.9535479731858 4062.8167077824473 7203.6258155554533 572.03829591488466 21512.002908039372 2900.2286991663277 2306.1091583124362 15249.309719456593 4600.0196269580629 6674.1597768259235 9671.3033811207861 9568.5380811616778 5772.2232940124813 3480.3334714558441 2927.8808205437381 9083.8862138641998 4833.594635319896 127.85203962866217 7688.0682029929012 13677.695864375681 1779.9007696919143 310.06124005559832 3030.7297898931429 2054.6538530089892 6063.0896249506623 2398.2404246942606 4480.7223012060858 1588.3919642919209 1753.3090367531404
leaf_count=104519 1187345 5810 42140 1207 8362 74022 49478 30438 2684 865627 432785 22217 54444 1913 15299 173262 2629 61346 1244758 45283 1769 18125 224727 5479 3162 339481 73409 3520 678558 307005 25252 33004 153931 1424 79752 126216 355631 32821 1680359 43177 23369 1107088 224906 161261 30418 42651 179291 40424 171992 222738 224530 1795 22971 33200 21481 5620 47576 105426 57295 48191 255784 57373 27102
internal_value=0 -0.04185 0.0638822 -0.0165318 -0.0222736 0.0801305 -0.0720879 0.0407572 -0.0269183 -0.0735757 -0.0358332 0.0287953 -0.00583645 -0.0050116 -0.00584541 -0.0216727 -0.0427192 -0.0245577 -0.0783264 0.0500013 -0.0352655 0.0715684 -0.0124306 -0.0355931 0.010644 -0.0661425 -0.0108161 -0.0520842 -0.0756238 -0.0376244 -0.053947 -0.0094575 -0.0319433 0.00121452 -0.0378006 -0.0115775 -0.0342659 -0.0489165 -0.0791139 -0.00442243 0.00257041 -0.0684752 -0.0649618 -0.0190383 0.0534821 0.0333281 -0.0175359 0.0170666 -0.0442764 0.00385102 -0.0432236 0.000364359 0.0361171 0.0645745 -0.00348487 -0.0318155 -0.000248237 -0.0416733 0.021667 0.00146136 -0.0253777 -0.0288717 0.00109944
internal_weight=0 219742 143738 119601 79818.5 84420.8 100141 59316.8 3193.43 96948 43737.8 25857.2 36080.7 39782.2 39290.3 20047.6 27154.4 16583.4 59146.7 33459.5 9488.76 45763.3 21467.7 15420.6 19242.7 37801.3 20558 11733.8 46301.1 14632.8 11304.6 10558.8 10569.5 7796.34 9092.39 6013.94 9914.65 909.712 29969.9 11564.9 7666.33 32024 19849.3 8993.09 26283.4 21846.3 6068.79 11446.3 5316.39 14613 10041.7 10965 17256.6 16941.2 5360.22 549.59 4810.63 4982.53 7965.98 4490.05 4591.12 4724.35 10837.2
internal_count=11724852 11258868 465984 3878584 3087172 229866 7380284 236118 52162 7328122 2237336 118277 849836 791412 789499 573849 1534402 702934 4791020 117841 312156 125347 543757 795427 215650 2537102 502574 738975 3603675 789948 735455 261693 515372 102632 310387 187562 509562 41183 2358917 267904 99470 2197621 1331994 234670 75701 87839 180498 113018 302670 306079 531535 251635 65622 51325 76101 7044 69057 277418 72594 81195 258413 137125 249840
is_linear=0
shrinkage=0.05


Tree=2
num_leaves=64
num_cat=0
split_feature=1 1 20 1 20 10 20 20 10 14 20 14 1 1 16 14 1 10 16 1 1 4 16 20 10 13 20 13 13 3 20 10 10 8 1 20 16 1 14 16 1 4 3 10 13 3 10 3 13 13 6 3 4 4 1 0 20 14 4 13 9 4 4
split_gain=287608 51750 16061.3 9117.73 3153.43 2341.18 2194.08 1521.11 1256.45 1169.75 1092.17 1075.27 1059.3 1003.04 974.147 599.233 541.679 520.243 507.876 698.682 488.072 454.741 435.39 431.723 374.892 368.778 348.681 343.856 333.625 308.391 298.962 282.552 277.972 247.538 346.322 236.398 362.361 252.816 230.547 202.295 366.535 200.869 175.938 168.793 167.598 163.022 159.641 154.41 176.424 144.979 142.919 142.027 140.418 131.42 126.616 126.315 125.693 121.118 121.007 118.365 120.455 117.185 117.179
threshold=1.0000000180025095e-35 1.03107225894928 3.5000000000000004 3.0085846185684209 1.5000000000000002 483.50000000000006 16.500000000000004 8.5000000000000018 534.50000000000011 0.055263085290789611 19.500000000000004 0.015908090397715572 0.99655669927597057 2.004245519638062 2.5000000000000004 0.090810917317867293 1.0005486607551577 9.5000000000000018 3.5000000000000004 1.9975603222846987 2.1234253644943242 0.14139255881309512 5.5000000000000009 5.5000000000000009 25268.500000000004 0.020752997137606147 3.5000000000000004 0.041295351460576064 0.0064963200129568585 98.500000000000014 2.5000000000000004 1949.5000000000002 86.500000000000014 1.0000000180025095e-35 2.9720200300216679 19.500000000000004 6.5000000000000009 6.0212299823760995 0.033063316717743881 2.5000000000000004 6.9956457614898691 0.18440573662519458 171.50000000000003 5659.5000000000009 0.12382065132260324 1182.5000000000002 4266.5000000000009 104.50000000000001 0.010874113067984583 0.67006802558898937 4.654776096343995 11.500000000000002 0.085112713277339949 0.32772466540336614 2.9720200300216679 593713.00000000012 19.500000000000004 0.011131763923913242 0.12301772087812425 0.083350788801908507 1.0012003779411318 0.23993618041276935 0.35726341605186468
decision_type=2 2 10 2 10 10 10 10 8 2 10 2 2 2 2 2 2 8 2 2 2 2 2 10 10 2 10 2 2 2 10 10 10 10 2 10 2 2 2 2 2 2 2 10 2 2 10 2 2 2 10 2 2 2 2 2 10 2 2 2 2 2 2
left_child=2 6 4 5 -1 13 9 23 26 17 14 28 58 18 25 21 56 -2 32 -20 38 35 53 -4 49 -7 -5 47 -10 51 52 -22 -3 -27 -35 36 50 -38 -16 -23 46 -9 -29 -30 55 -36 -41 -19 -49 -17 -13 -11 -6 -15 -24 -31 -14 -33 -8 60 -34 -57 -28
right_child=1 3 7 8 30 10 12 41 11 29 -12 15 16 22 20 24 -18 27 19 -21 31 39 54 -25 -26 33 62 42 43 44 -32 57 59 34 45 -37 37 -39 -40 40 -42 -43 -44 -45 -46 -47 -48 48 -50 -51 -52 -53 -54 -55 -56 61 -58 -59 -60 -61 -62 -63 -64
leaf_value=0.084416328897898019 -0.081588909153316735 -0.0022421471610741058 0.048435338924427702 0.022510473897939906 0.061283977792790392 -0.055555997924225067 -0.051306959580638536 0.022505138861445301 -0.068430017159574683 -0.067539462096635403 0.0061427769977730464 -0.076444131883221564 -0.013456630229852194 -0.00050467475540150273 -0.06597646725539856 0.010410076770275108 -0.041834535711258829 -0.067295918946859379 0.0085377432050693144 -0.037660406053934239 -0.029691922442252841 0.010603210107725809 0.023813470726371719 0.037407707640188706 0.056656460769588385 0.081520273409848409 0.0028510489397213278 -0.058135096075614949 -0.018945372576521929 -0.068958514675018456 0.058263508380956675 -0.077920736083467085 -0.05530588101757461 -0.035293871440813439 -0.0063210780327404075 0.024636780759465154 -0.03329145734394387 -0.010877586065229374 -0.049440163298096335 -0.0049571652651192533 0.0092933729673537052 0.033150157172994153 -0.068316535406636819 -0.05134272364742648 -0.04792468809786421 -0.02452749805674646 -0.023114351907494099 -0.08392116879251571 -0.072918625639581569 -0.05263955689310499 -0.0055524340037597202 -0.043287207568811346 0.069349522614180814 0.017625688023602922 -0.019789360199171071 -0.062535373334040439 0.072201975640070221 -0.045072136631150395 -0.029036180998326014 -0.0043812217092248241 -0.023902667312222767 -0.049095989972628977 0.017886998748899745
leaf_weight=32791.401037380099 11609.616547442041 2606.3767128651962 19563.411431450397 5914.2325817756355 7627.8699280433357 1101.0901179099455 1204.2824360518716 12985.782274356112 530.19692428363487 718.13425226137042 1336.6352981077507 71.661033429205418 48.06729082763195 4615.144545675721 3117.2889964394271 5059.3917969276663 171.64984001801349 8763.3979391283356 907.85460012033582 8306.6717548109591 4479.1236628596671 4356.5330373253673 174.00835567247123 16245.103050739504 454.25908849015832 54.203714862465858 5752.3999011826236 7080.6034230934456 2157.4651183283422 6260.8517204332165 15739.847277069464 298.9394600642845 340.03944709245116 4744.1506559434347 2218.0071129323915 452.20202300045639 2692.4248178116977 2361.5800032760017 6508.5398961808532 3996.8087785923854 3979.9760973930825 6727.4316971860826 10588.027444742154 494.12807082710788 1972.7716392539442 2758.8779931738973 1736.5212984001264 4543.7566325049847 18387.959110935219 92.84944115858525 9001.8879431504756 3787.6688107261434 18445.550923665054 1275.8225921811536 3855.4959982114378 8604.439504107926 392.75248524919152 4578.2873872148339 1235.8386013160925 691.9825332025066 2994.359163411893 1998.8034011889249 1672.5151750682853
leaf_count=104392 1234535 116276 70758 83800 33942 103378 30550 76131 30331 54354 9351 1794 888 151197 213906 94663 1713 764444 6496 370955 188012 74937 1070 65322 3495 189 90689 593955 74008 522713 51335 21251 24798 385239 109675 2020 89272 55281 367157 66189 47805 23878 928727 22177 124458 172508 37095 437622 1576885 1664 275601 255796 40100 19771 112995 729948 1390 225870 20178 33751 174375 103901 16159
internal_value=0 -0.0383183 0.0576544 -0.0151296 0.0728084 -0.0288626 -0.0669138 0.037292 0.000276265 -0.0684215 -0.0380752 -0.00441854 -0.0252711 -0.0177094 -0.0400547 -0.00183604 0.0335197 -0.0720654 -0.0255146 -0.0331088 -0.0468909 -0.00476144 -0.00524128 0.0434325 0.013113 -0.0281236 0.0134528 -0.0698256 -0.0322225 -0.0589032 0.063705 -0.0387588 -0.0149644 -0.0250336 -0.0256277 -0.0109496 -0.0120887 -0.0228181 -0.0547954 0.00165099 -0.00236418 0.0261379 -0.0642364 -0.0249827 -0.061714 -0.0164136 -0.0104566 -0.0729413 -0.0750987 0.00927385 -0.00611232 -0.0471525 0.0669899 0.00342187 -0.0179064 -0.0633271 0.0628617 -0.0470855 -0.0400276 -0.0231998 -0.0271051 -0.0600019 0.006238
internal_weight=0 195109 130126 107740 74604.7 56962.9 87368.6 55521.7 50777 84316 31195.1 37437.9 3052.59 25767.8 29858.5 34256.1 612.47 60973.4 15847.3 9214.53 18982.2 28649.6 9920.47 35808.5 5606.5 10876.3 13339.1 49363.7 3181.79 23342.7 41813.3 9356.35 6632.76 9775.24 9721.04 14579.8 14127.6 5054 9625.83 14069.8 9713.31 19713.2 17668.6 2651.59 18836.9 4976.89 5733.33 31695.1 22931.7 5152.24 9073.55 4505.8 26073.4 5890.97 4029.5 16864.1 440.82 4877.23 2440.12 4026.38 3334.4 10603.2 7424.92
internal_count=11723115 11257257 465858 3875200 229769 2808220 7382057 236089 1066980 7327338 1796536 876332 54719 1011684 1787185 749816 3991 5536168 726651 377451 1016196 649994 285033 136080 99822 770989 190648 4301633 126516 1791170 125377 435133 349200 667611 667422 423968 421948 144553 581063 226026 151089 100009 1522682 96185 1481020 282183 103284 2778951 2014507 96327 277395 310150 74042 170968 114065 1356562 2278 247121 50728 232924 199173 833849 106848
is_linear=0
shrinkage=0.05


Tree=3
num_leaves=64
num_cat=0
split_feature=1 1 20 1 20 20 10 1 20 4 1 14 20 16 13 1 16 16 2 20 13 3 13 14 4 4 3 3 16 20 1 3 1 6 21 14 10 13 20 13 2 10 13 3 13 14 9 16 3 13 14 1 0 8 10 0 1 14 3 14 20 1 20
split_gain=227111 41787.4 14677.9 7764.13 2916.46 1913.7 1850.25 1176.1 1111.99 1052.96 958.137 890.62 731.23 547.331 493.337 442.505 621.104 437.955 384.943 377.029 368.986 361.822 354.652 339.037 315.849 284.979 282.377 272.303 238.184 351.194 246.432 216.563 199.395 220.569 196.476 189.531 187.163 185.904 179.013 174.384 171.574 160.792 157.68 157.286 153.494 153.299 146.754 145.984 144.154 141.964 139.12 136.401 126.76 123.918 123.804 119.567 118.475 118.282 117.277 116.876 112.616 151.083 110.46
threshold=1.0000000180025095e-35 1.0005486607551577 3.5000000000000004 3.0085846185684209 1.5000000000000002 14.500000000000002 898.50000000000011 0.99655669927597057 5.5000000000000009 0.18646357953548434 2.004245519638062 0.037751339375972755 19.500000000000004 4.5000000000000009 0.011471630539745094 1.9975603222846987 4.5000000000000009 4.5000000000000009 9.5000000000000018 2.5000000000000004 0.070467740297317519 151.50000000000003 0.02781699784100056 0.33615820109844213 0.33345660567283636 0.105170875787735 71.500000000000014 132.50000000000003 5.5000000000000009 19.500000000000004 6.0212299823760995 1203.5000000000002 2.9720200300216679 3.873235940933228 2.5000000000000004 0.015908090397715572 141.50000000000003 0.095593813806772246 19.500000000000004 0.012021639384329321 1273.5000000000002 151.50000000000003 0.032610997557640083 625.50000000000011 0.018390122801065448 0.032056838274002082 1.0012068152427676 11.500000000000002 136.50000000000003 0.03204683959484101 0.015908090397715572 2.1234253644943242 835702.00000000012 1.9590607285499575 7.5000000000000009 493820.50000000006 6.9956457614898691 0.030331781134009365 553.50000000000011 0.036191653460264213 7.5000000000000009 9.7768578529357928 11.500000000000002
decision_type=2 2 10 2 10 10 10 2 10 2 2 2 10 2 2 2 2 2 2 10 2 2 2 2 2 2 2 2 2 8 2 2 2 10 10 2 10 2 10 2 2 8 2 2 2 2 2 2 2 2 2 2 2 10 8 2 2 2 2 2 10 2 10
left_child=2 5 4 6 -1 11 10 -7 -4 14 15 18 13 22 40 -3 27 36 -2 -6 28 42 -8 24 31 49 54 50 43 30 58 60 33 -24 -27 -33 -12 52 -9 -15 -5 -19 -20 -16 -23 46 -38 -26 -18 -10 -17 -41 -28 -34 -13 -56 59 -29 -30 -45 -11 -62 -51
right_child=1 3 8 9 19 7 12 38 25 23 17 26 -14 39 20 16 48 41 21 -21 -22 44 32 -25 47 34 37 57 29 -31 -32 35 53 -35 -36 -37 45 -39 -40 51 -42 -43 -44 56 -46 -47 -48 -49 -50 62 -52 -53 -54 -55 55 -57 -58 -59 -60 -61 61 -63 -64
leaf_value=0.079767482755302335 -0.077665793048155074 0.0026597304921954974 0.04278748206412708 -0.019933954804740413 0.062784620387781973 -0.035973614817373968 -0.0526428269035231 -0.012578619152136667 0.0085102627372853467 0.012545786057156144 0.012416083605462295 -0.070056615790388424 0.0012564683504093278 -0.08072563664869685 0.0078456271602801494 -0.018067789253513086 -0.032524928883117907 -0.0075958467238507119 -0.065203782026612131 0.05268579421940757 0.0056834895634965315 -0.077865703762626665 0.066954945742639785 0.046712755558819673 0.021330954934333627 0.035240380476867297 -0.064897748674171793 -0.039047252411673228 -0.012914644155812095 0.014807712534322885 -0.0068061623277235299 -0.049605559620996276 -0.041797414009455386 -0.038011677527770335 0.025542530220836152 -0.0028450380143077787 -0.063333324687909739 -0.049277626122459312 0.069985135429269762 -0.054475181685203516 -0.061800384921451859 -0.025040193213528201 -0.05512316733345473 -0.017407107250395151 -0.068211080214376565 0.0012987300153979248 -0.012998556174504822 0.0044443763110914927 -0.045898578061370779 0.027118287110306588 5.476234308265685e-05 -0.0421179573551008 -0.057468855780197087 -0.019550375595477117 -0.05463401050565786 -0.032819344834534837 0.0064599172977157894 -0.022277509107434337 -0.029203950500596421 -0.0041708486355557821 -0.0092116491874929714 0.025678358056455193 0.016495286813887698
leaf_weight=29352.484278444201 9841.5679183960892 1184.1848707776517 19057.249236319214 493.06434203358367 24111.134199195541 2233.7677047019824 2009.0522728795186 80.911456564441323 1680.5947577608749 5186.6257115714252 2079.2491682334803 394.28618085756898 1097.9715946377255 430.19429723499343 2599.4939528759569 2804.6109515596181 4151.2461694371887 2044.4412781666033 8938.8263817774132 14986.796661243774 6639.5095584797673 5706.5085867494345 50.578900475054979 588.82794144097716 4878.8654620121233 13013.725291729905 11546.365623042919 1695.7929243226536 1630.4772372846492 974.84427632205188 3576.5340614584275 227.84379832260311 730.2817314080894 4763.8876051888801 8723.8495423160493 4431.1527412043652 160.62669033464044 3809.9028918067925 348.09757907688618 4352.2335445675999 485.84442180488259 3732.939966743812 6853.4110481324606 2559.2205596384592 14778.041961292736 2822.9846120937727 1470.4989118943922 1735.0001929288264 3915.4899900709279 8434.2016315991059 1701.4350078436546 4586.4831888652407 11422.886146293487 4380.8339099669829 945.5433518323116 1871.1950893080793 1542.759316185955 2767.497605569195 3428.2798927596305 4787.9141038274392 1461.9243009616621 393.87770130857825 3447.2875734753907
leaf_count=104455 1188090 9083 70741 19017 73696 50743 178326 2762 12006 71467 54582 35685 8130 33113 70006 163345 191599 52677 850197 51173 142902 613126 548 2773 46457 51937 1048634 146459 42593 4542 83502 6811 33625 390256 25449 75780 11254 279851 1369 285498 32590 134988 651078 106634 1477038 94876 71465 21824 218410 49789 65870 237524 978248 266962 78103 125861 33807 162353 124183 153049 25187 3272 26421
internal_value=0 -0.035806 0.0524522 -0.0144434 0.067856 -0.0630761 -0.0276216 -0.021411 0.0330544 0.000204455 -0.0196142 -0.0645338 -0.0385349 -0.0405857 -0.0058277 -0.026895 -0.0289494 -0.00883844 -0.0688955 0.0589136 -0.00459661 -0.0665162 -0.0334849 0.00936813 0.00816752 0.0277999 -0.0578266 -0.0198954 -0.00783151 -0.0136401 -0.0168516 0.00323111 -0.0296071 -0.0369089 0.0313484 -0.00513182 2.98531e-05 -0.0595066 0.0544135 -0.0496311 -0.0407128 -0.0188672 -0.0608291 -0.00297296 -0.0709006 -0.00575224 -0.0179553 0.0169011 -0.0390163 0.0221122 -0.0112249 -0.0481347 -0.0612033 -0.0227291 -0.0438155 -0.0401423 -0.00613643 -0.028649 -0.0239538 -0.00878142 0.0087637 -0.00180655 0.0240361
internal_weight=0 179326 122807 100555 68450.4 78771.3 52932.5 2662.78 54356.9 47622.1 30531 76108.5 22401.5 21303.5 28717.9 18220.3 17036.1 12310.7 46118.4 39097.9 27739 36276.8 11934.6 18904.1 18315.3 35299.7 29990.2 8969.34 21099.5 9610.14 8635.29 11701.4 9925.58 4814.47 21737.6 4659 6533.36 26779.2 429.009 9368.91 978.909 5777.38 15792.2 11489.4 20484.6 4454.11 1631.13 6613.87 8066.74 13562.1 4506.05 8938.72 22969.3 5111.12 3211.02 2816.74 8889.89 4463.29 5058.76 7347.13 7042.43 1855.8 11881.5
internal_count=11723791 11258124 465667 3877339 229324 7380785 2810943 54874 236343 1066396 1376961 7325911 1433982 1425852 812825 957119 948036 419842 4779529 124869 761218 3591439 869717 253571 250798 165602 2546382 538027 618316 254820 250278 182517 691391 390804 77386 82591 232177 2306733 4131 556135 51607 187665 1501275 363496 2090164 177595 82719 68281 410009 88216 229215 523022 2026882 300587 239649 203964 293490 308812 166776 259683 99926 28459 76210
is_linear=0
shrinkage=0.05


Tree=4
num_leaves=64
num_cat=0
split_feature=1 1 1 21 16 10 16 16 4 14 17 16 13 16 16 1 1 1 1 14 13 11 1 10 13 10 16 16 1 13 4 3 16 9 16 10 3 10 14 16 4 16 7 4 1 4 15 6 18 0 13 14 4 3 16 16 10 14 3 16 13 21 14
split_gain=189574 34600.4 6359.13 5211.5 6290.7 1568.58 1358.81 873.064 850.759 747.823 704.494 625.834 583.089 559.993 479.186 426 485.263 403.088 510.999 397.885 394.022 327.47 281.363 270.955 261.896 259.404 241.005 237.084 300.756 216.059 213.875 202.988 216.65 191.973 186.124 178.476 156.789 154.374 149.897 148.952 146.106 138.717 138.634 134.854 151.137 133.415 131.505 124.113 378.47 122.105 138.27 118.879 116.234 111.288 108.172 104.709 104.152 103.822 102.955 102.767 102.717 101.817 101.277
threshold=1.0000000180025095e-35 1.0005486607551577 3.0085846185684209 1.5000000000000002 3.5000000000000004 619.50000000000011 23.500000000000004 1.5000000000000002 0.15259326249361041 0.038098663091659553 0.18795289844274524 2.5000000000000004 0.018791208975017074 9.5000000000000018 9.5000000000000018 2.004245519638062 1.9975603222846987 1.9975603222846987 2.004245519638062 0.052652267739176757 0.012541993986815216 198.50000000000003 2.9720200300216679 3927.0000000000005 0.33385580778121954 115.50000000000001 7.5000000000000009 1.5000000000000002 9.5661506652832049 0.032896328717470176 0.11352531611919404 625.50000000000011 8.5000000000000018 1.0006053447723391 3.5000000000000004 165.50000000000003 74.500000000000014 217.50000000000003 0.023835687898099426 6.5000000000000009 0.051757920533418662 10.500000000000002 1.0007861852645876 0.1827991455793381 0.94340056180953991 0.052662393078207977 0.049099968746304519 1.0163977742195132 9.0031447410583514 593713.00000000012 0.28616924583911901 0.082002077251672759 0.13780675083398822 80.500000000000014 58.500000000000007 7.5000000000000009 2433.5000000000005 0.012409527320414783 1182.5000000000002 2.5000000000000004 0.047936188057065017 4.5000000000000009 0.038969766348600395
decision_type=2 2 2 10 2 10 2 2 2 2 2 2 2 2 2 2 2 2 2 2 2 8 2 10 2 8 2 2 2 2 2 2 2 2 2 8 2 10 2 2 2 2 2 2 2 2 2 10 2 2 2 2 2 2 2 2 10 2 2 2 2 10 2
left_child=3 6 5 4 7 11 9 -1 20 21 13 22 -7 30 -5 16 -13 -14 26 23 -4 29 36 41 39 -11 33 -22 31 -2 -6 -29 46 -19 58 57 -3 -31 -25 47 -9 -10 -16 -8 -45 -15 -33 48 -21 50 -27 55 -24 -17 -34 -12 -30 -18 -20 -42 -47 -44 -35
right_child=1 2 8 14 10 12 43 40 19 25 51 15 17 45 42 53 35 18 34 24 27 -23 52 38 -26 49 -28 28 56 37 -32 32 54 62 -36 -37 -38 -39 -40 -41 59 -43 61 44 -46 60 -48 -49 -50 -51 -52 -53 -54 -55 -56 -57 -58 -59 -60 -61 -62 -63 -64
leaf_value=0.076643802145997836 -0.066190744793340778 -0.0034080545563969196 -0.040736357304193949 0.040198472577935344 0.037433428035406779 -0.061134607348332475 -0.032823484439972024 0.053793788101100318 0.0078056389093447455 -0.042590762193350493 0.050989310984690818 0.0034835060323401704 -0.0022420931659209021 0.017860933547381951 0.072357540054382954 -0.003531583625842446 -0.032226569076901114 0.068572184805654454 -0.011644982992313136 0.027080703171037852 0.0058912962190123246 -0.071792340698274212 -0.0068666127632131344 -0.042883204407112019 0.048791119759699048 -0.062196185693712436 -0.054927542837466939 -0.0023996641725679696 0.020374442268323883 -0.051576780469499255 0.047238323145902851 -0.013413206502744499 -0.027398007758805094 -0.046980226154585421 -0.033259171728992808 -0.040495791089426317 -0.021801581177206708 -0.062905792568848914 -0.0094287716043044683 0.0044597920926444596 0.066609767884187751 -0.0064210108089732681 0.026985761581827777 -0.023067320288568321 0.021179554974908324 0.024602560462841788 0.0028355127850698439 0.017937543805951892 -0.084525175523942467 -0.054121874460207969 -0.0042404579894111559 0.059204102461538816 0.011959148547208226 -0.01763013045161187 0.016027902612964686 0.032536364766546685 -0.0005174648161976156 -0.017555991326171218 -0.026030790817189804 0.060135677662555148 0.035201539862904599 0.018669606085887719 -0.034522163631264056
leaf_weight=16677.194354742765 16361.797161646187 1960.9493227778003 858.16030381829478 7363.0232304781675 10749.18547203904 2039.8800998625811 1744.0738385574659 4300.4031772846356 6215.4627753677778 3672.9322474580258 5151.4382967958227 1007.7353263362311 1003.4565356073435 2135.145318838302 154.62580340728164 2038.6552213502582 3210.326432909118 42.084874488413334 2070.6811050865799 207.9907053373754 3420.1735176006332 14008.522223605076 1359.2616244894452 391.94682152336463 483.89685268513858 8766.2797713105101 2878.518472800497 4794.7910552229732 979.5744242281653 5885.7378570998553 11524.957383884117 6187.1536160889082 3159.0364136621356 2401.3165030404925 5922.0953630737495 4326.9054201000836 2831.5002864496782 6147.9068333131727 2297.6648865797324 4678.1518118416425 13994.395607172512 2365.5276016753633 14149.655523524154 601.2383547751233 284.23305738437921 3459.5491363592446 1558.9679111163132 5888.5837000687607 119.66668306291103 15069.867971107829 104.13682129513472 4172.5296496190131 2066.3533511897549 4466.1087843051646 150.2213553506881 903.60981820337474 1525.6988403648138 1931.5655365472194 3114.1679769563489 10907.046019800939 6737.9782352242619 4974.5395086612552 5087.8428763132542
leaf_count=83610 1781652 104563 51432 16037 69023 186008 48655 30395 96935 288452 9830 7996 7778 25815 227 52307 167368 542 114510 1248 143654 1710750 76336 13885 2240 863276 199310 115485 11365 579023 37906 205541 111418 241439 302835 251975 212012 713785 49027 63463 41566 41501 42820 10361 4415 18877 44394 77864 3637 1372360 6199 7587 53854 154267 933 2976 32340 75322 216070 31114 32017 16952 386002
internal_value=0 -0.0340633 -0.0142065 0.0487905 0.0545006 -0.0265444 -0.0600415 0.0675168 -0.000648956 -0.0613667 0.0411812 -0.0177803 -0.0355366 0.0377739 0.0293479 -0.0232619 -0.0295021 -0.0332179 -0.0346625 0.00620217 -0.00750466 -0.0655366 -0.00645358 -0.000456543 0.0127979 -0.0549633 -0.0426217 -0.00619503 -0.00844707 -0.0624504 0.0425066 -0.0109916 -0.014718 -0.0379183 -0.0272029 -0.0330126 -0.0142754 -0.0573647 -0.014304 0.0111992 0.0623043 0.00388377 0.0252038 -0.0247555 -0.00886424 0.0292262 -0.010143 0.016271 -0.0136799 -0.0568615 -0.0615158 0.0527104 0.00448921 -0.0132115 -0.0254267 0.0482355 0.00765138 -0.0267155 -0.0202855 0.0637741 0.0316058 0.0248226 -0.0385167
internal_weight=0 167689 95042.1 117355 90713.4 49759.4 72646.7 45879 45282.7 70017.2 44834.4 25199.4 24560 34606.8 26641.8 16981.3 10476.5 22520.2 21516.7 22648.9 22633.8 42404 8218.06 11270.6 11378.3 27613.2 10409.8 21775.6 18355.4 28395.4 22274.1 15850.2 11055.4 7531.24 11106.9 9468.8 4792.45 12033.6 2689.61 10894.4 29201.8 8580.99 19278.8 2629.55 885.471 12332.7 7746.12 6216.24 327.657 23940.3 8870.42 10227.6 3425.61 6504.76 3309.26 6055.05 2505.27 5141.89 5184.85 24901.4 10197.5 19124.2 7489.16
internal_count=11722536 11255784 3876856 466752 390716 2810494 7378928 186685 1066362 7315497 204031 1156000 1654494 183638 76036 709235 502661 1468486 1460708 349800 716562 4785210 446765 201348 148452 2530287 827293 665130 521476 3074460 106929 477771 362286 627983 633415 494665 316575 1292808 62912 146212 103075 138436 59999 63431 14776 76709 249935 82749 4885 2241835 869475 20393 130190 206574 112351 12806 43705 242690 330580 72680 50894 59772 627441
is_linear=0
shrinkage=0.05


Tree=5
num_leaves=64
num_cat=0
split_feature=1 1 16 1 20 20 16 10 1 20 4 13 10 13 16 1 20 20 7 20 1 16 1 13 16 16 16 1 15 4 20 10 1 13 1 13 10 13 4 20 8 20 13 4 10 1 13 20 0 4 10 1 10 4 16 1 16 10 4 13 1 1 4
split_gain=160494 30029.6 9566.94 5737.41 2243.73 1995.69 1260.24 1244.47 751.469 613.066 608.147 593.23 571.488 507.636 485.583 404.416 738.365 390.073 351.778 335.305 323.087 315.21 437.113 306.105 302.108 299.303 246.219 245.938 184.469 176.198 175.47 158.967 158.793 151.678 150.366 147.271 159.507 146.093 144.908 177.437 144.159 143.983 143.1 141.182 137.564 132.433 126.723 125.904 120.032 117.288 114.06 111.042 110.483 105.156 103.985 104.478 101.508 96.6777 94.2552 93.1739 88.4671 87.6226 89.415
threshold=1.0000000180025095e-35 1.0005486607551577 4.5000000000000009 3.0085846185684209 1.5000000000000002 4.5000000000000009 24.500000000000004 643.50000000000011 2.004245519638062 19.500000000000004 0.021974572911858562 0.054457129910588271 1231.5000000000002 0.0081059178337454813 4.5000000000000009 0.96359342336654674 17.500000000000004 2.5000000000000004 1.0007861852645876 4.5000000000000009 1.2180279493331911 4.5000000000000009 6.0212299823760995 0.038467187434434898 4.5000000000000009 3.5000000000000004 11.500000000000002 10.007739067077638 0.022018423303961757 0.030614355579018596 19.500000000000004 86.500000000000014 0.99655669927597057 0.017860610969364647 2.9720200300216679 0.018390122801065448 329.50000000000006 0.013515759725123646 0.12870067358016971 2.5000000000000004 1.2151778936386111 19.500000000000004 0.062626950442790999 0.28867569565773016 127.50000000000001 2.9720200300216679 0.13363453000783923 12.500000000000002 644599.50000000012 0.14706969261169436 2864.5000000000005 2.004245519638062 229.50000000000003 0.17912086844444278 11.500000000000002 12.110544681549074 9.5000000000000018 12776.000000000002 0.24536048620939258 0.083350788801908507 2.9720200300216679 1.9421693086624148 0.088545642793178572
decision_type=2 2 2 2 10 10 2 10 2 10 2 2 8 2 2 2 10 10 2 8 2 2 2 2 2 2 2 2 2 2 10 10 2 2 2 2 10 2 2 10 10 10 2 2 10 2 2 10 2 2 10 2 10 2 2 2 2 10 2 2 2 2 2
left_child=2 6 4 7 -1 17 10 8 20 14 -2 35 19 -14 23 53 -17 -4 -15 43 -3 28 30 37 52 31 -7 58 49 46 50 -22 -18 -16 40 44 -37 -9 39 -6 -25 54 -27 -5 -12 -26 -28 -31 -13 -20 -23 -35 -10 -8 -24 -56 -47 -51 -21 -33 -39 62 -11
right_child=1 3 5 12 38 26 15 9 24 61 11 48 13 18 33 16 32 -19 21 27 25 22 41 34 45 42 29 -29 -30 47 -32 59 -34 51 -36 36 -38 60 -40 -41 -42 -43 -44 -45 -46 56 -48 -49 -50 57 -52 -53 -54 -55 55 -57 -58 -59 -60 -61 -62 -63 -64
leaf_value=0.072694271053558593 -0.069533164620702442 0.013391698128160654 0.05964565497610818 0.0080544248565358641 0.052476387593053189 0.030616796651513917 -0.044172150565574983 -0.06196717800016574 0.0080958482008825564 -0.028296644243640798 -0.059324195684826032 -0.054306639256419133 -0.062439578118232787 0.05747951215933858 -0.065403186562712989 -0.061403123294215801 0.0015451080344933133 0.04195465512571777 -0.01159409340189514 -0.0089109008973005371 -0.0073128904088367482 -0.013494958195002288 0.0024694611762074515 0.051268665116603079 0.025596906018170381 -0.037367498406919636 -0.004430765511119609 0.020331280028203717 0.0069698131112499694 0.02650261611026802 0.02798107033508437 -0.027625838494132932 0.06563851321318373 -0.048099090846928885 -0.017061890250949299 -0.05230923296663377 -0.060948709506502032 -0.044323448512017007 0.05550969603714704 0.040832955298757884 -0.031710291466612445 0.022064203199622642 -0.023347760641684132 0.020429523546773642 -0.070303106454242231 -0.010162839027490754 0.025448231114450378 0.018607861514119282 -0.046185634040273767 0.0062764220630986845 -0.027977791840649736 -0.036860484267113205 -0.0064728670069546376 -0.018764091086888354 -0.019112969974993319 0.0042164097464878793 -0.025502310375338164 -0.016297373082585911 0.0026398969301468685 -0.0071800035887359288 -0.028073861853385847 0.027160267540532579 0.0050289874224193395
leaf_weight=23880.836491912603 10803.87892068061 533.82792579615489 3954.7761015389115 7240.37592373183 9333.4696133676916 16940.528092083521 1138.1145823406987 660.81461684545502 2786.8806768562645 299.27667948789895 5493.9694309716579 7550.3487765046302 384.99659437453374 226.28855419903994 775.16496629454195 240.2226383741945 137.3998542339541 14689.060821389779 3478.2929826215841 4678.2982919835486 2248.9209656738676 2257.8586531211622 2821.7467625997961 53.048523331061006 180.38077122252434 5297.611827187473 981.04242201568559 1144.356271172408 5733.4296245113946 15141.329702414572 179.61172311427072 3178.2212931818794 325.73932365048677 4283.0618977395352 4227.5051198410802 7905.8800044506788 16477.128674826119 1684.4952095365152 14251.90653049387 5038.3903612233698 3926.178351317998 595.40015544346534 2772.7658224266488 3380.9691520119086 5935.7747576350812 2076.3295684726909 555.97671982273459 7577.4230097155087 11450.380841636332 2431.5617237966508 3416.5788684287108 4514.5546371778473 2441.3611037521623 634.10515631362796 1559.9212190087419 693.15842038812116 2244.186609356897 589.24325452698395 2837.2130700382404 675.67973993718624 1666.0093683777377 257.0420401901938 614.66916963225231
leaf_count=103065 1731800 3925 8046 166047 44297 86220 34164 76423 84644 3591 597035 744929 28568 723 65767 10799 2826 40207 151798 112558 116172 69072 59920 903 1209 297706 11933 9155 151927 54008 1168 247297 1605 317113 264090 781609 1743731 174101 38881 35182 348168 2621 128500 32060 696344 69138 4415 39960 1025777 47262 125665 254345 104115 11123 41341 13855 85369 14875 38467 39977 122221 1670 4038
internal_value=0 -0.0322545 0.0458014 -0.0134712 0.0613782 0.0321341 -0.0573697 -0.0255161 -0.0176625 -0.0338739 -0.0586909 -0.0565539 -0.000391818 -0.00548092 -0.0357678 -0.0223497 0.00972888 0.0457073 -0.00456657 0.00603992 -0.024794 -0.00515758 -0.0110913 -0.0291612 -0.00688207 -0.0262322 0.0259914 -0.00126234 0.00043259 0.022761 -0.020675 -0.0178767 0.0466239 -0.0442001 -0.0236281 -0.0603427 -0.0581475 -0.0404811 0.0519372 0.0483945 -0.0306041 -0.00119693 -0.0325507 0.0119936 -0.0650258 -0.0163781 0.00637718 0.0238695 -0.0494127 -0.00533447 -0.0222151 -0.0423319 0.00129289 -0.0350811 -0.00392602 -0.0119357 -0.0181306 0.00187314 -0.00455031 -0.0240412 -0.0362435 0.00136976 -0.00588368
internal_weight=0 159140 112345 91047.3 52504.6 59840.1 68092.9 47398 24436.2 22961.8 65617.4 54813.5 43649.3 24368.1 21790.8 2475.58 703.362 18643.8 23983.1 19281.2 14707 23756.8 11524.3 12218.1 9729.14 14173.2 41196.3 8659.87 12232.5 24255.8 5854.05 6102.82 463.139 9572.78 8206.73 35812.8 24383 4011.32 28623.8 14371.9 3979.23 5670.23 8070.38 10621.3 11429.7 4500.9 1537.02 22718.8 19000.7 6499.1 5674.44 8797.62 5228.24 1772.22 5074.83 2253.08 4320.52 3020.8 7515.51 3853.9 3350.5 1170.99 913.946
internal_count=11725520 11259306 466214 3877564 221425 244789 7381742 2810482 1178052 1632430 7321225 5589425 1067082 708795 1623131 60517 15230 48253 680227 358287 833577 679504 313642 985906 344475 829652 196536 160180 365862 110316 195905 403446 4431 637225 613161 3818719 2525340 372745 118360 79479 349071 117737 426206 198107 1293379 155716 16348 93968 1770706 213935 194737 571458 188759 45287 115116 55196 154507 62137 151025 287274 296322 9299 7629
is_linear=0
shrinkage=0.05


Tree=6
num_leaves=64
num_cat=0
split_feature=1 1 20 1 20 20 20 10 4 1 13 1 1 16 20 16 13 1 16 10 20 2 13 13 13 16 4 20 3 1 3 2 6 10 4 1 16 9 4 10 13 4 16 1 10 13 1 20 21 20 16 7 2 17 1 1 10 10 1 0 13 13 16
split_gain=136896 25819.6 10649.8 4973.6 1625.91 1234.95 1234.1 1174.59 664.078 659.314 606.964 562.363 510.674 432.286 396.489 378.484 359.907 302.001 286.742 249.575 221.648 218.164 333.762 217.355 210.016 207.231 198.325 212.421 196.729 182.52 163.253 163.183 155.901 136.921 133.466 132.374 165.902 129.877 109.047 108.764 108.498 107.253 126.305 145.609 107.203 106.49 105.358 105.286 102.075 97.5814 115.89 89.027 111.754 86.8297 94.5247 85.4014 85.2899 85.1332 85.0331 83.2004 83.0415 83.0173 87.4313
threshold=1.0000000180025095e-35 1.03107225894928 2.5000000000000004 3.0085846185684209 5.5000000000000009 15.500000000000002 1.5000000000000002 1231.5000000000002 0.20513644814491275 2.004245519638062 0.017860610969364647 0.99655669927597057 1.9975603222846987 6.5000000000000009 19.500000000000004 1.5000000000000002 0.055150771513581283 1.0005486607551577 3.5000000000000004 201.50000000000003 9.5000000000000018 9.5000000000000018 0.075580272823572173 0.032896328717470176 0.011471630539745094 3.5000000000000004 0.030614355579018596 3.5000000000000004 71.500000000000014 6.9956457614898691 264.50000000000006 3364.5000000000005 1.0000000180025095e-35 235.50000000000003 0.29967688024044042 9.7768578529357928 9.5000000000000018 1.0014476180076601 0.17728545516729358 207.50000000000003 0.043445521965622909 0.06552560999989511 3.5000000000000004 9.5661506652832049 151.50000000000003 0.01998620014637709 2.5306770801544194 19.500000000000004 1.5000000000000002 24.500000000000004 3.5000000000000004 2.5806936025619511 614.50000000000011 0.26975052058696752 1.9421693086624148 1.1045541167259219 160.50000000000003 898.50000000000011 0.84591573476791393 381394.50000000006 0.11406452208757402 0.10474959015846254 1.5000000000000002
decision_type=2 2 10 2 10 10 10 10 2 2 2 2 2 2 10 2 2 2 2 10 10 2 2 2 2 2 2 10 2 2 2 2 10 10 2 2 2 2 2 10 2 2 2 2 8 2 2 10 10 10 2 2 2 2 2 2 8 8 2 2 2 2 2
left_child=2 5 6 7 26 10 48 9 16 12 38 58 53 19 15 40 24 -13 33 34 -6 -12 30 -17 39 32 28 -28 -4 57 -23 35 -10 -11 61 36 -26 -33 -2 -5 -9 -18 -43 -44 -20 -21 60 -46 -1 50 -39 -34 -53 54 55 -3 -15 -27 -7 -24 -25 62 -14
right_child=1 3 4 8 20 11 -8 14 25 18 21 17 13 56 -16 23 41 -19 44 45 -22 22 59 46 31 29 27 -29 -30 -31 -32 37 51 -35 -36 -37 -38 49 -40 -41 -42 42 43 -45 47 -47 -48 -49 -50 -51 -52 52 -54 -55 -56 -57 -58 -59 -60 -61 -62 -63 -64
leaf_value=0.070195379601252855 -0.0670844251351808 0.020023435782579632 0.037318454363176788 -0.0042749523978208364 0.025922461330207171 -0.03828449997875686 0.053066569022505387 -0.033702705698722822 -0.04155188088771726 0.0079286079268860426 -0.067732385364837513 0.055104721497618164 -0.0086857920085168724 -0.031520316270022934 -0.0014401028156575267 -0.053082757986037392 -0.0082182020698362435 -0.037424257290557636 -0.0073761573960622372 -0.047483068705726189 0.01770463468884417 -0.050356317447978131 -0.052438145952275986 -0.044928077834716945 -0.0014652869627197109 0.002452203831159263 0.044124163882812317 0.035462144585268612 0.0079874998574853556 0.012046089602570052 -0.057592807071803025 -0.037709940610216118 0.041660218436541302 -0.0080158509871893508 0.00096597798034546889 0.016398973329721522 -0.017684090918545361 -0.0058483131119931404 -0.057570921491822594 -0.044834323852411109 -0.014944730247691879 0.011236907225570511 -0.0053048960122489648 0.015158733177560136 -0.022630139468261715 -0.026105293064080479 -0.032397021834221482 0.019747046365545418 0.035985146740743185 0.031955324818779586 -0.019783954042260573 0.026084770282560423 0.010101929680524792 0.052687344015080899 0.058706404450584906 -0.012108126840847272 -0.044006514863506013 -0.010072275863185338 -0.015316728335016955 -0.041725947338310955 -0.015397363064463241 -0.0024266985016342616 -0.02686480667931064
leaf_weight=22739.213859382086 11980.908642932074 322.59616250358522 1258.2774948943406 223.53815528796986 18006.446257733274 1337.9472714602016 20862.246802816167 1252.2016764678992 118.17757112253457 2329.5485948398709 2501.435053446563 332.87820540508255 947.314080003649 2451.1012728665955 812.89670587540604 2978.5160736402031 2242.2924968143925 119.96517564728856 2062.9304246332031 666.44715807400644 15074.292387135327 12372.886277978541 2411.2145699337125 4046.397977268789 5505.4485318837687 3506.9589299332583 12530.46948545333 16265.227801491041 1047.6874970449135 3544.7542930133641 21058.615656713955 560.01750590000302 330.25992680061609 3190.5296114496887 1241.4120364314876 713.57589418627322 2209.5023870826699 2735.1246193516999 4023.7253788694507 634.31090180249885 2005.5610321266577 3595.263982645236 4089.0482875381131 1103.9775795051828 4274.4994548794348 4626.9289467297494 4768.2290221581934 151.77421928010881 220.15567825734615 120.70588218374178 3282.0894292281009 1561.5443081208505 3650.4504493721761 100.47539770649746 72.684053326025605 576.08941539097577 3094.0819964844268 2213.0017118304968 576.68137977086008 7301.5465059750713 252.94182557333261 708.25504319625907 2191.4364313571714
leaf_count=104186 1752152 2069 7642 6894 81178 36577 73771 159117 2371 75422 363470 2962 76387 130974 6575 248746 95744 1715 60123 66232 84395 1335304 257186 334831 178719 49268 42471 58490 13475 38792 2486468 25275 2747 168617 43012 10512 64403 107525 423178 46629 188310 93201 93620 14498 192301 369624 285215 909 571 611 112922 19114 57735 432 319 6030 211374 46688 13914 707890 14059 37741 131492
internal_value=0 -0.0308483 0.0428676 -0.0131241 0.0298941 -0.0549534 0.061869 -0.0246451 -0.000728177 -0.0186322 -0.0563142 -0.0195153 -0.024968 -0.0272162 -0.0354676 -0.037275 -0.0054047 0.0305924 -0.00966391 -0.021196 0.0221777 -0.0533765 -0.0525442 -0.0413641 -0.0101989 0.00773644 0.0381016 0.0392314 0.0239923 0.00313126 -0.0549146 -0.00883404 0.015274 -0.00128707 -0.013289 -0.00420455 -0.00611023 -0.0146597 -0.0646926 -0.0342654 -0.0221548 0.00154253 0.00403293 -0.000954564 -0.0167897 -0.0287968 -0.0375148 -0.0211771 0.0698673 -0.0125566 -0.0134495 0.0164857 0.0148905 0.00843865 0.0038617 -0.000574039 -0.0384873 -0.00239341 -0.0313667 -0.0443853 -0.0431907 -0.0178891 -0.0213782
internal_weight=0 151083 108004 87064.9 64182.4 64017.8 43821.6 45124.8 41940 29008.1 61650.3 2367.47 16998.8 15927 16116.7 15303.8 27014.9 452.843 12009.3 10381.8 33080.7 45645.7 43144.3 12046.1 15984.3 14925.1 31101.7 28795.7 2305.96 9264.71 33431.5 15126.5 5660.43 5520.08 5088.42 8428.53 7714.95 6697.94 16004.6 857.849 3257.76 11030.6 8788.29 5193.03 6489.2 5293.38 9067.57 4426.27 22959.4 6137.92 6017.21 5542.25 5211.99 1071.85 971.37 898.686 5545.18 5719.96 1914.63 9712.76 4299.34 3847.01 3138.75
internal_count=11724174 11257995 466179 3877179 287651 7380816 178528 2809911 1067268 1573058 7325648 55168 1075686 1066836 1236853 1230278 850553 4677 497372 724488 165573 5150318 4786848 882851 553490 216715 122078 100961 21117 134748 3821772 499967 81967 244039 288632 253634 243122 246333 2175330 53523 347427 297063 201319 108118 253333 435856 634105 193210 104757 221058 220447 79596 76849 8850 8418 8099 342348 95956 50491 965076 348890 245620 207879
is_linear=0
shrinkage=0.05


Tree=7
num_leaves=64
num_cat=0
split_feature=1 1 20 1 20 20 20 3 1 13 4 20 1 1 20 16 14 14 14 10 3 13 13 16 16 1 16 16 2 10 3 14 14 20 16 4 8 1 4 20 4 17 1 4 21 13 9 1 3 1 4 13 10 1 13 20 16 21 14 16 1 3 20
split_gain=117544 23302.1 9676.29 4263.21 1594.95 1266.64 1038.03 998.121 663.361 574.432 571.126 564.982 545.883 346.725 326.974 309.139 300.243 278.316 226.944 216.224 215.093 218.81 199.784 180.185 178.058 207.244 169.874 160.877 156.183 168.513 145.178 172.376 143.97 130.358 202.168 120.804 118.477 117.975 104.813 104.727 102.744 101.286 100.898 100.636 100.335 100.266 96.8696 94.793 93.0958 113.346 92.4429 92.3082 91.6706 83.703 82.6703 80.5902 79.804 79.0788 77.5383 74.6941 87.9514 70.5505 68.9076
threshold=1.0000000180025095e-35 1.0005486607551577 2.5000000000000004 3.0085846185684209 4.5000000000000009 1.5000000000000002 15.500000000000002 191.50000000000003 0.99655669927597057 0.026630224660038952 0.18646357953548434 19.500000000000004 2.5306770801544194 2.004245519638062 9.5000000000000018 2.5000000000000004 0.044241096824407584 0.033866446465253837 0.083424910902977004 2031.5000000000002 264.50000000000006 0.0047206953167915353 0.99945473670959484 5.5000000000000009 2.5000000000000004 1.2180279493331911 8.5000000000000018 4.5000000000000009 11.500000000000002 235.50000000000003 416.50000000000006 0.025123592466115955 0.027049892581999305 20.500000000000004 3.5000000000000004 0.14027077704668048 1.2151778936386111 8.7421188354492205 0.038469852879643447 5.5000000000000009 0.22881691157817843 0.069883722811937346 10.007739067077638 0.25009118020534521 1.5000000000000002 0.020752997137606147 1.0013895630836489 6.9956457614898691 3108.0000000000005 5.9959840774536142 0.064048908650875105 0.053194670006632812 2737.5000000000005 6.0212299823760995 0.0047206953167915353 19.500000000000004 2.5000000000000004 1.5000000000000002 0.074706375598907485 2.5000000000000004 5.9959840774536142 1360.5000000000002 7.5000000000000009
decision_type=2 2 10 2 10 10 10 2 2 2 2 8 2 2 10 2 2 2 2 10 2 2 2 2 2 2 2 2 2 10 2 2 2 10 2 2 10 2 2 10 2 2 2 2 10 2 2 2 2 2 2 2 8 2 2 10 2 10 2 2 2 2 10
left_child=2 6 5 7 44 57 9 13 38 43 16 12 17 24 35 54 20 45 28 32 -5 -22 26 36 -3 -26 30 40 -11 -30 -12 -32 -17 34 -18 -6 -19 52 -8 59 -15 -35 46 -2 50 -9 -41 -33 49 -36 -4 -27 -28 -50 -14 -10 -31 -1 -16 -23 -61 -56 -34
right_child=1 3 4 10 14 -7 8 11 55 18 22 -13 15 27 58 19 33 23 -20 -21 21 39 -24 -25 25 51 37 -29 29 56 31 47 62 41 48 -37 -38 -39 -40 42 -42 -43 -44 -45 -46 -47 -48 -49 53 -51 -52 -53 -54 -55 61 -57 -58 -59 -60 60 -62 -63 -64
leaf_value=0.067871951975915168 -0.062813536750708915 -0.0084666561890756019 0.033228113852220367 0.0038660359233229076 0.022208617900546346 0.050084276931600481 -0.058309397622815118 -0.058785141171416012 -0.0057718409523880099 -0.065380653689163223 0.017641466993026985 0.0019688277203713314 -0.060313849709230739 -0.002351184252631366 0.013423271868153201 -0.03609902880412099 0.0054347788884881636 0.047067624942559311 -0.043752255910193688 -0.038258603235784498 -0.062785141367497244 -0.0040435662967997126 0.052653198610723373 -0.041428168119590797 0.01516043542851133 -0.030817768149563125 -0.0021668515745203259 -0.012016187873739159 -0.045662307084618624 -0.050931373485370829 -0.017895772388847674 0.0048059447713423393 -0.012912979248604257 0.048932053223664895 -0.01084278494941459 0.029093724180176285 -0.027503970169034404 0.010378455643829249 -0.025240328380624885 -0.067144386371999376 0.016670526883306988 0.0089786858962618947 -0.0022599015553087859 -0.053047728328696198 0.032026415285730588 -0.0426002789001447 -0.024407208684716568 0.02032664036746909 -0.025092607155133662 0.0045740752602902827 0.042068776656090823 -0.018407790948803422 -0.02223041498307414 -0.0065027408725517218 -0.0071982798143701496 0.06102519727999324 -0.057370259282962834 0.035447491947260629 0.020900943900673208 -0.022221308293470479 -0.0063721649048846633 -0.019337496723964551 -0.028486802195189766
leaf_weight=21074.359054031782 16552.760355537524 3004.9396815705113 3721.6940241428092 1838.5836576428264 13468.193485305645 20134.249346330762 282.80389523063786 1367.9931593425572 55.009993056301028 2298.0601833851542 3741.1744317174889 1429.7734883194789 91.731741783674806 1787.9451121257152 9485.7485736249946 1359.4272000477649 5280.5233261410613 53.779648832976818 8893.6372155803256 3613.0126312344801 232.46251257671975 2751.7307588793337 232.36986887268722 3364.3634633938782 333.44842789974064 3385.6464667492546 3358.8355123286601 2501.040921844542 7914.2441474786028 9128.8027146579698 713.87131276912987 4591.5077480298933 2682.8941475832835 192.09393348544836 2467.1948617282324 12089.779755150899 5545.4999382244423 1626.3347088305745 1568.9304255025927 143.1200279709883 1177.369586427696 910.55949302949011 494.60573331848718 3138.1552264448255 4661.1926487172022 3184.4822027108166 1802.3876721118577 1252.0294982043561 1163.9139164190274 2307.0422246358357 14390.243925671093 2688.1902364892885 685.50922734185588 1262.1436240815092 2790.9813000988215 252.05847342312336 10176.889176480472 189.73487015068531 5463.4998888401315 1929.573408878292 1602.1043249238282 2095.590020025149 965.99220609804615
leaf_count=104200 2439704 200084 30856 51079 75114 73750 11705 154797 1623 366678 47554 13052 12649 75338 59439 85540 175260 1151 930828 241597 23992 128075 892 250306 2761 198780 58036 84309 895811 1428294 18242 79057 111156 863 78445 37398 479170 17195 38761 9032 23911 4639 12662 324809 10129 338112 78791 13295 46530 53704 49754 130143 19109 32862 173218 1411 941734 517 24850 71161 44787 176238 59431
internal_value=0 -0.029323 0.0402774 -0.0123031 0.0279817 0.0590722 -0.0530485 -0.0231918 -0.0190041 -0.0543135 -0.000651066 -0.0286646 -0.0302798 -0.0126919 0.0220299 -0.0232074 -0.00548679 -0.037396 -0.0507539 -0.0289358 -0.0117114 -0.0149093 0.00662509 -0.0322828 -0.0185087 -0.0232183 0.00595533 -0.00267626 -0.0528635 -0.0518067 0.00978199 0.00529795 -0.0222103 -0.000540219 -0.00199612 0.0254655 -0.0267877 -0.000994309 -0.0302908 -0.0136335 0.00520133 0.015939 -0.0224247 -0.0612572 0.0385685 -0.0474637 -0.0275511 0.00813139 -0.00744577 -0.00339294 0.0402522 -0.0253253 -0.00556759 -0.0154213 -0.0132869 0.0490588 -0.0543256 0.0675826 0.0161561 -0.0102195 -0.0150315 -0.0124041 -0.0170359
internal_weight=0 144265 104679 84003.8 63280.4 41398.3 60261.4 43424.1 2158.8 58102.5 40579.7 28545.5 27115.7 14878.6 40507.2 13599.6 24378 13516.1 38411.6 8621.33 10794.6 8955.98 16201.6 8963.64 9412.22 6407.29 15969.3 5466.36 29518 27219.9 10298.6 6557.41 5008.31 13583.5 12480.8 25558 5599.28 5670.68 1851.73 8723.52 2965.31 1102.65 2440.11 19690.9 22773.1 4552.48 1945.51 5843.54 7200.29 4774.24 18111.9 6073.84 4044.34 2426.06 4978.3 307.068 19305.7 21264.1 14949.2 6283.41 3531.68 4886.57 3648.89
internal_count=11724370 11258363 466007 3877005 287540 178467 7381358 2811743 53500 7327858 1065262 2096417 2083365 715326 196801 859829 811882 1223536 4563345 497724 419579 368500 253380 730627 531768 331684 252488 183558 3632517 3265839 158148 110594 256127 392303 386801 112512 480321 94340 50466 344508 99249 5502 100485 2764513 90739 492909 87823 92352 211541 132149 80610 328923 77145 79392 362105 3034 2370028 104717 84289 244023 115948 349456 170587
is_linear=0
shrinkage=0.05


Tree=8
num_leaves=64
num_cat=0
split_feature=1 20 14 1 1 20 1 1 3 20 3 20 1 13 1 3 1 10 1 11 16 20 13 20 20 20 16 20 13 20 4 1 13 3 1 4 16 20 7 21 16 14 16 16 20 1 20 16 4 3 4 20 15 21 13 10 1 4 16 3 21 1 14
split_gain=104772 8298.82 5186.55 11817.8 5368.84 2070.3 1752.39 1017.78 629.54 547.53 496.586 492.606 428.94 428.7 399.161 418.775 354.173 349.118 306.286 276.85 263.562 276.649 251.479 181.499 171.586 169.985 166.451 166.153 164.515 159.281 156.968 206.237 136.29 128.488 127.073 119.509 117.978 135.646 116.713 113.035 110.632 103.094 101.543 98.8717 97.0717 102.407 94.7955 107.622 94.4914 90.8354 89.1013 85.1398 81.7722 81.1591 78.2914 77.8216 76.4144 72.0686 79.7948 71.2803 69.6615 71.4394 68.62
threshold=1.0000000180025095e-35 3.5000000000000004 0.01950164791196585 2.004245519638062 1.0456414818763735 1.5000000000000002 1.0005486607551577 3.0085846185684209 209.50000000000003 18.500000000000004 908.50000000000011 5.5000000000000009 2.004245519638062 0.0064963200129568585 1.9975603222846987 264.50000000000006 0.98545894026756298 737.50000000000011 3.0085846185684209 43.500000000000007 3.5000000000000004 19.500000000000004 0.095593813806772246 3.5000000000000004 13.500000000000002 2.5000000000000004 5.5000000000000009 1.5000000000000002 0.035349816083908088 1.5000000000000002 0.21238743513822558 6.6388180255889901 0.28616924583911901 71.500000000000014 1.0604717731475832 0.062632806599140181 2.5000000000000004 19.500000000000004 1.0007861852645876 1.5000000000000002 5.5000000000000009 0.13645491003990176 2.5000000000000004 12.500000000000002 16.500000000000004 0.96359342336654674 20.500000000000004 11.500000000000002 0.064048908650875105 2414.5000000000005 0.08928988873958589 17.500000000000004 0.059114735573530204 1.5000000000000002 0.67006802558898937 1556.5000000000002 3.0085846185684209 0.38054889440536505 2.5000000000000004 104.50000000000001 3.5000000000000004 0.87583595514297496 0.015908090397715572
decision_type=2 10 2 2 2 10 2 2 2 10 2 10 2 2 2 2 2 8 2 8 2 8 2 10 10 10 2 8 2 10 2 2 2 2 2 2 2 10 2 10 2 2 2 2 10 2 10 2 2 2 2 10 2 10 2 10 2 2 2 2 10 2 2
left_child=1 5 4 6 19 -1 9 10 12 22 27 -3 34 -10 -8 29 -11 26 42 28 38 30 33 32 35 48 -9 -5 59 -16 31 49 -17 -4 -6 -13 -12 -38 -19 62 -36 -32 -15 -33 -21 -46 47 -29 -7 -22 52 -42 -40 -27 -50 -20 -14 58 -35 -2 -30 -62 -37
right_child=2 11 3 7 8 25 14 17 13 16 36 24 56 18 15 23 -18 20 55 44 21 -23 -24 -25 -26 53 -28 46 60 -31 41 43 -34 57 40 39 37 -39 50 -41 51 -43 -44 -45 45 -47 -48 -49 54 -51 -52 -53 -54 -55 -56 -57 -58 -59 -60 -61 61 -63 -64
leaf_value=0.065473607375667209 -0.052531582940349167 0.030959360101813146 -0.035057673455235555 0.0048523922879429556 0.05536144016585548 0.040554740487600424 0.0025966150455967417 0.016003317378180389 -0.061515481387304609 -0.025571299135551728 -0.016603059185498925 0.014983868469414824 -0.0079603214000134627 -0.025792376069425652 -9.1124372758019157e-05 -0.029799712781444988 0.04917531458061581 0.056199869170945597 -0.0095494128275643957 -0.06258327407914735 -0.013069081034859868 0.019244477250121267 -0.036761498602047228 -0.043026410268370396 0.01306135848509838 0.042149579633694041 0.0028714932527984498 -0.0083965652888171732 -0.046722395844037111 -0.02134202160164729 -0.0026602580879389244 0.0015277968466255562 0.026939792643124939 -0.048605031257097815 -0.017290328725279025 0.019620488594609783 -0.032486550297722148 0.019150967141056185 -0.0094387059678602853 0.020304415520412171 -0.035393790182630662 0.028043344870180977 -0.042349420412086253 -0.014896565619812466 -0.052170992232558777 0.017134894565485233 0.028273507112261616 -0.024939046392655609 0.048819525029019741 -0.026543570758342114 0.0057986385376966832 -0.0063708831801856632 0.013204996797971874 0.031300947060407876 0.067825545282622746 -0.024869139505704411 0.0045693132910088726 -0.041270650188716757 -0.054739545998884358 -0.061524270330301056 -0.051313839371887528 -0.0030673980121664621 0.029669349306504861
leaf_weight=19706.383693375625 5829.2325579591561 16999.754904260859 1329.8394322893582 2209.5577840944752 51.578444663435221 3634.7241368433461 1137.2544194641523 4354.9916709535755 1039.5516293554101 1065.8277620261069 2293.8946545608342 4655.6998533084989 2732.9571467799833 1431.2915128646418 1203.3316549654119 5733.8751751448726 186.15984910400584 104.3768337816 1930.2555504556512 11311.372294785688 2739.1891021276824 932.07138400949771 4084.1503551851492 3599.0831320324214 6326.7817333256826 10626.50153738074 5411.7566932309419 3925.6207864012104 6076.0635158127407 3299.53057896276 3275.2105598741909 2678.271494661225 107.82589889597148 10041.736882205121 3080.0252946312539 2143.8445684527978 3903.6758143559564 131.46270541474223 2048.7022499116138 11027.296915739775 2021.2321892656619 298.29709013085812 2623.2547570085153 1392.800821850542 176.75268781557679 76.312098083086312 146.24672332964838 1311.7290893442696 15297.200380519032 2301.768657798646 7491.8797537598293 288.79637561016716 495.04703617095947 2057.8018331760541 561.73805916681886 1452.9571144778747 2193.522153029684 1743.950338782277 11228.280207266915 3542.8793918762822 129.42100933240727 188.44709365116432 8184.6998287597671
leaf_count=104529 757606 70784 131003 92629 260 25580 9952 76182 113331 27183 179936 42350 108231 193692 65139 505963 1310 488 67941 1842531 98081 4760 400342 330776 38708 46872 81551 158131 837012 182796 59940 64748 3320 1568621 222182 13747 252947 913 105562 31892 129195 3192 224592 39850 7022 1152 771 63879 47308 99291 182617 5762 21799 4565 1109 75861 51823 146286 1066140 586254 3456 5154 38821
internal_value=0 0.03875 -0.0281863 -0.0213363 -0.0418649 0.0527109 -0.0397655 -0.00395019 -0.0213333 -0.0468176 -0.0153139 0.0240686 -0.0130699 -0.0314398 -0.0258866 -0.0282098 -0.0144571 0.000769006 -0.0272362 -0.0560223 -0.00250251 -0.00704693 -0.0482428 -0.0341941 0.0204463 0.0448947 0.00872697 -0.00669267 -0.0517124 -0.015663 -0.0089787 -0.0124618 -0.0287524 -0.050169 -0.0227465 0.0222425 -0.0256572 -0.0308042 0.00360046 0.0238249 -0.0234939 -9.72874e-05 -0.0365046 -0.00409133 -0.0618981 -0.0312717 -0.011431 -0.0125397 0.0478262 -0.0192217 0.00305339 -0.0317654 -0.00503194 0.0403896 0.0494927 -0.0161286 -0.00238148 -0.0510422 -0.0518434 -0.055931 -0.0455287 -0.0227111 0.0275836
internal_weight=0 101222 138383 92207.4 46175.9 51884.3 44760.8 47446.6 18845.4 29679.9 13922.2 49338.1 10368.1 8477.31 15080.9 13943.6 1251.99 33524.4 7437.76 27330.5 23757.6 13617.6 28428 9440.78 32338.3 32178 9766.75 7593.15 15766 4502.86 12685.5 9112.03 5841.7 24343.8 5441.63 26011.5 6329.03 4035.14 10140 21355.8 5390.05 3573.51 4054.55 4071.07 11564.4 253.065 5383.6 5237.35 19493.7 5040.96 10035.6 2310.03 2543.75 12684.3 15858.9 3383.21 4926.48 23014 21270 9372.11 6393.93 317.868 10328.5
internal_count=11725420 466265 11259155 6026098 5233057 229963 4438831 1587267 1192870 3340885 749206 236302 517453 675417 1097946 1087994 28493 838061 562086 4040187 680328 369862 3312392 840059 165518 125434 157733 315410 2189482 247935 365102 301970 509283 2912050 357399 126810 433796 253860 310466 84460 357139 63132 418284 104598 1850705 8174 222781 222010 73997 197372 309978 134957 127361 51437 48417 143802 160054 2781047 2634761 1343860 845622 8610 52568
is_linear=0
shrinkage=0.05


Tree=9
num_leaves=64
num_cat=0
split_feature=13 1 1 20 1 1 1 20 20 10 20 1 4 10 1 20 1 14 14 1 20 13 1 16 1 20 8 4 1 16 16 20 13 16 3 20 3 2 10 4 21 1 20 7 1 1 10 3 11 8 16 4 13 3 16 10 21 0 10 20 16 4 14
split_gain=15371.2 78942.6 14228 7615.43 3108.32 3027.08 1658.95 1128.62 1009.19 772.353 691.233 427.963 377.682 365.122 298.12 283.885 259.51 251.28 242.935 236.848 312.124 226.584 220.636 211.828 203.791 202.032 153.727 152.492 148.878 252.895 139.155 134.643 127.96 110.294 110.027 105.978 121.339 104.62 125.026 104.114 131.122 98.6893 96.6133 90.4408 89.4572 88.6837 86.9668 86.8862 85.299 81.5868 80.1383 77.2854 76.4838 76.0506 72.9764 71.3306 70.2763 70.0927 69.9417 69.4082 68.085 67.8653 67.2463
threshold=0.013515759725123646 1.0000000180025095e-35 1.03107225894928 2.5000000000000004 3.0085846185684209 1.0000000180025095e-35 1.0005486607551577 4.5000000000000009 1.5000000000000002 566.50000000000011 17.500000000000004 0.98545894026756298 0.20747344195842746 170.50000000000003 2.004245519638062 10.500000000000002 1.9975603222846987 0.011778579559177162 0.070436317473649993 1.9975603222846987 1.5000000000000002 0.070467740297317519 2.004245519638062 8.5000000000000018 1.0005486607551577 3.5000000000000004 1.0000000180025095e-35 0.24918929487466815 6.0212299823760995 6.5000000000000009 4.5000000000000009 1.5000000000000002 0.0028436121065169577 1.5000000000000002 77.500000000000014 19.500000000000004 1615.5000000000002 9.5000000000000018 241.50000000000003 0.062089188024401672 1.5000000000000002 9.5661506652832049 19.500000000000004 1.0007861852645876 3.8129488229751591 2.9720200300216679 5832.5000000000009 1646.5000000000002 17.500000000000004 1.0000000180025095e-35 3.5000000000000004 0.10013755410909654 0.095593813806772246 204.50000000000003 10.500000000000002 3841.5000000000005 1.5000000000000002 637627.00000000012 70.500000000000014 19.500000000000004 8.5000000000000018 0.051014987751841552 0.029861710034310821
decision_type=2 2 2 10 2 2 2 10 10 10 10 2 2 10 2 10 2 2 2 2 10 2 2 2 2 10 10 2 2 2 2 10 2 2 2 10 2 2 10 2 10 2 8 2 2 2 10 2 8 8 2 2 2 2 2 10 10 2 10 10 2 2 2
left_child=5 3 10 8 9 25 48 49 -2 14 18 -12 21 27 16 39 -4 32 37 -11 43 28 60 34 -13 -1 -14 -8 29 33 -28 -16 -15 -6 -18 36 54 -3 -39 -9 -41 53 47 -21 -19 -45 -35 -31 -7 -5 -29 -36 -20 -32 -24 -30 61 -40 -33 -60 -22 -51 -59
right_child=1 2 4 7 12 6 13 15 -10 19 11 24 26 17 31 -17 23 44 52 20 22 -23 35 -25 -26 -27 30 50 55 42 41 58 -34 46 51 -37 -38 38 57 40 -42 -43 -44 45 -46 -47 -48 -49 -50 56 -52 -53 -54 -55 -56 -57 -58 62 59 -61 -62 -63 -64
leaf_value=0.046148573814606984 0.063673121114090778 -0.062551603268169095 0.010296740036571111 0.069649642157460376 0.0029809795884506917 -0.054555791553914407 -0.024573179544705878 0.017258660500078626 0.047058713442181294 -0.0012324390215975639 -0.029731297425551913 0.048448169416424547 0.051001054063288635 -0.067024474632678674 0.0058753082890790525 0.014800865851729642 -0.0080154712833188976 -0.033842677013497822 -0.044917713323655482 0.069671694504245762 -0.036193054567708924 0.0045855521439618812 -0.016898121283750806 -0.033642562323807246 -0.036786951307437657 0.0090182667351360584 0.011797235192821248 0.012514709366697499 0.0054888547406985559 -0.016386599634065795 0.0080611986210976528 0.0026755476813352052 -0.04057642901720148 -0.0051958539888375035 -0.031271605719608728 0.0073526043519092686 -0.034931532248868358 -0.04505991769179634 -0.056017955741766406 0.029010464071584991 0.021253291790712683 0.013909936829495026 0.013251946452254039 -0.02604759751165861 -0.0019846877231750521 -0.013356370505735186 -0.018491691693643102 -0.032462127994672962 -0.063297538515906901 0.029122064850008234 -0.012941026931994521 -0.0167092515325118 -0.035931091585951272 -0.0049913158780339134 -0.033317515656174509 -0.0060416983304965935 0.029661895015126671 -0.054344732878591644 -0.01353118992284387 0.028384025869718846 -0.047278091962431178 0.038046645391340846 -0.046564275137586389
leaf_weight=666.54943206906319 18199.785586682148 1773.1171710384078 717.56570946238935 173.89493856206536 2843.7858033468947 4690.6278318041004 1796.550305747427 4588.9991050655954 18360.548701948952 809.14505751500838 1630.0587091036141 299.67358660046011 192.19828652963042 696.69069556123577 1988.080641734181 11828.563553412445 2484.4782378387172 434.56656228960492 7358.6744482549839 28.658027611672878 4203.8365040706703 5794.9262565739919 2467.4114799229428 2411.8594995725434 91.551693583838642 813.45810850569978 5630.3725267588161 546.94154086103663 2911.9844568558037 2215.0205588446697 1516.7076973635703 945.17228901595809 1331.0883814410772 4352.8987571927719 1326.3844136931002 219.0421249056235 3232.4965169490315 8701.8708071046276 7595.4203592657577 12166.610623729415 9864.5665003526956 1260.0556087726727 199.68082581181079 2620.9628778155893 447.02076292480342 2899.0541116697714 1714.2177376837935 1354.5662517177407 6888.8005309775472 2498.7976796394214 711.22045866004191 2910.1541797152022 3490.8113263612613 4223.7665381648112 932.45666264172178 2486.6057129033143 4438.196007842198 4774.5653726485325 3864.6862599182641 101.35618609096855 2065.980425426038 14439.220631081611 6638.3718749363907
leaf_count=3770 103036 332679 6681 334 137274 698807 108474 41359 72670 7481 48716 2605 776 83137 79203 69606 142951 38233 920091 162 419657 149779 151426 157669 1598 4313 86489 16526 58749 81123 19669 26806 118000 151634 151923 1454 244084 1118532 1110389 56416 26029 12237 1429 290012 14990 216706 68339 69869 1244045 24444 24562 176283 354718 77912 62402 69894 9722 738333 165013 724 186004 54783 812316
internal_value=0 0.00399071 -0.0239439 0.0373412 -0.0105573 -0.0429287 -0.0487218 0.0263801 0.0553294 -0.0209464 -0.0469932 -0.0184601 -0.000300607 -0.0272978 -0.0130736 0.0212461 -0.0186562 -0.0399744 -0.0484232 -0.0277161 -0.0288639 -0.00401815 -0.033068 -0.020931 0.0285021 0.0257406 0.00662061 -0.0152244 -0.00677596 -0.00973655 0.0059453 -0.00510305 -0.0496633 -0.0051441 -0.0163694 -0.0268656 -0.0279957 -0.0507772 -0.0500237 0.02411 0.0255372 0.00123871 -0.0205935 -0.0189224 -0.0176887 -0.0193823 -0.00895249 -0.0224868 -0.0597564 0.03554 -0.00187504 -0.0212685 -0.0420263 -0.00154267 -0.0214013 0.00017785 0.0352625 -0.0522961 -0.00954714 -0.01246 -0.0398457 0.03673 -0.0498192
internal_weight=0 211839 115280 96559.2 72925.6 19023.5 17543.5 59998.8 36560.3 36228.8 42354.1 2021.28 36696.8 5964.08 16749.7 38448.7 9850.44 2909.37 40332.8 19479 18669.9 23873.7 13121.2 9132.88 391.225 1480.01 12823.1 3054.71 18078.8 12680.2 12630.9 6899.3 2027.78 8910.9 6721.02 6851.41 6632.36 29483.3 27710.2 26620.2 22031.2 7000.53 3769.27 5548.68 881.587 5520.02 6067.12 3569.59 11579.4 21550.1 1258.16 4236.54 10849.5 5740.47 3399.87 5398.59 21376.2 19008.4 4911.21 3966.04 6269.82 16938 11412.9
internal_count=11725047 9370190 8911791 458399 3471814 2354857 2346774 282693 175706 2486641 5439977 52919 985173 403922 907253 193410 635507 254360 5387058 1579388 1571907 788090 1065027 628826 4203 8083 197083 149562 638311 509668 196307 271746 201137 357247 471157 459366 457912 4112249 3779570 123804 82445 109818 152421 506880 53223 506718 219973 150992 1942852 89283 41088 328206 1274809 97581 213828 128643 88949 2661038 192543 165737 605661 79227 1550649
is_linear=0
shrinkage=0.05


Tree=10
num_leaves=64
num_cat=0
split_feature=1 1 20 1 20 20 16 2 20 13 4 1 1 20 16 1 16 4 3 16 13 20 1 20 3 14 20 16 20 14 13 1 20 0 4 2 9 2 3 11 1 13 4 1 20 14 4 4 21 12 16 2 11 21 4 13 1 14 15 7 4 13 13
split_gain=81195.3 16291.1 6899.39 2991.06 997.503 842.674 687.353 616.399 500.518 451.861 415.181 404.096 391.908 302.385 313.149 299.905 291.884 210.298 222.802 207.82 205.402 203.687 187.608 172.254 167.013 166.304 142.123 139.481 210.986 139.13 127.02 102.769 97.747 96.1794 95.8868 95.7042 135.361 86.7987 83.8249 82.7785 81.7602 81.4393 77.7508 185.095 77.462 76.2484 73.7907 73.462 72.5053 71.7639 71.3111 68.4199 66.6973 65.4994 72.1508 64.5967 63.847 63.8208 62.576 62.5161 61.8505 61.5083 60.9702
threshold=1.0000000180025095e-35 1.03107225894928 2.5000000000000004 3.0085846185684209 5.5000000000000009 17.500000000000004 1.5000000000000002 1163.5000000000002 1.5000000000000002 0.017860610969364647 0.15259326249361041 0.99655669927597057 2.004245519638062 19.500000000000004 1.5000000000000002 1.9975603222846987 6.5000000000000009 0.029057541862130169 183.50000000000003 5.5000000000000009 0.025941581465303901 3.5000000000000004 1.0005486607551577 3.5000000000000004 71.500000000000014 0.035214152187109 11.500000000000002 5.5000000000000009 19.500000000000004 0.067545838654041304 0.067915905267000212 7.0647778511047372 19.500000000000004 361114.50000000006 0.21028304100036624 369.50000000000006 1.0013228058815005 6193.0000000000009 613.50000000000011 58.500000000000007 6.9956457614898691 0.021835535764694217 0.34211288392543798 10.007739067077638 3.5000000000000004 0.017435527406632904 0.14845082908868792 0.095261357724666609 1.5000000000000002 6.5000000000000009 51.500000000000007 8.5000000000000018 213.50000000000003 1.5000000000000002 0.080357793718576445 0.67006802558898937 11.422955036163332 0.025539679452776912 0.057233849540352828 2.9857181310653691 0.12870067358016971 0.0064963200129568585 0.33302180469036108
decision_type=2 2 10 2 10 10 2 2 8 2 2 2 2 10 2 2 2 2 2 2 2 10 2 10 2 2 10 2 10 2 2 2 10 2 2 2 2 2 2 8 2 2 2 2 10 2 2 2 10 8 2 2 10 10 2 2 2 2 2 2 2 2 2
left_child=2 5 6 7 23 9 -1 12 48 39 20 52 15 14 41 50 24 -11 33 34 57 29 -13 -4 -17 61 53 38 31 35 -20 37 -21 -19 -14 -12 -37 -29 -22 -2 58 -9 43 -23 -27 -26 -25 -10 -8 60 -3 -35 -7 54 -6 -49 -30 -5 -40 -42 -28 -16 -31
right_child=1 3 4 10 26 11 8 13 47 17 21 22 19 -15 25 16 -18 18 30 32 27 42 -24 46 45 44 49 28 56 62 -32 -33 -34 51 -36 36 -38 -39 40 -41 59 -43 -44 -45 -46 -47 -48 55 -50 -51 -52 -53 -54 -55 -56 -57 -58 -59 -60 -61 -62 -63 -64
leaf_value=0.06330178208162994 -0.053596140379907432 0.018825429718340371 0.036114720436264756 -0.025662582494245759 0.017690500888495147 -0.031329085788177405 0.060796156801883064 -0.042041878779493468 0.039222757253174895 -0.056758952432073184 0.018234625739304705 0.053836920806260673 -0.0072963255224799718 0.0011209404883840213 -0.066095286967400954 -0.0083564012826565538 -0.033620598397151757 -0.047135025121946499 -0.049994679947268542 -0.019176542192489057 0.0089070823275274342 -0.008338427719343405 -0.033658947398552901 0.025219516557811673 -0.031427269886870196 -0.025648435504526425 -0.0023782174369029055 -0.01360592507004822 0.0041012501949063106 0.015291802686564136 -0.040864058327571839 -0.0040278760128728145 0.01475652687036965 -0.059254081892405545 0.0059511836968254624 -0.034219536526517123 0.0036518327089691926 -0.030426046396015746 -0.0078188910018131951 -0.061819892513031507 -0.0095422848126236123 -0.013836342250826984 0.0059048871213668135 0.014081192405534099 -0.035505096275361546 -0.018974604119247691 0.03199313646080202 0.045252439163556812 0.029280578183849174 0.0160050146535838 -0.0097728448033377671 -0.035503434656180687 -0.0063990477280343036 0.017993335149256696 0.026213333349047591 0.064025961413525859 0.032815342876157921 -0.0073550508914043793 0.0059558770980676461 0.015578169348235563 0.014008232420616662 -0.041417120219754237 0.041412155773230777
leaf_weight=10562.953730290756 6605.9159608376212 512.43428671034053 11931.670534859411 1675.9748625620268 3646.3959394255653 1300.7609662713949 6352.6762872291729 281.45794110791758 6000.3517039483413 4283.5322561208159 1079.0446655843407 263.33546798024327 3688.1193100092933 797.38755314401351 273.71155370026827 2986.8046428824309 4503.4932595185237 2818.7121680852724 16733.140224703355 3716.9321988956071 1903.6511785138864 5332.9777487270185 79.840880120173097 9109.9974481509998 1812.7268402688205 4222.0930719850585 1134.7189951809123 3351.3504371935269 828.089136936469 3082.3203316107392 4931.6114935762016 2120.1523590122815 225.07643585000187 315.42430790956132 2169.3976177885197 247.10155364545062 5226.0995887804311 994.63361516606528 4764.8485086876899 5700.5717369050253 341.1581042567268 2820.606060128659 2509.8804047275335 1112.6954505462199 3775.9334806167753 3819.1557493167929 7197.124687963631 11509.973568591755 187.89643675275147 7640.979522717651 379.34812125889584 7843.2079600463621 338.00391176948324 10273.722051859833 7784.4537944030017 477.20080719515681 252.66139865014702 664.89425131888129 996.99113384308293 903.82570818951353 1169.2203749986365 3256.964739313582 240.8667578343302
leaf_count=83662 1058943 4301 51346 101692 37884 42338 20417 52482 37452 986506 15597 1829 218523 7025 35254 179025 323276 365571 2283752 172974 62676 128038 1668 49832 209799 280863 10086 128487 4605 45526 570161 58137 1495 47727 59710 7755 102325 48416 214685 1117933 8764 321937 35936 13128 329016 293243 21000 35544 520 43538 4211 897463 7863 30975 38021 1051 955 25189 39018 24484 5188 316213 1398
internal_value=0 -0.0259747 0.0350334 -0.0114197 0.0247179 -0.0478212 0.0526383 -0.0210778 0.048046 -0.0491081 -0.0013478 -0.0158555 -0.0160338 -0.0288632 -0.0304974 -0.0213976 -0.0233044 -0.0463427 -0.0449758 -0.00836324 -0.00660439 0.00389964 0.0334808 0.0315494 -0.017914 -0.0342918 0.0186226 -0.00463323 -0.00963488 0.00885168 -0.0479162 -0.0130527 -0.0172391 -0.0391726 -0.00238996 0.00462515 0.00194203 -0.0174554 -0.000396991 -0.0574055 -0.00292477 -0.0163955 -0.00156104 -0.0044682 -0.0303018 -0.0229827 0.028209 0.0437391 0.0598908 0.0136727 0.00666024 -0.0364217 -0.0261871 0.0208906 0.0234946 0.0459998 0.0108141 -0.0204626 -0.0054354 0.00869451 0.0059377 -0.0433303 0.017185
internal_weight=0 128085 94979.3 76870.9 59888.3 51214.1 35091.1 39241.6 24528.1 49232.1 37629.2 1981.94 23813.5 15428.2 14630.8 14014 13122.2 36925.6 32642.1 9799.53 18798.2 18831 343.176 28238.8 8618.69 11528.7 31649.5 16457.4 7546.89 9875.43 21664.8 6466.14 3942.01 10977.3 5857.52 6552.25 5473.2 4345.98 8910.47 12306.5 7006.82 3102.06 8955.55 6445.67 7998.03 5631.88 16307.1 17987.5 6540.57 9944.92 891.782 8158.63 1638.76 21704.6 11430.8 11987.2 1080.75 2340.87 5761.84 1244.98 2303.94 3530.68 3323.19
internal_count=11724428 11257912 466516 3876158 287870 7381754 178646 2809347 94984 7328056 1066811 53698 1466557 1342790 1335765 1013855 1005343 5151180 4164674 452702 717108 349703 3497 122178 682067 961346 165692 590227 240600 172601 2853913 235040 174469 1310761 278233 125677 110080 176903 349627 2176876 286951 374419 177102 141166 609879 503042 70832 74047 20937 58812 8512 945190 50201 106880 75905 36595 5560 126881 253703 33248 15274 351467 46924
is_linear=0
shrinkage=0.05


Tree=11
num_leaves=64
num_cat=0
split_feature=1 1 16 1 16 3 16 13 16 4 16 1 1 16 1 14 16 13 14 1 14 8 7 4 16 16 8 0 13 16 1 4 2 4 1 1 3 16 4 4 3 3 4 1 4 8 7 14 11 1 16 15 4 2 3 17 16 1 12 17 16 9 13
split_gain=73247.9 14706.3 5795.79 2662.05 924.385 639.818 627.739 523.446 412.766 387.469 387.163 317.66 320.343 220.444 240.302 216.107 181.629 181.114 167.692 157.395 143.473 134.027 133.454 125.615 123.978 204.904 121.235 119.396 114.536 108.62 107.888 107.454 105.756 98.3254 93.9013 91.3304 91.1572 89.9289 85.6051 81.0569 79.9464 79.6152 79.0158 78.1922 77.3786 74.7079 74.5398 69.6849 68.6679 68.3585 106.841 68.0006 67.2385 67.0344 86.5854 66.6973 66.0178 66.3156 64.6979 64.1245 62.8741 62.4962 58.7657
threshold=1.0000000180025095e-35 1.0005486607551577 4.5000000000000009 3.0085846185684209 1.5000000000000002 786.50000000000011 10.500000000000002 0.017860610969364647 2.5000000000000004 0.14139255881309512 21.500000000000004 1.9975603222846987 2.004245519638062 1.5000000000000002 1.9975603222846987 0.067545838654041304 2.5000000000000004 0.024985541589558128 0.070436317473649993 2.9720200300216679 0.01950164791196585 1.0000000180025095e-35 1.0007861852645876 0.34211288392543798 46.500000000000007 5.5000000000000009 1.0000000180025095e-35 637627.00000000012 0.10226110741496088 6.5000000000000009 2.004245519638062 0.19656842201948169 10735.000000000002 0.060467720031738288 2.9720200300216679 5.0214498043060312 98.500000000000014 4.5000000000000009 0.17728545516729358 0.14027077704668048 4214.0000000000009 159.50000000000003 0.34902504086494451 9.7768578529357928 0.13059476017951968 0.70834985375404369 3.1977497339248662 0.040033388882875449 1695.0000000000002 6.0212299823760995 6.5000000000000009 0.023230803199112419 0.051757920533418662 10.500000000000002 101.50000000000001 0.26713615655899053 4.5000000000000009 8.0375399589538592 49.500000000000007 0.087167583405971541 18.500000000000004 1.0008998513221743 0.012995054479688408
decision_type=2 2 2 2 2 2 2 2 2 2 2 2 2 2 2 2 2 2 2 2 2 8 2 2 2 2 8 2 2 2 2 2 2 2 2 2 2 2 2 2 2 2 2 2 2 8 2 2 8 2 2 2 2 2 2 2 2 2 10 2 2 2 2
left_child=2 7 4 5 -1 8 26 38 19 17 18 55 28 47 -15 23 52 -5 27 41 -16 -17 -8 32 25 46 -4 -9 39 -28 -22 53 49 -24 -32 -27 -14 -23 -2 -13 -37 -3 -20 -39 -21 -18 48 -7 58 50 -11 -34 -6 -29 -55 -10 -25 -58 -19 -26 -35 -49 -38
right_child=1 3 6 9 16 13 22 10 11 15 -12 12 36 14 20 21 45 24 42 44 30 37 33 56 59 35 29 31 -30 -31 34 -33 51 60 -36 40 62 43 -40 -41 -42 -43 -44 -45 -46 -47 -48 61 -50 -51 -52 -53 -54 54 -56 -57 57 -59 -60 -61 -62 -63 -64
leaf_value=0.062028544527562637 -0.05845010080558885 -0.0066812211777284572 0.063601332190634852 -0.021752402835073098 0.040001323954631782 -0.027313147208197133 0.061041635816788925 -0.051336463689702544 0.0030667927253340017 0.00068814539124113392 -0.022097418335642324 -0.036188506687039962 -0.0045901262166362479 -0.001478094423743737 -0.049242448659992062 0.052294907111430006 0.061566523063258577 -0.00070722303849951249 -0.040938036364445068 -0.0077914490979954986 -0.037544887385704918 0.015634882213578095 0.010183913218681111 0.016089161446789402 0.036904646940574097 -0.02048522774879543 0.031837731101890331 -0.059452149443084329 -0.013941180830902787 0.025458174123397688 0.012374506398966499 -0.036974837038612644 -0.021148300371464739 0.020997460251552316 -0.027900201580612571 -0.0031698131278763749 -0.040387957836367151 0.00027728445331937594 -0.048680597333859772 -0.025767142348895451 -0.019667745704129231 -0.020062658111774823 -0.026388271725961622 0.018403645763442236 0.007078320301694788 0.040386281708630671 0.0077215052268986076 0.065052328870995865 0.013267256864650729 0.0065012846653424369 -0.013653813710876853 0.00093564809934506264 0.05077624380889334 -0.03655641168497091 -0.047871797356666544 0.046504098728736648 -0.0034993156420564959 0.020148248665627932 -0.0115791101200529 0.0049856510798604392 0.015631748757520384 -0.011850838426446046 -0.016099071627508905
leaf_weight=9757.3863190873526 8583.8216689394321 2458.4187085039448 244.81448434665799 1908.4597689083312 1709.6781912152655 970.40659765293822 177.09093463048339 10013.449588862713 875.04691530717537 4091.1195576123428 1958.8830121157225 3470.1436685135122 1948.1142341203522 600.91821455489844 1344.2153500310378 184.70341238752007 427.06203259155154 3134.6795406134333 8722.671643328853 1441.6611539470032 4279.0050475134049 2945.0057683573104 3919.5688760047778 1397.7713633957319 221.16006638691761 2583.7433619202347 11887.679037362337 948.00080627459101 1198.7261520816246 15208.029708480462 149.29357938002795 3763.1401210371405 1214.5940101176966 13127.795041230042 4730.5461544167483 2459.2116772127338 264.18676979013253 2955.5592334249523 3035.1661673372146 4035.9814047750551 1046.9162033675238 2028.9071591226384 1044.91222494049 744.90052481787279 2225.3890544516034 16578.026380876079 1821.3842675141059 26.81447060406208 537.13835524069145 2165.2155492201564 1902.3956283208681 488.88240562519059 9455.0652491440997 2123.675556379254 8290.6624241363024 98.301373563706875 1389.6110024005175 376.87758231512271 2428.6174488095567 545.35661160480231 9346.5766424052417 1788.2072764229961 4340.0920632561902
leaf_count=83643 1753979 177818 649 113927 17740 164086 428 1613262 9397 99625 64371 318333 63012 6207 165164 772 1154 140836 1167764 115298 408780 48981 36914 17430 1519 116816 51491 212162 67284 67473 998 392104 40910 51271 337662 69831 18211 49352 423895 242072 38451 235893 91001 6699 78188 77261 73589 689 16363 35124 54062 11254 41493 310262 1351304 499 22965 3733 101408 3227 36831 192686 208792
internal_value=0 -0.0251935 0.03379 -0.0112929 0.0487654 -0.0205085 0.0232547 -0.046644 -0.0156296 -0.00164066 -0.0437274 -0.0202405 -0.0220073 -0.0290742 -0.0322291 0.00307906 0.0441714 -0.00725699 -0.0449413 -0.00645189 -0.0339885 0.0102827 0.0177818 -0.000697999 -0.00538506 -0.0064562 0.0285736 -0.0471015 -0.028293 0.0282571 -0.0317497 -0.0442978 -0.00347916 0.0174915 -0.026668 -0.0133524 -0.0136566 0.00911497 -0.0558981 -0.030585 -0.00809603 -0.0127315 -0.0393815 0.00392611 0.00123243 0.0409182 -0.00115478 -0.0164974 -0.00380494 -0.00111328 -0.00386412 -0.0148104 0.0491263 -0.0467231 -0.0455644 0.00745366 0.00797017 0.00154586 -0.00545327 0.0141951 0.018766 -0.0107147 -0.0174927
internal_weight=0 123302 91838.8 74817.7 37927.2 38274.4 53911.6 48484.4 24385 36543.3 36865.4 16230.6 15257.2 13889.4 11104 19856.6 28169.8 16686.7 34906.5 8154.38 10503.1 6830.17 26571 13026.5 14778.2 14011.7 27340.5 25138.9 8704.85 27095.7 9158.84 15125.5 9862.21 26393.9 4879.84 6089.87 6552.39 6645.47 11619 7506.13 3506.13 4487.33 9767.58 3700.46 3667.05 17005.1 7921.82 2785.43 6100.44 8158.73 5993.52 1703.48 11164.7 11362.3 10414.3 973.348 3164.26 1766.49 5563.3 766.517 22474.4 1815.02 4604.28
internal_count=11724395 11258047 466348 3877943 221291 2811069 245057 7380104 1534797 1066874 5202230 927600 917704 1276272 918811 390907 137648 675967 5137859 607197 912604 105804 125444 285103 562040 557294 119613 3879094 627689 118964 747440 2265832 240975 125016 338660 225098 290015 105032 2177874 560405 108282 413711 1258765 56051 193486 78415 332196 357461 258607 188811 153687 52164 59233 1873728 1661566 9896 44128 26698 242244 4746 88102 193375 227003
is_linear=0
shrinkage=0.05


Tree=12
num_leaves=64
num_cat=0
split_feature=1 1 20 1 16 10 16 16 20 13 20 4 1 16 20 4 14 20 13 13 1 20 20 1 16 20 13 10 13 16 4 10 4 16 16 16 19 1 12 20 1 2 8 13 20 10 13 4 6 0 4 1 16 9 20 0 13 4 4 3 16 10 16
split_gain=64855.6 12962.8 6231.03 2407.54 723.898 603.256 588.522 525.251 451.459 439.651 360.944 314.701 311.113 305.479 205.581 190.007 187.856 185.788 178.316 173.681 157.576 152.069 145.249 515.406 137.094 129.856 128.492 120.086 115.341 112.923 106.997 104.764 100.202 97.0981 131.728 96.3452 91.4737 81.4504 78.3482 83.3167 77.6133 76.3593 76.0135 75.3607 74.7245 73.7313 73.5806 89.7644 81.5641 73.1975 70.6994 66.7054 91.4371 66.5221 59.8457 59.1992 58.2467 58.0161 57.3496 57.2743 57.0205 65.8574 55.7226
threshold=1.0000000180025095e-35 1.0005486607551577 2.5000000000000004 3.0085846185684209 8.5000000000000018 483.50000000000006 1.5000000000000002 21.500000000000004 1.5000000000000002 0.026630224660038952 19.500000000000004 0.16996373236179355 2.004245519638062 2.5000000000000004 6.5000000000000009 0.029057541862130169 0.022740201093256477 1.5000000000000002 0.070467740297317519 0.075580272823572173 6.9956457614898691 1.5000000000000002 17.500000000000004 0.99655669927597057 1.5000000000000002 18.500000000000004 0.046950291842222221 1231.5000000000002 0.017410528846085075 4.5000000000000009 0.29967688024044042 2078.5000000000005 0.14445741474628451 55.500000000000007 6.5000000000000009 2.5000000000000004 1.154845178127289 2.9720200300216679 69.500000000000014 11.500000000000002 7.5200977325439462 12.500000000000002 1.0000000180025095e-35 0.20018552988767627 4.5000000000000009 778.50000000000011 0.28616924583911901 0.33345660567283636 3.873235940933228 1410195.0000000002 0.12618148326873782 5.9959840774536142 1.5000000000000002 1.0014259219169619 5.5000000000000009 135788.00000000003 0.0081059178337454813 0.090927798300981535 0.12749995291233066 1763.5000000000002 13.500000000000002 229.50000000000003 7.5000000000000009
decision_type=2 2 10 2 2 10 2 2 8 2 10 2 2 2 10 2 2 10 2 2 2 10 10 2 2 10 2 8 2 2 2 10 2 2 2 2 2 2 10 10 2 2 10 2 10 10 2 2 10 2 2 2 2 2 8 2 2 2 2 2 2 10 2
left_child=2 7 6 5 29 12 -1 9 -8 32 13 18 24 26 42 -11 56 46 28 35 27 -14 -9 50 -3 30 37 60 36 -4 49 54 -2 34 51 -17 -5 -7 39 -16 59 -21 -6 -43 -31 -38 47 48 -13 62 -24 52 -30 -47 -18 -23 -15 -46 -10 -36 61 -19 -26
right_child=1 3 4 11 14 10 8 22 58 15 -12 17 21 16 38 19 31 20 -20 41 -22 55 23 -25 25 -27 -28 -29 33 44 -32 -33 -34 -35 40 -37 45 -39 -40 -41 -42 43 -44 -45 57 53 -48 -49 -50 -51 -52 -53 -54 -55 -56 -57 -58 -59 -60 -61 -62 -63 -64
leaf_value=0.060813168897980087 -0.05639138825927862 -0.0061496165976973553 0.033676318850495657 -0.0047502436221078248 0.063984908617170683 -0.034925776314693159 0.057885906088882791 -0.055277190520082481 0.03843930778892006 -0.053607075241198711 0.0024545332321340707 -0.03235945459208156 0.00679315293685058 -0.065352348021266271 0.01629596721805647 -0.039878500082774854 -0.019961515678391509 0.012232559276933931 0.0024757155321661465 -0.051879113023236036 0.0080849993820413107 -0.028734750342640399 -0.037076967226914573 0.051084759209712616 -0.024948312896818876 -0.00048690149896296982 -0.012867116558722977 -0.012421920856671676 0.00119364815638279 0.0292355549532584 -0.012344029893404341 -0.034662501283729184 -0.047686752495469428 0.015371840704573585 -0.01385578361684464 -0.046978371141790182 -0.014574500080550515 -0.018764453132903588 0.020168893591931358 0.0094731316542388724 -0.0062661811952663378 -0.034818580106662805 0.023752331544236283 -0.017303485599622064 0.016500954355175613 -0.068400450386158593 0.048351706626468878 0.022980531855574131 0.0083883478714654233 -0.015884957653680306 -0.015747132252056519 0.0029020348512233257 -0.011684425497029305 -0.030269634201534425 -0.031442901508722879 -0.0080972037902960533 -0.042286822444375788 0.025797115937671134 0.044322498841556743 -0.027345497356987131 -0.0089566777095530913 -0.0012497021471859985 -0.036057508449947623
leaf_weight=9025.3587041129358 9303.7085662980098 1806.492011169903 7796.4617068106309 416.55410022032447 119.16604693233967 1523.2826090541203 5649.430371824652 260.20814523310401 7902.3973832484335 3502.0001940161455 1052.6810724483803 129.97736848704517 1961.3325499477796 320.13744650909211 11102.725471292622 8928.1396800463554 3026.4503095881082 1401.9581238816027 4676.6624469810631 581.69969103997573 4306.2812767275609 376.44662451371551 752.04615258541889 251.52553462795913 3023.0238631659886 689.98057285579853 3686.4313057558611 2673.5610833502142 2148.3957035141066 10255.578146031592 1791.7173751676455 4852.4014736551326 5128.5465547294589 452.19352915417403 2069.8161032364005 10280.013037651777 302.81501519982703 1596.9085713198874 5877.3043852020055 7495.0234524565749 1872.2555390981724 5823.6812610060442 7930.2788906730711 686.5261775907129 2527.155760431895 196.54098236234859 143.20822663744912 1191.4739974457771 2226.8061383138411 1339.522022390971 803.62838297779672 2329.3876734953374 3845.5633648433723 273.61954255076125 1815.9989041833906 4517.1860189647414 1887.1636269702576 4996.931399567984 8705.7773554059677 1269.4420364908874 1190.6054453206016 2559.2337778061628 1801.3971018822631
leaf_count=83859 2007063 177003 50528 23734 231 242836 20887 18987 47102 906157 10198 3648 82766 42851 57433 1649010 190983 20541 136149 93367 58524 18351 30645 1719 230193 9210 360021 73816 119714 34246 82585 415341 752922 2620 79363 1128451 14630 168358 22623 49205 50540 705246 24640 68211 26071 23337 894 14682 51629 92004 19198 73177 161485 19284 163515 184105 203424 22826 26691 68153 25492 45169 137379
internal_value=0 -0.0243032 0.0320524 -0.0111401 0.0223655 -0.0200637 0.0500435 -0.0449838 0.0456764 -0.0461351 -0.026033 -0.00186821 -0.013248 -0.0276359 0.0174163 -0.0426662 -0.0324675 0.00339195 -0.00606057 -0.0412094 0.000403318 -0.00497013 -0.0203505 -0.0153217 -0.0186769 -0.0212945 -0.0191873 -0.0038239 -0.00869102 0.0286592 -0.0230991 -0.0294702 -0.0532982 -0.00741987 -0.00818133 -0.0436783 -0.0236379 -0.0266544 0.0151366 0.0135463 -0.0144151 -0.0345224 0.0243479 -0.0329715 0.0264591 -0.0338164 0.0132138 0.0117956 0.00614109 -0.0262253 -0.0260584 -0.00427818 -0.00706858 -0.0462094 -0.0242672 -0.00968476 -0.0456321 0.0226748 0.0415232 -0.018984 0.000638105 0.00352198 -0.0290964
internal_weight=0 119047 89383.6 72744.9 58100.6 37068.6 31283 46301.7 22257.6 44234.3 19761.5 35676.4 17307.1 18708.8 32524.5 29802.1 11902.2 15823.1 19853.2 26300.1 12131.6 6854.97 2067.41 1807.2 10452.1 8645.64 6806.62 7825.36 15176.6 25576.1 7955.66 9694.85 14432.3 13987.1 13534.9 19208.2 1189.53 3120.19 24475.1 18597.7 5211.51 7091.91 8049.44 6510.21 17779.7 772.976 3691.47 3548.26 2356.78 6163.94 1555.67 8323.35 5993.96 470.161 4842.45 4893.63 2207.3 7524.09 16608.2 3339.26 5151.8 3961.19 4824.42
internal_count=11725022 11258680 466342 3877704 287803 2811123 178539 7380976 94680 7310427 1797527 1066581 1013596 1787329 154132 4550442 1016114 294395 772186 3644285 223542 285222 70549 51562 728374 551371 771215 165018 636037 133671 542161 769839 2759985 555052 552432 2777461 80985 411194 129261 106638 198056 866824 24871 773457 83143 57251 70853 69959 55277 459576 49843 354376 281199 42621 354498 202456 246275 48897 73793 147516 91202 65710 367572
is_linear=0
shrinkage=0.05


Tree=13
num_leaves=64
num_cat=0
split_feature=1 20 14 1 1 1 20 20 1 10 20 1 1 3 3 4 11 16 1 1 10 16 9 20 1 20 20 20 3 16 20 19 14 10 16 16 12 20 3 4 1 10 20 1 0 1 16 3 0 1 21 4 3 9 9 16 20 15 14 16 20 21 4
split_gain=57990.8 5552.55 3187.94 6786.09 3135.73 1139.05 1004.44 869.867 665.44 449.361 338.217 325.98 318.387 290.546 279.861 273.687 237.402 185.231 202.846 177.508 166.246 156.065 134.412 127.627 132.375 126.764 124.595 114.954 114.602 114.206 114.063 112.349 98.8739 97.0681 95.3482 92.2027 85.1849 82.4809 81.0151 80.9567 78.6902 77.5284 75.0061 74.9031 74.4907 72.5117 84.2026 71.7158 68.7981 68.1873 67.6411 65.7013 63.6752 63.6337 62.3276 60.2496 64.6692 57.517 57.0545 64.2088 56.2064 55.9508 78.3016
threshold=1.0000000180025095e-35 2.5000000000000004 0.017435527406632904 2.004245519638062 1.03107225894928 1.0005486607551577 1.5000000000000002 5.5000000000000009 3.0085846185684209 329.50000000000006 19.500000000000004 2.004245519638062 1.9975603222846987 799.50000000000011 136.50000000000003 0.20747344195842746 45.500000000000007 2.5000000000000004 9.1509838104248065 2.004245519638062 302.50000000000006 4.5000000000000009 1.0012661814689638 12.500000000000002 0.87583595514297496 9.5000000000000018 3.5000000000000004 1.5000000000000002 535.50000000000011 1.5000000000000002 3.5000000000000004 1.0124999880790713 0.20042735338211062 3927.0000000000005 1.5000000000000002 6.5000000000000009 26.500000000000004 18.500000000000004 104.50000000000001 0.19409411400556567 21.083424568176273 136.50000000000003 1.5000000000000002 5.9959840774536142 593713.00000000012 1.1557486057281496 4.5000000000000009 1392.5000000000002 361114.50000000006 6.9956457614898691 1.5000000000000002 0.04967868700623513 695.50000000000011 1.0011276602745058 1.0008746981620791 5.5000000000000009 21.500000000000004 0.049099968746304519 0.033373111858963973 31.500000000000004 19.500000000000004 1.5000000000000002 0.055478200316429145
decision_type=2 10 2 2 2 2 10 10 2 8 10 2 2 2 2 2 8 2 2 2 10 2 2 8 2 10 10 8 2 2 10 2 2 10 2 2 10 10 2 2 2 10 10 2 2 2 2 2 2 2 10 2 2 2 2 2 10 2 2 2 8 10 2
left_child=1 6 4 5 16 10 50 30 13 11 20 45 39 26 42 17 23 57 28 -11 48 32 31 38 -25 61 41 -17 -19 -15 -3 53 52 -24 -22 43 -29 -18 54 -7 -20 -5 -14 -30 -36 -6 -47 -23 -4 -38 -1 -32 -16 -21 -2 -13 -57 -10 59 -27 -37 62 -9
right_child=2 7 3 8 9 12 -8 25 15 19 -12 55 14 29 21 27 37 18 40 22 34 47 33 24 -26 58 -28 36 35 -31 51 -33 -34 -35 44 60 49 -39 -40 -41 -42 -43 -44 -45 -46 46 -48 -49 -50 -51 -52 -53 -54 -55 -56 56 -58 -59 -60 -61 -62 -63 -64
