tree
version=v3
num_class=1
num_tree_per_iteration=1
label_index=0
max_feature_idx=22
objective=lambdarank
feature_names=candidates candidate_scores aid_count aid_session_nunique aid_type_mean aid_hour_mean aid_hour_std aid_day_of_week_mean aid_day_of_week_std aid_ts_ratio aid_click_count aid_cart_count aid_order_count click_last_week_occurrence_ratio cart_last_week_occurrence_ratio order_last_week_occurrence_ratio session_count session_type_mean session_hour_mean session_day_of_week_mean session_click_aid_nunique session_cart_aid_nunique session_order_aid_nunique
feature_infos=[3:1855598] [0:34] [1:99786] [1:56024] [0:2] [0:23] [0:16.263456344604492] [0:6] [0:4.242640495300293] [1:1.0014579296112061] [1:94324] [1:11486] [1:3895] [0:1] [0:1] [0:1] [1:465] [0:2] [0:23] [0:6] [1:465] [1:71] [1:42]
tree_sizes=7255 7258 7304 7297 7253 7245 7261 7258 7267 7275 7268 7259 7263 7258 7246 7265 7259 7254 7298 7270 7272 7312 7279 7289 7263 7278 7276 7278 7283 7296 7262 7304 7300 7292 7266 7288 7246 7233 7293 7300 7261 7277 7252 7294 7269 7249 7295 7287 7289 7317 7263 7261 7259 7287 7229 7253 7256 7255 7247 7255 7241 7268 7266 7219 7261 7269 7246 7289 7290 7177 7240 7238 7264 7252 7254 7228 7266 7247 7216 7273 7156 7238 7288 7260 7231 7225 7201 7231 7206 7275 7237 7241 7266 7226 7257 7250 7208 7222 7172 7224 7248 7250 7250 7236 7179 7123 7225 7240 7288 7202 7173 7163 7215 7237 7294 7257 7157 7149 7218 7242 7180 7182 7254 7230 7115 7246 7263 7248 7202 7203 7243 7258 7235 7190 7198 7153 7106 7106 7161 7240 7184 7137 7155 7218 7218 7093 7272 7209 7170 7151 7177 7148 7217 7164 7245 7085 7064 7193 7110 7170 7217 7077 7121 7131 7083 7192 7059 7199 7058 7240 7118 7164 7126 7186 7085 7090 7157 7123 7094 7211 7100 7137 7191 7216 7156 7201 7175 7212 7072 7187 7160 7211 7183 7159 7085 7137 7052 7095 7149 7100 7074 7011 7254 7054 7222 7067 7116 7084 7057 7135 7159 7135 7055 7216 7039 7121 7135 7263 7123 7112 7098 7079 7150 7074 7087 7146 7123 7070 7056 7116 7186 7209 7050 7164 7163 7189 7236 7167 7033 7151 7165 7070 7089 7009 7123 7155 7137 7080 6996 6994 7210 7050 7180 7146 7106 7257 7081 7161 7125 7006 7165 7132 7124 7203 7041 7026 7016 7067 7058 7112 7052 7111 7036 7033 7104 7139 7032 7000 7150 7119 7105 7063 7059 6983 7147 7078 7011 7053 7243 7172 7128 7147 7107 6999 6993 7147 7177 7014 7041 7151 7108 7183 7023 7206 7145 7062 7259 7053 7032 7148 7085 7119 7006 7189 7102 7109 7127 7138 6973 7033 7038 7125 7099 7112 7106 7078 7127 7138 7077 7012 7196 7132 7033 7195 7108 7039 7124 7038 7110 7102 7230 7048 7029 7061 7089 7042 7083 7035 7066 7105 7030 7132 7146 6980 7148 7006 7062 7055 7139 7134 7087 6998 7085 7050 7156 7082 7119 7018 7170 7177 7043 7111 7077 7093 7023 7091 7106 7045 7187 7065 7125 7069 7123 7091 7040 7143 7087 7125 7070 7071 7104 7020 7054 7110 7070 7099 7031 7098 7111 7126

Tree=0
num_leaves=64
num_cat=0
split_feature=13 1 1 1 4 1 1 1 1 20 10 10 20 20 3 3 1 1 20 13 1 16 16 20 1 16 4 16 1 13 14 20 20 1 1 1 16 20 20 14 10 20 14 4 4 14 4 16 3 3 14 2 4 14 2 13 3 10 20 20 13 16 1
split_gain=24370.3 143053 11637.9 3296.98 2079.97 19455.3 2483.18 2463.63 2042.21 879.149 821.808 653.579 577.584 538.423 534.921 522.922 520.687 450.551 356.701 350.007 354.043 328.008 305.434 278.708 270.839 209.95 190.969 188.823 182.532 161.352 147.677 140.347 126.978 356.512 129.689 124.937 124.69 124.13 115.867 112.518 96.6665 94.6947 91.291 88.4587 82.7177 81.7847 79.3855 78.3011 76.0148 63.1488 63.0118 61.3204 60.6887 60.5465 58.792 60.3728 57.855 53.4966 53.2951 63.7039 52.8969 54.1197 76.6156
threshold=0.019946572370827201 1.0000000180025095e-35 1.0000000180025095e-35 1.0114246606826784 0.050009924918413169 2.0001790523529057 3.0052118301391606 1.0003044605255129 2.0001790523529057 5.5000000000000009 635.50000000000011 344.50000000000006 19.500000000000004 17.500000000000004 194.50000000000003 807.50000000000011 0.99343496561050426 2.9534322023391728 4.5000000000000009 0.0065040821209549913 3.5380537509918217 8.5000000000000018 5.5000000000000009 6.5000000000000009 8.2545456886291522 4.5000000000000009 0.19445920735597613 5.5000000000000009 8.8742055892944354 0.074778534471988692 0.28637567162513738 19.500000000000004 18.500000000000004 1.9614381194114687 0.98178574442863475 3.0052118301391606 8.5000000000000018 10.500000000000002 2.5000000000000004 0.053859103471040733 190.50000000000003 21.500000000000004 0.4301948100328446 0.21205002814531329 0.16843000054359439 0.015645397827029232 0.27280578017234808 4.5000000000000009 52.500000000000007 948.50000000000011 0.036149889230728156 202.50000000000003 0.041566506028175361 0.090693157166242613 8.5000000000000018 0.20037879049777987 1207.5000000000002 10.500000000000002 19.500000000000004 9.5000000000000018 0.50539568066596996 1.5000000000000002 5.974663734436036
decision_type=2 2 2 2 2 2 2 2 2 10 10 10 10 10 2 2 2 2 8 2 2 2 2 10 2 2 2 2 2 2 2 10 10 2 2 2 2 10 10 2 10 10 2 2 2 2 2 2 2 2 2 2 2 2 2 2 2 10 10 10 2 2 2
left_child=2 9 -1 44 8 7 10 13 32 38 18 17 14 29 22 23 -15 47 51 -13 -21 26 -9 43 41 56 50 39 -25 40 -28 -27 33 57 -34 49 46 -11 -2 -16 -6 -23 -41 -8 -4 -22 -19 53 -35 -10 -17 -7 -39 -5 -31 -56 -12 -3 59 -20 61 -52 -63
right_child=1 4 3 11 5 6 15 12 35 37 25 19 -14 16 27 21 -18 36 58 20 45 24 -24 28 -26 31 30 -29 -30 54 -32 -33 34 48 -36 -37 -38 52 -40 42 -42 -43 -44 -45 -46 -47 -48 -49 -50 -51 60 -53 -54 -55 55 -57 -58 -59 -60 -61 -62 62 -64
leaf_value=0.086913264319887162 0.097205468463631858 -0.094389777287572432 -0.092052272949127351 -0.027928691505838162 -0.068727154120399828 0.028032826926610122 0.02902601976684388 -0.0069457607351645079 -0.017678644878951287 0.08035106331202467 -0.013058787702302906 -0.086566280165666962 0.024365366743700049 -0.046698759949525839 -0.052140118121925594 -0.0038208135429061382 0.078908118178553324 0.0070521951825435305 -0.013551256388471364 -0.062842570436555154 -0.034035377761898716 -0.021861363971293596 -0.041284872088779956 0.003426902498548066 0.016340037335481446 -0.048472052577965885 0.025477288596092391 -0.061574134283888804 0.040692269124918162 -0.089634617001171757 0.085885152289644245 0.046699618831210876 -0.069918672231618351 -0.02502947983848719 -1.0416260856642835e-05 -0.0054816707024216826 -0.01593659415362075 0.04577393432971813 0.09016361931092827 -0.034262666729177521 -0.078935140855265831 0.036085898777315009 0.063906385335663118 0.045237042962555589 -0.08137762310614273 -0.0010122967731519194 0.04382548128553055 -0.049207412204975175 -0.059929073875383321 -0.045801668551492446 0.02620860151292544 0.0076125926514394593 0.069640213578376506 0.041940937705170857 -0.066571947379872473 -0.047262501577128614 -0.030851622624027714 -0.081660530244856991 0.037455020204273763 -0.038208925123151952 -0.061085851366226407 -0.0003314376725895913 0.02007974457992252
leaf_weight=1257.5081328338129 17670.319445698638 1062.9894001619832 6760.840337718575 485.58151993859792 2927.8112575461273 581.86708536295919 1738.1914096819237 1300.5532616219716 399.15197356778663 4861.791310762288 755.41423457011115 654.21348482315079 333.5727559181978 620.91341186553473 1566.9044631575525 802.71123654564144 95.15030847809976 386.42769160924945 628.63828756572912 1028.6169974475633 378.31724796874914 1544.9116595410742 1289.7296562890406 1355.8719062322052 800.329654271045 2072.0295426861849 1402.9434678178804 2547.7485690733592 433.71350646665087 245.86659650498768 109.03666756604798 39.475195703329518 178.3349140525097 180.70510328252567 105.64103780849837 1046.5828651780903 360.22298945629154 299.24616076448001 8726.3139070929319 1350.9396057716222 11156.550560930016 73.872929269040469 24.104588481946848 1631.2480121158878 2480.7063953713514 371.69869552180171 236.63584840437397 686.44501782971201 1142.46580888264 399.28581724190735 591.04853817890398 998.56242718626163 2424.2054752516269 33.121395896130707 3730.2601518897281 454.07641993823927 1156.0157590963645 3692.7438044728187 36.687666418030858 449.04929650027771 24.312878349388484 1023.3728979898442 834.76829315524083
leaf_count=19534 171835 306360 1817203 89726 556241 44777 121136 178192 78029 90680 98341 113823 10885 33522 285970 85124 1312 41238 50582 171637 42129 107705 121037 72603 37186 207096 68485 274652 12239 60084 1207 1031 13444 30065 5825 153844 23808 14759 116870 215031 2183822 1561 1085 58064 481169 29014 10325 73166 325529 110760 72416 96939 52702 2954 657504 72045 173933 1193359 860 37334 1349 88503 56770
internal_value=0 0.00993054 -0.0587323 -0.0719439 -0.0399484 -0.0358709 0.0029589 -0.062677 -0.0631621 0.0905664 -0.0215119 -0.0374619 -0.0401106 -0.07255 -0.0427724 0.0162521 -0.0300082 -0.0176362 -0.000144487 -0.0552958 -0.043794 0.0075532 -0.0240436 0.0284048 -0.00745343 -0.035825 0.0151349 -0.0516095 0.0124583 -0.0741953 0.0298336 -0.0466928 -0.0765921 -0.0781188 -0.0439123 -0.0168461 0.00748013 0.0755638 0.0948775 -0.04298 -0.0768131 -0.019217 -0.0325418 0.0368743 -0.0891869 -0.0176695 0.0210185 -0.0381287 -0.0551628 -0.0317425 0.00835145 0.0151307 0.0670178 -0.0234672 -0.0658727 -0.0644765 -0.0238197 -0.0845057 -0.0218081 -0.0238256 0.0123016 0.0130301 0.00883827
internal_weight=0 88918 15120.3 13862.8 54936.2 46728.3 19084.1 27644.2 8207.9 33981.9 6717.74 4621.28 8413.55 19230.6 8079.98 12366.3 716.064 2188.43 2694.8 2432.85 1778.63 7207.31 2590.28 5159.02 2419.11 4022.93 4788.19 5489.7 1789.59 18514.6 1511.98 2111.5 6362.88 6078.9 283.976 1845.02 983.287 7585.24 26396.6 2941.95 14084.4 1618.78 1375.04 3369.44 9241.55 750.016 623.064 1205.15 1323.17 798.438 3276.21 1580.43 2723.45 518.703 4430.2 4184.34 1911.43 4755.73 1114.38 1077.69 2473.5 2449.19 1858.14
internal_count=11726410 8810684 2915726 2896192 8363838 6146623 1495241 4651382 2217215 446846 710893 597820 1086852 3564530 1075967 784348 34834 241217 230492 356603 242780 520306 299229 264042 146452 480401 373854 776738 84842 3529696 69692 208127 1874582 1855313 19269 342633 75371 158141 288705 502086 2740063 109266 216116 179200 2298372 71143 51563 165846 355594 188789 304162 141716 67461 92680 789633 729549 272274 1499719 88776 87916 219038 217689 145273
is_linear=0
shrinkage=0.05


Tree=1
num_leaves=64
num_cat=0
split_feature=1 1 20 4 1 20 20 20 1 14 3 1 7 1 10 13 3 14 2 4 1 20 4 1 20 20 3 20 13 6 20 20 20 20 1 18 4 13 20 3 14 12 1 5 14 20 13 5 1 13 1 2 3 13 20 20 20 1 10 20 13 4 13
split_gain=392876 67808 20615.1 3057.61 7577.27 2869.22 2795.25 2271.51 1577.25 1428.1 1371.78 840.508 833.712 3885.7 1281.65 828.214 707.608 676.782 633.808 625.59 560.528 533.964 517.707 487.177 483.437 461.843 459.986 445.218 441.393 418.509 415.265 411.208 414.743 402.663 356.401 348.475 326.933 321.292 302.638 294.102 267.916 280.236 259.997 259.381 268.744 240.34 228.824 223.866 232.406 221.643 221.639 213.262 213.03 202.614 187.475 187.46 178.946 203.141 173.695 157.432 156.797 153.287 152.06
threshold=1.0000000180025095e-35 1.0270119309425356 3.5000000000000004 0.20714738219976428 3.0052118301391606 17.500000000000004 1.5000000000000002 7.5000000000000009 0.99343496561050426 0.035179279744625098 581.50000000000011 2.0001790523529057 1.0007861852645876 3.0052118301391606 390.50000000000006 0.011498141102492811 570.50000000000011 0.040033388882875449 9.5000000000000018 0.068498872220516219 1.0003044605255129 19.500000000000004 0.33345660567283636 9.0094947814941424 3.5000000000000004 19.500000000000004 100.50000000000001 2.5000000000000004 0.10205847397446634 2.830950260162354 2.5000000000000004 19.500000000000004 1.5000000000000002 1.5000000000000002 2.632393598556519 9.0113635063171404 0.087810903787612929 0.01408577896654606 20.500000000000004 67.500000000000014 0.060249608010053642 30.500000000000004 2.0001790523529057 12.858258724212648 0.055231671780347831 1.5000000000000002 0.011498141102492811 14.172691345214846 2.9534322023391728 0.053308321163058288 2.0001790523529057 360.50000000000006 3583.5000000000005 0.012058578897267582 19.500000000000004 5.5000000000000009 19.500000000000004 2.0001790523529057 106.50000000000001 19.500000000000004 0.034489924088120467 0.10204663500189783 0.097574051469564452
decision_type=2 2 10 2 2 10 10 10 2 2 2 2 2 2 10 2 2 2 2 2 2 8 2 2 10 10 2 10 2 10 10 10 10 8 2 2 2 2 10 2 2 10 2 2 2 8 2 2 2 2 2 2 2 2 10 10 10 2 10 10 2 2 2
left_child=2 5 6 4 10 9 -1 19 61 18 11 31 -5 14 27 51 -17 37 -2 -4 -10 34 29 24 43 33 53 58 39 35 -8 32 -3 47 -16 -15 60 -12 42 -11 41 -31 -29 -18 -45 -13 -28 -19 -49 -34 -35 -6 -26 -20 -25 -21 57 -39 -14 -54 -9 -7 -47
right_child=1 3 7 12 15 8 30 36 20 28 17 45 13 22 21 16 23 25 26 55 -22 -23 -24 54 52 -27 46 38 -30 40 -32 -33 49 50 -36 -37 -38 56 -40 -41 -42 -43 -44 44 -46 62 -48 48 -50 -51 -52 -53 59 -55 -56 -57 -58 -59 -60 -61 -62 -63 -64
leaf_value=0.090301762179156531 -0.088190686130001708 -0.022235089320901166 0.037963315874322723 0.065767448818938243 -0.012447850223280495 -0.057955581535939486 0.075719774349573263 0.0054937797040730081 0.062570596147265109 -0.050007275371784676 -0.078388216130566513 -0.0018391293831851324 0.012342576518659347 -0.0044153333040300368 -0.047673346778516298 0.0080269903916925806 -0.085863356587739331 -0.063007524788268918 -0.075797144299723077 0.057373640947188193 -0.048491410750893735 0.025213839354714281 0.020273867331018703 0.0062555379304037101 -0.014328775364222099 0.0029817322590318489 -0.088472934626443928 -0.029808596338345063 -0.053423826090020415 0.016942862312568578 0.065878204128779774 0.00026487356600424 -0.048361925610124423 -0.053691122576780319 -0.027657812160986742 -0.090609242858946393 0.034448818661288919 -0.061085956067879088 0.03315385077484214 -0.06956154627207943 0.015281209500177801 -0.0064568554063642513 -0.0083559320720118079 -0.010174481880744242 0.0037290086010877232 -0.023334069103201308 -0.077259048848990139 -0.03552425304022571 -0.0099094306889957046 -0.032689174923253905 -0.03755814224556682 -0.058665665616968343 -0.033943740569753848 -0.06431250576008106 0.043982210161106684 0.048562375185093626 -0.012260495559278294 -0.044398602428830924 -0.0073297431401542065 0.022541373502325275 0.025164711563026122 -0.033726268605022369 0.00090372045241309505
leaf_weight=38680.462648443878 13123.610740704928 3583.2518150657415 7762.2701478023082 412.74633602797985 349.54041288187727 1144.393758688122 28747.99565802142 1191.9870571475476 560.54108940064907 2046.0474207336083 1291.2552596975584 2588.6557139083743 2270.279361108318 266.56708343885839 4249.8148380583152 9552.5839362125844 98.295886563137174 376.82885817438364 6398.620332557708 16446.799580054358 142.48544339090586 356.39498460106552 7738.6358509813435 2634.7252932894044 5391.5249912734143 670.17920964024961 5685.6215016115457 3294.019874892896 5766.5746916141361 1704.7885784138925 17090.787789365277 797.40543496143073 5746.2591579016298 4315.5434868033044 4665.7985477496404 209.35913623869419 17460.27636558935 3724.1210002745502 274.18881811993197 31945.314929591026 4326.2085118652321 5129.05280786613 2472.469905755017 8314.8202166426927 5971.8453449038789 4992.8190908811521 22758.655866979854 1737.823620387353 1805.6109215198085 3713.7207567621954 4201.6281419619918 872.90407294454053 2668.5315856491216 9605.5002663475461 376.33171469904482 9536.3605915727094 281.11312133818865 3573.9253030179534 2218.5500444034114 129.33609466813505 6748.2202359354123 1519.5237196646631 743.45366080477834
leaf_count=104527 1188817 214690 43781 1783 9323 26493 74165 8719 2022 124590 98416 96407 48047 1670 168772 170313 1723 16884 496120 44530 1453 1627 68850 45549 145395 4343 452360 108962 339892 20042 51523 6371 306403 254210 134476 3472 65068 271594 1202 2203407 44995 74194 51466 216604 128756 176359 1801674 114883 87933 174736 197564 43935 88790 716528 1353 29658 2318 204267 52165 603 44977 23666 19608
internal_value=0 -0.0416728 0.0645589 -0.0162999 -0.0218947 -0.071933 0.0804032 0.0419176 -0.0265546 -0.0735028 -0.0358166 -0.0270398 -0.00492299 -0.00566776 -0.0212439 -0.0049927 -0.00358519 -0.0446682 -0.0785359 0.0504188 0.0400612 -0.0347996 0.0102516 -0.00792072 -0.0104405 -0.0374503 -0.0756852 -0.00930716 -0.0662146 0.00358623 0.0720504 -0.034591 -0.0367219 -0.0396289 -0.0371986 -0.0423319 0.0306235 -0.0553339 -0.0181701 -0.0683845 0.00554443 -0.000619498 -0.0206104 -0.00491972 -0.0043628 -0.0144856 -0.0795006 -0.0263683 -0.0224718 -0.0422092 -0.0457325 -0.0454503 -0.0201381 -0.0689042 0.0109707 0.0541397 -0.0514061 -0.052914 0.00261977 -0.0313326 0.0222117 -0.044135 -0.0201927
internal_weight=0 220790 143665 120093 80504 100697 84519.2 59145.9 3366.94 97329.9 44143.6 22165.6 39588.9 39176.1 19801.5 36360.4 35138 21978 57572 33745.4 703.027 9272.01 19374.6 25585.4 22574.4 13107.6 44448.4 10529.5 39757.9 11636 45838.8 13840.6 13043.2 12437.4 8915.61 475.926 25400.5 8870.41 6040.68 33991.4 11160 6833.84 5766.49 14385 14286.7 8324.93 28444.3 3920.26 3543.43 9459.98 8517.17 1222.44 8189.39 16004.1 3011.06 25983.2 7579.16 7298.05 4488.83 2797.87 7940.21 2663.92 5736.27
internal_count=11725023 11258075 466948 3881053 3099330 7377022 230215 236733 53634 7323388 2246986 994574 781723 779940 566717 852344 799086 1252412 4655499 117969 3475 304875 213223 628773 581871 675817 3466682 261842 2667889 144373 125688 702200 695829 671474 303248 5142 118764 576595 161630 2327997 139231 94236 160428 347083 345360 292374 2254034 219700 202816 481139 451774 53258 234788 1212648 46902 74188 478179 475861 100212 89393 53696 50159 195967
is_linear=0
shrinkage=0.05


Tree=2
num_leaves=64
num_cat=0
split_feature=1 1 20 1 20 10 20 20 1 14 20 10 14 1 16 8 10 1 1 16 16 20 20 13 16 16 3 1 20 10 10 14 13 3 14 13 10 17 13 8 18 14 4 13 4 13 14 14 4 14 10 14 4 10 0 14 10 20 16 20 20 14 4
split_gain=287158 51632 16174.3 9410.57 3574.72 2397.6 2163.03 1755.72 1406.62 1125.43 1098.01 1034.27 1052.24 988.965 869.253 519.458 478.958 428.758 415.568 619.019 402.987 526.285 398.172 387.306 375.26 367.874 362.758 338.903 311.156 263.325 253.22 250.385 243.43 220.601 215.59 192.585 180.513 179.311 177.915 177.46 342.083 190.615 171.382 164.645 162.559 162.104 155.997 146.172 136.686 134.929 133.978 133.66 132.838 131.239 129.534 126.232 123.658 121.846 154.576 121.319 120.98 118.668 112.901
threshold=1.0000000180025095e-35 1.0114246606826784 2.5000000000000004 3.0052118301391606 6.5000000000000009 485.50000000000006 14.500000000000002 1.5000000000000002 0.99343496561050426 0.047302216291427619 19.500000000000004 711.50000000000011 0.02545875404030085 2.0001790523529057 2.5000000000000004 1.0000000180025095e-35 9.5000000000000018 2.0001790523529057 6.0081939697265634 3.5000000000000004 4.5000000000000009 18.500000000000004 4.5000000000000009 0.0081326249055564421 5.5000000000000009 5.5000000000000009 103.50000000000001 2.9534322023391728 12.500000000000002 123.50000000000001 2008.5000000000002 0.20042735338211062 0.018294095061719421 70.500000000000014 0.036720111966133125 0.12050882354378702 3304.5000000000005 0.059411764144897468 0.011498141102492811 1.4145482778549197 9.2546296119689959 0.13338331133127215 0.15396597981452945 0.01020714594051242 0.096337825059890761 0.019946572370827201 0.033373111858963973 0.045184258371591575 0.15124928951263431 0.056762658059597022 123.50000000000001 0.019407013431191448 0.081638243049383177 2844.5000000000005 502959.00000000006 0.034892544150352485 200.50000000000003 19.500000000000004 18.500000000000004 19.500000000000004 1.5000000000000002 0.0064725596457719812 0.088566057384014144
decision_type=2 2 10 2 10 10 10 10 2 2 10 10 2 2 2 10 10 2 2 2 2 10 10 2 2 2 2 2 10 8 10 2 2 2 2 2 10 2 2 10 2 2 2 2 2 2 2 2 2 2 10 2 2 10 2 2 8 10 2 10 10 2 2
left_child=2 6 7 5 22 13 9 -1 -8 16 14 25 23 20 27 -14 -2 34 19 39 33 56 44 61 50 48 38 31 46 -11 -19 45 -28 49 -16 54 -21 -10 -18 40 -17 60 57 -29 -4 -7 -6 -32 -5 -3 -15 -52 -9 -25 -31 -35 -22 58 -20 -26 -41 -13 -12
right_child=1 3 4 11 28 10 8 52 37 29 62 12 15 24 17 18 26 30 42 36 21 -23 -24 53 59 -27 32 43 -30 35 47 -33 -34 55 -36 -37 -38 -39 -40 41 -42 -43 -44 -45 -46 -47 -48 -49 -50 -51 51 -53 -54 -55 -56 -57 -58 -59 -60 -61 -62 -63 -64
leaf_value=0.084491423296242957 -0.08161962390758877 -0.013995973013644204 0.048992217457607831 0.0089778223574990632 0.02537822722740159 -0.065382886388503508 -0.041294491505700137 0.061358692269896875 -0.013160556345965739 -0.048992525392634913 -0.014153168007540788 -0.074989652638262697 0.066691381599658664 0.012597233786402477 -0.064018803594938153 0.020112234323858794 -0.070913898206711679 -0.030925195452022616 0.0027989393477221513 -0.0085338561300933227 -0.033479396090910225 0.0019216467280104726 0.044161348654096516 -0.012697965022805758 -0.01917154647280583 0.0037452229029415226 -0.080918132134219375 -0.068972305513704812 0.02028094939295845 -0.069655329080148543 -0.056344541708747177 0.023741745886129869 -0.070713116794154859 -0.033740734894850646 -0.048602675776576981 -0.048292295218235283 -0.022619578225287502 0.061892754390724718 -0.059183045063331788 0.0063401450801692412 -0.073974286402783626 0.030844601958771367 0.015759262523638809 -0.019059868127921535 0.057116436890935346 -0.037064540693787548 0.034554162171378237 -0.0389894975612841 0.023424201576138975 0.0087281025828979172 -0.017286698884941793 0.0033675364477621615 0.06932024840494945 -0.029127605282021619 -0.061181752903897491 -0.017015885256391052 -0.04745693106850514 0.024863387177924051 -0.023505937313131543 0.021287762207805816 -0.0052613869179779678 -0.01557077949765075 0.016313017924100559
leaf_weight=32764.287732325494 11707.66491920012 2320.6528656370938 9348.7466710209846 2407.6218166016042 6983.4572831550613 568.42382914759219 2392.6633119056933 7267.1408476307988 97.191851788200438 4359.5406735562719 466.51563305500895 458.02538591483608 282.32196481712162 2150.9043432995677 3611.7735470482148 179.57268146239221 5138.0164973950014 4573.1441899258643 3829.3887208779342 4952.0001295241527 4642.6780388683546 922.39090085029602 14787.346679970622 2652.6794777703471 3810.8011129933875 8799.5880971532315 7782.8311610303354 170.46673776302487 8884.3526504752226 6622.4625256634317 2332.1747995486949 157.78490633796901 23454.011748436606 2085.1263024597429 6094.9723267329391 2189.1823110771365 4206.7352458853275 439.1783277047798 8713.6335413199849 6305.4572241930291 209.10634446516633 617.63881760276854 3725.8847871867474 5371.4399412665516 18036.308926067315 4554.8931724848226 13755.091987594962 2528.7930352573749 5118.0354273300618 909.15601114463061 1144.7612650403753 2480.6222494365647 18775.180324332789 2243.4513164318632 14140.031597428489 2458.3145434586331 2400.4894524780102 505.24602549523115 653.83712154068053 194.7495622318238 3491.3046942111105 102.90719699207693 873.38941131532192
leaf_count=104484 1237567 118930 46529 62013 38016 59467 50249 32827 2871 297376 4697 28243 725 52803 238960 1302 460523 192410 81685 109203 196213 8919 56863 77446 114232 123351 714742 17296 48180 558141 126972 6196 2065001 142090 340784 138022 115457 1881 739114 154733 4783 10737 43375 306943 44417 381993 53838 116902 56731 29521 50909 68217 41576 79569 1109211 114153 119859 1821 15495 1139 96221 4217 5140
internal_value=0 -0.0384959 0.057347 -0.0153289 0.0414222 -0.0293039 -0.0671273 0.0767891 -0.0248891 -0.0685982 -0.0385773 0.000321695 -0.00459485 -0.0179291 -0.0405575 -0.000799591 -0.072609 -0.0469613 -0.00146405 -0.00544098 -0.0256887 -0.0335923 0.0507729 -0.0247348 -0.0054441 0.0106864 -0.0702692 -0.0292322 0.0281102 -0.0602576 -0.0393706 -0.0382958 -0.0732558 -0.0175896 -0.0543388 -0.0623973 -0.0150036 0.0482929 -0.0635344 0.00266612 -0.0305056 0.00390414 0.00764583 -0.0205952 0.054343 -0.0402064 0.0314643 -0.047316 0.0188025 -0.00759939 0.00271106 -0.0031543 0.0670986 -0.0202262 -0.0638845 -0.0246914 -0.0382433 0.00158592 -0.00103738 -0.0172044 0.00220567 -0.0640888 0.00570559
internal_weight=0 194602 130602 107565 71795.3 56824.4 87036.4 58806.6 2929.03 84107.4 31303.8 50740.8 34415.6 25520.6 29963.9 28958.5 56796.2 19140.9 28676.2 19961.8 15738.8 7965.56 42172.4 5457.06 9781.84 16325.2 45088.5 10823 29622.9 27311.2 9434.11 5281.1 31236.8 7773.25 9706.75 22951.7 9158.74 536.37 13851.7 10803.1 388.679 10414.4 8714.36 5541.91 27385.1 5123.32 20738.5 4860.97 7525.66 3229.81 5776.29 3625.38 26042.3 4896.13 20762.5 4543.44 7043.17 4988.47 4483.23 4005.55 9796.76 560.933 1339.91
internal_count=11723280 11256550 466730 3881852 287843 2814745 7374698 178887 55001 7319697 1797760 1067107 825012 1016985 1787923 635537 5216947 1016028 634812 492436 729685 324991 147809 189475 287300 242095 3979380 771895 140034 2102750 436284 447656 2779743 404694 579744 1805374 224660 4752 1199637 267776 6085 261691 142376 324239 90946 441460 91854 243874 118744 148451 171929 119126 74403 157015 1667352 256243 316072 99001 97180 115371 250954 32460 9837
is_linear=0
shrinkage=0.05


Tree=3
num_leaves=64
num_cat=0
split_feature=1 1 20 1 20 20 10 20 1 4 14 1 20 16 13 2 20 1 16 20 16 16 13 20 1 3 1 10 14 20 14 13 10 1 4 1 13 10 1 4 14 13 14 21 13 11 14 20 13 10 10 4 2 4 13 1 16 14 10 14 16 10 20
split_gain=228970 42116.3 14761.6 7623.31 2824.5 2003.74 1932.21 1508.25 1028.15 1024.24 965.252 889.302 875.26 574.44 471.937 434.379 423.304 401.235 415.712 387.775 424.361 381.931 374.15 351.326 315.249 283.623 262.823 248.973 248.653 242.122 241.656 236.519 231.151 221.332 216.459 209.133 204.416 182.317 166.411 164.225 160.895 152.161 143.933 143.589 141.86 136.821 159.725 133.658 132.121 129.324 121.443 120.878 120.666 118.238 114.287 112.325 127.441 107.322 105.129 103.264 101.819 98.1514 97.0194
threshold=1.0000000180025095e-35 1.0114246606826784 2.5000000000000004 3.0052118301391606 5.5000000000000009 17.500000000000004 635.50000000000011 1.5000000000000002 0.97235044836997997 0.15262392908334735 0.056086162105202682 2.0001790523529057 19.500000000000004 4.5000000000000009 0.017392585985362533 9.5000000000000018 9.5000000000000018 1.2016728520393374 5.5000000000000009 19.500000000000004 8.5000000000000018 6.5000000000000009 0.021129995584487919 1.5000000000000002 6.9990286827087411 120.50000000000001 2.9534322023391728 149.50000000000003 0.20042735338211062 3.5000000000000004 0.061080975458025939 0.069867428392171874 119.50000000000001 6.0081939697265634 0.30560795962810522 2.0001790523529057 0.01872452907264233 149.50000000000003 1.0003044605255129 0.057561144232749946 0.38278388977050787 0.1907794997096062 0.035517977550625808 5.5000000000000009 0.032595049589872367 382.50000000000006 0.017711497843265537 19.500000000000004 0.0047780212480574855 61.500000000000007 1568.5000000000002 0.10293222218751909 8.5000000000000018 0.29060536623001104 0.021924855187535289 6.9990286827087411 2.5000000000000004 0.013008164241909983 3220.5000000000005 0.023835687898099426 1.5000000000000002 1031.5000000000002 1.5000000000000002
decision_type=2 2 10 2 10 10 10 10 2 2 2 2 10 2 2 2 10 2 2 10 2 2 2 10 2 2 2 8 2 10 2 2 10 2 2 2 2 8 2 2 2 2 2 10 2 10 2 10 2 10 8 2 2 2 2 2 2 2 10 2 2 10 10
left_child=2 5 7 6 29 10 11 -1 51 14 15 17 13 22 48 -2 39 -3 27 20 31 30 -8 -13 50 44 28 53 -24 -4 34 55 52 -22 45 54 -27 -25 -10 -6 -32 -34 -29 -21 -17 -11 -47 -20 49 -5 -23 -7 -12 62 -15 56 -16 -37 -28 -39 -60 -58 -19
right_child=1 3 4 9 16 8 12 -9 38 21 32 23 -14 35 19 25 -18 18 47 43 33 24 26 37 -26 36 58 42 -30 -31 40 -33 41 -35 -36 57 -38 59 -40 -41 -42 -43 -44 -45 -46 46 -48 -49 -50 -51 -52 -53 -54 -55 -56 -57 61 -59 60 -61 -62 -63 -64
leaf_value=0.079786522979340802 -0.077793973125424395 0.019613921364127651 0.052340002587963244 0.00047858829317031464 0.021914612947809664 -0.052132687799380587 -0.056779275028120336 0.062947768447824584 0.045686945456090589 0.0084453041403551518 -0.073731435627687442 0.0071452667791810035 0.0050474014376585335 -0.073855786394167927 -0.0028345544284389141 -0.064975879659427596 0.02153237372742163 -0.0070795870222233014 -0.038449140162942409 0.041692040946249051 -0.026753854458821807 -0.0032657809275102715 -0.039042568887990993 -0.003212863866224297 0.0099890663987644221 -0.076635986416623891 -0.017095354826130379 -0.03864955831524175 0.021805324333810574 0.043838280951625036 0.018619421934528813 0.0083998438352691374 -0.059100651203682845 -0.0074017777058418433 0.018805210396275571 -0.062381334502579093 -0.066824188950629582 -0.030614314552480162 -0.048757884563361178 0.034504454444142692 0.054286943390907241 -0.033931083184510602 -0.02055941719189389 0.0073308348620954025 -0.055100959660095067 -0.050970804236866452 -0.0035426670786753512 -0.010888304617919899 -0.025455517007888041 -0.072126579626527063 -0.019396279014920186 -0.027767850919542522 -0.041713756334458285 0.0018642605871909022 -0.052080094265132951 0.0038681996370878748 -0.0036866662717540419 -0.038738457941859379 -0.017990892638767336 -0.014171660502892987 -0.037774839895717921 -0.019556723659944014 -0.024262381136401674
leaf_weight=29444.63303308934 9968.9901733028237 475.60467924550176 14997.43623947911 75.176751457154751 3087.6532402746379 837.94814874161966 1431.8071082839742 24250.73850674089 534.67954380949959 3189.6098874332383 321.89071089401841 3111.8947266023606 1160.2373822527006 689.00364428991452 4623.8525411933661 8132.1339666298591 16393.518477280624 1493.3611302729696 6173.4197731809691 514.75231838133186 3422.8891600961797 4061.95890182117 5821.9528183685616 2960.0352809589822 4337.2098314655013 6821.6893996435683 3615.3747110744007 1927.7254220186733 172.88257359620184 18963.870165102184 5131.4251806503162 3641.4793960629031 16350.217894553905 2599.6538971583359 2740.3298679380678 531.26700322399847 23927.863597922027 1373.9274544259533 51.098112596198916 16078.562266953755 336.94372096285224 623.36602413607761 2559.410035464447 742.72167539456859 6579.3960835933685 192.99067734275013 2214.0760471126996 473.64725857228041 1102.163960235659 333.01963193179108 1637.1530347000808 1296.9157844358124 3429.2042112248018 1185.3675134810619 4802.2024207639042 2214.0626112115569 1413.817533780355 4972.3619325559121 1063.8784536607563 3130.658658681321 1673.088768563699 3133.7730400273576 1826.0005187201314
leaf_count=104571 1189423 3398 51616 2231 24834 25316 135914 74427 3848 56828 31872 100354 8934 51701 175093 773395 84185 84656 309442 2287 112589 62494 484135 79571 49318 709625 194303 152990 6753 70649 63135 93122 1426331 62256 28441 35758 2302675 61936 581 56261 1344 40738 138040 3656 604892 6377 43076 4147 47163 25328 39713 22780 244897 35323 305292 50205 36654 248370 78629 100477 93378 105242 101031
internal_value=0 -0.0360585 0.0524895 -0.0145589 0.03728 -0.0633936 -0.027678 0.0721815 -0.0212305 -7.29112e-05 -0.0648999 -0.0182341 -0.0373976 -0.0393854 -0.00740654 -0.0683419 0.027431 -0.025628 -0.0270038 -0.00557514 -0.0071864 0.00725323 -0.0325843 -0.00696858 -0.000168933 -0.0662692 -0.0297786 -0.0199949 -0.0372878 0.0475927 0.0126491 -0.00269202 -0.0556939 -0.0184005 0.00729148 -0.0479088 -0.0690009 -0.0128524 0.0374484 0.0324762 0.0208171 -0.0581763 -0.0283312 0.0213967 -0.0605595 0.00165395 -0.0073453 -0.0364852 -0.0344552 -0.058755 -0.0078995 -0.0373312 -0.0444613 -0.0116912 -0.0548124 -0.00623958 -0.00867968 -0.0410207 -0.0226919 -0.0191868 -0.0300847 -0.0146228 -0.0165319
internal_weight=0 179160 123216 100284 69521 78875.4 52625.1 53695.4 2720.64 47659.1 76154.8 26691.1 25934.1 24773.8 23817.4 55430.1 35559.7 16114.5 15638.9 22307 21049.5 23841.7 13779 10576.5 10036.3 45461.1 12347.2 8991.86 5994.84 33961.3 13805.4 15027 20724.7 6022.54 8337.01 10994.8 30749.6 7464.62 585.778 19166.2 5468.37 16973.6 4487.14 1257.47 14711.5 5596.68 2407.07 6647.07 1510.36 408.196 5699.11 2134.86 3751.09 4504.73 5491.21 11385.5 9171.44 5503.63 6352.34 4504.59 2736.97 4547.59 3319.36
internal_count=11724000 11257457 466543 3881084 287545 7376373 2814532 178998 52525 1066552 7323848 1171365 1643167 1634233 715826 5580010 165280 829027 825629 641104 635161 350726 993112 342338 151525 4390587 857198 512040 490888 122265 199201 460316 1743838 174845 134722 641121 3012300 241984 4429 81095 64479 1467069 291030 5943 1378287 106281 49453 313589 74722 27559 102207 48096 276769 221010 356993 367194 316989 284128 366310 162413 172007 141896 185687
is_linear=0
shrinkage=0.05


Tree=4
num_leaves=64
num_cat=0
split_feature=1 1 1 21 16 10 16 16 14 4 17 16 16 13 16 1 1 13 14 14 3 1 16 16 13 8 4 16 1 4 9 3 16 4 1 4 14 1 1 3 16 13 16 4 3 4 1 21 1 13 10 14 3 16 7 3 16 3 3 16 1 5 16
split_gain=186463 35065.4 6628.23 5742.39 6308.96 1632.51 1380.88 959.608 796.469 770.467 743.564 821.751 615.75 585.467 510.454 451.323 597.186 380.062 366.591 362.171 298.893 255.779 235.982 233.71 219.852 204.408 201.747 188.939 185.049 184.532 183.882 183.8 179.015 167.363 163.958 162.779 159.186 180.304 172.932 159.065 158.274 155.969 153.504 144.939 241.864 139.636 233.264 217.562 160.737 133.495 131.167 152.203 130.168 128.515 128.339 124.2 211.623 124.04 122.737 118.51 118.145 117.114 115.927
threshold=1.0000000180025095e-35 1.0114246606826784 3.0052118301391606 1.5000000000000002 3.5000000000000004 406.50000000000006 24.500000000000004 1.5000000000000002 0.054907627403736121 0.15262392908334735 0.24273990094661715 8.5000000000000018 16.500000000000004 0.019946572370827201 4.5000000000000009 1.9614381194114687 2.0001790523529057 0.010874113067984583 0.067905344069004073 0.037049515172839172 1183.5000000000002 2.0001790523529057 29.500000000000004 3.5000000000000004 0.0073329822625964889 1.0000000180025095e-35 0.28126034140586859 1.5000000000000002 8.5332007408142108 0.10848182439804079 1.0006090998649599 326.50000000000006 7.5000000000000009 0.047103887423872955 2.9534322023391728 0.034899789839982993 0.032025642693042762 2.9534322023391728 2.9534322023391728 94.500000000000014 3.5000000000000004 0.0057230074889957913 13.500000000000002 0.027567461133003238 131.50000000000003 0.15834606438875201 0.96303191781044017 8.5000000000000018 0.96303191781044017 0.15577469021081927 3376.5000000000005 0.0064725596457719812 106.50000000000001 4.5000000000000009 1.0007861852645876 751.50000000000011 5.5000000000000009 120.50000000000001 55.500000000000007 2.5000000000000004 9.0094947814941424 13.167417526245119 12.500000000000002
decision_type=2 2 2 10 2 10 2 2 2 2 2 2 2 2 2 2 2 2 2 2 2 2 2 2 2 10 2 2 2 2 2 2 2 2 2 2 2 2 2 2 2 2 2 2 2 2 2 10 2 2 10 2 2 2 2 2 2 2 2 2 2 2 2
left_child=3 6 5 4 7 14 8 -1 17 19 11 29 32 41 36 -15 23 -2 26 24 40 22 -16 30 52 -20 50 -22 55 -6 -17 -26 -5 -9 -29 57 38 -38 58 -10 -18 -7 -37 -19 -45 46 -8 -48 -47 -41 -11 -52 -4 -28 -14 -21 61 -13 -3 -35 -55 -57 -33
right_child=1 2 9 12 10 13 45 33 39 18 -12 35 54 15 21 16 20 43 25 28 27 -23 -24 -25 31 -27 53 34 -30 -31 -32 62 -34 59 -36 42 37 -39 -40 49 -42 -43 -44 44 -46 48 47 -49 -50 -51 51 -53 -54 60 -56 56 -58 -59 -60 -61 -62 -63 -64
leaf_value=0.076655153254584538 -0.07135381403912508 -0.011519901105912125 0.00022892016342473584 0.043000878331055037 0.03912181796675808 -0.077034751120481651 -0.046335312375573624 0.05186691775262306 -0.043464970400243844 0.0016271905163117483 0.055810304548030792 0.026837720412890231 0.075510854370842928 0.0011209099807755769 -0.033523174133381316 0.065784813029201181 -0.0093248635572074062 -0.069269881125201105 0.059941049179612182 0.0039635140108705991 -0.016706836842577556 -0.013401101947842695 -0.0048709615391476268 -0.047635575528834358 0.0014746194476088475 0.013866568747424158 0.01690154885551538 0.018423951089539172 0.010414046742466362 0.048208708658709548 -0.034561531212688644 -0.013903179616643658 0.030960008723366208 0.066188929623776246 -0.03883395659112443 0.035730545584770977 -0.010046108411384952 0.0090496750997011589 -0.0022917962689470192 -0.056071143537495961 -0.025371644846288444 -0.049369468623850443 0.025203167478798957 -0.053007254766275706 -0.063159841482945428 -0.02222010514429594 -0.02496224674858304 0.051369251493885271 0.021720335578705445 -0.036424521973039331 -0.079852397646772891 -0.0093073420551291041 -0.063133272512969754 -0.0019117814690164259 0.018255503554289235 -0.071208056105527065 -0.018291320352703366 -0.0014914089273604797 -0.030065833108130054 0.059319643184884453 0.023809179428314804 -0.0012818379006297254 -0.032013371269471909
leaf_weight=16859.978918148205 14841.728488494176 1829.0564228137955 105.00055206520483 4201.6915877684951 10016.816205805168 677.62494950182736 1099.4040241684997 3785.9199991216883 3716.2405464781914 5779.9860344871413 7030.1523717204109 847.93608462158591 98.758184548467398 995.42038602661341 5612.8607651304919 46.025544729083776 2932.1257571540773 5527.6833149306476 248.72714396193624 3222.799126854632 1395.3273360542953 3731.0654356195591 824.14049628074281 6473.7262898494955 1679.9469999177381 7480.0399020302575 2776.1213703844696 128.18183818925172 2530.6655771872029 12633.641599490307 5652.8371645226143 4691.9167198119685 11633.841257552616 14123.244765264913 5079.3538290444994 7653.7477966994047 2821.5810210350901 2199.9574976144359 2031.1527714491822 15104.947620316641 3228.734583186917 2052.8629477731884 6323.7498547332361 7990.9753886954859 22062.257997325622 754.1721050683409 346.03818967519328 127.83638305170462 287.45403386419639 917.1262058778666 78.418822218198329 3059.9488293335307 355.43254814855754 2740.980937264394 10932.808644017205 60.497055863961577 3005.7964083990082 709.89495225343853 1741.5317154349759 11304.133367337286 533.32698018755764 5851.9708693674766 1088.6845641648397
leaf_count=83582 1786105 101380 3624 9066 61448 70763 31974 27971 298386 107535 13775 8794 140 8248 285756 583 149848 848973 801 79100 112766 115804 12048 441363 44472 92359 31422 864 41689 39114 507413 188447 30245 43075 294018 35066 130614 58506 77427 1432590 143890 167936 34243 742668 2139673 13335 10683 725 4438 65346 2904 70536 29864 39911 36186 1449 100294 11381 136015 32373 4746 190191 36795
internal_value=0 -0.0338687 -0.0138197 0.0481554 0.0541352 -0.0264757 -0.0599698 0.0671567 -0.0612994 -2.43843e-07 0.0408668 0.0381157 0.0278371 -0.0342129 -0.0158094 -0.0318941 -0.033212 -0.0646326 0.00650614 -0.00653682 -0.0256556 -0.0238173 -0.0298548 -0.0411353 -0.0151526 0.0153493 0.00194016 -0.0330465 -0.00188533 0.0441902 -0.0337511 -0.0130832 0.0341549 0.0616748 -0.0374246 0.0292591 -0.00814467 -0.00168016 -0.0139396 -0.0527848 -0.0177345 -0.0562352 0.0309677 -0.0618289 -0.0604603 -0.024294 -0.0336954 -0.00437042 -0.010094 -0.0549465 -0.00284097 -0.0110701 -0.0486837 0.00898757 0.0187681 -0.004449 -0.00748903 0.0139283 -0.0205656 0.0631351 0.00227771 -0.00199733 -0.0173139
internal_weight=0 167520 94743.8 118156 91289.2 49453.6 72775.9 46073.3 70161 45290.3 45215.9 38185.8 26867.1 28662.2 20791.3 25931.7 24936.3 50422.6 22697.6 22592.7 12763.7 10168.1 6437 12172.6 7920.98 7728.77 14968.8 6602.86 14671.7 22650.5 5698.86 7460.55 15835.5 29213.3 5207.54 15535.3 10623.3 5021.54 5601.74 19738.3 6160.86 2730.49 13977.5 35580.9 30053.2 2614.9 1573.28 473.875 1041.63 16022.1 8918.35 3138.37 460.433 6050.43 11031.6 12141.1 8918.26 1557.83 3570.59 25427.4 3274.31 5912.47 5780.6
internal_count=11722736 11256277 3881381 466459 390822 2815242 7374896 187001 7313741 1066139 203821 190046 75637 1897692 917550 1658993 1650745 5517419 350214 715925 701386 413608 297804 949359 303202 93160 257054 407648 412723 100562 507996 269714 39311 103419 294882 89484 503942 189120 314822 1796322 293738 238699 69309 3731314 2882341 61155 43382 11408 17773 1497936 180975 73440 33488 76079 36326 371034 291934 20175 237395 75448 44657 191640 225242
is_linear=0
shrinkage=0.05


Tree=5
num_leaves=64
num_cat=0
split_feature=1 1 16 1 20 20 10 16 1 13 10 20 13 16 1 20 9 16 1 16 1 16 13 20 4 13 16 1 1 1 13 20 13 3 4 4 20 20 20 4 10 16 4 7 1 11 16 20 13 2 3 5 18 13 20 10 13 2 13 3 1 9 11
split_gain=158685 30232.1 10096.5 5609.81 2308.94 2284.56 1307.31 1059.01 768.059 660.966 619.959 616.213 568.233 387.112 344.409 519.972 335.047 301.697 327.845 299.381 289.948 350.937 273.688 617.808 270.922 314.171 249.312 373.26 219.374 217.999 184.805 168.249 162.999 154.721 150.59 142.27 139.497 135.269 134.836 134.079 129.81 126.385 123.291 121.364 133.352 120.757 117.266 177.481 115.851 109.998 109.515 107.965 150.407 114.011 107.359 103.443 101.986 101.246 115.584 96.2197 95.4757 95.3996 90.1496
threshold=1.0000000180025095e-35 1.0270119309425356 4.5000000000000009 3.0052118301391606 1.5000000000000002 7.5000000000000009 889.50000000000011 25.500000000000004 2.0001790523529057 0.020336954854428772 1269.5000000000002 19.500000000000004 0.017392585985362533 2.5000000000000004 0.96303191781044017 18.500000000000004 1.0009310841560366 4.5000000000000009 8.8742055892944354 5.5000000000000009 1.2016728520393374 2.5000000000000004 0.67048346996307384 3.5000000000000004 0.029218623414635662 0.073413040488958373 2.5000000000000004 6.0081939697265634 1.0003044605255129 2.0001790523529057 0.10023360699415208 1.5000000000000002 0.014636025298386814 154.50000000000003 0.24901032447814944 0.22893151640892032 19.500000000000004 19.500000000000004 12.500000000000002 0.1318243741989136 159.50000000000003 11.500000000000002 0.027567461133003238 1.0007861852645876 2.9534322023391728 49.500000000000007 2.5000000000000004 2.5000000000000004 0.0065040821209549913 144.50000000000003 242.50000000000003 13.868671894073488 9.3397436141967791 0.059652827680110938 5.5000000000000009 2783.5000000000005 0.022632289677858356 8.5000000000000018 0.1907794997096062 116.50000000000001 5.974663734436036 1.0012443661689761 1322.5000000000002
decision_type=2 2 2 2 10 8 10 2 2 2 10 10 2 2 2 10 2 2 2 2 2 2 2 10 2 2 2 2 2 2 2 10 2 2 2 2 10 8 8 2 10 2 2 2 2 8 2 10 2 2 2 2 2 2 10 10 2 2 2 2 2 2 10
left_child=2 7 4 6 -1 22 8 9 20 45 17 13 48 32 -9 -16 -14 40 34 39 -3 33 23 31 -11 35 51 37 -17 56 59 -4 -8 -22 50 -26 -21 41 -7 -10 -5 -28 -25 -34 -45 -2 -6 -48 -12 -41 -19 52 -18 -53 -44 -31 -15 -27 -59 -23 -52 -61 -55
right_child=1 3 5 10 46 38 11 14 19 24 12 -13 16 29 15 28 26 18 -20 36 21 30 -24 42 25 57 27 -29 -30 55 -32 -33 43 -35 -36 -37 -38 -39 -40 49 -42 -43 54 44 -46 -47 47 -49 -50 -51 60 53 -54 62 -56 -57 -58 58 -60 61 -62 -63 -64
leaf_value=0.072874365972514829 -0.062603456497680107 0.012790684781456889 0.072664324402619482 0.027649567550820393 0.056179760817311547 0.022286554619037752 -0.059036494873826097 -0.037916432720123676 -0.010300346892130179 -0.065551093219272313 -0.065397986602514321 0.0041876049601022574 0.051680954365394875 -0.066942423553747452 -0.064689243443955935 0.039945879055521188 0.011127795439263689 -0.0002521805415636815 0.018448100442633432 -0.020080176335286581 -0.0078378317134296435 -0.028430397626009074 0.062739138706023309 0.02075253920355009 -0.058413595997812554 -0.068089143500340052 -0.012819506806084645 0.00055767622816636114 -0.049222112545082478 -0.02908463965186785 -0.015731457394759812 0.04730509347181594 0.07132602829574565 -0.025254158204867067 0.0051105799281202721 -0.05027441562834311 0.022407892364579303 0.029348602231827298 0.014546040384633648 0.016856132245664394 0.010787379483364183 -0.027497299167492523 0.037949634918249826 -0.033837210412813228 -0.019595579270462914 -0.070690677552704362 0.054517605402730075 0.044753608581741322 -0.03009661213310752 -0.0010436555152564841 -0.020804588233750771 -0.00064276702163052857 -0.056692934734642181 0.0075070801289288391 0.03127348444070218 -0.042153719892263776 -0.046951639166277981 -0.047463709264549903 -0.031089501232178837 -0.063413138978586053 -0.0030895432747729407 -0.036938877188505491 0.029938386458280876
leaf_weight=23723.547295851633 9253.7689904475119 489.6229222426191 705.25532157998532 1378.0157201583497 9796.5357919484377 14747.89811108727 392.24925851309672 1679.4396351712057 2544.0733425212093 5848.3602821556851 320.36034254543483 952.6828337283805 266.84662426728755 729.9575864134822 210.84921173704788 486.01077442150563 152.74528424069285 2542.6216880921274 2190.2319311199244 4186.7269919189857 2861.2284119683318 3931.7887992796022 1188.5089199375361 1555.0296803107485 23959.029754270334 519.02488716272637 6483.140132921515 6629.2334479012061 80.386182591319084 2898.9989430417772 1577.4675429798663 9011.2854356300086 31.965436961501837 2300.4802960166708 3511.374750796007 6919.6167530389503 202.52904640417546 166.6828314291779 9096.0847098091617 1225.3216765266843 6645.680851961486 1895.3769501936622 14958.156282518525 3120.5574578261003 3473.0725321024656 9209.7611883387435 8921.1485918890685 9730.4316726410761 846.56702307285741 2865.293437521439 2015.0886583405081 4508.1239800136536 175.8803296526894 1989.6143040005118 10079.630245130509 3169.3740128154168 5064.4822703385726 8704.0419764826074 1230.0508685300592 367.06739266961813 1221.7174128491897 4663.2256938235369 578.04800359439105
leaf_count=102342 1105483 3281 1384 21172 46158 70551 52678 44414 142255 967485 25134 7571 1617 67687 9384 4158 1739 50153 20625 162741 175699 198123 2741 14281 2554126 60141 192807 134344 1307 157943 67963 20761 213 198268 44771 555496 1437 1126 48157 25874 143937 72114 47749 323711 247941 1216102 21599 50783 37953 86453 59837 155736 5896 60585 39398 201333 381567 771826 89946 27919 26652 283087 9951
internal_value=0 -0.0322418 0.0451865 -0.013316 0.0613559 0.0314343 -0.025284 -0.057411 -0.0181689 -0.0586172 -0.000376919 -0.0350472 -0.00575554 -0.0370269 -0.0251805 0.00233861 -0.0040172 0.00624479 0.00104624 -0.00798925 -0.0250999 -0.0262815 0.0391288 0.0383559 -0.0554786 -0.0540534 -0.00467547 -0.00834559 0.0272907 -0.0425336 -0.0315127 0.0491457 -0.0277186 -0.0156 -0.00305611 -0.0565897 -0.0181197 -0.0152526 0.0193337 -0.00128733 0.0136833 -0.0161399 0.0344135 -0.0258645 -0.0263357 -0.0666374 0.0517503 0.0494238 -0.039788 0.00431813 -0.00801789 0.00284599 -0.0251698 0.00414715 0.035262 -0.0359103 -0.04947 -0.046561 -0.0454362 -0.0342904 -0.0141181 -0.0388707 0.012557
internal_weight=0 158666 113514 90565.5 52171.7 61341.8 47048.2 68100.3 27214.8 65643.7 43517.4 19833.3 24012.6 18880.7 2456.69 777.246 22845.7 19504.7 11481 11023.9 16190.9 15701.3 37497.9 36309.4 47180.1 41331.8 22578.8 15174.4 566.397 11862.8 10539.5 9716.54 7017.84 5161.71 9290.8 30878.6 4389.26 8545.2 23844 6634.69 8023.7 8378.52 26592.8 6625.6 6593.63 18463.5 28448.1 18651.6 1166.93 4090.62 5779.43 7404.41 328.626 7075.79 25037.8 6068.37 5794.44 10453.1 9934.09 8962.08 3236.81 5030.29 2567.66
internal_count=11725665 11259761 465904 3879893 220882 245022 2813744 7379868 1373100 7320605 1066149 1440644 699002 1433073 59263 14849 635915 367147 202038 418760 954340 951059 126314 123573 4999020 4031535 634298 400391 5465 808530 577092 22145 624543 373967 181413 3109622 164178 266047 118708 254582 165109 264921 101428 571865 571652 2321585 118540 72382 63087 112327 136642 233907 7635 226272 87147 359276 449254 921913 861772 509129 86489 311006 70536
is_linear=0
shrinkage=0.05


Tree=6
num_leaves=64
num_cat=0
split_feature=1 1 20 1 20 20 20 3 20 1 4 13 16 13 16 1 20 1 4 13 13 10 16 20 1 13 1 13 16 0 4 3 4 2 21 20 20 16 17 16 20 1 5 18 12 4 4 3 16 16 4 1 16 2 0 8 12 4 13 4 13 4 4
split_gain=134707 26046.1 11040.1 4977.77 2207.46 1397.15 1321.71 1205.98 657.67 651.434 627.159 604.088 494.185 406.194 401.352 382.028 352.888 271.898 244.632 317.308 218.175 215.583 215.112 214.816 187.985 183.634 162.529 146.853 145.713 138.159 153.937 135.661 134.441 133.518 125.828 124.651 122.962 242.156 119.513 113.421 117.097 112.909 112.901 222.967 108.33 107.347 107.27 106.289 105.893 102.767 101.562 100.555 100.546 100.371 100.129 100.014 97.5676 91.9189 90.6206 89.6577 88.5147 86.9672 85.615
threshold=1.0000000180025095e-35 1.0270119309425356 2.5000000000000004 3.0052118301391606 5.5000000000000009 1.5000000000000002 14.500000000000002 268.50000000000006 19.500000000000004 0.99343496561050426 0.20465718954801562 0.017838940024375919 1.5000000000000002 0.054497312754392631 1.5000000000000002 2.0001790523529057 9.5000000000000018 2.0001790523529057 0.029218623414635662 0.074778534471988692 0.011498141102492811 1568.5000000000002 4.5000000000000009 18.500000000000004 1.0003044605255129 0.021924855187535289 9.0094947814941424 0.026630224660038952 6.5000000000000009 631919.50000000012 0.19697920233011249 820.50000000000011 0.25011938810348516 338.50000000000006 2.5000000000000004 4.5000000000000009 19.500000000000004 8.5000000000000018 0.016807910054922107 3.5000000000000004 19.500000000000004 6.9990286827087411 11.003690242767336 9.1883444786071795 4.5000000000000009 0.17556054890155795 0.22629148513078692 412.50000000000006 1.5000000000000002 12.500000000000002 0.132939487695694 2.9534322023391728 9.5000000000000018 12.500000000000002 849362.50000000012 1.7801847457885744 269.50000000000006 0.134125791490078 0.051002582535147674 0.23485765606164935 0.10624177008867265 0.35782594978809362 0.038469852879643447
decision_type=2 2 10 2 10 10 10 2 10 2 2 2 2 2 2 2 10 2 2 2 2 10 2 10 2 2 2 2 2 2 2 2 2 2 10 10 8 2 2 2 10 2 2 2 10 2 2 2 2 2 2 2 2 2 2 10 10 2 2 2 2 2 2
left_child=2 6 5 7 34 -1 11 14 12 62 13 45 25 20 -3 23 50 27 -13 29 33 49 42 28 38 -9 56 -14 59 -20 -31 -15 -18 -5 35 -4 37 41 -11 -33 -41 47 43 -12 -44 -2 -17 -22 -49 -19 -6 55 -29 -21 -30 -27 -24 -10 -23 60 -16 -46 -8
right_child=1 3 4 10 16 -7 9 8 57 24 22 18 17 31 15 46 32 21 19 53 36 58 26 -25 -26 51 -28 52 54 30 -32 39 -34 -35 -36 -37 -38 -39 -40 40 -42 -43 44 -45 61 -47 -48 48 -50 -51 -52 -53 -54 -55 -56 -57 -58 -59 -60 -61 -62 -63 -64
leaf_value=0.070010925714704839 -0.066937389738750533 0.0007197723779045033 0.041432724617451538 -0.0059689422501142493 0.021432194794499915 0.052193967174078419 -0.055971834632097095 -0.04751966302430069 -0.0082764132189722239 -0.042155440025241575 0.015863693772765704 -0.063198067607681915 -0.055401690221268521 0.0095758628736168448 -0.02910112826860092 -0.013605745231130305 0.012739257240772201 -0.01897181299731069 -0.058480410578544972 -0.061026771203761092 0.0029859283555459318 -0.043102172584960415 0.0015964699548687716 0.0036910408253590455 -0.042131424060757157 0.026942109775349415 0.017211498032415513 -0.036343320427694829 -0.042094849991938271 -0.054527917303469578 -0.044316663212103993 0.0051246271622454997 0.024000090120730691 -0.048828183215878097 0.027956116386008326 0.033562450020952303 0.01213131932466251 -0.020083512572968237 0.056649225972177641 -0.0098640575925917195 0.024573714010151348 0.0050487592080218141 0.040224271120217737 -0.077598997805116615 0.0095150000480046376 -0.057484906839966946 0.00043792399846667496 -0.0014944798535667467 -0.015386009651516378 -0.037805236024497091 0.028920704802027988 -0.0094670601010936103 -0.049016872441286378 -0.042434470965288559 -0.025546335461064603 -0.02621180648704868 -0.014800362238445297 0.019180906079516249 -0.02988281533272974 -0.011363251715424167 -0.0065948386273210775 0.021901333117434751 -0.026495355461562654
leaf_weight=23039.171686093789 12019.297556556296 3492.0521782450378 22465.931050236337 267.60952118062414 8987.5607247287408 21061.952791889198 291.3593180347234 521.90551170567051 650.88423511199653 33.4317193957977 182.58337820321321 5484.1024101800285 1771.2015337140765 4061.8325366221834 2801.5934301291127 3299.345820436487 12898.394419933669 3666.0143324607052 12440.324145269347 791.58940255222842 1673.6774337831885 3062.8637654515915 5626.7685441067442 636.34955141111277 67.243757131509483 92.312004311010242 1489.3689513737336 6201.2735560617875 1865.9432273032144 13071.392761754105 5143.016382834292 3198.0711365682073 3336.0610243007541 566.14352120179683 2489.5923525393009 6482.7784159127623 670.81659909849986 4065.893822951708 362.05199783854187 3674.0495841498487 264.61890168022364 1986.6006042724475 417.61788936425 98.096611702814698 3990.7841773037799 4004.2130068331026 2312.9719586141873 1973.7309410646558 4498.6936415110249 902.68101327610202 9124.3452714430168 2536.0330828158185 2093.2253873266745 8748.6828258878086 1791.8418476016959 2141.6824246207252 1081.6506748106331 573.2744954675436 2247.8867902422789 1661.3591673402116 517.57270938623697 2197.4473214237951 1594.3646476538852
leaf_count=104613 1743075 216939 87902 9084 52196 74240 11638 78348 6835 2161 1645 990002 163585 86830 185638 126869 73107 178182 1389895 93278 45091 215194 84471 7726 1436 6168 13836 476656 112917 1471854 412757 103183 11292 44023 6069 28467 3686 137650 2089 113294 1199 46654 3834 3390 67083 427004 55290 95271 162082 51852 28847 191063 160790 792214 97230 257043 23580 3139 138172 59699 25404 20891 38681
internal_value=0 -0.0306334 0.0421455 -0.0127904 0.0291693 0.0615018 -0.0548209 -0.024375 -0.0312088 -0.0180049 -0.000418316 -0.0562221 -0.0329449 -0.00499424 -0.014536 -0.0181146 0.0204065 -0.0365488 -0.053292 -0.0519404 -0.0101827 -0.0306562 0.0077425 -0.0243453 0.0351558 -0.0193615 0.00226993 -0.0423325 -0.0264106 -0.0544188 -0.0516447 0.00228119 0.0150533 -0.0350717 0.0387426 0.0396703 -0.00878709 -0.00977538 0.0482969 -0.00187052 -0.00755036 -0.0056391 0.0142571 -0.0168012 0.0155768 -0.0645753 -0.00781801 -0.00824556 -0.0111499 -0.0226929 0.0252047 -0.0162806 -0.0395417 -0.0439771 -0.0339882 -0.0240154 -0.00104732 0.00458187 -0.0375068 -0.0208454 -0.0255916 0.0139134 -0.0310497
internal_weight=0 150877 109886 86826.3 65784.7 44101.1 64051.1 44840.3 26461.2 2348.45 41986.1 61702.6 25237.1 26901.7 18379 14887 34346.4 19945.1 45679.1 40195 15703.2 9879.45 15084.3 9274.66 462.727 5291.93 8197.79 10065.7 8638.31 30654.7 18214.4 11198.6 16234.5 833.753 31438.3 28948.7 14869.4 14198.6 395.484 7136.74 3938.67 10132.7 6886.53 280.68 6605.85 16023.5 5612.32 8146.1 6472.42 4568.7 18111.9 4770.03 8294.5 9540.27 3657.79 2233.99 6708.42 1224.16 5310.75 4980.53 3319.17 6188.23 1885.72
internal_count=11724333 11257600 466733 3881516 287880 178853 7376084 2814739 1927027 56005 1066777 7320079 1917053 848047 887712 670773 165442 1384431 5150000 4159998 543541 583400 218730 488614 5686 532622 121887 801031 480888 3274506 1884611 304506 84399 53107 122438 116369 490434 486748 4250 217676 114493 349098 96843 5035 91808 2170079 182159 302444 257353 230034 81043 454274 637446 885492 210147 263211 108051 9974 353366 270741 211042 87974 50319
is_linear=0
shrinkage=0.05


Tree=7
num_leaves=64
num_cat=0
split_feature=1 1 20 1 20 20 20 3 20 4 1 13 1 1 16 14 16 14 20 20 16 1 1 20 16 10 1 16 14 14 14 4 3 10 14 16 3 13 21 17 1 1 16 13 13 10 3 14 10 15 17 4 10 4 13 4 4 13 20 21 21 21 4
split_gain=117453 23082.8 9787.3 4194.16 1688.13 1328.32 1117.71 1074.14 616.482 568.152 554.374 520.922 447.853 387.538 303.98 265.533 260.884 243.878 230.102 227.614 311.949 226.09 216.791 184.076 173.777 164.218 159.332 162.507 144.31 143.662 140.325 136.469 195.608 134.437 133.169 131.339 130.99 130.546 129.407 122.343 128.694 115.635 115.262 109.431 97.6936 97.3775 93.9126 123.378 93.8002 115.836 87.0895 87.0648 91.28 126.944 82.9511 82.7409 82.4166 82.1722 79.6217 77.5197 76.5037 76.1609 72.8114
threshold=1.0000000180025095e-35 1.0476812124252322 2.5000000000000004 3.0052118301391606 6.5000000000000009 1.5000000000000002 16.500000000000004 190.50000000000003 19.500000000000004 0.14706511050462726 2.0001790523529057 0.017838940024375919 0.99343496561050426 2.0001790523529057 3.5000000000000004 0.036720111966133125 3.5000000000000004 0.092358466237783446 4.5000000000000009 19.500000000000004 4.5000000000000009 9.4996471405029315 5.0054588317871103 11.500000000000002 6.5000000000000009 164.50000000000003 1.0604425072669985 3.5000000000000004 0.014593699946999552 0.030790777876973156 0.064557805657386794 0.027567461133003238 135.50000000000003 1766.5000000000002 0.052164053544402129 7.5000000000000009 4933.5000000000009 0.0065040821209549913 3.5000000000000004 0.17407773435115817 1.0003044605255129 1.0604425072669985 10.500000000000002 0.28616924583911901 0.0073329822625964889 3904.5000000000005 308.50000000000006 0.016147656366229061 1425.5000000000002 0.022514150477945808 0.12429775297641756 0.04931688308715821 149.50000000000003 0.022164075635373596 0.33302180469036108 0.12426890805363656 0.1635396629571915 0.0028595960466191177 18.500000000000004 7.5000000000000009 1.5000000000000002 1.5000000000000002 0.30016587674617773
decision_type=2 2 10 2 10 10 10 2 10 2 2 2 2 2 2 2 2 2 10 10 2 2 2 10 2 8 2 2 2 2 2 2 2 10 2 2 2 2 10 2 2 2 2 2 2 10 2 2 10 2 2 2 10 2 2 2 2 2 10 10 10 10 2
left_child=2 6 5 7 18 60 11 13 10 19 15 -2 55 26 34 44 30 31 51 20 37 25 50 -6 43 59 -3 -28 -27 -25 46 -13 -33 -16 45 -15 -24 -5 -21 40 -14 -10 -30 -17 -9 57 -11 -48 -39 -50 -22 52 -4 -54 -32 -8 -7 -12 62 -18 -1 -53 -29
right_child=1 3 4 9 23 56 12 8 41 16 14 17 39 35 33 24 21 -19 -20 38 22 -23 36 29 -26 28 27 58 42 -31 54 32 -34 -35 -36 -37 -38 48 -40 -41 -42 -43 -44 -45 -46 -47 47 -49 49 -51 -52 61 53 -55 -56 -57 -58 -59 -60 -61 -62 -63 -64
leaf_value=0.06794172569687508 -0.062298338673120693 0.050232148840699209 0.040034404040739095 -0.046394821770460254 0.021765956299211853 0.0472681720403485 -0.041945112421774684 -0.069237021710027241 0.054205600894573137 0.018819144817925813 -0.07257133281924287 -0.061412477831388326 0.029635975618549651 0.0034203147214473734 -0.024334208823500823 -0.028360489831538202 0.015024131774487921 -0.043524486356786504 0.029622149847360432 0.043516738933396526 -0.031214642300466819 0.01513746731345666 -0.0027123142612512372 0.0047603171923112919 -0.042677971776599342 -0.028052728980104871 -0.011492148994132909 -0.030030171321861466 0.0011351188688784638 0.017258874459108505 0.018151926378095089 -0.044901129488329215 -0.054288060838080313 -0.038171122006166708 -0.0080830083300293884 -0.013244007278026722 -0.021093752814499447 0.006670450346117328 0.0047932955550903308 0.050284333101207702 -0.037768978489555148 0.0010440326931077069 -0.010844053210900295 0.020497788387016498 -0.044574062460679548 -0.035456009885478208 -0.025432699683486742 0.0057781057261838539 -0.011389947591709866 0.0020265085539923479 -0.016796364483544091 0.04064315970802139 -0.0036064668422724935 0.029497937513490148 0.050863132523287724 -0.020352387133838825 0.053830377056101823 -0.015438340504141694 -0.0037216472972265153 -0.014510394520745595 0.034519240248883191 0.03316767460593583 -0.015339461108481707
leaf_weight=21127.195955542382 14966.801842023851 83.488014940172434 1274.952212613076 162.15464322641492 16950.177852259949 12483.548892065883 839.88747411081567 440.06228452292271 112.79111175239086 1233.5450680553913 64.650863682851195 4471.7314687145408 166.95629575615749 3787.4809712388087 3933.5235149348155 5711.8339630267583 1619.4897970135789 7888.8880658290582 13272.932921799831 290.91275765560567 1883.7140072053298 2180.0730987633578 3542.0213083892595 3321.6104823932983 2723.9692834904417 645.8095148691209 3946.7496149365325 3741.6375882804859 5156.149359682342 7468.8608542485163 2787.957478353288 7274.0914179584943 23412.709774340503 3170.1882403292693 3112.1456971850712 1719.0444582722848 1334.3219926381717 2709.0623980429955 835.04299391072709 223.35372863896191 122.96972261555493 1098.7487632939592 3288.8797713801032 116.95187353156507 4585.4435434711631 1004.5255228304304 347.79161606170237 3535.3121198285371 3095.7490941260476 3349.5116372362245 2358.7510191828478 15948.187927690335 369.1142074810341 1344.1199739277363 208.28588405344635 940.40909471223131 7758.3227291107178 2371.0704300028738 408.18931064987555 257.49888594681397 172.61511114612222 4332.83197691245 1088.8986829740461
leaf_count=103811 2171156 372 7932 16307 81354 55524 30482 56361 524 18755 8186 862087 1812 124604 199601 483536 21050 824099 56820 1512 123950 23649 102300 23597 204047 17455 251690 226045 85063 35150 41973 779327 2686190 215636 176657 58776 45644 93975 4360 957 2088 9980 71792 4034 478825 94038 12384 73528 146301 114238 49187 57027 6394 10215 997 19846 18875 169700 5858 1951 558 9171 45266
internal_value=0 -0.0293066 0.0400396 -0.0123695 0.0278158 0.0589549 -0.0529097 -0.0232247 -0.0289055 -0.000876226 -0.030458 -0.0542631 -0.0186757 -0.0122879 -0.0233447 -0.0376121 0.00478178 -0.0514694 0.0348755 -0.00702582 -0.00835875 0.00043103 -0.014933 0.0185163 -0.0322524 -0.00249217 -0.0185293 -0.0191543 -0.00527219 0.0134115 0.0118327 -0.0532521 -0.052063 -0.0305092 -0.0155774 -0.00178201 -0.00774206 -0.00192402 0.0147983 0.0224725 0.00104672 0.00599323 -0.00353012 -0.0273802 -0.0467337 -0.022357 0.00680062 0.0029827 -0.00113629 -0.0044176 -0.0231983 0.0378721 0.0299043 0.0223656 0.0204259 -0.0305392 0.0497833 -0.0169548 -0.0249267 0.0109724 0.0676709 0.0390461 -0.0267186
internal_weight=0 144351 105824 84043.4 64282.8 41541.7 60307.8 43221.4 28445.9 40822 27234.4 58014.2 2293.58 14775.5 13656.1 13578.3 21260.8 43047.4 36542.1 19561.2 18435.3 13147.9 9118.81 27740.6 8552.76 10967.8 9268.96 9185.48 9090.84 10790.5 8112.89 35158.5 30686.8 7103.71 6552.39 5506.53 4876.34 9316.48 1125.96 513.28 289.926 1211.54 8445.03 5828.79 5025.51 3440.25 5116.65 3883.1 9154.32 6445.26 4242.47 23269.2 2988.19 1713.23 2996.24 1780.3 20241.9 2435.72 5238.73 1876.99 21299.8 20281 4830.54
internal_count=11724579 11258151 466428 3880107 287660 178768 7378044 2813736 2101125 1066371 2090621 7322859 55185 712611 863818 1226803 368597 5151703 147559 697774 691902 220960 321081 140101 691617 197311 529231 528859 174310 58747 147637 4327604 3465517 415237 448581 183380 147944 370821 5872 4857 3900 10504 156855 487570 535186 271924 104667 85912 354514 260539 173137 90739 24541 16609 42970 50328 74399 177886 277169 23001 104369 66198 271311
is_linear=0
shrinkage=0.05


Tree=8
num_leaves=64
num_cat=0
split_feature=1 20 14 1 1 1 20 20 1 3 20 3 1 10 1 3 1 13 20 20 16 11 1 13 20 1 16 16 1 3 20 4 4 4 8 3 10 16 10 10 13 13 13 20 16 16 4 16 5 10 20 16 20 13 9 13 14 9 19 4 10 12 20
split_gain=103033 8751.82 5379.94 11995.2 4999.32 1707.4 1495.35 1303.77 1110.05 670.061 623.118 483.219 464.019 444.32 390.357 410.843 342.676 327.76 325.479 307.779 278.881 273.777 252.224 201.291 196.88 266.591 192.626 166.817 163.403 160.199 150.98 146.72 137.145 124.397 122.806 122.433 119.924 108.952 108.868 108.058 106.504 105.612 104.764 95.3778 94.6072 90.9246 89.0509 88.4564 87.0336 85.5885 83.2532 79.2267 78.6996 77.5546 75.6663 72.9835 71.8995 71.2334 84.2316 70.8046 70.1635 69.7212 68.9639
threshold=1.0000000180025095e-35 2.5000000000000004 0.018420042470097545 2.0001790523529057 1.0003044605255129 1.0003044605255129 7.5000000000000009 1.5000000000000002 3.0052118301391606 274.50000000000006 17.500000000000004 820.50000000000011 2.0001790523529057 725.50000000000011 1.2752488255500796 581.50000000000011 0.99343496561050426 0.011498141102492811 4.5000000000000009 14.500000000000002 3.5000000000000004 30.500000000000004 3.0052118301391606 0.10449533909559251 19.500000000000004 6.0081939697265634 5.5000000000000009 9.5000000000000018 10.001296043395998 70.500000000000014 6.5000000000000009 0.17374916374683383 0.06209478713572026 0.14281447976827624 1.0000000180025095e-35 79.500000000000014 98.500000000000014 1.5000000000000002 114.50000000000001 3304.5000000000005 0.060828534886240966 0.15577469021081927 0.33385580778121954 19.500000000000004 5.5000000000000009 2.5000000000000004 0.24246553331613543 4.5000000000000009 13.259400367736818 240.50000000000003 21.500000000000004 1.5000000000000002 12.500000000000002 0.0028595960466191177 1.001142203807831 0.038047499954700477 0.053859103471040733 1.0012908577919009 1.8038461208343508 0.20465718954801562 195.50000000000003 6.5000000000000009 1.5000000000000002
decision_type=2 10 2 2 2 2 10 10 2 2 10 2 2 10 2 2 2 2 10 10 2 8 2 2 10 2 2 2 2 2 8 2 2 2 10 2 8 2 10 10 2 2 2 10 2 2 2 2 2 10 10 2 10 2 2 2 2 2 2 2 10 10 10
left_child=1 7 4 5 19 10 18 -1 11 12 23 26 36 27 -7 29 -12 53 -3 21 31 40 -19 35 25 39 38 49 -29 62 59 48 41 55 -17 -4 51 -13 -5 -22 60 -8 -33 -39 -31 -37 -14 56 -15 -10 -28 -6 -34 -11 -38 -20 -36 58 -24 -27 -2 -54 -16
right_child=2 6 3 8 9 14 32 -9 13 17 16 37 46 20 15 34 -18 22 33 -21 24 -23 57 -25 -26 30 50 28 -30 44 -32 42 52 -35 47 45 54 43 -40 -41 -42 -43 -44 -45 -46 -47 -48 -49 -50 -51 -52 -53 61 -55 -56 -57 -58 -59 -60 -61 -62 -63 -64
leaf_value=0.065652514894658717 -0.051805210364939236 0.036300306752560796 -0.03666323695317758 0.017752981043942472 -0.0030918420984234569 0.010758944587153653 0.0036633159953107781 0.047399870982449709 0.023466588892901281 -0.069859883123707875 -0.023240803301842309 -0.013285468519686898 -0.0077930917455659651 -0.074864810788781544 0.014314319515218048 0.067355147606704621 0.050110363003618263 -0.038482055253485282 0.014399847451410448 -0.024916503185000993 -0.0096112527594812286 -0.062334188550551499 -0.0084466319447162163 -0.03672590148157328 0.014763919863591766 0.0014874342235334113 -0.018470410067721429 -0.0032115462775630498 0.023076874428091372 -0.017722660824537932 -0.010180258234049206 0.0097590089066024455 0.020518316141125616 0.031676574503149833 -0.038325619027450894 -0.047358596630925794 -0.059214222767908456 -0.030058481030331707 -0.0037433447993822839 -0.02181455007887613 -0.043545492160972865 0.025093809665076586 0.049185304476602659 0.011795973529276296 -0.030728983084952245 -0.053571570734989075 0.0067700004779605019 -0.04256488712324185 -0.00040520554699437634 0.010878959162949481 0.027927091850558607 -0.02223010889566026 0.0067344517485671447 -0.046212857993952687 -0.030178200975136307 0.025488503522364578 -0.02481963705481759 -0.014592149516784503 -0.076658959407712446 0.017579795424411054 -0.06057593562689733 0.017316318570210348 -0.010829055054382183
leaf_weight=19771.739266178105 8009.7466629174305 22600.782424431294 1675.972325575538 699.31610787962563 662.80312448367476 686.02789008803666 3097.2771479985677 19366.078653392382 2015.2794688770082 556.36123939882964 1101.3423810242675 1418.4272290728986 4035.6518117757514 39.485210082493722 366.82191843073815 28.527776131406426 186.13465335872024 2957.6579311264213 1846.5852467538789 777.75181622919627 3988.3306639202638 12146.276821597712 80.275748370680958 3376.7865940760821 947.31233139988035 2298.1262043174356 2825.1853111012606 3130.4029406569898 728.7171495729126 3399.253914816305 2429.7509895854164 3471.8536540390924 11942.481812049635 8425.4113561818376 1953.2915886431001 11121.877981771948 253.67940958496183 5035.338468020549 3733.6895089233294 3327.4540910345968 2896.4543592208065 705.92655037343502 177.08631432149559 139.89604058861732 2375.0348996251123 12515.202506431611 1418.7437495872146 3347.3411990811583 6453.8872008398175 4093.2680540797301 100.10932003427297 2936.8757210925687 2309.5825186441652 920.24000017624348 1942.112198157236 7555.3501131292433 1988.6334435454337 2334.9761976742302 103.74759959173389 972.91184217343107 3187.7288487860933 4774.5912522878498 1063.0762826050632
leaf_count=104451 1055437 91320 165957 15020 50753 5584 32671 74051 26866 68495 28103 121959 159571 1469 15205 155 1052 318683 11271 24069 118318 1941958 3655 328832 5040 49153 119725 51542 4373 233096 68661 65173 47579 25401 214433 1688108 24476 336396 164163 124484 382612 5657 749 984 146931 1161186 29113 259158 247851 74174 718 161643 12026 85350 158192 41906 187003 100049 7309 9955 598482 20520 47340
internal_value=0 0.0380369 -0.0281165 -0.021251 -0.0422681 -0.0397427 0.026539 0.0566208 -0.00385289 -0.0220142 -0.0466655 -0.0157323 -0.0144724 0.00101129 -0.0260969 -0.027838 -0.0126362 -0.0342163 0.0323158 -0.055914 -0.00266017 -0.0568327 -0.0285795 -0.0481926 -0.00724349 -0.00884514 -0.0069239 0.00989051 0.00175249 -0.019362 -0.000739124 0.00365012 0.016309 0.0272645 -0.0361825 -0.0497223 -0.0243237 -0.0255623 -0.000352253 -0.0151617 -0.0520915 0.00764111 0.0116724 -0.0289271 -0.0230723 -0.0506482 -0.00400508 -0.0365877 -0.000857983 0.0150318 -0.0168826 -0.0187062 0.0180416 -0.0551227 -0.0335327 0.0233106 -0.0315121 -0.0169526 -0.046903 0.00627382 -0.0543021 0.0138664 -0.00437885
internal_weight=0 102396 138432 93211.2 45221.1 45185.3 63258 39137.8 48025.8 18203.1 29977.3 13952 11249.9 34073.9 15208 14522 1287.48 6953.26 40428.1 27018 24106.2 26240.2 5476.66 28689.8 13963.9 13016.6 7358.3 9967.67 3859.12 7204.19 5700.79 10142.3 22829.9 17827.3 7317.79 25313.1 5795.47 6593.66 4433.01 7315.78 14093.9 3803.2 3648.94 5175.23 5774.29 23637.1 5454.4 7289.27 6493.37 6108.55 2925.29 3599.68 19026.7 1476.6 2195.79 9401.94 3941.93 2519 184.023 3271.04 11197.5 7084.17 1429.9
internal_count=11725616 466853 11258763 6088916 5169847 4482143 288351 178502 1606773 1167289 3373238 758965 583748 847808 1108905 1103321 29155 583541 169898 4002558 690853 3978489 429696 3344083 375611 370571 299626 156955 55915 442572 127769 315242 118453 78578 660749 3015251 395064 459339 179183 242802 2036531 38328 65922 337380 380027 2849294 188684 660594 249320 101040 120443 212396 80125 153845 182668 53177 401436 111013 10964 59108 1653919 32546 62545
is_linear=0
shrinkage=0.05


Tree=9
num_leaves=64
num_cat=0
split_feature=13 1 1 1 20 1 1 20 20 20 3 1 20 20 4 20 10 20 20 20 9 14 1 16 1 16 1 1 10 1 2 14 10 1 14 2 3 11 13 17 4 10 16 20 8 20 8 7 16 20 1 6 13 10 4 4 1 16 4 8 3 16 13
split_gain=15024.6 72866.2 12792.6 8218.93 7316.51 2786.87 2654.76 1108.47 1066.57 760.374 708.369 453.063 420.013 410.451 407.484 342.977 316.719 296.713 287.718 255.621 217.418 215.578 206.018 200.908 259.335 183.849 182.918 181.446 146.06 137.216 132.311 188.534 116.594 116.523 114.044 112.44 114.268 108.909 107.173 103.681 92.0725 87.1866 82.3975 79.0862 76.2177 75.6644 75.1791 73.6638 73.2433 101.964 72.6695 72.3079 71.3403 70.8876 70.7869 70.0661 68.6987 69.6107 68.19 67.9861 67.1853 66.7001 66.4861
threshold=0.021511465311050419 1.0000000180025095e-35 1.0114246606826784 1.0000000180025095e-35 2.5000000000000004 3.0052118301391606 1.0476812124252322 7.5000000000000009 1.5000000000000002 14.500000000000002 581.50000000000011 0.98178574442863475 2.5000000000000004 19.500000000000004 0.28126034140586859 2.5000000000000004 1343.5000000000002 1.5000000000000002 19.500000000000004 4.5000000000000009 1.0009310841560366 0.055615037679672248 2.0001790523529057 2.5000000000000004 6.9990286827087411 5.5000000000000009 8.8742055892944354 2.9534322023391728 439.50000000000006 2.0001790523529057 891.50000000000011 0.0074696610681712636 79.500000000000014 2.0001790523529057 0.025022361427545551 9.5000000000000018 67.500000000000014 24.500000000000004 0.13910105079412463 0.062996033579111113 0.30560795962810522 295.50000000000006 8.5000000000000018 1.5000000000000002 1.0000000180025095e-35 6.5000000000000009 1.0000000180025095e-35 3.1044987440109257 7.5000000000000009 19.500000000000004 6.9990286827087411 1.0000000180025095e-35 0.063114803284406676 240.50000000000003 0.1635396629571915 0.03936747461557389 6.9990286827087411 1.5000000000000002 0.087810903787612929 1.483251214027405 112.50000000000001 46.500000000000007 0.076245158910751357
decision_type=2 2 2 2 10 2 2 10 10 10 2 2 10 10 2 10 10 10 10 10 2 2 2 2 2 2 2 2 10 2 2 2 10 2 2 2 2 8 2 2 2 10 2 10 8 10 10 2 2 10 2 8 2 10 2 2 2 2 2 10 2 2 2
left_child=3 4 9 12 8 10 37 19 -2 21 15 -11 43 17 22 27 25 46 29 44 -18 35 28 56 62 50 40 32 -8 60 45 -32 -4 -19 -16 -3 -37 -5 -29 -13 -27 -23 -14 -1 -6 -24 -12 -48 -26 -50 53 -10 -49 -7 -53 -34 57 59 -15 -22 -17 -20 -25
right_child=1 2 5 6 7 16 14 -9 51 11 13 39 42 58 34 18 20 33 61 -21 23 41 30 24 48 26 -28 38 -30 -31 31 -33 55 -35 -36 36 -38 -39 -40 -41 -42 -43 -44 -45 -46 -47 47 52 49 -51 -52 54 -54 -55 -56 -57 -58 -59 -60 -61 -62 -63 -64
leaf_value=0.061911808009212421 0.063820182085025781 -0.062365183741156308 0.00061108701572150034 -0.052759194322325245 0.067979316625685793 0.018238828329093629 -0.032154082183415408 0.017111160898499143 -0.0037371431580028856 -0.027745013670862729 0.061749774951951879 -0.018653085199513829 0.027905672257696097 -0.013992863262406946 -0.014186765706244237 -0.021069675399950995 0.046866875367427431 -0.040232589948935568 0.022266706051369128 0.02676892194900532 -0.028717589937195667 -0.037285477868352887 -0.010079976868181807 -0.016864363875609228 0.0062301353077480366 -0.0075660083248332627 0.014060960262503787 -0.00060161470422563494 -0.055079817737504755 -0.015232741662231776 -0.052264473096961632 -0.022173420303782124 -0.041842531078871613 -0.029524217350444078 0.00919662874207435 -0.041515209044039686 -0.051047300451953541 -0.061415692313922368 0.028277072392101796 0.044081504727396852 0.0059622327349100075 -0.045444126796365163 0.011159428617583851 0.038945704145003382 0.034806476568076575 -0.030931067893913096 -0.02498974512197422 -0.021398635644974771 -0.0086607025462684655 0.016983110052435395 0.02563335303579084 0.044222861890939061 -0.0012403339820751776 0.0062853831464300047 0.050721707699873289 -0.015330146891798586 0.020731047415410812 -0.0056914704365946655 0.016765107256544742 0.0070543770735900513 -0.032425802294547376 -0.0052117135483133147 -0.0041264561719240823
leaf_weight=754.01854921597987 17618.961472585564 1793.5566328421701 1213.7054444199894 6259.2037205789238 174.58910488337278 1650.4099957677536 1975.6852398142219 20967.189751073252 71.384226724505424 1608.2068224258255 28.399994008243084 82.664953947532922 1258.0496926186606 270.04560092953034 1524.0055138436146 2263.6056914831279 204.90119634289294 4947.5364625041839 407.53216550685465 16402.658813703805 138.52246510982513 5105.1834594139364 1784.8286646374036 6038.2788533994462 2378.3192749712616 4669.8600837684935 1815.7296575554647 3357.9887901265174 1071.5525892241858 3867.7724351115758 767.74598030908965 1616.6361937276088 270.79586550081149 5221.5150567003293 792.62784711737186 3835.3689144998789 17442.764980738517 8661.2841277723201 355.25901796063408 323.97956253169104 1721.3343538542977 9132.0175919919275 1765.214007220231 745.46069185808301 21055.018515725154 575.33256826840807 2736.8853248418309 929.509061812656 2906.7131473576883 447.28167012007907 754.2337657129392 11054.855999540538 831.54702447354794 4991.2173627791926 6747.5555684994906 3125.0173979254905 478.23587010614574 2307.4939708318561 541.584395007696 3228.3850081539713 3067.2596723448951 482.08722103387117 1233.7164850197732
leaf_count=4758 99700 333615 60991 951812 329 29446 157258 112370 160 45958 182 3039 6849 3645 57891 136907 1547 476794 3862 73953 3595 537644 78553 217568 50856 113814 18287 140850 146138 174547 78213 91192 47547 377271 18715 496974 2409818 1450596 9030 2130 23638 1142727 8527 3551 85823 27364 240912 101003 75138 2109 10572 52724 69038 124005 17771 212659 9753 73567 4094 136442 239453 5431 34527
internal_value=0 0.00499498 -0.0229875 -0.033172 0.037175 -0.00999795 -0.044381 0.026324 0.0550902 -0.0457412 -0.0202091 -0.0158226 0.0288587 -0.0280824 -0.0245971 -0.0135776 -9.24996e-05 -0.0299941 -0.0197761 0.0314571 -0.00436439 -0.0473569 -0.0300709 -0.00491236 -0.00843438 0.00520859 5.62572e-05 -0.00606416 -0.0402159 -0.0224021 -0.0235552 -0.0318624 -0.0126903 -0.0347341 -0.00618622 -0.0503425 -0.0493291 -0.0577843 0.00216131 0.0313285 -0.00392246 -0.0425186 0.0181279 0.0504943 0.0350793 -0.0151628 -0.019345 -0.019857 -0.000481602 -0.0052409 0.0109259 0.0464847 -0.0118802 0.00925575 0.0466861 -0.0174444 0.00253184 0.000998022 0.00653131 0.00558263 -0.0276037 0.00737607 -0.0147033
internal_weight=0 202299 108206 29551.6 94092.2 68882.7 25028.9 58599.5 35492.8 39323.7 33918 2014.85 4522.74 15507 10108.4 18411 34964.6 14695.4 10088.3 37632.3 19361.8 37308.9 7791.78 19156.9 13004.3 15602.8 8206.92 8322.77 3047.24 9198.64 4744.54 2384.38 4609.52 10169.1 2316.63 23071.7 21278.1 14920.5 3713.25 406.645 6391.19 14237.2 3023.26 1499.48 21229.6 2360.16 4526.34 4497.94 5732.31 3353.99 7395.86 17873.8 1761.06 6641.63 17802.4 3395.81 6152.64 5674.4 811.63 3366.91 5330.87 889.619 7272
internal_count=11725232 8643815 8200985 3081417 442830 3229080 3057732 272475 170355 4971905 2304216 51127 23685 1272939 655324 1031277 924864 1265200 560200 160105 605102 4920778 578718 603555 380198 319762 155739 471077 303396 550907 275322 169405 321197 854065 76606 3240407 2906792 2402408 149880 5169 137452 1680371 15376 8309 86152 105917 411135 410953 128103 77247 164023 70655 170041 153451 70495 260206 223357 213604 7739 140037 376360 9293 252095
is_linear=0
shrinkage=0.05


Tree=10
num_leaves=64
num_cat=0
split_feature=1 1 20 1 20 20 2 16 20 13 4 1 20 20 20 16 1 13 20 4 20 1 13 2 14 4 16 1 16 13 14 1 0 14 4 3 13 4 4 20 4 4 21 9 1 2 1 9 1 3 13 11 4 4 11 16 20 1 1 16 16 4 0
split_gain=80330.1 15931.4 7475.13 2816.52 1255.3 801.609 676.423 634.825 526.709 494.832 428.493 401.582 377.399 315.662 314.409 305.918 274.416 237.657 210.899 209.831 190.366 181.564 172.86 156.091 138.272 132.459 129.859 126.433 201.98 125.74 125.256 112.328 111.43 110.793 106.356 105.761 102.067 101.109 100.353 93.7731 91.4131 89.2873 88.4831 85.7584 83.6502 83.5272 82.4322 81.7378 76.4398 73.8316 97.1304 73.5268 73.2252 69.0498 67.2289 64.0183 63.4083 62.5102 61.6057 61.4896 60.7965 60.9567 60.3039
threshold=1.0000000180025095e-35 1.0270119309425356 2.5000000000000004 3.0052118301391606 6.5000000000000009 14.500000000000002 982.50000000000011 1.5000000000000002 1.5000000000000002 0.026630224660038952 0.15262392908334735 0.99343496561050426 1.5000000000000002 19.500000000000004 19.500000000000004 3.5000000000000004 2.0001790523529057 0.032261107116937644 3.5000000000000004 0.027567461133003238 4.5000000000000009 9.0094947814941424 0.074778534471988692 3780.5000000000005 0.050555624067783363 0.15262392908334735 10.500000000000002 9.2536640167236346 3.5000000000000004 0.10449533909559251 0.053859103471040733 1.0003044605255129 623534.00000000012 0.018903659656643871 0.21205002814531329 268.50000000000006 0.011498141102492811 0.12618148326873782 0.16672531515359881 9.5000000000000018 0.036276914179325111 0.076042897999286665 3.5000000000000004 1.0002552866935732 2.9534322023391728 237.50000000000003 2.0001790523529057 1.0011057257652285 6.9990286827087411 15.500000000000002 0.20037879049777987 215.50000000000003 0.058924719691276557 0.1318243741989136 6146.5000000000009 6.5000000000000009 19.500000000000004 2.9534322023391728 0.81761136651039135 2.5000000000000004 6.5000000000000009 0.11231816932559015 251493.00000000003
decision_type=2 2 10 2 10 10 2 2 8 2 2 2 8 10 8 2 2 2 10 2 10 2 2 2 2 2 2 2 2 2 2 2 2 2 2 2 2 2 2 10 2 2 10 2 2 2 2 2 2 2 2 10 2 2 10 2 10 2 2 2 2 2 2
left_child=2 5 7 6 20 9 12 -1 -9 38 17 51 25 16 15 24 29 36 30 -11 -4 23 32 -20 44 -3 53 28 -19 37 45 42 59 -17 -34 -30 -5 -14 -2 -6 -41 -10 -13 -32 -8 -12 -35 -47 -49 -24 62 58 -22 -18 -26 -39 -29 -27 -7 -21 -38 -62 -51
right_child=1 3 4 10 39 11 14 8 41 19 18 31 13 -15 -16 33 26 27 21 22 52 -23 49 -25 54 57 -28 56 35 -31 43 -33 34 46 -36 -37 60 55 -40 40 -42 -43 -44 -45 -46 47 -48 48 -50 50 -52 -53 -54 -55 -56 -57 -58 -59 -60 -61 61 -63 -64
leaf_value=0.063306232676973773 -0.058405213968276075 -0.011737399951048819 0.033214497050472684 -0.038365094789573326 0.019340456364524868 -0.040816597135031357 -0.037024737831085661 0.060864703220713245 0.038046733200401014 -0.056352806321201987 0.020702732353356623 -0.0029316293061308306 -0.035328930826439391 0.0098566922253351397 0.0013204618381060381 -0.051633734802008613 -0.016440244282790492 0.00093170852773543386 -0.0019836499384879003 -0.045938119723614612 0.016800031730410656 0.011853840898876165 -0.049620729107727107 -0.0209194541310565 -0.016490144280205309 -0.0036407268721559347 -0.024095072482019031 0.0025883826270238896 0.0017672572706164279 -0.011593897456058109 0.049313793333554685 -0.033296079180918474 -0.045863573340365171 -0.040157606181981394 -0.035369260552793082 -0.014265635424400503 -0.0092688673670624066 -0.018412027680908886 -0.049816471170878618 -4.74943778891466e-05 0.014475400467930078 0.046228570962387749 0.055160895788710584 0.013157559029229618 -0.022321892410889391 -0.063421069483552722 -0.029402817101851393 -0.001413166308660838 0.017053011540519181 -0.047880806122803987 -0.017011044691464573 -0.00646274588198261 0.027158612536140794 -0.0037031066913322227 0.055483688923804286 -0.030124128997674568 0.023870292494945936 0.011041952799200325 -0.018656263776583082 -0.054476625056806331 -0.031385918119518651 -0.0081439356283906257 -0.035146230028662247
leaf_weight=10589.337815826293 11567.737013265141 3078.3692291199695 21710.980417142157 547.15336050884798 11478.048947591335 875.45734179206192 1869.6213231778238 6443.7952953651547 4454.9063968937844 3767.4148256662302 593.50521281594411 89.50234292447567 3297.1713765528984 887.9323630889412 836.25547553133219 1091.6125592286699 1676.615441133501 5848.2101925553288 5706.911630044051 3866.3108187436592 2038.013494098559 1890.6448212012183 1084.4590407731012 1344.7510877494933 3603.9831300100777 1571.5974577285815 1834.7074878267013 1392.4726686708163 1239.1208890390117 1254.6987461877288 169.95969041902572 62.738948289770633 9538.9905639822828 3405.3196523648221 3232.4289083371405 6053.778999074013 1879.3224637701642 2489.822999654687 4817.4055419167271 1173.757451270707 14096.004018999636 13258.164835305884 244.91230704076588 4678.8942876132205 2004.6698669134639 49.131634050514549 3736.8432697021635 3629.2584115779027 662.74672793946229 1139.6597145325504 638.60526276985183 326.48915170854889 10475.098505121656 2912.2911113247974 32.739656835561618 2195.6159071462462 467.50438867323101 1345.5338640371338 488.69218032434583 4637.7598774519283 828.89617089182138 427.6571819037199 5044.7249501303304
leaf_count=83628 2140236 273167 90762 46749 55450 28559 262887 20823 30523 872851 8652 3110 318048 9257 8619 117615 103738 240621 112844 673682 18080 21917 145086 42411 312726 85179 88718 34166 28394 71465 740 1407 1318984 301917 303049 226112 88092 142669 624199 16068 68328 43577 1159 71091 195818 1885 253343 81878 8464 138344 55690 7860 38900 93907 452 134484 1894 39625 14033 496633 36495 12940 554567
internal_value=0 -0.0259712 0.0345891 -0.0115098 0.024041 -0.0474947 -0.0208888 0.0530985 0.0486239 -0.048779 -0.00170062 -0.0171483 -0.0152507 -0.0191445 -0.0285547 -0.0301415 -0.0207888 -0.00705775 0.00364459 -0.0452478 0.0303835 -0.00190561 -0.0438142 -0.00559471 -0.0228443 -0.00450279 -0.0128519 -0.0042636 -0.00599054 -0.0263081 0.00871759 0.0280955 -0.0461602 -0.0367981 -0.0432075 -0.0115415 -0.0184384 -0.0286209 -0.05588 0.0159258 0.0133591 0.0441708 0.0396131 0.0144249 -0.0294171 0.0031095 -0.0345306 0.000704217 0.00143827 -0.0375021 -0.0355759 -0.0277767 0.0254715 -0.00835678 -0.0158422 -0.0239004 0.00793758 0.00313169 -0.0328779 -0.0505947 -0.0149616 -0.0234757 -0.037493
internal_weight=0 127959 95718.1 76535.3 60971.9 51423.3 39125.4 34746.2 24156.9 49335.5 37409.9 2087.79 22544.4 16548.9 16581 15744.8 15660.9 18684.1 18725.8 32950.4 34224.1 8942.31 29182.9 7051.66 7511.01 5995.5 6423.61 15001.1 13141.1 9237.31 9783.5 397.154 21275.5 8233.78 12771.4 7292.9 3683.03 7982.61 16385.1 26747.8 15269.8 17713.1 334.415 4848.85 3874.29 4934.64 7142.16 4341.14 4292.01 7907.45 6822.99 1690.64 12513.1 4588.91 3636.72 4685.44 1859.98 2917.13 1364.15 8504.07 3135.88 1256.55 6184.38
internal_count=11724567 11258428 466139 3878979 287588 7379449 2813634 178551 94923 7323321 1065345 56128 1360257 962286 1453377 1444758 953029 715463 349882 4558886 147742 177172 3686035 155255 771883 397971 286363 531187 495127 666666 172710 5676 2792348 672875 1622033 254506 184276 595201 2764435 139846 84396 74100 4269 71831 458705 100879 555260 92227 90342 893687 748601 50452 56980 197645 313178 277153 36060 124804 42592 1170315 137527 49435 692911
is_linear=0
shrinkage=0.05


Tree=11
num_leaves=64
num_cat=0
split_feature=1 1 16 1 16 16 3 16 14 4 14 16 2 16 13 13 1 16 3 16 13 3 1 16 1 11 16 1 0 4 1 13 9 16 3 19 3 14 4 1 16 13 4 0 16 3 1 16 1 4 13 4 13 9 13 14 1 16 6 14 17 4 16
split_gain=72952.1 14741.9 5851.98 2741.33 967.017 783.672 694.518 561.012 460.515 393.801 319.62 274.469 260.207 259.573 240.746 195.364 193.067 183.024 172.481 162.903 142.332 139.994 135.446 133.099 156.971 130.948 126.972 126.944 125.445 118.796 115.191 114.664 114.44 112.868 109.637 99.4454 99.2842 98.5416 95.731 94.573 133.471 86.4442 85.4162 83.4223 81.2395 80.6921 79.9432 79.2557 80.2568 75.1137 74.9304 71.128 68.7104 68.53 67.9053 67.8652 109.056 66.3653 64.3255 77.8517 64.0388 63.8758 62.7084
threshold=1.0000000180025095e-35 1.0114246606826784 4.5000000000000009 3.0052118301391606 1.5000000000000002 12.500000000000002 285.50000000000006 24.500000000000004 0.050872828811407096 0.2096856236457825 0.043305672705173499 4.5000000000000009 9.5000000000000018 2.5000000000000004 0.070424437522888197 0.0065040821209549913 0.94175156950950634 5.5000000000000009 120.50000000000001 7.5000000000000009 0.0081326249055564421 1001.5000000000001 2.9534322023391728 1.5000000000000002 1.2752488255500796 660.50000000000011 1.5000000000000002 2.0001790523529057 264290.00000000006 0.14288088679313662 8.8742055892944354 0.010874113067984583 1.00143438577652 33.500000000000007 70.500000000000014 1.0030303001403811 1487.5000000000002 0.25143678486347204 0.073838539421558394 6.9990286827087411 4.5000000000000009 0.67048346996307384 0.16843000054359439 602693.00000000012 2.5000000000000004 139.50000000000003 2.0001790523529057 2.5000000000000004 10.001296043395998 0.08928988873958589 0.067857868969440474 0.020358084701001648 0.015529191587120296 1.0011704564094546 0.055972972884774215 0.027430444024503235 9.0094947814941424 6.5000000000000009 1.0000000180025095e-35 0.093369964510202422 0.32529069483280187 0.064107902348041548 30.500000000000004
decision_type=2 2 2 2 2 2 2 2 2 2 2 2 2 2 2 2 2 2 2 2 2 2 2 2 2 10 2 2 2 2 2 2 2 2 2 2 2 2 2 2 2 2 2 2 2 2 2 2 2 2 2 2 2 2 2 2 2 2 10 2 2 2 2
left_child=2 7 4 6 -1 19 11 8 12 14 15 22 -2 -6 20 -8 -9 58 52 38 45 39 49 -12 -25 -7 -17 -26 -10 54 -19 -20 35 36 -30 -23 46 -27 -4 40 -22 -40 60 -31 -34 -5 -28 -16 -49 -3 51 -21 -14 -53 -13 -46 57 -57 -11 -60 -15 -36 -18
right_child=1 3 5 9 13 25 10 16 28 17 23 29 18 42 47 26 62 30 31 50 21 32 -24 24 27 37 33 -29 34 43 -32 -33 44 -35 61 -37 -38 -39 41 -41 -42 -43 -44 -45 55 -47 -48 48 -50 -51 -52 53 -54 -55 -56 56 -58 -59 59 -61 -62 -63 -64
leaf_value=0.061949803871270928 -0.060934862323425945 -0.021841367015275778 0.024411935477320883 -0.0057652291513823548 0.049693083695583368 0.014266064779925548 -0.064502119427570989 -0.031190034332132251 -0.050019554687476923 -0.026437937739153195 -0.010812718540627356 -0.032875859399310807 -0.049043721026256669 0.035304456243457218 0.013223541049370187 -0.019333358991687456 -0.025884435252272815 -0.0043883561418429909 -0.06280536678459947 -0.0069732493540592792 0.0028816537618490644 -0.0064299239961270495 0.0011460231490623256 0.01000286307701849 -0.030871354477322241 0.023772467644594255 -0.037866453708858668 -0.019309623162077894 -0.026275005788323688 -0.023184039906466242 0.011327335983268532 -0.050417254411229108 -0.0031639382210244928 -0.0085780601997532471 -0.047832880649570649 -0.048997057884207273 -0.043272409694518517 0.06455653838727822 0.032769358568037386 0.0088014338422113241 -0.013111487608150868 0.059750946572905111 0.044489107152052669 -0.0093011741987611817 -0.023374525187618459 -0.049137233783541907 -0.023671284039913115 -0.0028399286491462149 0.017774995086081692 -0.0080903099901567226 0.02819854754949765 -0.0019323532304824651 -0.040058889880144888 0.022807236071788035 -0.018413217897636985 -0.007988825651908428 0.003210854430225655 -0.019804534015959691 0.0094284620719623791 0.023405338811925538 0.04481530447057086 -0.038135040888046978 0.011178108166480356
leaf_weight=9815.5284265512601 5539.7640449327882 1355.5600121757016 3843.2814055955969 160.40502932062373 11213.863571872935 19456.355029674713 480.89593005902134 1335.4603301507886 2770.1820122922072 110.04686637409031 2465.0061687887646 1914.0005919558462 3407.7442658350337 8698.5278118364513 1611.9458080879413 1664.4900805326179 149.6505760718137 4713.1467638007598 2133.0189340466168 216.72576891258359 2660.6169148413464 224.61906661116518 3387.5583248187322 331.72925710491836 4664.7465731406119 2410.3537953384221 2063.6712897069519 4834.8975614532246 1656.8314150415827 1705.0454248603201 1549.252973632887 15029.594285831903 3368.7905416782014 392.44605553336442 2135.3339384177234 352.57421358232386 2850.8768794657663 157.80451292917132 12492.22714247182 1640.9198107935954 2559.5079648037208 304.07844253629446 6470.7426398983225 2961.7184476327384 1210.0452402927913 323.54494141926989 1909.6486084470525 3366.776002537692 549.13158022484276 3713.8907197243534 6978.5696849552915 289.20281558670104 5665.4987999679288 8721.9026973103173 1409.145719205495 2432.8733236379921 1181.7844578369986 2323.2424174291082 5181.7885341777001 1233.4470808913466 2221.9926784224808 8289.6158588281833 480.81587278656662
leaf_count=83667 1189613 151783 28479 6119 59172 92858 73856 43197 391552 2677 252636 134526 561844 53610 53714 248842 7645 88510 414971 3629 98276 9597 138819 2775 391093 8431 209490 293292 177526 80397 17166 2403963 155455 8004 419553 22397 285118 334 42781 31715 86457 836 19012 123627 55482 35083 127368 89990 7532 218924 29106 1339 800810 37461 75887 84674 26383 93105 87077 14945 5970 954312 10119
internal_value=0 -0.0251428 0.0334428 -0.0112222 0.0484082 0.022964 -0.0206192 -0.046588 -0.0476912 -0.00147981 -0.0265015 -0.0128729 -0.0510883 0.0437616 -0.00526027 -0.0334626 -0.020424 0.00560556 -0.0490092 0.027857 -0.00800408 -0.00728287 -0.00659472 -0.0212015 -0.0238063 0.0156668 -0.0317818 -0.0249869 -0.040423 -0.0195182 -0.000500456 -0.0519569 -0.0107549 -0.034653 -0.0382226 -0.0324317 -0.0361525 0.0262785 0.0313321 -0.00166877 -0.00496003 0.0334105 0.0399369 -0.0143734 -0.00956522 -0.0347616 -0.031044 0.00389211 5.09224e-05 -0.0117673 0.024289 0.0213325 -0.0434334 0.0220132 -0.0267431 -0.0125821 -0.0103828 -0.0137605 0.0114656 0.0121158 0.0372396 -0.0401214 0.00238076
internal_weight=0 123453 93291.2 74859.8 38420.7 54870.5 38105.3 48593.5 46627.6 36754.5 21658.4 16446.9 31775.6 28605.1 23966.8 9362.03 1965.93 12787.7 26235.9 32846 18438.9 17955 8457.01 12296.4 9831.37 22024.5 8881.13 9499.64 14852 7989.91 6262.4 17162.6 11093.9 7216.64 12081.8 577.193 6824.2 2568.16 16639.6 6861.04 5220.12 12796.3 17391.3 4666.76 10516.7 483.95 3973.32 5527.85 3915.91 5069.45 16206.4 9227.83 9073.24 9011.11 3323.15 7147.95 5937.9 4756.12 6525.28 6415.24 10920.5 10424.9 630.466
internal_count=11724581 11257896 466685 3882791 221431 245254 2816437 7375105 7314144 1066354 1892474 923963 5371201 137764 855979 952678 60961 210375 4181588 143631 704743 663541 509526 939796 687160 101623 878822 684385 1942943 414437 105676 2818934 447093 629980 1551391 31994 621976 8765 72096 216448 184733 43617 78592 204024 415099 41202 336858 151236 97522 370707 71535 42429 1362654 38800 210413 259644 204162 177779 104699 102022 59580 1373865 17764
is_linear=0
shrinkage=0.05


Tree=12
num_leaves=64
num_cat=0
split_feature=1 1 20 1 16 10 16 13 20 20 20 16 4 13 20 14 3 20 4 13 1 9 1 20 13 10 9 1 1 1 16 16 16 14 2 4 1 20 3 20 20 13 0 14 4 4 7 3 0 3 5 4 13 1 16 19 4 20 10 13 16 16 3
split_gain=64591.3 13309.9 6203.14 2605.54 839.774 589.432 572.997 543.71 468.056 418.875 446.6 389.892 380.544 284.144 224.237 216.628 211.399 195.258 161.41 203.488 141.634 131.834 128.607 154.583 124.248 127.048 123.261 121.796 118.226 114.335 158.358 113.46 101.39 101.308 109.099 101.079 99.2717 98.4809 97.0604 95.2179 94.9484 87.87 83.1701 79.6384 76.968 76.6673 73.5132 65.5126 65.1639 64.913 64.7141 62.5884 60.8267 60.7063 83.179 60.6117 59.8688 58.9788 58.5739 72.7428 57.919 57.558 57.4807
threshold=1.0000000180025095e-35 1.0476812124252322 2.5000000000000004 3.0052118301391606 10.500000000000002 200.50000000000003 1.5000000000000002 0.017838940024375919 1.5000000000000002 19.500000000000004 1.5000000000000002 25.500000000000004 0.33345660567283636 0.059652827680110938 1.5000000000000002 0.052652267739176757 3122.5000000000005 3.5000000000000004 0.027567461133003238 0.064453363418579115 2.0001790523529057 1.0014517903327944 0.96303191781044017 19.500000000000004 0.011498141102492811 2047.5000000000002 1.0000638365745547 2.9534322023391728 2.0001790523529057 6.9990286827087411 8.5000000000000018 4.5000000000000009 15.500000000000002 0.085249297320842757 28184.500000000004 0.065630190074443831 1.0604425072669985 1.5000000000000002 262.50000000000006 19.500000000000004 6.5000000000000009 0.04161485098302365 258344.50000000003 0.20042735338211062 0.22893151640892032 0.066374424844980254 1.0007861852645876 820.50000000000011 638766.00000000012 146.50000000000003 14.349967956542971 0.024004175327718261 0.15577469021081927 12.866391658782961 6.5000000000000009 2.006172895431519 0.038469852879643447 1.5000000000000002 7.5000000000000009 0.12511775642633441 7.5000000000000009 9.5000000000000018 123.50000000000001
decision_type=2 2 10 2 2 10 2 2 8 10 8 2 2 2 10 2 2 10 2 2 2 2 2 10 2 10 2 2 2 2 2 2 2 2 2 2 2 10 2 10 10 2 2 2 2 2 2 2 2 2 2 2 2 2 2 2 2 10 10 2 2 2 2
left_child=2 7 6 5 17 14 -1 45 -8 10 27 18 13 16 44 24 29 -4 -9 38 -17 55 56 -24 -12 60 -15 43 36 30 57 -23 40 -34 -35 -28 -16 -14 48 -33 -6 -38 -21 -7 -3 -2 -10 -29 -20 -47 -49 52 -48 54 62 -18 -13 -5 -44 -60 -26 -22 -37
right_child=1 3 4 12 32 9 8 11 46 -11 15 22 37 26 28 20 21 -19 19 42 61 31 23 -25 25 -27 35 47 -30 -31 -32 39 33 34 -36 53 41 -39 -40 -41 -42 -43 58 -45 -46 49 51 50 -50 -51 -52 -53 -54 -55 -56 -57 -58 -59 59 -61 -62 -63 -64
leaf_value=0.060666851764846541 -0.059394948320200369 -0.0046440207482832561 0.033043300168448461 0.0035644504857321535 0.026923203516144856 -0.023473352237562591 0.058077245424263159 -0.053316374276321354 0.067555305340971622 0.0059111054060696083 -0.053701336299495861 -0.054860320050881317 0.023710764103124615 0.04572962053972919 0.043628099038373003 -0.030374890391609555 -0.022375955968717543 0.024915565603792399 -0.045985576866441134 -0.045885701960134181 -0.012624885627204789 -0.0049729058323268755 -0.047259414316720608 0.012219175258672858 -0.02442198455118582 -0.040721338848472802 -0.0088753213283672382 -0.0023297366198816601 -0.006345062668158926 0.0042455300029473697 -0.016372617480442605 -0.021944922639963088 0.010432597261150457 0.017825832738603251 0.064571971918931062 0.025912296114810725 -0.027042326956522603 0.0074503023902330731 -0.047570534775154799 0.017221437275168665 0.016568385831367018 -0.013970532047593963 -0.054077456649134492 0.015448965233016827 0.012377676211656339 -0.04681446206249168 0.019290502786971753 -0.037147391177136953 -0.036397191556833589 -0.057557384607714882 -0.011603540782576478 0.041788526782376552 0.04511464055996256 0.021678389770514617 -0.002685882981351511 -0.052009548193485071 -0.024593806702653889 -0.0056718673183833558 -0.035836520879249593 -0.024418658939601063 -0.034582398949027225 -0.025940728557011572 0.006023639778442458
leaf_weight=8943.8189094765112 5000.6978639919544 1795.8503987607546 11479.309597278479 2677.1818985338323 3095.2422597575933 3345.4112107737456 5668.2030165856704 3611.1024266632739 264.91694721207023 1102.0863372660242 794.01562442642171 191.92639842396602 1213.5268194708042 167.58454698696733 62.359776470810175 3787.4727802469861 406.30654830974527 20740.121447048848 3023.6795536123682 1800.2696701636305 2637.9944264802616 2788.6687887136359 141.61560177523643 477.81948397774249 3427.3338542501442 3427.6797595097451 1646.0158133613877 1870.0930906001013 2787.1269747312181 3556.9921658446547 2771.0387716476107 2452.2628393560881 10560.872738452163 5016.9176104990765 128.00033086165786 392.94375037029386 2331.64932598616 4001.9266887244303 12991.831939790631 165.66186336206738 7774.1863247919828 2865.6722711614566 346.74366660253145 136.79501400375739 1053.8288524097297 3620.962140728021 621.53779467009008 291.78535598353483 4280.4394143093377 2298.8486368433805 1650.5090549364686 15292.111678867135 360.15669198241085 492.14824277930893 3233.2376221513841 299.93519284320064 1098.7449867837131 4876.8393829058623 5741.9902752764756 1842.5951712869573 2374.2690864027245 1172.122680754168 4813.6004963140003
leaf_count=83354 1195749 124499 50605 103822 9607 410206 20823 948232 588 11082 96358 9836 14758 806 314 341589 19532 112340 442370 250290 162468 114391 7642 6045 291882 357500 76987 111430 102508 77545 100823 95344 53577 19383 279 7238 161218 53883 1957667 983 41805 159942 57326 8250 36302 589845 8025 27124 570387 387777 149273 63074 2569 6093 72317 22573 32554 173862 733403 190226 186616 74981 125314
internal_value=0 -0.0241686 0.031942 -0.0108341 0.0223843 -0.0201652 0.0499814 -0.0450787 0.0456778 -0.0242541 -0.0255884 -0.0420811 -0.00125432 -0.00337307 -0.0104023 -0.0298954 -0.00689709 0.0278114 -0.0433289 -0.0421278 -0.0235277 -0.0146447 -0.0201065 -0.00137885 -0.0347221 -0.0330892 0.0031843 -0.0151842 -0.0146707 -0.0034855 -0.00614885 -0.0119908 0.0158047 0.0132355 0.0189888 0.00251026 -0.0190824 0.0112338 -0.0449779 -0.0194665 0.0195171 -0.0198349 -0.0361836 -0.0219443 0.00165071 -0.0548368 0.0414282 -0.00900948 -0.0403665 -0.0509863 -0.0154409 0.0410029 0.0287647 0.00460845 0.00361305 -0.0349611 -0.0290945 -0.00239847 -0.0339814 -0.0330627 -0.0285801 -0.0167213 0.00752466
internal_weight=0 119339 89945.4 72869.9 58794.7 36914.1 31150.7 46469.3 22206.9 26017.6 24915.5 35548.8 35955.9 30740.4 10896.5 17620.9 19994.9 32219.4 33638.7 30027.5 7597.59 6112.84 1910.11 619.435 10023.3 9229.28 10745.5 7294.59 8046.81 13882.1 10325.1 5406.59 26575.2 15705.8 5144.92 10577.9 5259.68 5215.45 20296 2617.92 10869.4 5197.32 9731.6 3482.21 2849.68 10920.5 16538.7 3812.39 7304.12 5919.81 1942.29 16273.8 981.694 8931.93 8439.78 706.242 1290.67 7554.02 7931.33 7584.59 5801.6 3810.12 5206.54
internal_count=11725191 11259162 466029 3879813 287596 2813542 178433 7379349 95079 2228759 2217677 5205978 1066271 997630 584783 1511394 708875 162945 5149901 4201669 579038 252823 56077 13687 932356 835998 288755 706283 423982 456052 378507 210718 124651 73239 19662 287949 321474 68641 2970424 96327 51412 321160 1231245 418456 160801 2173371 74256 287827 1012757 977622 176397 73668 10594 210962 204869 42105 42390 277684 980955 923629 478498 237449 132552
is_linear=0
shrinkage=0.05


Tree=13
num_leaves=64
num_cat=0
split_feature=1 20 14 1 1 1 20 20 1 3 20 3 4 1 20 10 1 11 16 20 3 16 20 1 20 9 19 17 4 20 1 16 9 14 14 3 3 16 16 20 10 9 19 3 4 4 1 16 10 20 16 4 21 10 0 1 20 20 21 9 20 3 9
split_gain=58072.7 5941.83 3101.89 6939.3 3366.7 1028.06 971.866 925.259 544.994 426.467 353.83 335.398 316.98 308.825 278.583 303.98 274.183 252.227 198.141 212.444 163.393 157.202 147.867 141.753 136.171 136.142 139.458 125.501 120.289 118.534 126.564 111.601 109.993 103.601 102.632 101.246 97.6825 92.4347 88.6108 88.244 85.9821 85.6673 81.4599 79.2814 78.9165 77.5484 74.8245 77.6511 82.7219 73.8352 71.4206 70.6471 68.6448 65.4643 64.3855 62.4739 61.9955 70.4776 61.3459 59.1022 58.8863 58.7679 57.9206
threshold=1.0000000180025095e-35 2.5000000000000004 0.02001177798956633 2.0001790523529057 1.0476812124252322 1.0270119309425356 5.5000000000000009 1.5000000000000002 3.0052118301391606 139.50000000000003 17.500000000000004 658.50000000000011 0.2530688345432282 3.0052118301391606 18.500000000000004 206.50000000000003 2.0001790523529057 57.500000000000007 4.5000000000000009 19.500000000000004 82.500000000000014 5.5000000000000009 8.5000000000000018 5.974663734436036 5.5000000000000009 1.0012908577919009 1.0030303001403811 0.15016340464353564 0.076943926513195052 16.500000000000004 0.90416994690895092 3.5000000000000004 1.0012686848640444 0.14716711640357974 0.20042735338211062 135.50000000000003 2022.5000000000002 2.5000000000000004 11.500000000000002 19.500000000000004 2457.5000000000005 1.0009787678718569 1.0030303001403811 2482.5000000000005 0.077849894762039198 0.15696810185909274 6.9990286827087411 1.5000000000000002 1316.5000000000002 3.5000000000000004 2.5000000000000004 0.10757881402969362 1.5000000000000002 114.50000000000001 483464.00000000006 11.706452369689943 1.5000000000000002 18.500000000000004 3.5000000000000004 1.0013844370841982 19.500000000000004 1362.5000000000002 1.0010932087898257
decision_type=2 10 2 2 2 2 10 10 2 2 8 2 2 2 10 8 2 8 2 10 2 2 10 2 10 2 2 2 2 10 2 2 2 2 2 2 2 2 2 8 10 2 2 2 2 2 2 2 10 10 2 2 10 10 2 2 8 10 10 2 10 2 2
left_child=1 7 4 5 17 10 28 52 11 16 20 21 18 32 15 -7 56 29 33 23 -4 53 45 -20 34 26 62 -21 -3 35 -31 -13 42 46 61 41 -25 -22 -14 -33 50 -2 -11 -27 -16 -8 47 -10 -49 -30 -34 -24 -1 -5 -43 -38 -6 -58 -53 -29 -23 -17 -15
right_child=2 6 3 8 9 14 22 -9 12 13 -12 31 38 25 44 24 -18 -19 19 27 37 60 51 36 -26 43 -28 59 49 30 -32 39 40 -35 -36 -37 55 -39 -40 -41 -42 54 -44 -45 -46 -47 -48 48 -50 -51 -52 58 -54 -55 -56 -57 57 -59 -60 -61 -62 -63 -64
